{"learner":{"attributes":{"best_iteration":"66","best_score":"0.00034206281333752"},"feature_names":["f0","f1","f2","f3","f4"],"feature_types":[],"gradient_booster":{"model":{"gbtree_model_param":{"num_parallel_tree":"1","num_trees":"77"},"iteration_indptr":[0,1,2,3,4,5,6,7,8,9,10,11,12,13,14,15,16,17,18,19,20,21,22,23,24,25,26,27,28,29,30,31,32,33,34,35,36,37,38,39,40,41,42,43,44,45,46,47,48,49,50,51,52,53,54,55,56,57,58,59,60,61,62,63,64,65,66,67,68,69,70,71,72,73,74,75,76,77],"tree_info":[0,0,0,0,0,0,0,0,0,0,0,0,0,0,0,0,0,0,0,0,0,0,0,0,0,0,0,0,0,0,0,0,0,0,0,0,0,0,0,0,0,0,0,0,0,0,0,0,0,0,0,0,0,0,0,0,0,0,0,0,0,0,0,0,0,0,0,0,0,0,0,0,0,0,0,0,0],"trees":[{"base_weights":[-0E0,6.570583E-3,-1.9783766E-3,5.271932E-3,1.2361937E-3,-5.9785093E-3,-1.1039199E-3,3.793446E-4,6.490351E-4,-8.531863E-4,-4.28759E-4,-2.1145698E-3,-2.5308802E-4,-2.5735426E-4,-1.4451126E-4,-6.542159E-5,1.8464783E-5],"categories":[],"categories_nodes":[],"categories_segments":[],"categories_sizes":[],"default_left":[0,0,0,0,0,0,0,0,0,0,0,0,0,0,0,0,0],"id":0,"left_children":[1,3,5,7,-1,9,11,-1,-1,-1,-1,13,15,-1,-1,-1,-1],"loss_changes":[1.3116081E-2,1.416875E-3,2.6253308E-3,1.8958794E-4,0E0,3.6969362E-4,5.2660686E-4,0E0,0E0,0E0,0E0,3.8853963E-5,6.759481E-5,0E0,0E0,0E0,0E0],"parents":[2147483647,0,0,1,1,2,2,3,3,5,5,6,6,11,11,12,12],"right_children":[2,4,6,8,-1,10,12,-1,-1,-1,-1,14,16,-1,-1,-1,-1],"split_conditions":[-1.3848032E-1,1.9073986E0,-7.70951E-1,1.130634E0,1.2361937E-3,-1.3985723E0,-2.5479725E-1,3.793446E-4,6.490351E-4,-8.531863E-4,-4.28759E-4,-4.3749952E-1,-5.0817426E-2,-2.5735426E-4,-1.4451126E-4,-6.542159E-5,1.8464783E-5],"split_indices":[1,0,0,0,0,0,0,0,0,0,0,0,0,0,0,0,0],"split_type":[0,0,0,0,0,0,0,0,0,0,0,0,0,0,0,0,0],"sum_hessian":[1.004E3,2.31E2,7.73E2,1.94E2,3.7E1,1.34E2,6.39E2,9.6E1,9.8E1,4.7E1,8.7E1,2.85E2,3.54E2,1.56E2,1.29E2,1.96E2,1.58E2],"tree_param":{"num_deleted":"0","num_feature":"5","num_nodes":"17","size_leaf_vector":"1"}},{"base_weights":[-0E0,-1.7802623E-3,5.9805117E-3,-5.6996155E-3,-1.0422294E-3,4.850428E-3,1.159658E-3,-8.029616E-4,-4.1682608E-4,-2.1064242E-3,-3.0239267E-4,3.5910172E-4,6.0884823E-4,-2.549994E-4,-1.53327E-4,-7.334309E-5,1.2763126E-5],"categories":[],"categories_nodes":[],"categories_segments":[],"categories_sizes":[],"default_left":[0,0,0,0,0,0,0,0,0,0,0,0,0,0,0,0,0],"id":1,"left_children":[1,3,5,7,9,11,-1,-1,-1,13,15,-1,-1,-1,-1,-1,-1],"loss_changes":[1.0744106E-2,2.166736E-3,1.1641532E-3,2.2429833E-4,4.935639E-4,1.580501E-4,0E0,0E0,0E0,1.6637612E-5,7.997133E-5,0E0,0E0,0E0,0E0,0E0,0E0],"parents":[2147483647,0,0,1,1,2,2,3,3,4,4,5,5,9,9,10,10],"right_children":[2,4,6,8,10,12,-1,-1,-1,14,16,-1,-1,-1,-1,-1,-1],"split_conditions":[5.471458E-1,-8.2982135E-1,2.0271046E0,-1.5131058E0,-2.9434842E-1,1.1990805E0,1.159658E-3,-8.029616E-4,-4.1682608E-4,-4.977108E-1,-8.130503E-2,3.5910172E-4,6.0884823E-4,-2.549994E-4,-1.53327E-4,-7.334309E-5,1.2763126E-5],"split_indices":[0,0,0,0,0,0,0,0,0,0,0,0,0,0,0,0,0],"split_type":[0,0,0,0,0,0,0,0,0,0,0,0,0,0,0,0,0],"sum_hessian":[1.004E3,7.75E2,2.29E2,1.18E2,6.57E2,1.96E2,3.3E1,4E1,7.8E1,2.62E2,3.95E2,1.06E2,9E1,1.33E2,1.29E2,2.08E2,1.87E2],"tree_param":{"num_deleted":"0","num_feature":"5","num_nodes":"17","size_leaf_vector":"1"}},{"base_weights":[-0E0,-1.6256906E-3,5.370984E-3,-4.709706E-3,-8.562381E-4,4.407536E-3,1.0912608E-3,-6.7706907E-4,-3.2560184E-4,-1.5640736E-3,-1.0275749E-4,2.799063E-4,5.2582275E-4,-1.9258009E-4,-1.0015038E-4,-3.6156976E-5,2.5459123E-5],"categories":[],"categories_nodes":[],"categories_segments":[],"categories_sizes":[],"default_left":[0,0,0,0,0,0,0,0,0,0,0,0,0,0,0,0,0],"id":2,"left_children":[1,3,5,7,9,11,-1,-1,-1,13,15,-1,-1,-1,-1,-1,-1],"loss_changes":[8.811635E-3,1.7721502E-3,9.785653E-4,2.985173E-4,3.1653428E-4,1.6382057E-4,0E0,0E0,0E0,3.0108436E-5,3.0201863E-5,0E0,0E0,0E0,0E0,0E0,0E0],"parents":[2147483647,0,0,1,1,2,2,3,3,4,4,5,5,9,9,10,10],"right_children":[2,4,6,8,10,12,-1,-1,-1,14,16,-1,-1,-1,-1,-1,-1],"split_conditions":[4.8173192E-1,-7.163838E-1,2.2684186E0,-1.2461038E0,-2.1263547E-1,1.0308545E0,1.0912608E-3,-6.7706907E-4,-3.2560184E-4,-3.854182E-1,-4.9510417E-3,2.799063E-4,5.2582275E-4,-1.9258009E-4,-1.0015038E-4,-3.6156976E-5,2.5459123E-5],"split_indices":[0,0,0,0,0,0,0,0,0,0,0,0,0,0,0,0,0],"split_type":[0,0,0,0,0,0,0,0,0,0,0,0,0,0,0,0,0],"sum_hessian":[1.004E3,7.72E2,2.32E2,1.49E2,6.23E2,2.03E2,2.9E1,5.5E1,9.4E1,3.13E2,3.1E2,7.8E1,1.25E2,1.76E2,1.37E2,1.96E2,1.14E2],"tree_param":{"num_deleted":"0","num_feature":"5","num_nodes":"17","size_leaf_vector":"1"}},{"base_weights":[-0E0,-1.4428579E-3,4.960128E-3,-4.9004927E-3,-8.6734263E-4,3.731649E-3,8.505042E-4,-7.010754E-4,-3.6579405E-4,-1.6236124E-3,-1.08693974E-4,2.1848587E-4,4.1770726E-4,-2.0964757E-4,-1.1108288E-4,-3.6539783E-5,3.508477E-5],"categories":[],"categories_nodes":[],"categories_segments":[],"categories_sizes":[],"default_left":[0,0,0,0,0,0,0,0,0,0,0,0,0,0,0,0,0],"id":3,"left_children":[1,3,5,7,9,11,-1,-1,-1,13,15,-1,-1,-1,-1,-1,-1],"loss_changes":[7.2241104E-3,1.4868194E-3,7.890179E-4,1.13699585E-4,3.6979915E-4,3.4480123E-5,0E0,0E0,0E0,4.248583E-5,4.1341253E-5,0E0,0E0,0E0,0E0,0E0,0E0],"parents":[2147483647,0,0,1,1,2,2,3,3,4,4,5,5,9,9,10,10],"right_children":[2,4,6,8,10,12,-1,-1,-1,14,16,-1,-1,-1,-1,-1,-1],"split_conditions":[6.0529006E-1,-8.655365E-1,1.7150061E0,-1.6625384E0,-2.3769112E-1,9.1539854E-1,8.505042E-4,-7.010754E-4,-3.6579405E-4,-4.793881E-1,9.312231E-3,2.1848587E-4,4.1770726E-4,-2.0964757E-4,-1.1108288E-4,-3.6539783E-5,3.508477E-5],"split_indices":[0,0,0,0,0,0,0,0,0,0,0,0,0,0,0,0,0],"split_type":[0,0,0,0,0,0,0,0,0,0,0,0,0,0,0,0,0],"sum_hessian":[1.004E3,7.79E2,2.25E2,1.06E2,6.73E2,1.73E2,5.2E1,3.2E1,7.4E1,3.29E2,3.44E2,4.7E1,1.26E2,1.57E2,1.72E2,2.35E2,1.09E2],"tree_param":{"num_deleted":"0","num_feature":"5","num_nodes":"17","size_leaf_vector":"1"}},{"base_weights":[-0E0,4.369242E-3,-1.3450405E-3,3.6022847E-3,9.534893E-4,-4.732563E-3,-8.599619E-4,2.6590656E-4,4.8340522E-4,-6.786302E-4,-3.6353624E-4,-1.7105598E-3,-2.7965926E-4,-2.1192069E-4,-1.2479891E-4,-6.3567895E-5,1.0072116E-6],"categories":[],"categories_nodes":[],"categories_segments":[],"categories_sizes":[],"default_left":[0,0,0,0,0,0,0,0,0,0,0,0,0,0,0,0,0],"id":4,"left_children":[1,3,5,7,-1,9,11,-1,-1,-1,-1,13,15,-1,-1,-1,-1],"loss_changes":[5.929688E-3,7.236954E-4,1.2016403E-3,1.3982179E-4,0E0,4.4796383E-5,3.1479954E-4,0E0,0E0,0E0,0E0,1.0470219E-5,4.9027778E-5,0E0,0E0,0E0,0E0],"parents":[2147483647,0,0,1,1,2,2,3,3,5,5,6,6,11,11,12,12],"right_children":[2,4,6,8,-1,10,12,-1,-1,-1,-1,14,16,-1,-1,-1,-1],"split_conditions":[-7.8586034E-2,2.4132082E0,-9.447391E-1,1.2862709E0,9.534893E-4,-1.820822E0,-3.2542017E-1,2.6590656E-4,4.8340522E-4,-6.786302E-4,-3.6353624E-4,-5.600214E-1,-1.139651E-1,-2.1192069E-4,-1.2479891E-4,-6.3567895E-5,1.0072116E-6],"split_indices":[1,0,0,0,0,0,0,0,0,0,0,0,0,0,0,0,0],"split_type":[0,0,0,0,0,0,0,0,0,0,0,0,0,0,0,0,0],"sum_hessian":[1.004E3,2.35E2,7.69E2,2.1E2,2.5E1,9.1E1,6.78E2,1.28E2,8.2E1,2.4E1,6.7E1,2.66E2,4.12E2,1.25E2,1.41E2,1.99E2,2.13E2],"tree_param":{"num_deleted":"0","num_feature":"5","num_nodes":"17","size_leaf_vector":"1"}},{"base_weights":[-0E0,-1.1597989E-3,4.169983E-3,-3.3232274E-3,-5.230087E-4,3.479687E-3,9.1316336E-4,-5.213997E-4,-2.363675E-4,-1.0165964E-3,2.6772133E-5,2.6177397E-4,4.537643E-4,-1.2847564E-4,-6.6667E-5,-1.0589598E-5,5.2167026E-5],"categories":[],"categories_nodes":[],"categories_segments":[],"categories_sizes":[],"default_left":[0,0,0,0,0,0,0,0,0,0,0,0,0,0,0,0,0],"id":5,"left_children":[1,3,5,7,9,11,-1,-1,-1,13,15,-1,-1,-1,-1,-1,-1],"loss_changes":[4.8788153E-3,1.0448473E-3,5.4623815E-4,2.1182105E-4,1.7726286E-4,7.976312E-5,0E0,0E0,0E0,9.732699E-6,2.2975322E-5,0E0,0E0,0E0,0E0,0E0,0E0],"parents":[2147483647,0,0,1,1,2,2,3,3,4,4,5,5,9,9,10,10],"right_children":[2,4,6,8,10,12,-1,-1,-1,14,16,-1,-1,-1,-1,-1,-1],"split_conditions":[6.6661304E-1,-6.6052824E-1,2.5313754E0,-1.3376472E0,-1.6742358E-1,1.3827548E0,9.1316336E-4,-5.213997E-4,-2.363675E-4,-3.5027748E-1,6.696299E-2,2.6177397E-4,4.537643E-4,-1.2847564E-4,-6.6667E-5,-1.0589598E-5,5.2167026E-5],"split_indices":[0,0,0,0,0,0,0,0,0,0,0,0,0,0,0,0,0],"split_type":[0,0,0,0,0,0,0,0,0,0,0,0,0,0,0,0,0],"sum_hessian":[1.004E3,7.87E2,2.17E2,1.73E2,6.14E2,1.96E2,2.1E1,5.1E1,1.22E2,3.32E2,2.82E2,1.18E2,7.8E1,1.68E2,1.64E2,2.08E2,7.4E1],"tree_param":{"num_deleted":"0","num_feature":"5","num_nodes":"17","size_leaf_vector":"1"}},{"base_weights":[-0E0,3.5948807E-3,-1.1060346E-3,2.9947676E-3,8.3156157E-4,-4.063753E-3,-7.201958E-4,2.1969518E-4,4.0577175E-4,-5.9312914E-4,-3.1144556E-4,-1.39357E-3,-2.1116098E-4,-1.7297691E-4,-9.722151E-5,-4.852976E-5,2.5115269E-6],"categories":[],"categories_nodes":[],"categories_segments":[],"categories_sizes":[],"default_left":[0,0,0,0,0,0,0,0,0,0,0,0,0,0,0,0,0],"id":6,"left_children":[1,3,5,7,-1,9,11,-1,-1,-1,-1,13,15,-1,-1,-1,-1],"loss_changes":[4.013038E-3,4.9746945E-4,8.252816E-4,9.876711E-5,0E0,1.4939229E-5,2.192148E-4,0E0,0E0,0E0,0E0,9.502866E-6,3.0767784E-5,0E0,0E0,0E0,0E0],"parents":[2147483647,0,0,1,1,2,2,3,3,5,5,6,6,11,11,12,12],"right_children":[2,4,6,8,-1,10,12,-1,-1,-1,-1,14,16,-1,-1,-1,-1],"split_conditions":[-7.8586034E-2,2.5313754E0,-9.8606086E-1,1.344906E0,8.3156157E-4,-1.9792994E0,-3.1242448E-1,2.1969518E-4,4.0577175E-4,-5.9312914E-4,-3.1144556E-4,-5.502136E-1,-9.890159E-2,-1.7297691E-4,-9.722151E-5,-4.852976E-5,2.5115269E-6],"split_indices":[1,0,0,0,0,0,0,0,0,0,0,0,0,0,0,0,0],"split_type":[0,0,0,0,0,0,0,0,0,0,0,0,0,0,0,0,0],"sum_hessian":[1.004E3,2.35E2,7.69E2,2.14E2,2.1E1,8.3E1,6.86E2,1.32E2,8.2E1,2E1,6.3E1,2.85E2,4.01E2,1.41E2,1.44E2,2.04E2,1.97E2],"tree_param":{"num_deleted":"0","num_feature":"5","num_nodes":"17","size_leaf_vector":"1"}},{"base_weights":[-0E0,-9.4459584E-4,3.4782272E-3,-2.8246758E-3,-4.3905506E-4,2.9322752E-3,8.076994E-4,-4.7394508E-4,-2.1126715E-4,-8.7202794E-4,1.623724E-5,2.2144693E-4,3.852512E-4,-1.0882233E-4,-5.6679153E-5,-1.1389806E-5,4.1864536E-5],"categories":[],"categories_nodes":[],"categories_segments":[],"categories_sizes":[],"default_left":[0,0,0,0,0,0,0,0,0,0,0,0,0,0,0,0,0],"id":7,"left_children":[1,3,5,7,9,11,-1,-1,-1,13,15,-1,-1,-1,-1,-1,-1],"loss_changes":[3.3151421E-3,7.1844994E-4,3.7175464E-4,1.2935046E-4,1.3327754E-4,4.912156E-5,0E0,0E0,0E0,4.0477607E-6,1.8850747E-5,0E0,0E0,0E0,0E0,0E0,0E0],"parents":[2147483647,0,0,1,1,2,2,3,3,4,4,5,5,9,9,10,10],"right_children":[2,4,6,8,10,12,-1,-1,-1,14,16,-1,-1,-1,-1,-1,-1],"split_conditions":[7.0244527E-1,-6.893709E-1,2.7408988E0,-1.5908835E0,-1.7798063E-1,1.4377657E0,8.076994E-4,-4.7394508E-4,-2.1126715E-4,-3.69061E-1,4.956819E-2,2.2144693E-4,3.852512E-4,-1.0882233E-4,-5.6679153E-5,-1.1389806E-5,4.1864536E-5],"split_indices":[0,0,0,0,0,0,0,0,0,0,0,0,0,0,0,0,0],"split_type":[0,0,0,0,0,0,0,0,0,0,0,0,0,0,0,0,0],"sum_hessian":[1.004E3,7.91E2,2.13E2,1.61E2,6.3E2,1.96E2,1.7E1,3.6E1,1.25E2,3.33E2,2.97E2,1.21E2,7.5E1,1.72E2,1.61E2,2.07E2,9E1],"tree_param":{"num_deleted":"0","num_feature":"5","num_nodes":"17","size_leaf_vector":"1"}},{"base_weights":[-0E0,-8.367931E-4,3.2346705E-3,-3.1580923E-3,-4.8799062E-4,2.760831E-3,8.0137077E-4,-4.982781E-4,-2.4257849E-4,-9.436883E-4,1.1861433E-5,2.0809319E-4,3.5911007E-4,-1.2429683E-4,-6.062686E-5,-1.03606435E-5,5.248216E-5],"categories":[],"categories_nodes":[],"categories_segments":[],"categories_sizes":[],"default_left":[0,0,0,0,0,0,0,0,0,0,0,0,0,0,0,0,0],"id":8,"left_children":[1,3,5,7,9,11,-1,-1,-1,13,15,-1,-1,-1,-1,-1,-1],"loss_changes":[2.7323205E-3,6.086407E-4,3.0682632E-4,2.9987772E-5,1.6959051E-4,3.4392695E-5,0E0,0E0,0E0,1.7845741E-5,2.3746048E-5,0E0,0E0,0E0,0E0,0E0,0E0],"parents":[2147483647,0,0,1,1,2,2,3,3,4,4,5,5,9,9,10,10],"right_children":[2,4,6,8,10,12,-1,-1,-1,14,16,-1,-1,-1,-1,-1,-1],"split_conditions":[7.5132877E-1,-9.129754E-1,2.9430063E0,-1.9792994E0,-1.9905691E-1,1.4740309E0,8.0137077E-4,-4.982781E-4,-2.4257849E-4,-4.5620525E-1,8.481366E-2,2.0809319E-4,3.5911007E-4,-1.2429683E-4,-6.062686E-5,-1.03606435E-5,5.248216E-5],"split_indices":[0,0,0,0,0,0,0,0,0,0,0,0,0,0,0,0,0],"split_type":[0,0,0,0,0,0,0,0,0,0,0,0,0,0,0,0,0],"sum_hessian":[1.004E3,7.99E2,2.05E2,9.8E1,7.01E2,1.92E2,1.3E1,2E1,7.8E1,3.76E2,3.25E2,1.17E2,7.5E1,1.8E2,1.96E2,2.51E2,7.4E1],"tree_param":{"num_deleted":"0","num_feature":"5","num_nodes":"17","size_leaf_vector":"1"}},{"base_weights":[-0E0,2.6965686E-3,-8.292531E-4,2.0061373E-3,5.1421816E-3,-3.2236567E-4,-5.454923E-4,9.058189E-5,2.3061468E-4,3.681543E-4,8.044716E-4,-1.0072142E-3,-1.2682598E-4,-1.3346272E-4,-7.154932E-5,-2.8838436E-5,8.195276E-6],"categories":[],"categories_nodes":[],"categories_segments":[],"categories_sizes":[],"default_left":[0,0,0,0,0,0,0,0,0,0,0,0,0,0,0,0,0],"id":9,"left_children":[1,3,5,7,9,-1,11,-1,-1,-1,-1,13,15,-1,-1,-1,-1],"loss_changes":[2.2575073E-3,3.0375225E-4,4.8209867E-4,2.6203343E-5,1.00738835E-5,0E0,1.2297883E-4,0E0,0E0,0E0,0E0,7.6279975E-6,1.4923919E-5,0E0,0E0,0E0,0E0],"parents":[2147483647,0,0,1,1,2,2,3,3,4,4,6,6,11,11,12,12],"right_children":[2,4,6,8,10,-1,12,-1,-1,-1,-1,14,16,-1,-1,-1,-1],"split_conditions":[-7.8586034E-2,1.7869226E0,-1.0306506E0,8.872907E-1,3.4654868E0,-3.2236567E-4,-2.8115633E-1,9.058189E-5,2.3061468E-4,3.681543E-4,8.044716E-4,-5.847117E-1,-3.5041723E-2,-1.3346272E-4,-7.154932E-5,-2.8838436E-5,8.195276E-6],"split_indices":[1,0,0,0,0,0,0,0,0,0,0,0,0,0,0,0,0],"split_type":[0,0,0,0,0,0,0,0,0,0,0,0,0,0,0,0,0],"sum_hessian":[1.004E3,2.35E2,7.69E2,1.9E2,4.5E1,7.5E1,6.94E2,5E1,1.4E2,3.6E1,9E0,3.17E2,3.77E2,1.29E2,1.88E2,2.39E2,1.38E2],"tree_param":{"num_deleted":"0","num_feature":"5","num_nodes":"17","size_leaf_vector":"1"}},{"base_weights":[-0E0,2.4552678E-3,-7.50696E-4,1.9381165E-3,5.365994E-4,-2.9826816E-4,-4.9955014E-4,1.00399E-4,2.3104805E-4,-9.7922944E-5,-1.5446391E-4,-3.6832073E-5,-0E0],"categories":[],"categories_nodes":[],"categories_segments":[],"categories_sizes":[],"default_left":[0,0,0,0,0,0,0,0,0,0,0,0,0],"id":10,"left_children":[1,3,5,7,-1,-1,9,-1,-1,-1,11,-1,-1],"loss_changes":[1.8665054E-3,2.5846437E-4,3.939201E-4,3.3579592E-5,0E0,0E0,1.0423918E-4,0E0,0E0,0E0,1.7255054E-5,0E0,0E0],"parents":[2147483647,0,0,1,1,2,2,3,3,6,6,10,10],"right_children":[2,4,6,8,-1,-1,10,-1,-1,-1,12,-1,-1],"split_conditions":[-7.8586034E-2,2.2684186E0,-1.0711939E0,9.8072374E-1,5.365994E-4,-2.9826816E-4,-3.3684713E-1,1.00399E-4,2.3104805E-4,-9.7922944E-5,-1.2222273E-1,-3.6832073E-5,-0E0],"split_indices":[1,0,0,0,0,0,0,0,0,0,0,0,0],"split_type":[0,0,0,0,0,0,0,0,0,0,0,0,0],"sum_hessian":[1.004E3,2.35E2,7.69E2,2.06E2,2.9E1,7.1E1,6.98E2,6.9E1,1.37E2,2.78E2,4.2E2,1.99E2,2.21E2],"tree_param":{"num_deleted":"0","num_feature":"5","num_nodes":"13","size_leaf_vector":"1"}},{"base_weights":[-0E0,-6.5210724E-4,2.316694E-3,-2.045898E-3,-3.237298E-4,1.9462E-3,6.329419E-4,-3.8008363E-4,-1.5302445E-4,-5.8634515E-4,1.2245011E-5,1.2789298E-4,2.496758E-4,-7.6980716E-5,-3.8143062E-5,-4.759124E-6,2.2375603E-5],"categories":[],"categories_nodes":[],"categories_segments":[],"categories_sizes":[],"default_left":[0,0,0,0,0,0,0,0,0,0,0,0,0,0,0,0,0],"id":11,"left_children":[1,3,5,7,9,11,-1,-1,-1,13,15,-1,-1,-1,-1,-1,-1],"loss_changes":[1.5335694E-3,3.3416293E-4,2.1872332E-4,6.200763E-5,6.262457E-5,3.15918E-5,0E0,0E0,0E0,1.9829022E-6,5.186413E-6,0E0,0E0,0E0,0E0,0E0,0E0],"parents":[2147483647,0,0,1,1,2,2,3,3,4,4,5,5,9,9,10,10],"right_children":[2,4,6,8,10,12,-1,-1,-1,14,16,-1,-1,-1,-1,-1,-1],"split_conditions":[6.386291E-1,-7.437936E-1,2.9430063E0,-1.820822E0,-1.5144356E-1,1.2407365E0,6.329419E-4,-3.8008363E-4,-1.5302445E-4,-3.9648274E-1,3.7339363E-2,1.2789298E-4,2.496758E-4,-7.6980716E-5,-3.8143062E-5,-4.759124E-6,2.2375603E-5],"split_indices":[0,0,0,0,0,0,0,0,0,0,0,0,0,0,0,0,0],"split_type":[0,0,0,0,0,0,0,0,0,0,0,0,0,0,0,0,0],"sum_hessian":[1.004E3,7.83E2,2.21E2,1.41E2,6.42E2,2.08E2,1.3E1,2.4E1,1.17E2,3.76E2,2.66E2,1.06E2,1.02E2,1.69E2,2.07E2,1.72E2,9.4E1],"tree_param":{"num_deleted":"0","num_feature":"5","num_nodes":"17","size_leaf_vector":"1"}},{"base_weights":[-0E0,-5.592774E-4,2.2380515E-3,-1.6520218E-3,-2.0370499E-4,1.9058888E-3,6.499837E-4,-3.3210526E-4,-1.2518033E-4,-4.0245664E-4,1.5919913E-4,1.3917178E-4,2.5689552E-4,-4.5403354E-5,-2.6995292E-6,-0E0,4.0490017E-5],"categories":[],"categories_nodes":[],"categories_segments":[],"categories_sizes":[],"default_left":[0,0,0,0,0,0,0,0,0,0,0,0,0,0,0,0,0],"id":12,"left_children":[1,3,5,7,9,11,-1,-1,-1,13,15,-1,-1,-1,-1,-1,-1],"loss_changes":[1.2712594E-3,2.9357828E-4,1.7304881E-4,7.1127724E-5,4.7131667E-5,1.776591E-5,0E0,0E0,0E0,3.2440075E-6,6.261886E-6,0E0,0E0,0E0,0E0,0E0,0E0],"parents":[2147483647,0,0,1,1,2,2,3,3,4,4,5,5,9,9,10,10],"right_children":[2,4,6,8,10,12,-1,-1,-1,14,16,-1,-1,-1,-1,-1,-1],"split_conditions":[7.8046554E-1,-6.3105685E-1,3.4654868E0,-1.733449E0,-6.45622E-2,1.5199559E0,6.499837E-4,-3.3210526E-4,-1.2518033E-4,-1.4394204E-1,1.043149E-1,1.3917178E-4,2.5689552E-4,-4.5403354E-5,-2.6995292E-6,-0E0,4.0490017E-5],"split_indices":[0,0,0,0,0,0,0,0,0,0,0,0,0,0,0,0,0],"split_type":[0,0,0,0,0,0,0,0,0,0,0,0,0,0,0,0,0],"sum_hessian":[1.004E3,8.03E2,2.01E2,1.88E2,6.15E2,1.92E2,9E0,2.8E1,1.6E2,4.15E2,2E2,1.21E2,7.1E1,3.41E2,7.4E1,1.33E2,6.7E1],"tree_param":{"num_deleted":"0","num_feature":"5","num_nodes":"17","size_leaf_vector":"1"}},{"base_weights":[-0E0,1.8488953E-3,-5.6098384E-4,1.5764305E-3,5.9911533E-4,-2.3351845E-4,-3.697711E-4,1.1234329E-4,2.2937733E-4,-6.6662236E-4,-5.91993E-5,-8.608964E-5,-4.114071E-5,-1.7042117E-5,6.0703946E-6],"categories":[],"categories_nodes":[],"categories_segments":[],"categories_sizes":[],"default_left":[0,0,0,0,0,0,0,0,0,0,0,0,0,0,0],"id":13,"left_children":[1,3,5,7,-1,-1,9,-1,-1,11,13,-1,-1,-1,-1],"loss_changes":[1.0546666E-3,1.6875978E-4,2.32523E-4,3.36378E-5,0E0,0E0,5.7593534E-5,0E0,0E0,3.4228142E-6,5.9706217E-6,0E0,0E0,0E0,0E0],"parents":[2147483647,0,0,1,1,2,2,3,3,6,6,9,9,10,10],"right_children":[2,4,6,8,-1,-1,10,-1,-1,12,14,-1,-1,-1,-1],"split_conditions":[-7.8586034E-2,3.4654868E0,-1.0888543E0,1.5020596E0,5.9911533E-4,-2.3351845E-4,-2.6845163E-1,1.1234329E-4,2.2937733E-4,-5.290278E-1,-2.6171664E-2,-8.608964E-5,-4.114071E-5,-1.7042117E-5,6.0703946E-6],"split_indices":[1,0,0,0,0,0,0,0,0,0,0,0,0,0,0],"split_type":[0,0,0,0,0,0,0,0,0,0,0,0,0,0,0],"sum_hessian":[1.004E3,2.35E2,7.69E2,2.26E2,9E0,6.7E1,7.02E2,1.51E2,7.5E1,3.41E2,3.61E2,1.68E2,1.73E2,2.3E2,1.31E2],"tree_param":{"num_deleted":"0","num_feature":"5","num_nodes":"15","size_leaf_vector":"1"}},{"base_weights":[-0E0,-4.560597E-4,1.8861422E-3,-2.1695707E-4,-2.9078827E-4,1.5893917E-3,5.522281E-4,-5.786429E-4,-0E0,1.17059644E-4,2.1325248E-4,-7.798258E-5,-3.5786084E-5,-9.0864005E-6,2.4398336E-5],"categories":[],"categories_nodes":[],"categories_segments":[],"categories_sizes":[],"default_left":[0,0,0,0,0,0,0,0,0,0,0,0,0,0,0],"id":14,"left_children":[1,3,5,-1,7,9,-1,11,13,-1,-1,-1,-1,-1,-1],"loss_changes":[8.780959E-4,2.0306504E-4,1.2220623E-4,0E0,6.762775E-5,4.0594314E-6,0E0,5.270529E-6,9.363828E-6,0E0,0E0,0E0,0E0,0E0,0E0],"parents":[2147483647,0,0,1,1,2,2,4,4,5,5,7,7,8,8],"right_children":[2,4,6,-1,8,10,-1,12,14,-1,-1,-1,-1,-1,-1],"split_conditions":[8.030937E-1,-1.1522076E0,3.4654868E0,-2.1695707E-4,-2.2453576E-1,1.5554572E0,5.522281E-4,-5.2250063E-1,3.1461436E-2,1.17059644E-4,2.1325248E-4,-7.798258E-5,-3.5786084E-5,-9.0864005E-6,2.4398336E-5],"split_indices":[0,0,0,0,0,0,0,0,0,0,0,0,0,0,0],"split_type":[0,0,0,0,0,0,0,0,0,0,0,0,0,0,0],"sum_hessian":[1.004E3,8.07E2,1.97E2,6.3E1,7.44E2,1.88E2,9E0,3.88E2,3.56E2,1.21E2,6.7E1,1.76E2,2.12E2,2.34E2,1.22E2],"tree_param":{"num_deleted":"0","num_feature":"5","num_nodes":"15","size_leaf_vector":"1"}},{"base_weights":[-0E0,-4.0865317E-4,1.740418E-3,-1.4762111E-3,-1.9308542E-4,1.4569199E-4,5.090103E-4,-3.1796933E-4,-1.0743894E-4,-3.9118255E-5,7.549536E-5,-0E0,3.2847238E-5],"categories":[],"categories_nodes":[],"categories_segments":[],"categories_sizes":[],"default_left":[0,0,0,0,0,0,0,0,0,0,0,0,0],"id":15,"left_children":[1,3,5,7,9,-1,-1,-1,-1,-1,11,-1,-1],"loss_changes":[7.280326E-4,1.6980605E-4,1.0164268E-4,3.6876387E-5,3.98092E-5,0E0,0E0,0E0,0E0,0E0,6.377089E-6,0E0,0E0],"parents":[2147483647,0,0,1,1,2,2,3,3,4,4,10,10],"right_children":[2,4,6,8,10,-1,-1,-1,-1,-1,12,-1,-1],"split_conditions":[8.3714366E-1,-8.0183345E-1,3.4654868E0,-2.132581E0,-1.332413E-1,1.4569199E-4,5.090103E-4,-3.1796933E-4,-1.0743894E-4,-3.9118255E-5,1.15715094E-1,-0E0,3.2847238E-5],"split_indices":[0,0,0,0,0,0,0,0,0,0,0,0,0],"split_type":[0,0,0,0,0,0,0,0,0,0,0,0,0],"sum_hessian":[1.004E3,8.11E2,1.93E2,1.26E2,6.85E2,1.84E2,9E0,1.6E1,1.1E2,4.15E2,2.7E2,1.99E2,7.1E1],"tree_param":{"num_deleted":"0","num_feature":"5","num_nodes":"13","size_leaf_vector":"1"}},{"base_weights":[-0E0,-4.2271466E-4,1.3959468E-3,-1.856454E-4,-2.8324625E-4,9.803722E-4,2.9726393E-4,-5.889617E-5,-9.1700145E-5,4.47874E-5,1.1630734E-4,-1.8342367E-5,1.1783767E-6],"categories":[],"categories_nodes":[],"categories_segments":[],"categories_sizes":[],"default_left":[0,0,0,0,0,0,0,0,0,0,0,0,0],"id":16,"left_children":[1,3,5,-1,7,9,-1,-1,11,-1,-1,-1,-1],"loss_changes":[6.024361E-4,1.3135863E-4,1.0945732E-4,0E0,3.4722812E-5,1.802633E-6,0E0,0E0,6.0928273E-6,0E0,0E0,0E0,0E0],"parents":[2147483647,0,0,1,1,2,2,4,4,5,5,8,8],"right_children":[2,4,6,-1,8,10,-1,-1,12,-1,-1,-1,-1],"split_conditions":[1.9012755E-1,-1.1929058E0,1.8616502E0,-1.856454E-4,-3.9648274E-1,9.626969E-1,2.9726393E-4,-5.889617E-5,-6.45622E-2,4.47874E-5,1.1630734E-4,-1.8342367E-5,1.1783767E-6],"split_indices":[0,0,0,0,0,0,0,0,0,0,0,0,0],"split_type":[0,0,0,0,0,0,0,0,0,0,0,0,0],"sum_hessian":[1.004E3,7.68E2,2.36E2,5.9E1,7.09E2,1.95E2,4.1E1,2.51E2,4.58E2,6.6E1,1.29E2,2.93E2,1.65E2],"tree_param":{"num_deleted":"0","num_feature":"5","num_nodes":"13","size_leaf_vector":"1"}},{"base_weights":[-0E0,-3.8259017E-4,1.2695425E-3,-1.4346975E-3,-2.287934E-4,4.0938891E-4,1.0305718E-3,-2.7441347E-4,-9.2025766E-5,-3.851585E-5,-0E0,5.0075883E-5,1.2974674E-4],"categories":[],"categories_nodes":[],"categories_segments":[],"categories_sizes":[],"default_left":[0,0,0,0,0,0,0,0,0,0,0,0,0],"id":17,"left_children":[1,3,5,7,9,-1,11,-1,-1,-1,-1,-1,-1],"loss_changes":[4.971817E-4,1.0721961E-4,9.918006E-5,1.7332393E-5,2.3189183E-5,0E0,1.2421617E-5,0E0,0E0,0E0,0E0,0E0,0E0],"parents":[2147483647,0,0,1,1,2,2,3,3,4,4,6,6],"right_children":[2,4,6,8,10,-1,12,-1,-1,-1,-1,-1,-1],"split_conditions":[1.9012755E-1,-9.5919055E-1,-5.0159235E0,-2.132581E0,-1.9055775E-1,4.0938891E-4,1.0818881E0,-2.7441347E-4,-9.2025766E-5,-3.851585E-5,-0E0,5.0075883E-5,1.2974674E-4],"split_indices":[0,0,1,0,0,0,0,0,0,0,0,0,0],"split_type":[0,0,0,0,0,0,0,0,0,0,0,0,0],"sum_hessian":[1.004E3,7.68E2,2.36E2,8.7E1,6.81E2,1.2E1,2.24E2,1.6E1,7.1E1,3.95E2,2.86E2,9E1,1.34E2],"tree_param":{"num_deleted":"0","num_feature":"5","num_nodes":"13","size_leaf_vector":"1"}},{"base_weights":[-0E0,-3.5273266E-4,1.1451644E-3,-9.778868E-4,-1.382192E-4,9.426431E-4,4.1387137E-4,-2.7436076E-4,-7.560346E-5,-2.2598382E-5,-0E0,5.1364183E-5,1.2512991E-4],"categories":[],"categories_nodes":[],"categories_segments":[],"categories_sizes":[],"default_left":[0,0,0,0,0,0,0,0,0,0,0,0,0],"id":18,"left_children":[1,3,5,7,9,11,-1,-1,-1,-1,-1,-1,-1],"loss_changes":[4.1338307E-4,9.129174E-5,8.645054E-5,3.1700212E-5,8.501268E-6,1.1662429E-5,0E0,0E0,0E0,0E0,0E0,0E0,0E0],"parents":[2147483647,0,0,1,1,2,2,3,3,4,4,5,5],"right_children":[2,4,6,8,10,12,-1,-1,-1,-1,-1,-1,-1],"split_conditions":[1.6625293E-1,-6.4172965E-1,3.4654868E0,-2.2297127E0,-1.0620768E-1,1.1798831E0,4.1387137E-4,-2.7436076E-4,-7.560346E-5,-2.2598382E-5,-0E0,5.1364183E-5,1.2512991E-4],"split_indices":[0,0,0,0,0,0,0,0,0,0,0,0,0],"split_type":[0,0,0,0,0,0,0,0,0,0,0,0,0],"sum_hessian":[1.004E3,7.64E2,2.4E2,1.81E2,5.83E2,2.31E2,9E0,1.2E1,1.69E2,3.83E2,2E2,1.13E2,1.18E2],"tree_param":{"num_deleted":"0","num_feature":"5","num_nodes":"13","size_leaf_vector":"1"}},{"base_weights":[-0E0,-3.2407473E-4,1.0339553E-3,-1.4313079E-4,-2.1191407E-4,8.223498E-4,3.4097597E-4,-4.4196808E-5,-6.3111765E-5,3.4255252E-5,1.0103828E-4,-1.2090757E-5,2.2367331E-7],"categories":[],"categories_nodes":[],"categories_segments":[],"categories_sizes":[],"default_left":[0,0,0,0,0,0,0,0,0,0,0,0,0],"id":19,"left_children":[1,3,5,-1,7,9,-1,-1,11,-1,-1,-1,-1],"loss_changes":[3.4360524E-4,7.750285E-5,7.4592564E-5,0E0,1.8962077E-5,6.6712237E-6,0E0,0E0,2.9115254E-6,0E0,0E0,0E0,0E0],"parents":[2147483647,0,0,1,1,2,2,4,4,5,5,8,8],"right_children":[2,4,6,-1,8,10,-1,-1,12,-1,-1,-1,-1],"split_conditions":[1.5933524E-1,-1.1929058E0,2.9430063E0,-1.4313079E-4,-4.1235012E-1,9.888161E-1,3.4097597E-4,-4.4196808E-5,-4.142992E-2,3.4255252E-5,1.0103828E-4,-1.2090757E-5,2.2367331E-7],"split_indices":[0,0,0,0,0,0,0,0,0,0,0,0,0],"split_type":[0,0,0,0,0,0,0,0,0,0,0,0,0],"sum_hessian":[1.004E3,7.6E2,2.44E2,5.9E1,7.01E2,2.31E2,1.3E1,2.47E2,4.54E2,8.2E1,1.49E2,3.21E2,1.33E2],"tree_param":{"num_deleted":"0","num_feature":"5","num_nodes":"13","size_leaf_vector":"1"}},{"base_weights":[-0E0,-2.936318E-4,9.4350363E-4,-2.0325491E-4,-2.2648068E-4,5.5218163E-5,1.9134684E-3,-4.8766175E-5,-6.771068E-5,1.285798E-4,3.5479635E-3,-1.2579834E-5,-0E0,3.7403477E-4,-0E0],"categories":[],"categories_nodes":[],"categories_segments":[],"categories_sizes":[],"default_left":[0,0,0,0,0,0,0,0,0,0,0,0,0,0,0],"id":20,"left_children":[1,3,5,-1,7,-1,9,-1,11,-1,13,-1,-1,-1,-1],"loss_changes":[2.8517656E-4,6.5296204E-5,6.626571E-5,0E0,2.5153506E-5,0E0,4.3777254E-6,0E0,3.0697186E-6,0E0,2.1345913E-6,0E0,0E0,0E0,0E0],"parents":[2147483647,0,0,1,1,2,2,4,4,6,6,8,8,10,10],"right_children":[2,4,6,-1,8,-1,10,-1,12,-1,14,-1,-1,-1,-1],"split_conditions":[1.5933524E-1,-1.9792994E0,1.651165E0,-2.0325491E-4,-4.6527785E-1,5.5218163E-5,3.4654868E0,-4.8766175E-5,-6.114842E-2,1.285798E-4,-1.4646418E-1,-1.2579834E-5,-0E0,3.7403477E-4,-0E0],"split_indices":[0,0,0,0,0,0,0,0,0,0,4,0,0,0,0],"split_type":[0,0,0,0,0,0,0,0,0,0,0,0,0,0,0],"sum_hessian":[1.004E3,7.6E2,2.44E2,2E1,7.4E2,1.84E2,6E1,2.54E2,4.86E2,5.1E1,9E0,3.33E2,1.53E2,8E0,1E0],"tree_param":{"num_deleted":"0","num_feature":"5","num_nodes":"15","size_leaf_vector":"1"}},{"base_weights":[-0E0,-2.3297488E-4,9.935006E-4,-7.320497E-4,-5.8638874E-5,7.8947014E-5,3.2877654E-3,-2.2298859E-4,-5.4822096E-5,-1.3587647E-5,9.674683E-6,3.455369E-4,-0E0],"categories":[],"categories_nodes":[],"categories_segments":[],"categories_sizes":[],"default_left":[0,0,0,0,0,0,0,0,0,0,0,0,0],"id":21,"left_children":[1,3,5,7,9,-1,11,-1,-1,-1,-1,-1,-1],"loss_changes":[2.4085262E-4,6.2417734E-5,4.612458E-5,2.2717431E-5,7.8351595E-6,0E0,1.0574149E-6,0E0,0E0,0E0,0E0,0E0,0E0],"parents":[2147483647,0,0,1,1,2,2,3,3,4,4,6,6],"right_children":[2,4,6,8,10,-1,12,-1,-1,-1,-1,-1,-1],"split_conditions":[8.030937E-1,-6.189792E-1,3.4654868E0,-2.2297127E0,-1.8405007E-2,7.8947014E-5,-1.4646418E-1,-2.2298859E-4,-5.4822096E-5,-1.3587647E-5,9.674683E-6,3.455369E-4,-0E0],"split_indices":[0,0,0,0,0,0,4,0,0,0,0,0,0],"split_type":[0,0,0,0,0,0,0,0,0,0,0,0,0],"sum_hessian":[1.004E3,8.07E2,1.97E2,1.92E2,6.15E2,1.88E2,9E0,1.2E1,1.8E2,4.54E2,1.61E2,8E0,1E0],"tree_param":{"num_deleted":"0","num_feature":"5","num_nodes":"13","size_leaf_vector":"1"}},{"base_weights":[-0E0,-2.066488E-4,9.2999625E-4,-8.6080586E-4,-8.77664E-5,7.290371E-5,3.047392E-4,-2.0453439E-4,-5.6898683E-5,-2.0131161E-5,3.132062E-5,-0E0,1.2778117E-5],"categories":[],"categories_nodes":[],"categories_segments":[],"categories_sizes":[],"default_left":[0,0,0,0,0,0,0,0,0,0,0,0,0],"id":22,"left_children":[1,3,5,7,9,-1,-1,-1,-1,-1,11,-1,-1],"loss_changes":[2.005373E-4,5.3900545E-5,3.816672E-5,9.8352175E-6,1.128232E-5,0E0,0E0,0E0,0E0,0E0,1.7341308E-6,0E0,0E0],"parents":[2147483647,0,0,1,1,2,2,3,3,4,4,10,10],"right_children":[2,4,6,8,10,-1,-1,-1,-1,-1,12,-1,-1],"split_conditions":[8.555504E-1,-8.503734E-1,3.4654868E0,-2.2297127E0,-1.6036335E-1,7.290371E-5,3.047392E-4,-2.0453439E-4,-5.6898683E-5,-2.0131161E-5,4.5226444E-2,-0E0,1.2778117E-5],"split_indices":[0,0,0,0,0,0,0,0,0,0,0,0,0],"split_type":[0,0,0,0,0,0,0,0,0,0,0,0,0],"sum_hessian":[1.004E3,8.15E2,1.89E2,1.1E2,7.05E2,1.8E2,9E0,1.2E1,9.8E1,4.03E2,3.02E2,1.8E2,1.22E2],"tree_param":{"num_deleted":"0","num_feature":"5","num_nodes":"13","size_leaf_vector":"1"}},{"base_weights":[-0E0,-2.2609433E-4,7.160499E-4,-1.1725818E-4,-1.4970958E-4,3.6781126E-5,1.5153941E-4,-2.7033762E-5,-1.4351906E-8],"categories":[],"categories_nodes":[],"categories_segments":[],"categories_sizes":[],"default_left":[0,0,0,0,0,0,0,0,0],"id":23,"left_children":[1,3,5,-1,7,-1,-1,-1,-1],"loss_changes":[1.6721174E-4,4.1175663E-5,4.9504306E-5,0E0,1.01860005E-5,0E0,0E0,0E0,0E0],"parents":[2147483647,0,0,1,1,2,2,4,4],"right_children":[2,4,6,-1,8,-1,-1,-1,-1],"split_conditions":[1.4440161E-1,-1.4424545E0,1.6299314E0,-1.1725818E-4,-2.7480274E-1,3.6781126E-5,1.5153941E-4,-2.7033762E-5,-1.4351906E-8],"split_indices":[0,0,0,0,0,0,0,0,0],"split_type":[0,0,0,0,0,0,0,0,0],"sum_hessian":[1.004E3,7.56E2,2.48E2,4.4E1,7.12E2,1.84E2,6.4E1,3.56E2,3.56E2],"tree_param":{"num_deleted":"0","num_feature":"5","num_nodes":"9","size_leaf_vector":"1"}},{"base_weights":[-0E0,-1.6948239E-4,7.9099427E-4,-5.6580093E-4,-2.77275E-5,5.9829024E-5,2.6903048E-3,-4.213548E-5,-1.9534568E-4,-9.314633E-6,8.650181E-6,3.0005487E-4,-0E0],"categories":[],"categories_nodes":[],"categories_segments":[],"categories_sizes":[],"default_left":[0,0,0,0,0,0,0,0,0,0,0,0,0],"id":24,"left_children":[1,3,5,7,9,-1,11,-1,-1,-1,-1,-1,-1],"loss_changes":[1.3911963E-4,4.034598E-5,3.0617994E-5,1.3981786E-5,4.783211E-6,0E0,2.2972818E-6,0E0,0E0,0E0,0E0,0E0,0E0],"parents":[2147483647,0,0,1,1,2,2,3,3,4,4,6,6],"right_children":[2,4,6,8,10,-1,12,-1,-1,-1,-1,-1,-1],"split_conditions":[8.987818E-1,-6.0547817E-1,3.4654868E0,3.1785927E0,-1.2376069E-2,5.9829024E-5,-2.7321324E-1,-4.213548E-5,-1.9534568E-4,-9.314633E-6,8.650181E-6,3.0005487E-4,-0E0],"split_indices":[0,0,0,1,0,0,4,0,0,0,0,0,0],"split_type":[0,0,0,0,0,0,0,0,0,0,0,0,0],"sum_hessian":[1.004E3,8.22E2,1.82E2,1.96E2,6.26E2,1.73E2,9E0,1.87E2,9E0,4.54E2,1.72E2,7E0,2E0],"tree_param":{"num_deleted":"0","num_feature":"5","num_nodes":"13","size_leaf_vector":"1"}},{"base_weights":[-0E0,-1.06427484E-4,1.0578104E-3,-5.122214E-4,-0E0,7.265355E-5,2.5076629E-3,-1.649066E-4,-3.6647445E-5,-6.996908E-6,2.0990308E-5,2.644426E-4,-0E0],"categories":[],"categories_nodes":[],"categories_segments":[],"categories_sizes":[],"default_left":[0,0,0,0,0,0,0,0,0,0,0,0,0],"id":25,"left_children":[1,3,5,7,9,-1,11,-1,-1,-1,-1,-1,-1],"loss_changes":[1.1942327E-4,4.2805703E-5,9.932475E-6,1.1886306E-5,1.1426144E-5,0E0,1.1100856E-6,0E0,0E0,0E0,0E0,0E0,0E0],"parents":[2147483647,0,0,1,1,2,2,3,3,4,4,6,6],"right_children":[2,4,6,8,10,-1,12,-1,-1,-1,-1,-1,-1],"split_conditions":[1.3972175E0,-5.941233E-1,3.4654868E0,-2.2297127E0,6.1251365E-2,7.265355E-5,-1.4646418E-1,-1.649066E-4,-3.6647445E-5,-6.996908E-6,2.0990308E-5,2.644426E-4,-0E0],"split_indices":[0,0,0,0,0,0,4,0,0,0,0,0,0],"split_type":[0,0,0,0,0,0,0,0,0,0,0,0,0],"sum_hessian":[1.004E3,9.09E2,9.5E1,2E2,7.09E2,8.6E1,9E0,1.2E1,1.88E2,5.09E2,2E2,8E0,1E0],"tree_param":{"num_deleted":"0","num_feature":"5","num_nodes":"13","size_leaf_vector":"1"}},{"base_weights":[-0E0,-8.134309E-5,1.1678947E-4,-4.7330992E-4,1.0251217E-5,-3.281826E-5,-1.4886547E-4,-5.878049E-6,2.3857056E-5],"categories":[],"categories_nodes":[],"categories_segments":[],"categories_sizes":[],"default_left":[0,0,0,0,0,0,0,0,0],"id":26,"left_children":[1,3,-1,5,7,-1,-1,-1,-1],"loss_changes":[1.0237021E-4,3.8336675E-5,0E0,9.860072E-6,1.3535705E-5,0E0,0E0,0E0,0E0],"parents":[2147483647,0,0,1,1,3,3,4,4],"right_children":[2,4,-1,6,8,-1,-1,-1,-1],"split_conditions":[1.5840003E0,-6.0547817E-1,1.1678947E-4,2.8404567E0,9.87796E-2,-3.281826E-5,-1.4886547E-4,-5.878049E-6,2.3857056E-5],"split_indices":[0,0,0,1,0,0,0,0,0],"split_type":[0,0,0,0,0,0,0,0,0],"sum_hessian":[1.004E3,9.36E2,6.8E1,1.96E2,7.4E2,1.83E2,1.3E1,5.36E2,2.04E2],"tree_param":{"num_deleted":"0","num_feature":"5","num_nodes":"9","size_leaf_vector":"1"}},{"base_weights":[-0E0,-1.1398437E-4,7.1154797E-4,-6.000909E-4,-3.38754E-5,4.9555132E-5,2.2323022E-3,-3.646786E-5,-1.555017E-4,-1.0265882E-5,8.92693E-6,2.4985484E-4,-0E0],"categories":[],"categories_nodes":[],"categories_segments":[],"categories_sizes":[],"default_left":[0,0,0,0,0,0,0,0,0,0,0,0,0],"id":27,"left_children":[1,3,5,7,9,-1,11,-1,-1,-1,-1,-1,-1],"loss_changes":[8.439239E-5,2.7274444E-5,1.7420949E-5,2.877081E-6,6.61542E-6,0E0,1.9995641E-6,0E0,0E0,0E0,0E0,0E0,0E0],"parents":[2147483647,0,0,1,1,2,2,3,3,4,4,6,6],"right_children":[2,4,6,8,10,-1,12,-1,-1,-1,-1,-1,-1],"split_conditions":[1.0966048E0,-8.99984E-1,3.4654868E0,3.1785927E0,-2.1753458E-2,4.9555132E-5,-2.7321324E-1,-3.646786E-5,-1.555017E-4,-1.0265882E-5,8.92693E-6,2.4985484E-4,-0E0],"split_indices":[0,0,0,1,0,0,4,0,0,0,0,0,0],"split_type":[0,0,0,0,0,0,0,0,0,0,0,0,0],"sum_hessian":[1.004E3,8.62E2,1.42E2,1.02E2,7.6E2,1.33E2,9E0,9.3E1,9E0,5.4E2,2.2E2,7E0,2E0],"tree_param":{"num_deleted":"0","num_feature":"5","num_nodes":"13","size_leaf_vector":"1"}},{"base_weights":[-0E0,-7.195838E-5,9.6047216E-4,-4.712455E-4,-0E0,5.7454483E-5,2.0802165E-3,-1.1973374E-4,-2.8409102E-5,-6.875633E-6,1.661034E-5,2.3144444E-4,-0E0],"categories":[],"categories_nodes":[],"categories_segments":[],"categories_sizes":[],"default_left":[0,0,0,0,0,0,0,0,0,0,0,0,0],"id":28,"left_children":[1,3,5,7,9,-1,11,-1,-1,-1,-1,-1,-1],"loss_changes":[7.35656E-5,2.7916818E-5,2.6588677E-6,4.3793043E-6,9.265517E-6,0E0,1.1242446E-6,0E0,0E0,0E0,0E0,0E0,0E0],"parents":[2147483647,0,0,1,1,2,2,3,3,4,4,6,6],"right_children":[2,4,6,8,10,-1,12,-1,-1,-1,-1,-1,-1],"split_conditions":[1.566104E0,-7.294729E-1,3.4654868E0,-2.132581E0,4.5226444E-2,5.7454483E-5,-2.7321324E-1,-1.1973374E-4,-2.8409102E-5,-6.875633E-6,1.661034E-5,2.3144444E-4,-0E0],"split_indices":[0,0,0,0,0,0,4,0,0,0,0,0,0],"split_type":[0,0,0,0,0,0,0,0,0,0,0,0,0],"sum_hessian":[1.004E3,9.32E2,7.2E1,1.45E2,7.87E2,6.3E1,9E0,1.6E1,1.29E2,5.48E2,2.39E2,7E0,2E0],"tree_param":{"num_deleted":"0","num_feature":"5","num_nodes":"13","size_leaf_vector":"1"}},{"base_weights":[-0E0,-6.421246E-5,9.17904E-5,-3.6401206E-4,8.707941E-6,-2.541884E-5,-1.3396151E-4,-3.519055E-6,1.8154891E-5],"categories":[],"categories_nodes":[],"categories_segments":[],"categories_sizes":[],"default_left":[0,0,0,0,0,0,0,0,0],"id":29,"left_children":[1,3,-1,5,7,-1,-1,-1,-1],"loss_changes":[6.326928E-5,2.407799E-5,0E0,5.76455E-6,7.022193E-6,0E0,0E0,0E0,0E0],"parents":[2147483647,0,0,1,1,3,3,4,4],"right_children":[2,4,-1,6,8,-1,-1,-1,-1],"split_conditions":[1.5840003E0,-5.7700115E-1,9.17904E-5,3.1785927E0,1.2096599E-1,-2.541884E-5,-1.3396151E-4,-3.519055E-6,1.8154891E-5],"split_indices":[0,0,0,1,0,0,0,0,0],"split_type":[0,0,0,0,0,0,0,0,0],"sum_hessian":[1.004E3,9.36E2,6.8E1,2.08E2,7.28E2,1.99E2,9E0,5.36E2,1.92E2],"tree_param":{"num_deleted":"0","num_feature":"5","num_nodes":"9","size_leaf_vector":"1"}},{"base_weights":[-0E0,-5.548098E-5,8.8614924E-4,-2.7681424E-4,3.3789285E-5,4.4687968E-5,1.8675013E-4,-9.477391E-5,-1.8617158E-5,-6.3574737E-7,1.7445098E-5],"categories":[],"categories_nodes":[],"categories_segments":[],"categories_sizes":[],"default_left":[0,0,0,0,0,0,0,0,0,0,0],"id":30,"left_children":[1,3,5,7,9,-1,-1,-1,-1,-1,-1],"loss_changes":[5.199224E-5,2.1155034E-5,1.7121929E-6,6.7377823E-6,5.3232707E-6,0E0,0E0,0E0,0E0,0E0,0E0],"parents":[2147483647,0,0,1,1,2,2,3,3,4,4],"right_children":[2,4,6,8,10,-1,-1,-1,-1,-1,-1],"split_conditions":[1.651165E0,-4.1861725E-1,3.4654868E0,-1.9792994E0,1.2796377E-1,4.4687968E-5,1.8675013E-4,-9.477391E-5,-1.8617158E-5,-6.3574737E-7,1.7445098E-5],"split_indices":[0,0,0,0,0,0,0,0,0,0,0],"split_type":[0,0,0,0,0,0,0,0,0,0,0],"sum_hessian":[1.004E3,9.44E2,6E1,3.02E2,6.42E2,5.1E1,9E0,2E1,2.82E2,4.46E2,1.96E2],"tree_param":{"num_deleted":"0","num_feature":"5","num_nodes":"11","size_leaf_vector":"1"}},{"base_weights":[-0E0,-8.4937536E-5,5.1185413E-4,-5.589727E-5,-3.3198794E-5,2.9266454E-5,1.4115362E-4,-1.1055805E-5,1.7605695E-6],"categories":[],"categories_nodes":[],"categories_segments":[],"categories_sizes":[],"default_left":[0,0,0,0,0,0,0,0,0],"id":31,"left_children":[1,3,5,-1,7,-1,-1,-1,-1],"loss_changes":[4.5114186E-5,1.51365E-5,1.1209562E-5,0E0,4.068722E-6,0E0,0E0,0E0,0E0],"parents":[2147483647,0,0,1,1,2,2,4,4],"right_children":[2,4,6,-1,8,-1,-1,-1,-1],"split_conditions":[1.0818881E0,-1.1522076E0,2.7408988E0,-5.589727E-5,-2.209515E-1,2.9266454E-5,1.4115362E-4,-1.1055805E-5,1.7605695E-6],"split_indices":[0,0,0,0,0,0,0,0,0],"split_type":[0,0,0,0,0,0,0,0,0],"sum_hessian":[1.004E3,8.58E2,1.46E2,6.3E1,7.95E2,1.29E2,1.7E1,3.92E2,4.03E2],"tree_param":{"num_deleted":"0","num_feature":"5","num_nodes":"9","size_leaf_vector":"1"}},{"base_weights":[-0E0,-5.2912997E-5,6.7678984E-4,-3.751766E-4,-0E0,3.539982E-5,1.6108808E-3,-1.17295844E-4,-2.0938563E-5,-5.2355304E-6,1.0579954E-5,1.8346579E-4,-0E0],"categories":[],"categories_nodes":[],"categories_segments":[],"categories_sizes":[],"default_left":[0,0,0,0,0,0,0,0,0,0,0,0,0],"id":32,"left_children":[1,3,5,7,9,-1,11,-1,-1,-1,-1,-1,-1],"loss_changes":[3.8561695E-5,1.4919107E-5,2.5946538E-6,2.0295538E-6,4.357261E-6,0E0,2.1349333E-6,0E0,0E0,0E0,0E0,0E0,0E0],"parents":[2147483647,0,0,1,1,2,2,3,3,4,4,6,6],"right_children":[2,4,6,8,10,-1,12,-1,-1,-1,-1,-1,-1],"split_conditions":[1.5554572E0,-8.105909E-1,3.4654868E0,-2.4215422E0,2.2420619E-2,3.539982E-5,-2.7321324E-1,-1.17295844E-4,-2.0938563E-5,-5.2355304E-6,1.0579954E-5,1.8346579E-4,-0E0],"split_indices":[0,0,0,0,0,0,4,0,0,0,0,0,0],"split_type":[0,0,0,0,0,0,0,0,0,0,0,0,0],"sum_hessian":[1.004E3,9.28E2,7.6E1,1.22E2,8.06E2,6.7E1,9E0,8E0,1.14E2,5.56E2,2.5E2,7E0,2E0],"tree_param":{"num_deleted":"0","num_feature":"5","num_nodes":"13","size_leaf_vector":"1"}},{"base_weights":[-0E0,-3.8219325E-5,8.012066E-5,-2.0607078E-4,3.7534686E-5,-1.0835905E-4,-1.4655605E-5,-0E0,1.4517369E-5],"categories":[],"categories_nodes":[],"categories_segments":[],"categories_sizes":[],"default_left":[0,0,0,0,0,0,0,0,0],"id":33,"left_children":[1,3,-1,5,7,-1,-1,-1,-1],"loss_changes":[3.381767E-5,1.3892429E-5,0E0,5.032023E-6,3.4764685E-6,0E0,0E0,0E0,0E0],"parents":[2147483647,0,0,1,1,3,3,4,4],"right_children":[2,4,-1,6,8,-1,-1,-1,-1],"split_conditions":[1.7559743E0,-3.546456E-1,8.012066E-5,-2.4215422E0,1.3175768E-1,-1.0835905E-4,-1.4655605E-5,-0E0,1.4517369E-5],"split_indices":[0,0,0,0,0,0,0,0,0],"split_type":[0,0,0,0,0,0,0,0,0],"sum_hessian":[1.004E3,9.56E2,4.8E1,3.37E2,6.19E2,8E0,3.29E2,4.15E2,2.04E2],"tree_param":{"num_deleted":"0","num_feature":"5","num_nodes":"9","size_leaf_vector":"1"}},{"base_weights":[-0E0,-5.6997447E-5,4.7356958E-4,-4.0549443E-5,-9.789858E-6,2.6057754E-5,1.436504E-3,-6.0938E-6,4.6700457E-6,1.6404375E-4,-0E0],"categories":[],"categories_nodes":[],"categories_segments":[],"categories_sizes":[],"default_left":[0,0,0,0,0,0,0,0,0,0,0],"id":34,"left_children":[1,3,5,-1,7,-1,9,-1,-1,-1,-1],"loss_changes":[2.8363656E-5,1.0569732E-5,5.3719323E-6,0E0,2.508664E-6,0E0,1.8340834E-6,0E0,0E0,0E0,0E0],"parents":[2147483647,0,0,1,1,2,2,4,4,6,6],"right_children":[2,4,6,-1,8,-1,10,-1,-1,-1,-1],"split_conditions":[1.2673053E0,-1.0025005E0,3.4654868E0,-4.0549443E-5,-7.0138976E-2,2.6057754E-5,-2.7321324E-1,-6.0938E-6,4.6700457E-6,1.6404375E-4,-0E0],"split_indices":[0,0,0,0,0,0,4,0,0,0,0],"split_type":[0,0,0,0,0,0,0,0,0,0,0],"sum_hessian":[1.004E3,8.93E2,1.11E2,7.9E1,8.14E2,1.02E2,9E0,5.2E2,2.94E2,7E0,2E0],"tree_param":{"num_deleted":"0","num_feature":"5","num_nodes":"11","size_leaf_vector":"1"}},{"base_weights":[-0E0,-2.6121606E-5,8.262342E-5,-1.6556258E-4,4.4179218E-5,-9.701359E-5,-1.1409757E-5,-0E0,1.346996E-5],"categories":[],"categories_nodes":[],"categories_segments":[],"categories_sizes":[],"default_left":[0,0,0,0,0,0,0,0,0],"id":35,"left_children":[1,3,-1,5,7,-1,-1,-1,-1],"loss_changes":[2.4898789E-5,1.0775159E-5,0E0,4.388001E-6,2.8448817E-6,0E0,0E0,0E0,0E0],"parents":[2147483647,0,0,1,1,3,3,4,4],"right_children":[2,4,-1,6,8,-1,-1,-1,-1],"split_conditions":[2.0271046E0,-3.0384743E-1,8.262342E-5,-2.4215422E0,1.3175768E-1,-9.701359E-5,-1.1409757E-5,-0E0,1.346996E-5],"split_indices":[0,0,0,0,0,0,0,0,0],"split_type":[0,0,0,0,0,0,0,0,0],"sum_hessian":[1.004E3,9.71E2,3.3E1,3.72E2,5.99E2,8E0,3.64E2,3.8E2,2.19E2],"tree_param":{"num_deleted":"0","num_feature":"5","num_nodes":"9","size_leaf_vector":"1"}},{"base_weights":[-0E0,-6.339378E-5,3.1688387E-4,-5.1131905E-5,-2.8988754E-5,1.8687835E-5,1.2719899E-3,-7.601074E-6,-0E0,1.4586833E-4,-0E0],"categories":[],"categories_nodes":[],"categories_segments":[],"categories_sizes":[],"default_left":[0,0,0,0,0,0,0,0,0,0,0],"id":36,"left_children":[1,3,5,-1,7,-1,9,-1,-1,-1,-1],"loss_changes":[2.1068945E-5,7.3894257E-6,6.732891E-6,0E0,1.6966032E-6,0E0,1.6071717E-6,0E0,0E0,0E0,0E0],"parents":[2147483647,0,0,1,1,2,2,4,4,6,6],"right_children":[2,4,6,-1,8,-1,10,-1,-1,-1,-1],"split_conditions":[9.439202E-1,-1.5908835E0,3.4654868E0,-5.1131905E-5,-2.3129217E-1,1.8687835E-5,-2.7321324E-1,-7.601074E-6,-0E0,1.4586833E-4,-0E0],"split_indices":[0,0,0,0,0,0,4,0,0,0,0],"split_type":[0,0,0,0,0,0,0,0,0,0,0],"sum_hessian":[1.004E3,8.3E2,1.74E2,3.6E1,7.94E2,1.65E2,9E0,4.07E2,3.87E2,7E0,2E0],"tree_param":{"num_deleted":"0","num_feature":"5","num_nodes":"11","size_leaf_vector":"1"}},{"base_weights":[-0E0,-3.0777257E-5,5.2984175E-5,-2.5948033E-5,-0E0,-2.6717742E-6,7.0866067E-6],"categories":[],"categories_nodes":[],"categories_segments":[],"categories_sizes":[],"default_left":[0,0,0,0,0,0,0],"id":37,"left_children":[1,3,-1,-1,5,-1,-1],"loss_changes":[1.8442332E-5,7.755349E-6,0E0,0E0,1.7442298E-6,0E0,0E0],"parents":[2147483647,0,0,1,1,4,4],"right_children":[2,4,-1,-1,6,-1,-1],"split_conditions":[1.651165E0,-8.0183345E-1,5.2984175E-5,-2.5948033E-5,2.2420619E-2,-2.6717742E-6,7.0866067E-6],"split_indices":[0,0,0,0,0,0,0],"split_type":[0,0,0,0,0,0,0],"sum_hessian":[1.004E3,9.44E2,6E1,1.26E2,8.18E2,5.52E2,2.66E2],"tree_param":{"num_deleted":"0","num_feature":"5","num_nodes":"7","size_leaf_vector":"1"}},{"base_weights":[-0E0,-1.735716E-5,7.527512E-5,-4.9608057E-5,-0E0,-3.927936E-6,9.755547E-6],"categories":[],"categories_nodes":[],"categories_segments":[],"categories_sizes":[],"default_left":[0,0,0,0,0,0,0],"id":38,"left_children":[1,3,-1,-1,5,-1,-1],"loss_changes":[1.5878142E-5,7.2102284E-6,0E0,0E0,3.5522612E-6,0E0,0E0],"parents":[2147483647,0,0,1,1,4,4],"right_children":[2,4,-1,-1,6,-1,-1],"split_conditions":[2.4132082E0,-1.733449E0,7.527512E-5,-4.9608057E-5,8.077277E-2,-3.927936E-6,9.755547E-6],"split_indices":[0,0,0,0,0,0,0],"split_type":[0,0,0,0,0,0,0],"sum_hessian":[1.004E3,9.79E2,2.5E1,2.8E1,9.51E2,6.93E2,2.58E2],"tree_param":{"num_deleted":"0","num_feature":"5","num_nodes":"7","size_leaf_vector":"1"}},{"base_weights":[-0E0,-9.098383E-6,1.0828238E-3,-1.0204473E-4,6.0162685E-5,1.2566947E-4,-0E0,-7.996971E-5,-6.545688E-6,1.1997014E-5,-0E0],"categories":[],"categories_nodes":[],"categories_segments":[],"categories_sizes":[],"default_left":[0,0,0,0,0,0,0,0,0,0,0],"id":39,"left_children":[1,3,5,7,9,-1,-1,-1,-1,-1,-1],"loss_changes":[1.3566411E-5,6.8556383E-6,1.5193373E-6,3.6868519E-6,1.4373635E-6,0E0,0E0,0E0,0E0,0E0,0E0],"parents":[2147483647,0,0,1,1,2,2,3,3,4,4],"right_children":[2,4,6,8,10,-1,-1,-1,-1,-1,-1],"split_conditions":[3.4654868E0,-1.8687603E-1,-2.7321324E-1,-2.4215422E0,-7.8586034E-2,1.2566947E-4,-0E0,-7.996971E-5,-6.545688E-6,1.1997014E-5,-0E0],"split_indices":[0,0,4,0,1,0,0,0,0,0,0],"split_type":[0,0,0,0,0,0,0,0,0,0,0],"sum_hessian":[1.004E3,9.95E2,9E0,4.86E2,5.09E2,7E0,2E0,8E0,4.78E2,2.26E2,2.83E2],"tree_param":{"num_deleted":"0","num_feature":"5","num_nodes":"11","size_leaf_vector":"1"}},{"base_weights":[-0E0,-3.1977608E-5,3.3540578E-4,-7.387676E-5,-1.2607117E-5,1.2575448E-5,1.0063298E-3,-6.250762E-6,1.3361862E-6,1.16409654E-4,-0E0],"categories":[],"categories_nodes":[],"categories_segments":[],"categories_sizes":[],"default_left":[0,0,0,0,0,0,0,0,0,0,0],"id":40,"left_children":[1,3,5,-1,7,-1,9,-1,-1,-1,-1],"loss_changes":[1.1900531E-5,4.942197E-6,2.0771395E-6,0E0,1.6643596E-6,0E0,1.2276032E-6,0E0,0E0,0E0,0E0],"parents":[2147483647,0,0,1,1,2,2,4,4,6,6],"right_children":[2,4,6,-1,8,-1,10,-1,-1,-1,-1],"split_conditions":[1.3972175E0,-2.4215422E0,3.4654868E0,-7.387676E-5,-2.2710222E-1,1.2575448E-5,-2.7321324E-1,-6.250762E-6,1.3361862E-6,1.16409654E-4,-0E0],"split_indices":[0,0,0,0,0,0,4,0,0,0,0],"split_type":[0,0,0,0,0,0,0,0,0,0,0],"sum_hessian":[1.004E3,9.09E2,9.5E1,8E0,9.01E2,8.6E1,9E0,4.39E2,4.62E2,7E0,2E0],"tree_param":{"num_deleted":"0","num_feature":"5","num_nodes":"11","size_leaf_vector":"1"}},{"base_weights":[-0E0,-1.5168563E-5,5.3922442E-5,-1.7401615E-5,6.310968E-6,-2.2606855E-7,7.0122815E-6],"categories":[],"categories_nodes":[],"categories_segments":[],"categories_sizes":[],"default_left":[0,0,0,0,0,0,0],"id":41,"left_children":[1,3,-1,-1,5,-1,-1],"loss_changes":[1.0546073E-5,5.0013514E-6,0E0,0E0,1.1190573E-6,0E0,0E0],"parents":[2147483647,0,0,1,1,4,4],"right_children":[2,4,-1,-1,6,-1,-1],"split_conditions":[2.0271046E0,-6.7250663E-1,5.3922442E-5,-1.7401615E-5,1.15715094E-1,-2.2606855E-7,7.0122815E-6],"split_indices":[0,0,0,0,0,0,0],"split_type":[0,0,0,0,0,0,0],"sum_hessian":[1.004E3,9.71E2,3.3E1,1.69E2,8.02E2,5.71E2,2.31E2],"tree_param":{"num_deleted":"0","num_feature":"5","num_nodes":"7","size_leaf_vector":"1"}},{"base_weights":[-0E0,7.953842E-4,-7.527918E-6,1.1040616E-4,-0E0,-6.6922184E-5,-0E0,-3.6865893E-6,6.4117785E-6],"categories":[],"categories_nodes":[],"categories_segments":[],"categories_sizes":[],"default_left":[0,0,0,0,0,0,0,0,0],"id":42,"left_children":[1,3,5,-1,-1,-1,7,-1,-1],"loss_changes":[9.229581E-6,1.1878692E-6,4.646149E-6,0E0,0E0,0E0,2.3252305E-6,0E0,0E0],"parents":[2147483647,0,0,1,1,2,2,6,6],"right_children":[2,4,6,-1,-1,-1,8,-1,-1],"split_conditions":[-5.0159235E0,-2.943381E-1,-2.4215422E0,1.1040616E-4,-0E0,-6.6922184E-5,-2.6171664E-2,-3.6865893E-6,6.4117785E-6],"split_indices":[1,4,0,0,0,0,0,0,0],"split_type":[0,0,0,0,0,0,0,0,0],"sum_hessian":[1.004E3,1.2E1,9.92E2,6E0,6E0,8E0,9.84E2,6.3E2,3.54E2],"tree_param":{"num_deleted":"0","num_feature":"5","num_nodes":"9","size_leaf_vector":"1"}},{"base_weights":[-0E0,-2.5698919E-5,2.8099344E-4,-3.0250487E-5,-0E0,8.798502E-6,8.3566854E-5],"categories":[],"categories_nodes":[],"categories_segments":[],"categories_sizes":[],"default_left":[0,0,0,0,0,0,0],"id":43,"left_children":[1,3,5,-1,-1,-1,-1],"loss_changes":[8.300325E-6,3.653192E-6,1.0177037E-6,0E0,0E0,0E0,0E0],"parents":[2147483647,0,0,1,1,2,2],"right_children":[2,4,6,-1,-1,-1,-1],"split_conditions":[1.3972175E0,-1.4424545E0,3.4654868E0,-3.0250487E-5,-0E0,8.798502E-6,8.3566854E-5],"split_indices":[0,0,0,0,0,0,0],"split_type":[0,0,0,0,0,0,0],"sum_hessian":[1.004E3,9.09E2,9.5E1,4.4E1,8.65E2,8.6E1,9E0],"tree_param":{"num_deleted":"0","num_feature":"5","num_nodes":"7","size_leaf_vector":"1"}},{"base_weights":[-0E0,-3.2115313E-5,2.1164818E-4,-5.9518574E-5,-1.335575E-6,9.999894E-6,9.439876E-5],"categories":[],"categories_nodes":[],"categories_segments":[],"categories_sizes":[],"default_left":[0,0,0,0,0,0,0],"id":44,"left_children":[1,3,5,-1,-1,-1,-1],"loss_changes":[7.5395646E-6,2.9841349E-6,1.4662628E-6,0E0,0E0,0E0,0E0],"parents":[2147483647,0,0,1,1,2,2],"right_children":[2,4,6,-1,-1,-1,-1],"split_conditions":[1.0818881E0,-2.4215422E0,4.428694E0,-5.9518574E-5,-1.335575E-6,9.999894E-6,9.439876E-5],"split_indices":[0,0,0,0,0,0,0],"split_type":[0,0,0,0,0,0,0],"sum_hessian":[1.004E3,8.58E2,1.46E2,8E0,8.5E2,1.41E2,5E0],"tree_param":{"num_deleted":"0","num_feature":"5","num_nodes":"7","size_leaf_vector":"1"}},{"base_weights":[-0E0,-3.8625127E-5,1.6230473E-4,-5.4983797E-5,-1.903767E-6,6.586301E-5,7.4071745E-6],"categories":[],"categories_nodes":[],"categories_segments":[],"categories_sizes":[],"default_left":[0,0,0,0,0,0,0],"id":45,"left_children":[1,3,5,-1,-1,-1,-1],"loss_changes":[6.7612973E-6,2.270729E-6,1.8130822E-6,0E0,0E0,0E0,0E0],"parents":[2147483647,0,0,1,1,2,2],"right_children":[2,4,6,-1,-1,-1,-1],"split_conditions":[7.2067803E-1,-2.4215422E0,-5.0159235E0,-5.4983797E-5,-1.903767E-6,6.586301E-5,7.4071745E-6],"split_indices":[0,0,1,0,0,0,0],"split_type":[0,0,0,0,0,0,0],"sum_hessian":[1.004E3,7.95E2,2.09E2,8E0,7.87E2,1.2E1,1.97E2],"tree_param":{"num_deleted":"0","num_feature":"5","num_nodes":"7","size_leaf_vector":"1"}},{"base_weights":[-0E0,-2.4072051E-5,2.1822887E-5,-1.1664276E-5,-0E0],"categories":[],"categories_nodes":[],"categories_segments":[],"categories_sizes":[],"default_left":[0,0,0,0,0],"id":46,"left_children":[1,3,-1,-1,-1],"loss_changes":[5.9242157E-6,2.617166E-6,0E0,0E0,0E0],"parents":[2147483647,0,0,1,1],"right_children":[2,4,-1,-1,-1],"split_conditions":[1.2673053E0,-5.392491E-1,2.1822887E-5,-1.1664276E-5,-0E0],"split_indices":[0,0,0,0,0],"split_type":[0,0,0,0,0],"sum_hessian":[1.004E3,8.93E2,1.11E2,2.28E2,6.65E2],"tree_param":{"num_deleted":"0","num_feature":"5","num_nodes":"5","size_leaf_vector":"1"}},{"base_weights":[-0E0,-6.640513E-6,5.138652E-5,-2.4063707E-5,-0E0],"categories":[],"categories_nodes":[],"categories_segments":[],"categories_sizes":[],"default_left":[0,0,0,0,0],"id":47,"left_children":[1,3,-1,-1,-1],"loss_changes":[5.1927536E-6,2.6490045E-6,0E0,0E0,0E0],"parents":[2147483647,0,0,1,1],"right_children":[2,4,-1,-1,-1],"split_conditions":[2.7408988E0,-1.4424545E0,5.138652E-5,-2.4063707E-5,-0E0],"split_indices":[0,0,0,0,0],"split_type":[0,0,0,0,0],"sum_hessian":[1.004E3,9.87E2,1.7E1,4.4E1,9.43E2],"tree_param":{"num_deleted":"0","num_feature":"5","num_nodes":"5","size_leaf_vector":"1"}},{"base_weights":[-0E0,-3.4052457E-5,1.2796772E-4,-4.8072496E-5,-1.4776276E-6,6.141997E-6,7.8834004E-5],"categories":[],"categories_nodes":[],"categories_segments":[],"categories_sizes":[],"default_left":[0,0,0,0,0,0,0],"id":48,"left_children":[1,3,5,-1,-1,-1,-1],"loss_changes":[4.7381977E-6,1.6957825E-6,1.6867571E-6,0E0,0E0,0E0,0E0],"parents":[2147483647,0,0,1,1,2,2],"right_children":[2,4,6,-1,-1,-1,-1],"split_conditions":[4.8173192E-1,-2.4215422E0,4.428694E0,-4.8072496E-5,-1.4776276E-6,6.141997E-6,7.8834004E-5],"split_indices":[0,0,0,0,0,0,0],"split_type":[0,0,0,0,0,0,0],"sum_hessian":[1.004E3,7.72E2,2.32E2,8E0,7.64E2,2.27E2,5E0],"tree_param":{"num_deleted":"0","num_feature":"5","num_nodes":"7","size_leaf_vector":"1"}},{"base_weights":[-0E0,1.1820004E-4,-3.2814933E-5,5.508217E-6,7.357836E-5,-1.2563313E-6,-3.681574E-5],"categories":[],"categories_nodes":[],"categories_segments":[],"categories_sizes":[],"default_left":[0,0,0,0,0,0,0],"id":49,"left_children":[1,3,5,-1,-1,-1,-1],"loss_changes":[4.200516E-6,1.403826E-6,1.3934966E-6,0E0,0E0,0E0,0E0],"parents":[2147483647,0,0,1,1,2,2],"right_children":[2,4,6,-1,-1,-1,-1],"split_conditions":[-7.6964945E-2,4.428694E0,2.8404567E0,5.508217E-6,7.357836E-5,-1.2563313E-6,-3.681574E-5],"split_indices":[1,0,1,0,0,0,0],"split_type":[0,0,0,0,0,0,0],"sum_hessian":[1.004E3,2.39E2,7.65E2,2.34E2,5E0,7.52E2,1.3E1],"tree_param":{"num_deleted":"0","num_feature":"5","num_nodes":"7","size_leaf_vector":"1"}},{"base_weights":[-0E0,1.292909E-5,-2.6271837E-5,-9.086434E-6,-0E0],"categories":[],"categories_nodes":[],"categories_segments":[],"categories_sizes":[],"default_left":[0,0,0,0,0],"id":50,"left_children":[1,-1,3,-1,-1],"loss_changes":[3.749361E-6,0E0,1.4950175E-6,0E0,0E0],"parents":[2147483647,0,0,2,2],"right_children":[2,-1,4,-1,-1],"split_conditions":[-3.0046684E-1,1.292909E-5,-5.138409E-1,-9.086434E-6,-0E0],"split_indices":[1,0,0,0,0],"split_type":[0,0,0,0,0],"sum_hessian":[1.004E3,1.88E2,8.16E2,2.47E2,5.69E2],"tree_param":{"num_deleted":"0","num_feature":"5","num_nodes":"5","size_leaf_vector":"1"}},{"base_weights":[-0E0,-2.1425544E-6,6.781124E-5,-7.415889E-6,1.4412193E-6],"categories":[],"categories_nodes":[],"categories_segments":[],"categories_sizes":[],"default_left":[0,0,0,0,0],"id":51,"left_children":[1,3,-1,-1,-1],"loss_changes":[3.4533703E-6,1.7941395E-6,0E0,0E0,0E0],"parents":[2147483647,0,0,1,1],"right_children":[2,4,-1,-1,-1],"split_conditions":[4.428694E0,-4.219475E-1,6.781124E-5,-7.415889E-6,1.4412193E-6],"split_indices":[0,0,0,0,0],"split_type":[0,0,0,0,0],"sum_hessian":[1.004E3,9.99E2,5E0,2.98E2,7.01E2],"tree_param":{"num_deleted":"0","num_feature":"5","num_nodes":"5","size_leaf_vector":"1"}},{"base_weights":[-0E0,-8.6903E-6,2.5592413E-5,-4.034752E-5,-0E0],"categories":[],"categories_nodes":[],"categories_segments":[],"categories_sizes":[],"default_left":[0,0,0,0,0],"id":52,"left_children":[1,3,-1,-1,-1],"loss_changes":[3.183729E-6,1.6367046E-6,0E0,0E0,0E0],"parents":[2147483647,0,0,1,1],"right_children":[2,4,-1,-1,-1],"split_conditions":[1.7869226E0,-2.4215422E0,2.5592413E-5,-4.034752E-5,-0E0],"split_indices":[0,0,0,0,0],"split_type":[0,0,0,0,0],"sum_hessian":[1.004E3,9.59E2,4.5E1,8E0,9.51E2],"tree_param":{"num_deleted":"0","num_feature":"5","num_nodes":"5","size_leaf_vector":"1"}},{"base_weights":[-0E0,-1.6445699E-6,6.158429E-5,-1.2050374E-5,1.0512544E-7],"categories":[],"categories_nodes":[],"categories_segments":[],"categories_sizes":[],"default_left":[0,0,0,0,0],"id":53,"left_children":[1,3,-1,-1,-1],"loss_changes":[2.8471773E-6,1.5157455E-6,0E0,0E0,0E0],"parents":[2147483647,0,0,1,1],"right_children":[2,4,-1,-1,-1],"split_conditions":[4.428694E0,-8.99984E-1,6.158429E-5,-1.2050374E-5,1.0512544E-7],"split_indices":[0,0,0,0,0],"split_type":[0,0,0,0,0],"sum_hessian":[1.004E3,9.99E2,5E0,1.02E2,8.97E2],"tree_param":{"num_deleted":"0","num_feature":"5","num_nodes":"5","size_leaf_vector":"1"}},{"base_weights":[-0E0,-2.551961E-6,8.878571E-6],"categories":[],"categories_nodes":[],"categories_segments":[],"categories_sizes":[],"default_left":[0,0,0],"id":54,"left_children":[1,-1,-1],"loss_changes":[2.5264935E-6,0E0,0E0],"parents":[2147483647,0,0],"right_children":[2,-1,-1],"split_conditions":[1.2796377E-1,-2.551961E-6,8.878571E-6],"split_indices":[0,0,0],"split_type":[0,0,0],"sum_hessian":[1.004E3,7.48E2,2.56E2],"tree_param":{"num_deleted":"0","num_feature":"5","num_nodes":"3","size_leaf_vector":"1"}},{"base_weights":[-0E0,-8.306816E-7,5.6886696E-5,-3.616086E-5,-0E0],"categories":[],"categories_nodes":[],"categories_segments":[],"categories_sizes":[],"default_left":[0,0,0,0,0],"id":55,"left_children":[1,3,-1,-1,-1],"loss_changes":[2.4277633E-6,1.3722972E-6,0E0,0E0,0E0],"parents":[2147483647,0,0,1,1],"right_children":[2,4,-1,-1,-1],"split_conditions":[4.428694E0,-2.4215422E0,5.6886696E-5,-3.616086E-5,-0E0],"split_indices":[0,0,0,0,0],"split_type":[0,0,0,0,0],"sum_hessian":[1.004E3,9.99E2,5E0,8E0,9.91E2],"tree_param":{"num_deleted":"0","num_feature":"5","num_nodes":"5","size_leaf_vector":"1"}},{"base_weights":[-0E0,-1.0081681E-5,1.6331755E-5,-2.5492443E-5,-0E0],"categories":[],"categories_nodes":[],"categories_segments":[],"categories_sizes":[],"default_left":[0,0,0,0,0],"id":56,"left_children":[1,3,-1,-1,-1],"loss_changes":[2.1883768E-6,1.1076734E-6,0E0,0E0,0E0],"parents":[2147483647,0,0,1,1],"right_children":[2,4,-1,-1,-1],"split_conditions":[1.5554572E0,-2.132581E0,1.6331755E-5,-2.5492443E-5,-0E0],"split_indices":[0,0,0,0,0],"split_type":[0,0,0,0,0],"sum_hessian":[1.004E3,9.28E2,7.6E1,1.6E1,9.12E2],"tree_param":{"num_deleted":"0","num_feature":"5","num_nodes":"5","size_leaf_vector":"1"}},{"base_weights":[-0E0,-1.2923795E-6,5.200545E-5,-0E0,-1.629509E-5],"categories":[],"categories_nodes":[],"categories_segments":[],"categories_sizes":[],"default_left":[0,0,0,0,0],"id":57,"left_children":[1,3,-1,-1,-1],"loss_changes":[2.030098E-6,1.0471705E-6,0E0,0E0,0E0],"parents":[2147483647,0,0,1,1],"right_children":[2,4,-1,-1,-1],"split_conditions":[4.428694E0,1.7860546E0,5.200545E-5,-0E0,-1.629509E-5],"split_indices":[0,1,0,0,0],"split_type":[0,0,0,0,0],"sum_hessian":[1.004E3,9.99E2,5E0,9.62E2,3.7E1],"tree_param":{"num_deleted":"0","num_feature":"5","num_nodes":"5","size_leaf_vector":"1"}},{"base_weights":[-0E0,-3.0343696E-7,3.05205E-5],"categories":[],"categories_nodes":[],"categories_segments":[],"categories_sizes":[],"default_left":[0,0,0],"id":58,"left_children":[1,-1,-1],"loss_changes":[1.8255372E-6,0E0,0E0],"parents":[2147483647,0,0],"right_children":[2,-1,-1],"split_conditions":[2.7408988E0,-3.0343696E-7,3.05205E-5],"split_indices":[0,0,0],"split_type":[0,0,0],"sum_hessian":[1.004E3,9.87E2,1.7E1],"tree_param":{"num_deleted":"0","num_feature":"5","num_nodes":"3","size_leaf_vector":"1"}},{"base_weights":[-0E0,-3.64808E-6,4.702247E-6],"categories":[],"categories_nodes":[],"categories_segments":[],"categories_sizes":[],"default_left":[0,0,0],"id":59,"left_children":[1,-1,-1],"loss_changes":[1.7596313E-6,0E0,0E0],"parents":[2147483647,0,0],"right_children":[2,-1,-1],"split_conditions":[-1.3725318E-1,-3.64808E-6,4.702247E-6],"split_indices":[0,0,0],"split_type":[0,0,0],"sum_hessian":[1.004E3,5.33E2,4.71E2],"tree_param":{"num_deleted":"0","num_feature":"5","num_nodes":"3","size_leaf_vector":"1"}},{"base_weights":[-0E0,-1.0034584E-7,4.6190275E-5],"categories":[],"categories_nodes":[],"categories_segments":[],"categories_sizes":[],"default_left":[0,0,0],"id":60,"left_children":[1,-1,-1],"loss_changes":[1.6011643E-6,0E0,0E0],"parents":[2147483647,0,0],"right_children":[2,-1,-1],"split_conditions":[4.428694E0,-1.0034584E-7,4.6190275E-5],"split_indices":[0,0,0],"split_type":[0,0,0],"sum_hessian":[1.004E3,9.99E2,5E0],"tree_param":{"num_deleted":"0","num_feature":"5","num_nodes":"3","size_leaf_vector":"1"}},{"base_weights":[-0E0,-2.4876094E-6,5.4742322E-6],"categories":[],"categories_nodes":[],"categories_segments":[],"categories_sizes":[],"default_left":[0,0,0],"id":61,"left_children":[1,-1,-1],"loss_changes":[1.4435767E-6,0E0,0E0],"parents":[2147483647,0,0],"right_children":[2,-1,-1],"split_conditions":[2.985206E-4,-2.4876094E-6,5.4742322E-6],"split_indices":[0,0,0],"split_type":[0,0,0],"sum_hessian":[1.004E3,6.62E2,3.42E2],"tree_param":{"num_deleted":"0","num_feature":"5","num_nodes":"3","size_leaf_vector":"1"}},{"base_weights":[-0E0,-1.1011709E-7,4.2745993E-5],"categories":[],"categories_nodes":[],"categories_segments":[],"categories_sizes":[],"default_left":[0,0,0],"id":62,"left_children":[1,-1,-1],"loss_changes":[1.3716293E-6,0E0,0E0],"parents":[2147483647,0,0],"right_children":[2,-1,-1],"split_conditions":[4.428694E0,-1.1011709E-7,4.2745993E-5],"split_indices":[0,0,0],"split_type":[0,0,0],"sum_hessian":[1.004E3,9.99E2,5E0],"tree_param":{"num_deleted":"0","num_feature":"5","num_nodes":"3","size_leaf_vector":"1"}},{"base_weights":[-0E0,-9.3525506E-7,1.1166399E-5],"categories":[],"categories_nodes":[],"categories_segments":[],"categories_sizes":[],"default_left":[0,0,0],"id":63,"left_children":[1,-1,-1],"loss_changes":[1.2582975E-6,0E0,0E0],"parents":[2147483647,0,0],"right_children":[2,-1,-1],"split_conditions":[1.4377657E0,-9.3525506E-7,1.1166399E-5],"split_indices":[0,0,0],"split_type":[0,0,0],"sum_hessian":[1.004E3,9.12E2,9.2E1],"tree_param":{"num_deleted":"0","num_feature":"5","num_nodes":"3","size_leaf_vector":"1"}},{"base_weights":[-0E0,2.8187924E-5,-2.2748247E-7],"categories":[],"categories_nodes":[],"categories_segments":[],"categories_sizes":[],"default_left":[0,0,0],"id":64,"left_children":[1,-1,-1],"loss_changes":[1.1572569E-6,0E0,0E0],"parents":[2147483647,0,0],"right_children":[2,-1,-1],"split_conditions":[-5.0159235E0,2.8187924E-5,-2.2748247E-7],"split_indices":[1,0,0],"split_type":[0,0,0],"sum_hessian":[1.004E3,1.2E1,9.92E2],"tree_param":{"num_deleted":"0","num_feature":"5","num_nodes":"3","size_leaf_vector":"1"}},{"base_weights":[-0E0,-3.1528486E-6,3.439998E-6],"categories":[],"categories_nodes":[],"categories_segments":[],"categories_sizes":[],"default_left":[0,0,0],"id":65,"left_children":[1,-1,-1],"loss_changes":[1.0992574E-6,0E0,0E0],"parents":[2147483647,0,0],"right_children":[2,-1,-1],"split_conditions":[-1.7293169E-1,-3.1528486E-6,3.439998E-6],"split_indices":[0,0,0],"split_type":[0,0,0],"sum_hessian":[1.004E3,4.98E2,5.06E2],"tree_param":{"num_deleted":"0","num_feature":"5","num_nodes":"3","size_leaf_vector":"1"}},{"base_weights":[-0E0,-1.234547E-7,3.704332E-5],"categories":[],"categories_nodes":[],"categories_segments":[],"categories_sizes":[],"default_left":[0,0,0],"id":66,"left_children":[1,-1,-1],"loss_changes":[1.0306819E-6,0E0,0E0],"parents":[2147483647,0,0],"right_children":[2,-1,-1],"split_conditions":[4.428694E0,-1.234547E-7,3.704332E-5],"split_indices":[0,0,0],"split_type":[0,0,0],"sum_hessian":[1.004E3,9.99E2,5E0],"tree_param":{"num_deleted":"0","num_feature":"5","num_nodes":"3","size_leaf_vector":"1"}},{"base_weights":[-0E0],"categories":[],"categories_nodes":[],"categories_segments":[],"categories_sizes":[],"default_left":[0],"id":67,"left_children":[-1],"loss_changes":[0E0],"parents":[2147483647],"right_children":[-1],"split_conditions":[-0E0],"split_indices":[0],"split_type":[0],"sum_hessian":[1.004E3],"tree_param":{"num_deleted":"0","num_feature":"5","num_nodes":"1","size_leaf_vector":"1"}},{"base_weights":[-0E0],"categories":[],"categories_nodes":[],"categories_segments":[],"categories_sizes":[],"default_left":[0],"id":68,"left_children":[-1],"loss_changes":[0E0],"parents":[2147483647],"right_children":[-1],"split_conditions":[-0E0],"split_indices":[0],"split_type":[0],"sum_hessian":[1.004E3],"tree_param":{"num_deleted":"0","num_feature":"5","num_nodes":"1","size_leaf_vector":"1"}},{"base_weights":[-0E0],"categories":[],"categories_nodes":[],"categories_segments":[],"categories_sizes":[],"default_left":[0],"id":69,"left_children":[-1],"loss_changes":[0E0],"parents":[2147483647],"right_children":[-1],"split_conditions":[-0E0],"split_indices":[0],"split_type":[0],"sum_hessian":[1.004E3],"tree_param":{"num_deleted":"0","num_feature":"5","num_nodes":"1","size_leaf_vector":"1"}},{"base_weights":[-0E0],"categories":[],"categories_nodes":[],"categories_segments":[],"categories_sizes":[],"default_left":[0],"id":70,"left_children":[-1],"loss_changes":[0E0],"parents":[2147483647],"right_children":[-1],"split_conditions":[-0E0],"split_indices":[0],"split_type":[0],"sum_hessian":[1.004E3],"tree_param":{"num_deleted":"0","num_feature":"5","num_nodes":"1","size_leaf_vector":"1"}},{"base_weights":[-0E0],"categories":[],"categories_nodes":[],"categories_segments":[],"categories_sizes":[],"default_left":[0],"id":71,"left_children":[-1],"loss_changes":[0E0],"parents":[2147483647],"right_children":[-1],"split_conditions":[-0E0],"split_indices":[0],"split_type":[0],"sum_hessian":[1.004E3],"tree_param":{"num_deleted":"0","num_feature":"5","num_nodes":"1","size_leaf_vector":"1"}},{"base_weights":[-0E0],"categories":[],"categories_nodes":[],"categories_segments":[],"categories_sizes":[],"default_left":[0],"id":72,"left_children":[-1],"loss_changes":[0E0],"parents":[2147483647],"right_children":[-1],"split_conditions":[-0E0],"split_indices":[0],"split_type":[0],"sum_hessian":[1.004E3],"tree_param":{"num_deleted":"0","num_feature":"5","num_nodes":"1","size_leaf_vector":"1"}},{"base_weights":[-0E0],"categories":[],"categories_nodes":[],"categories_segments":[],"categories_sizes":[],"default_left":[0],"id":73,"left_children":[-1],"loss_changes":[0E0],"parents":[2147483647],"right_children":[-1],"split_conditions":[-0E0],"split_indices":[0],"split_type":[0],"sum_hessian":[1.004E3],"tree_param":{"num_deleted":"0","num_feature":"5","num_nodes":"1","size_leaf_vector":"1"}},{"base_weights":[-0E0],"categories":[],"categories_nodes":[],"categories_segments":[],"categories_sizes":[],"default_left":[0],"id":74,"left_children":[-1],"loss_changes":[0E0],"parents":[2147483647],"right_children":[-1],"split_conditions":[-0E0],"split_indices":[0],"split_type":[0],"sum_hessian":[1.004E3],"tree_param":{"num_deleted":"0","num_feature":"5","num_nodes":"1","size_leaf_vector":"1"}},{"base_weights":[-0E0],"categories":[],"categories_nodes":[],"categories_segments":[],"categories_sizes":[],"default_left":[0],"id":75,"left_children":[-1],"loss_changes":[0E0],"parents":[2147483647],"right_children":[-1],"split_conditions":[-0E0],"split_indices":[0],"split_type":[0],"sum_hessian":[1.004E3],"tree_param":{"num_deleted":"0","num_feature":"5","num_nodes":"1","size_leaf_vector":"1"}},{"base_weights":[-0E0],"categories":[],"categories_nodes":[],"categories_segments":[],"categories_sizes":[],"default_left":[0],"id":76,"left_children":[-1],"loss_changes":[0E0],"parents":[2147483647],"right_children":[-1],"split_conditions":[-0E0],"split_indices":[0],"split_type":[0],"sum_hessian":[1.004E3],"tree_param":{"num_deleted":"0","num_feature":"5","num_nodes":"1","size_leaf_vector":"1"}}]},"name":"gbtree"},"learner_model_param":{"base_score":"-1.0812376E-3","boost_from_average":"1","num_class":"0","num_feature":"5","num_target":"1"},"objective":{"name":"reg:squarederror","reg_loss_param":{"scale_pos_weight":"1"}}},"version":[2,1,3]}