{"learner":{"attributes":{"best_iteration":"78","best_score":"0.00086286934448177"},"feature_names":["f0","f1","f2","f3","f4"],"feature_types":[],"gradient_booster":{"model":{"gbtree_model_param":{"num_parallel_tree":"1","num_trees":"89"},"iteration_indptr":[0,1,2,3,4,5,6,7,8,9,10,11,12,13,14,15,16,17,18,19,20,21,22,23,24,25,26,27,28,29,30,31,32,33,34,35,36,37,38,39,40,41,42,43,44,45,46,47,48,49,50,51,52,53,54,55,56,57,58,59,60,61,62,63,64,65,66,67,68,69,70,71,72,73,74,75,76,77,78,79,80,81,82,83,84,85,86,87,88,89],"tree_info":[0,0,0,0,0,0,0,0,0,0,0,0,0,0,0,0,0,0,0,0,0,0,0,0,0,0,0,0,0,0,0,0,0,0,0,0,0,0,0,0,0,0,0,0,0,0,0,0,0,0,0,0,0,0,0,0,0,0,0,0,0,0,0,0,0,0,0,0,0,0,0,0,0,0,0,0,0,0,0,0,0,0,0,0,0,0,0,0,0],"trees":[{"base_weights":[-0E0,2.2912068E-2,-5.4056016E-3,1.6279824E-2,4.192138E-3,-1.0592775E-2,-6.058049E-4,1.0567942E-3,1.8306057E-3,-1.3254366E-3,-7.7072805E-4,-2.6404303E-3,2.1729316E-3,-3.5109528E-4,-1.08195156E-4,6.9783935E-5,3.564539E-4],"categories":[],"categories_nodes":[],"categories_segments":[],"categories_sizes":[],"default_left":[0,0,0,0,0,0,0,0,0,0,0,0,0,0,0,0,0],"id":0,"left_children":[1,3,5,7,-1,9,11,-1,-1,-1,-1,13,15,-1,-1,-1,-1],"loss_changes":[6.390841E-2,1.013013E-2,1.0266624E-2,1.2456998E-4,0E0,1.0671597E-3,1.2656568E-3,0E0,0E0,0E0,0E0,1.2162246E-4,1.4103684E-4,0E0,0E0,0E0,0E0],"parents":[2147483647,0,0,1,1,2,2,3,3,5,5,6,6,11,11,12,12],"right_children":[2,4,6,8,-1,10,12,-1,-1,-1,-1,14,16,-1,-1,-1,-1],"split_conditions":[-4.9174715E-2,2.7923894E0,-4.0353346E-1,1.0480944E0,4.192138E-3,-7.538457E-1,-1.0967743E-2,1.0567942E-3,1.8306057E-3,-1.3254366E-3,-7.7072805E-4,-1.638885E-1,1.5753445E-1,-3.5109528E-4,-1.08195156E-4,6.9783935E-5,3.564539E-4],"split_indices":[1,0,0,0,0,0,0,0,0,0,0,0,0,0,0,0,0],"split_type":[0,0,0,0,0,0,0,0,0,0,0,0,0,0,0,0,0],"sum_hessian":[5.11E2,9.6E1,4.15E2,7.5E1,2.1E1,1.97E2,2.18E2,2.5E1,5E1,9.6E1,1.01E2,1.28E2,9E1,7.6E1,5.2E1,4.9E1,4.1E1],"tree_param":{"num_deleted":"0","num_feature":"5","num_nodes":"17","size_leaf_vector":"1"}},{"base_weights":[6.5740073E-6,-4.911587E-3,2.0693988E-2,-9.433695E-3,-4.5457392E-4,1.4674321E-2,3.8175215E-3,-1.1729548E-3,-6.592648E-4,-2.2305646E-3,1.956591E-3,8.643658E-4,1.6195759E-3,-2.8406378E-4,-6.223827E-5,4.3733467E-5,2.910208E-4],"categories":[],"categories_nodes":[],"categories_segments":[],"categories_sizes":[],"default_left":[0,0,0,0,0,0,0,0,0,0,0,0,0,0,0,0,0],"id":1,"left_children":[1,3,5,7,9,11,-1,-1,-1,13,15,-1,-1,-1,-1,-1,-1],"loss_changes":[5.2657478E-2,8.284994E-3,8.541517E-3,9.638537E-4,9.279015E-4,1.21889636E-4,0E0,0E0,0E0,8.506008E-5,9.300932E-5,0E0,0E0,0E0,0E0,0E0,0E0],"parents":[2147483647,0,0,1,1,2,2,3,3,4,4,5,5,9,9,10,10],"right_children":[2,4,6,8,10,12,-1,-1,-1,14,16,-1,-1,-1,-1,-1,-1],"split_conditions":[6.168738E-1,-3.7947392E-1,2.7923894E0,-7.1472824E-1,-3.080907E-3,9.898477E-1,3.8175215E-3,-1.1729548E-3,-6.592648E-4,-1.329272E-1,1.2207077E-1,8.643658E-4,1.6195759E-3,-2.8406378E-4,-6.223827E-5,4.3733467E-5,2.910208E-4],"split_indices":[0,0,0,0,0,0,0,0,0,0,0,0,0,0,0,0,0],"split_type":[0,0,0,0,0,0,0,0,0,0,0,0,0,0,0,0,0],"sum_hessian":[5.11E2,4.14E2,9.7E1,2.03E2,2.11E2,7.6E1,2.1E1,1.06E2,9.7E1,1.24E2,8.7E1,2E1,5.6E1,8.4E1,4E1,3.9E1,4.8E1],"tree_param":{"num_deleted":"0","num_feature":"5","num_nodes":"17","size_leaf_vector":"1"}},{"base_weights":[2.7619106E-5,-4.4338964E-3,1.8803017E-2,-8.900245E-3,-7.2536425E-4,1.3022737E-2,3.3908268E-3,-1.1142729E-3,-6.7144923E-4,-2.522987E-3,1.5406301E-3,9.117323E-4,1.5094196E-3,-3.5698144E-4,-1.3956192E-4,2.002226E-5,2.5916667E-4],"categories":[],"categories_nodes":[],"categories_segments":[],"categories_sizes":[],"default_left":[0,0,0,0,0,0,0,0,0,0,0,0,0,0,0,0,0],"id":2,"left_children":[1,3,5,7,9,11,-1,-1,-1,13,15,-1,-1,-1,-1,-1,-1],"loss_changes":[4.336633E-2,6.7863436E-3,7.114347E-3,5.5341795E-4,9.6253393E-4,3.27155E-5,0E0,0E0,0E0,9.4261544E-5,1.1377879E-4,0E0,0E0,0E0,0E0,0E0,0E0],"parents":[2147483647,0,0,1,1,2,2,3,3,4,4,5,5,9,9,10,10],"right_children":[2,4,6,8,10,12,-1,-1,-1,14,16,-1,-1,-1,-1,-1,-1],"split_conditions":[6.168738E-1,-4.480941E-1,1.8912392E0,-8.2089376E-1,-4.6800546E-2,1.1459832E0,3.3908268E-3,-1.1142729E-3,-6.7144923E-4,-2.2509584E-1,1.1844413E-1,9.117323E-4,1.5094196E-3,-3.5698144E-4,-1.3956192E-4,2.002226E-5,2.5916667E-4],"split_indices":[0,0,0,0,0,0,0,0,0,0,0,0,0,0,0,0,0],"split_type":[0,0,0,0,0,0,0,0,0,0,0,0,0,0,0,0,0],"sum_hessian":[5.11E2,4.14E2,9.7E1,1.85E2,2.29E2,7.4E1,2.3E1,8.4E1,1.01E2,1.3E2,9.9E1,3.2E1,4.2E1,6E1,7E1,4.9E1,5E1],"tree_param":{"num_deleted":"0","num_feature":"5","num_nodes":"17","size_leaf_vector":"1"}},{"base_weights":[4.340148E-5,-3.9046465E-3,1.753079E-2,-7.5326827E-3,-4.149716E-5,1.2328165E-3,3.173371E-3,-9.411985E-4,-5.0047535E-4,-1.5002646E-3,2.0499737E-3,-1.9652108E-4,-5.017913E-6,9.6063945E-5,3.5363057E-4],"categories":[],"categories_nodes":[],"categories_segments":[],"categories_sizes":[],"default_left":[0,0,0,0,0,0,0,0,0,0,0,0,0,0,0],"id":3,"left_children":[1,3,5,7,9,-1,-1,-1,-1,11,13,-1,-1,-1,-1],"loss_changes":[3.5759967E-2,5.8170557E-3,5.6380667E-3,7.618563E-4,6.352679E-4,0E0,0E0,0E0,0E0,6.488734E-5,8.1733684E-5,0E0,0E0,0E0,0E0],"parents":[2147483647,0,0,1,1,2,2,3,3,4,4,9,9,10,10],"right_children":[2,4,6,8,10,-1,-1,-1,-1,12,14,-1,-1,-1,-1],"split_conditions":[7.31479E-1,-3.4467062E-1,2.7923894E0,-6.6308814E-1,2.7810292E-2,1.2328165E-3,3.173371E-3,-9.411985E-4,-5.0047535E-4,-9.514843E-2,2.2433017E-1,-1.9652108E-4,-5.017913E-6,9.6063945E-5,3.5363057E-4],"split_indices":[0,0,0,0,0,0,0,0,0,0,0,0,0,0,0],"split_type":[0,0,0,0,0,0,0,0,0,0,0,0,0,0,0],"sum_hessian":[5.11E2,4.18E2,9.3E1,2.13E2,2.05E2,7.2E1,2.1E1,1.16E2,9.7E1,1.24E2,8.1E1,8.8E1,3.6E1,5.3E1,2.8E1],"tree_param":{"num_deleted":"0","num_feature":"5","num_nodes":"15","size_leaf_vector":"1"}},{"base_weights":[5.2755007E-5,-3.5709606E-3,1.5708068E-2,-7.505818E-3,-6.809613E-4,1.1012225E-2,2.8897934E-3,-9.406668E-4,-5.789762E-4,-2.2524842E-3,1.2957959E-3,7.728661E-4,1.3206959E-3,-3.116605E-4,-1.1965987E-4,3.5312227E-5,2.7025928E-4],"categories":[],"categories_nodes":[],"categories_segments":[],"categories_sizes":[],"default_left":[0,0,0,0,0,0,0,0,0,0,0,0,0,0,0,0,0],"id":4,"left_children":[1,3,5,7,9,11,-1,-1,-1,13,15,-1,-1,-1,-1,-1,-1],"loss_changes":[2.9392665E-2,4.6644253E-3,4.8442315E-3,2.8435513E-4,7.7951426E-4,8.6763874E-5,0E0,0E0,0E0,7.5738644E-5,1.0961812E-4,0E0,0E0,0E0,0E0,0E0,0E0],"parents":[2147483647,0,0,1,1,2,2,3,3,4,4,5,5,9,9,10,10],"right_children":[2,4,6,8,10,12,-1,-1,-1,14,16,-1,-1,-1,-1,-1,-1],"split_conditions":[6.7708725E-1,-4.839963E-1,2.7923894E0,-8.7056524E-1,-5.619744E-2,1.2132801E0,2.8897934E-3,-9.406668E-4,-5.789762E-4,-2.37614E-1,1.863868E-1,7.728661E-4,1.3206959E-3,-3.116605E-4,-1.1965987E-4,3.5312227E-5,2.7025928E-4],"split_indices":[0,0,0,0,0,0,0,0,0,0,0,0,0,0,0,0,0],"split_type":[0,0,0,0,0,0,0,0,0,0,0,0,0,0,0,0,0],"sum_hessian":[5.11E2,4.16E2,9.5E1,1.73E2,2.43E2,7.4E1,2.1E1,7.4E1,9.9E1,1.38E2,1.05E2,3.6E1,3.8E1,6.8E1,7E1,6.9E1,3.6E1],"tree_param":{"num_deleted":"0","num_feature":"5","num_nodes":"17","size_leaf_vector":"1"}},{"base_weights":[6.37305E-5,-3.3114587E-3,1.3944091E-2,-6.874492E-3,-7.7281473E-4,9.353941E-3,2.5081774E-3,-8.542311E-4,-5.3370424E-4,-2.1433374E-3,9.561249E-4,4.675922E-4,1.0232595E-3,-2.92161E-4,-1.1639605E-4,-0E0,1.6826368E-4],"categories":[],"categories_nodes":[],"categories_segments":[],"categories_sizes":[],"default_left":[0,0,0,0,0,0,0,0,0,0,0,0,0,0,0,0,0],"id":5,"left_children":[1,3,5,7,9,11,-1,-1,-1,13,15,-1,-1,-1,-1,-1,-1],"loss_changes":[2.4278646E-2,3.6595115E-3,4.2581577E-3,1.8442236E-4,6.010897E-4,4.574051E-5,0E0,0E0,0E0,5.8497128E-5,7.3017836E-5,0E0,0E0,0E0,0E0,0E0,0E0],"parents":[2147483647,0,0,1,1,2,2,3,3,4,4,5,5,9,9,10,10],"right_children":[2,4,6,8,10,12,-1,-1,-1,14,16,-1,-1,-1,-1,-1,-1],"split_conditions":[4.9578765E-1,-5.0081927E-1,1.7939088E0,-8.9322567E-1,-6.910464E-2,8.9229655E-1,2.5081774E-3,-8.542311E-4,-5.3370424E-4,-2.5478244E-1,8.257645E-2,4.675922E-4,1.0232595E-3,-2.92161E-4,-1.1639605E-4,-0E0,1.6826368E-4],"split_indices":[0,0,0,0,0,0,0,0,0,0,0,0,0,0,0,0,0],"split_type":[0,0,0,0,0,0,0,0,0,0,0,0,0,0,0,0,0],"sum_hessian":[5.11E2,4.12E2,9.9E1,1.68E2,2.44E2,7.4E1,2.5E1,7.2E1,9.6E1,1.39E2,1.05E2,1.6E1,5.8E1,6.9E1,7E1,4.7E1,5.8E1],"tree_param":{"num_deleted":"0","num_feature":"5","num_nodes":"17","size_leaf_vector":"1"}},{"base_weights":[6.714404E-5,-2.994721E-3,1.2667885E-2,-6.3150767E-3,-7.6230394E-4,8.820451E-3,2.4074214E-3,-7.8886043E-4,-5.0172926E-4,-2.0232298E-3,8.3925284E-4,6.22048E-4,1.0993116E-3,-2.5831404E-4,-9.092116E-5,-0E0,1.5767761E-4],"categories":[],"categories_nodes":[],"categories_segments":[],"categories_sizes":[],"default_left":[0,0,0,0,0,0,0,0,0,0,0,0,0,0,0,0,0],"id":6,"left_children":[1,3,5,7,9,11,-1,-1,-1,13,15,-1,-1,-1,-1,-1,-1],"loss_changes":[2.000331E-2,2.9896386E-3,3.594529E-3,1.0791747E-4,5.2599446E-4,1.1164183E-4,0E0,0E0,0E0,4.9960625E-5,6.33458E-5,0E0,0E0,0E0,0E0,0E0,0E0],"parents":[2147483647,0,0,1,1,2,2,3,3,4,4,5,5,9,9,10,10],"right_children":[2,4,6,8,10,12,-1,-1,-1,14,16,-1,-1,-1,-1,-1,-1],"split_conditions":[4.9578765E-1,-5.2317405E-1,2.7923894E0,-9.2010087E-1,-8.152942E-2,1.2468747E0,2.4074214E-3,-7.8886043E-4,-5.0172926E-4,-2.1242416E-1,8.976328E-2,6.22048E-4,1.0993116E-3,-2.5831404E-4,-9.092116E-5,-0E0,1.5767761E-4],"split_indices":[0,0,0,0,0,0,0,0,0,0,0,0,0,0,0,0,0],"split_type":[0,0,0,0,0,0,0,0,0,0,0,0,0,0,0,0,0],"sum_hessian":[5.11E2,4.12E2,9.9E1,1.62E2,2.5E2,7.8E1,2.1E1,6.4E1,9.8E1,1.43E2,1.07E2,4.2E1,3.6E1,8.7E1,5.6E1,5.3E1,5.4E1],"tree_param":{"num_deleted":"0","num_feature":"5","num_nodes":"17","size_leaf_vector":"1"}},{"base_weights":[7.191472E-5,-2.5722764E-3,1.2125294E-2,-4.979924E-3,3.0792977E-5,8.393473E-4,2.1922903E-3,-6.1941077E-4,-3.0451556E-4,-8.378588E-4,1.6309685E-3,-1.2066758E-4,-0E0,7.1554125E-5,2.7590967E-4],"categories":[],"categories_nodes":[],"categories_segments":[],"categories_sizes":[],"default_left":[0,0,0,0,0,0,0,0,0,0,0,0,0,0,0],"id":7,"left_children":[1,3,5,7,9,-1,-1,-1,-1,11,13,-1,-1,-1,-1],"loss_changes":[1.6539486E-2,2.697797E-3,2.6554465E-3,3.8079266E-4,2.9421147E-4,0E0,0E0,0E0,0E0,2.921551E-5,3.9321036E-5,0E0,0E0,0E0,0E0],"parents":[2147483647,0,0,1,1,2,2,3,3,4,4,9,9,10,10],"right_children":[2,4,6,8,10,-1,-1,-1,-1,12,14,-1,-1,-1,-1],"split_conditions":[7.660505E-1,-3.209062E-1,2.7923894E0,-6.33323E-1,6.0161036E-2,8.393473E-4,2.1922903E-3,-6.1941077E-4,-3.0451556E-4,-9.713026E-2,2.6289225E-1,-1.2066758E-4,-0E0,7.1554125E-5,2.7590967E-4],"split_indices":[0,0,0,0,0,0,0,0,0,0,0,0,0,0,0],"split_type":[0,0,0,0,0,0,0,0,0,0,0,0,0,0,0],"sum_hessian":[5.11E2,4.2E2,9.1E1,2.19E2,2.01E2,7E1,2.1E1,1.28E2,9.1E1,1.27E2,7.4E1,8E1,4.7E1,4.8E1,2.6E1],"tree_param":{"num_deleted":"0","num_feature":"5","num_nodes":"15","size_leaf_vector":"1"}},{"base_weights":[7.434575E-5,-2.2598358E-3,1.1307224E-2,-4.456784E-3,1.532426E-4,7.226733E-4,1.8655107E-3,-6.1030703E-4,-3.1769066E-4,-7.1635074E-4,1.6284086E-3,-9.7683886E-5,-0E0,7.2238174E-5,2.867266E-4],"categories":[],"categories_nodes":[],"categories_segments":[],"categories_sizes":[],"default_left":[0,0,0,0,0,0,0,0,0,0,0,0,0,0,0],"id":8,"left_children":[1,3,5,7,9,-1,-1,-1,-1,11,13,-1,-1,-1,-1],"loss_changes":[1.3618107E-2,2.3057936E-3,2.0876182E-3,3.3386657E-4,2.7308555E-4,0E0,0E0,0E0,0E0,2.004658E-5,4.9281647E-5,0E0,0E0,0E0,0E0],"parents":[2147483647,0,0,1,1,2,2,3,3,4,4,9,9,10,10],"right_children":[2,4,6,8,10,-1,-1,-1,-1,12,14,-1,-1,-1,-1],"split_conditions":[8.207334E-1,-3.0938962E-1,1.7372328E0,-7.8601253E-1,6.0161036E-2,7.226733E-4,1.8655107E-3,-6.1030703E-4,-3.1769066E-4,-6.491439E-2,2.9116377E-1,-9.7683886E-5,-0E0,7.2238174E-5,2.867266E-4],"split_indices":[0,0,0,0,0,0,0,0,0,0,0,0,0,0,0],"split_type":[0,0,0,0,0,0,0,0,0,0,0,0,0,0,0],"sum_hessian":[5.11E2,4.24E2,8.7E1,2.23E2,2.01E2,6E1,2.7E1,9E1,1.33E2,1.23E2,7.8E1,8.6E1,3.7E1,5.2E1,2.6E1],"tree_param":{"num_deleted":"0","num_feature":"5","num_nodes":"15","size_leaf_vector":"1"}},{"base_weights":[7.5593896E-5,-2.2412525E-3,9.404194E-3,-4.773274E-3,-6.158E-4,6.4649656E-3,1.8296784E-3,-6.4378127E-4,-3.9057262E-4,-1.5921151E-3,4.531161E-4,4.510146E-4,8.568037E-4,-1.8635263E-4,-5.667201E-5,-0E0,1.0077806E-4],"categories":[],"categories_nodes":[],"categories_segments":[],"categories_sizes":[],"default_left":[0,0,0,0,0,0,0,0,0,0,0,0,0,0,0,0,0],"id":9,"left_children":[1,3,5,7,9,11,-1,-1,-1,13,15,-1,-1,-1,-1,-1,-1],"loss_changes":[1.1222564E-2,1.6364788E-3,2.1618782E-3,6.25886E-5,2.8087667E-4,1.11778034E-4,0E0,0E0,0E0,1.188062E-5,3.894131E-5,0E0,0E0,0E0,0E0,0E0,0E0],"parents":[2147483647,0,0,1,1,2,2,3,3,4,4,5,5,9,9,10,10],"right_children":[2,4,6,8,10,12,-1,-1,-1,14,16,-1,-1,-1,-1,-1,-1],"split_conditions":[4.4377175E-1,-5.372179E-1,2.7923894E0,-9.754547E-1,-1.1523617E-1,1.2897725E0,1.8296784E-3,-6.4378127E-4,-3.9057262E-4,-1.9657825E-1,6.735489E-2,4.510146E-4,8.568037E-4,-1.8635263E-4,-5.667201E-5,-0E0,1.0077806E-4],"split_indices":[0,0,0,0,0,0,0,0,0,0,0,0,0,0,0,0,0],"split_type":[0,0,0,0,0,0,0,0,0,0,0,0,0,0,0,0,0],"sum_hessian":[5.11E2,4.1E2,1.01E2,1.56E2,2.54E2,8E1,2.1E1,4.4E1,1.12E2,1.37E2,1.17E2,4.8E1,3.2E1,9.9E1,3.8E1,5.7E1,6E1],"tree_param":{"num_deleted":"0","num_feature":"5","num_nodes":"17","size_leaf_vector":"1"}},{"base_weights":[7.391249E-5,-1.8250619E-3,9.485635E-3,-3.9274665E-3,-1.791655E-5,6.723587E-3,1.7742574E-3,-5.5683753E-4,-3.0972736E-4,-9.268219E-4,1.2340604E-3,4.623369E-4,8.515891E-4,-1.2369534E-4,-2.230397E-5,4.4154E-5,2.3134777E-4],"categories":[],"categories_nodes":[],"categories_segments":[],"categories_sizes":[],"default_left":[0,0,0,0,0,0,0,0,0,0,0,0,0,0,0,0,0],"id":10,"left_children":[1,3,5,7,9,11,-1,-1,-1,13,15,-1,-1,-1,-1,-1,-1],"loss_changes":[9.297476E-3,1.5883921E-3,1.4526341E-3,1.3655028E-4,2.6776918E-4,3.5555335E-5,0E0,0E0,0E0,1.581313E-5,5.159255E-5,0E0,0E0,0E0,0E0,0E0,0E0],"parents":[2147483647,0,0,1,1,2,2,3,3,4,4,5,5,9,9,10,10],"right_children":[2,4,6,8,10,12,-1,-1,-1,14,16,-1,-1,-1,-1,-1,-1],"split_conditions":[8.460898E-1,-4.3142882E-1,2.9687593E0,-9.422704E-1,2.4068933E-2,1.3561265E0,1.7742574E-3,-5.5683753E-4,-3.0972736E-4,-1.4841256E-1,2.6289225E-1,4.623369E-4,8.515891E-4,-1.2369534E-4,-2.230397E-5,4.4154E-5,2.3134777E-4],"split_indices":[0,0,0,0,0,0,0,0,0,0,0,0,0,0,0,0,0],"split_type":[0,0,0,0,0,0,0,0,0,0,0,0,0,0,0,0,0],"sum_hessian":[5.11E2,4.26E2,8.5E1,1.93E2,2.33E2,6.8E1,1.7E1,5.6E1,1.37E2,1.4E2,9.3E1,3.8E1,3E1,8.6E1,5.4E1,6.1E1,3.2E1],"tree_param":{"num_deleted":"0","num_feature":"5","num_nodes":"17","size_leaf_vector":"1"}},{"base_weights":[7.796751E-5,-1.8395821E-3,7.8151105E-3,-3.997455E-3,-5.3034554E-4,4.712478E-4,1.3648039E-3,-5.684659E-4,-3.3484746E-4,-1.1730489E-3,5.93533E-4,-1.5189133E-4,-4.0906718E-5,-0E0,8.088195E-5],"categories":[],"categories_nodes":[],"categories_segments":[],"categories_sizes":[],"default_left":[0,0,0,0,0,0,0,0,0,0,0,0,0,0,0],"id":11,"left_children":[1,3,5,7,9,-1,-1,-1,-1,11,13,-1,-1,-1,-1],"loss_changes":[7.714166E-3,1.114803E-3,1.5286887E-3,2.9063085E-5,1.971449E-4,0E0,0E0,0E0,0E0,2.5011497E-5,9.961444E-6,0E0,0E0,0E0,0E0],"parents":[2147483647,0,0,1,1,2,2,3,3,4,4,9,9,10,10],"right_children":[2,4,6,8,10,-1,-1,-1,-1,12,14,-1,-1,-1,-1],"split_conditions":[4.4377175E-1,-5.600091E-1,1.6107296E0,-1.0098004E0,-3.055627E-2,4.712478E-4,1.3648039E-3,-5.684659E-4,-3.3484746E-4,-1.9069625E-1,6.109433E-2,-1.5189133E-4,-4.0906718E-5,-0E0,8.088195E-5],"split_indices":[0,0,0,0,0,0,0,0,0,0,0,0,0,0,0],"split_type":[0,0,0,0,0,0,0,0,0,0,0,0,0,0,0],"sum_hessian":[5.11E2,4.1E2,1.01E2,1.5E2,2.6E2,7E1,3.1E1,3.2E1,1.18E2,1.71E2,8.9E1,1.07E2,6.4E1,2.7E1,6.2E1],"tree_param":{"num_deleted":"0","num_feature":"5","num_nodes":"15","size_leaf_vector":"1"}},{"base_weights":[7.0688744E-5,-1.435724E-3,8.22234E-3,-2.9769936E-3,2.3806248E-4,5.826994E-4,1.5578608E-3,-3.7661274E-3,-1.6664255E-4,-2.2265407E-4,1.799352E-4,-5.2980817E-4,-3.156543E-4,-5.4669374E-5,1.4278562E-5],"categories":[],"categories_nodes":[],"categories_segments":[],"categories_sizes":[],"default_left":[0,0,0,0,0,0,0,0,0,0,0,0,0,0,0],"id":12,"left_children":[1,3,5,7,9,-1,-1,11,-1,13,-1,-1,-1,-1,-1],"loss_changes":[6.403031E-3,1.150065E-3,9.950986E-4,1.6733655E-4,1.660258E-4,0E0,0E0,1.1160737E-6,0E0,2.2884898E-5,0E0,0E0,0E0,0E0,0E0],"parents":[2147483647,0,0,1,1,2,2,3,3,4,4,7,7,9,9],"right_children":[2,4,6,8,10,-1,-1,12,-1,14,-1,-1,-1,-1,-1],"split_conditions":[9.4138664E-1,-2.943232E-1,3.048005E0,-6.150615E-1,2.0006746E-1,5.826994E-4,1.5578608E-3,-1.0353932E0,-1.6664255E-4,-2.561136E-2,1.799352E-4,-5.2980817E-4,-3.156543E-4,-5.4669374E-5,1.4278562E-5],"split_indices":[0,0,0,0,0,0,0,0,0,0,0,0,0,0,0],"split_type":[0,0,0,0,0,0,0,0,0,0,0,0,0,0,0],"sum_hessian":[5.11E2,4.32E2,7.9E1,2.27E2,2.05E2,6.4E1,1.5E1,1.34E2,9.3E1,1.55E2,5E1,2.8E1,1.06E2,9.6E1,5.9E1],"tree_param":{"num_deleted":"0","num_feature":"5","num_nodes":"15","size_leaf_vector":"1"}},{"base_weights":[6.784584E-5,-1.1773588E-3,8.209058E-3,-2.6735512E-3,4.1106035E-4,5.844309E-4,1.4859749E-3,-3.5842814E-4,-1.6779752E-4,-5.67639E-5,2.3294303E-4,-4.3742933E-5,3.510699E-5],"categories":[],"categories_nodes":[],"categories_segments":[],"categories_sizes":[],"default_left":[0,0,0,0,0,0,0,0,0,0,0,0,0],"id":13,"left_children":[1,3,5,7,9,-1,-1,-1,-1,11,-1,-1,-1],"loss_changes":[5.300073E-3,1.0865156E-3,6.6888845E-4,1.4405616E-4,2.1645986E-4,0E0,0E0,0E0,0E0,2.7872587E-5,0E0,0E0,0E0],"parents":[2147483647,0,0,1,1,2,2,3,3,4,4,9,9],"right_children":[2,4,6,8,10,-1,-1,-1,-1,12,-1,-1,-1],"split_conditions":[1.1015948E0,-2.7333364E-1,3.1069047E0,-6.8880266E-1,3.0728894E-1,5.844309E-4,1.4859749E-3,-3.5842814E-4,-1.6779752E-4,1.0714396E-2,2.3294303E-4,-4.3742933E-5,3.510699E-5],"split_indices":[0,0,0,0,0,0,0,0,0,0,0,0,0],"split_type":[0,0,0,0,0,0,0,0,0,0,0,0,0],"sum_hessian":[5.11E2,4.44E2,6.7E1,2.31E2,2.13E2,5.4E1,1.3E1,1.12E2,1.19E2,1.69E2,4.4E1,1E2,6.9E1],"tree_param":{"num_deleted":"0","num_feature":"5","num_nodes":"13","size_leaf_vector":"1"}},{"base_weights":[6.967128E-5,-1.1928349E-3,6.7266743E-3,-2.5484783E-3,5.8622103E-5,4.4636676E-4,1.2268409E-3,-3.568875E-4,-1.8105523E-4,-3.2743474E-4,1.2775619E-3,-6.495513E-5,-0E0,-0E0,1.480617E-4],"categories":[],"categories_nodes":[],"categories_segments":[],"categories_sizes":[],"default_left":[0,0,0,0,0,0,0,0,0,0,0,0,0,0,0],"id":14,"left_children":[1,3,5,7,9,-1,-1,-1,-1,11,13,-1,-1,-1,-1],"loss_changes":[4.391113E-3,7.5902103E-4,7.429458E-4,8.9306384E-5,1.15721705E-4,0E0,0E0,0E0,0E0,1.9595804E-5,3.192603E-6,0E0,0E0,0E0,0E0],"parents":[2147483647,0,0,1,1,2,2,3,3,4,4,9,9,10,10],"right_children":[2,4,6,8,10,-1,-1,-1,-1,12,14,-1,-1,-1,-1],"split_conditions":[9.1286916E-1,-3.6341923E-1,2.879326E0,-8.407326E-1,1.4223927E-1,4.4636676E-4,1.2268409E-3,-3.568875E-4,-1.8105523E-4,-1.07494384E-1,2.1851535E-1,-6.495513E-5,-0E0,-0E0,1.480617E-4],"split_indices":[0,0,0,0,0,0,0,0,0,0,0,0,0,0,0],"split_type":[0,0,0,0,0,0,0,0,0,0,0,0,0,0,0],"sum_hessian":[5.11E2,4.3E2,8.1E1,2.09E2,2.21E2,6.2E1,1.9E1,7.8E1,1.31E2,1.63E2,5.8E1,8.6E1,7.7E1,1.4E1,4.4E1],"tree_param":{"num_deleted":"0","num_feature":"5","num_nodes":"15","size_leaf_vector":"1"}},{"base_weights":[6.8974296E-5,-8.0198335E-4,8.115332E-3,-2.0043517E-3,7.7013945E-4,5.6690647E-4,1.3210551E-3,-2.7809811E-3,-1.0186218E-4,8.09826E-6,2.2802097E-4,-4.2316207E-4,-2.280589E-4,-1.5945756E-5,3.1288764E-5],"categories":[],"categories_nodes":[],"categories_segments":[],"categories_sizes":[],"default_left":[0,0,0,0,0,0,0,0,0,0,0,0,0,0,0],"id":15,"left_children":[1,3,5,7,9,-1,-1,11,-1,13,-1,-1,-1,-1,-1],"loss_changes":[3.6880309E-3,8.9423195E-4,2.6588468E-4,1.5970587E-4,2.0664252E-4,0E0,0E0,1.4190562E-5,0E0,8.7831895E-6,0E0,0E0,0E0,0E0,0E0],"parents":[2147483647,0,0,1,1,2,2,3,3,4,4,7,7,9,9],"right_children":[2,4,6,8,10,-1,-1,12,-1,14,-1,-1,-1,-1,-1],"split_conditions":[1.3285617E0,-1.7900419E-1,3.283324E0,-5.978807E-1,3.1710225E-1,5.6690647E-4,1.3210551E-3,-1.0447452E0,-1.0186218E-4,2.4068933E-2,2.2802097E-4,-4.2316207E-4,-2.280589E-4,-1.5945756E-5,3.1288764E-5],"split_indices":[0,0,0,0,0,0,0,0,0,0,0,0,0,0,0],"split_type":[0,0,0,0,0,0,0,0,0,0,0,0,0,0,0],"sum_hessian":[5.11E2,4.62E2,4.9E1,2.65E2,1.97E2,3.8E1,1.1E1,1.4E2,1.25E2,1.37E2,6E1,2.6E1,1.14E2,6.8E1,6.9E1],"tree_param":{"num_deleted":"0","num_feature":"5","num_nodes":"15","size_leaf_vector":"1"}},{"base_weights":[6.683946E-5,-6.919213E-4,7.757625E-3,-1.970358E-3,5.729975E-4,5.333599E-4,1.2134135E-3,-2.5325182E-3,-1.026545E-4,-0E0,2.1759137E-4,-3.919905E-4,-2.0767497E-4,-2.9782625E-5,2.8630606E-5],"categories":[],"categories_nodes":[],"categories_segments":[],"categories_sizes":[],"default_left":[0,0,0,0,0,0,0,0,0,0,0,0,0,0,0],"id":16,"left_children":[1,3,5,7,9,-1,-1,11,-1,13,-1,-1,-1,-1,-1],"loss_changes":[3.080588E-3,7.744163E-4,1.6744272E-4,8.39213E-5,2.2871759E-4,0E0,0E0,8.523755E-6,0E0,1.4912361E-5,0E0,0E0,0E0,0E0,0E0],"parents":[2147483647,0,0,1,1,2,2,3,3,4,4,7,7,9,9],"right_children":[2,4,6,8,10,-1,-1,12,-1,14,-1,-1,-1,-1,-1],"split_conditions":[1.399121E0,-2.6282594E-1,3.283324E0,-6.031749E-1,3.6543468E-1,5.333599E-4,1.2134135E-3,-1.0613804E0,-1.026545E-4,3.782347E-3,2.1759137E-4,-3.919905E-4,-2.0767497E-4,-2.9782625E-5,2.8630606E-5],"split_indices":[0,0,0,0,0,0,0,0,0,0,0,0,0,0,0],"split_type":[0,0,0,0,0,0,0,0,0,0,0,0,0,0,0],"sum_hessian":[5.11E2,4.66E2,4.5E1,2.35E2,2.31E2,3.4E1,1.1E1,1.38E2,9.7E1,1.69E2,6.2E1,2.4E1,1.14E2,9.4E1,7.5E1],"tree_param":{"num_deleted":"0","num_feature":"5","num_nodes":"15","size_leaf_vector":"1"}},{"base_weights":[6.434662E-5,-7.077324E-4,6.391953E-3,-1.8084707E-3,3.858575E-4,4.4532047E-4,1.114543E-3,-3.0143862E-4,-1.3843195E-4,-3.2467997E-5,1.6515357E-4,-2.844052E-5,1.891271E-5],"categories":[],"categories_nodes":[],"categories_segments":[],"categories_sizes":[],"default_left":[0,0,0,0,0,0,0,0,0,0,0,0,0],"id":17,"left_children":[1,3,5,7,9,-1,-1,-1,-1,11,-1,-1,-1],"loss_changes":[2.5768105E-3,5.678929E-4,2.4983985E-4,6.5013824E-5,1.3677811E-4,0E0,0E0,0E0,0E0,1.043845E-5,0E0,0E0,0E0],"parents":[2147483647,0,0,1,1,2,2,3,3,4,4,9,9],"right_children":[2,4,6,8,10,-1,-1,-1,-1,12,-1,-1,-1],"split_conditions":[1.2662076E0,-2.7333364E-1,3.283324E0,-9.6132284E-1,2.772699E-1,4.4532047E-4,1.114543E-3,-3.0143862E-4,-1.3843195E-4,3.782347E-3,1.6515357E-4,-2.844052E-5,1.891271E-5],"split_indices":[0,0,0,0,0,0,0,0,0,0,0,0,0],"split_type":[0,0,0,0,0,0,0,0,0,0,0,0,0],"sum_hessian":[5.11E2,4.56E2,5.5E1,2.31E2,2.25E2,4.4E1,1.1E1,5E1,1.81E2,1.65E2,6E1,9.8E1,6.7E1],"tree_param":{"num_deleted":"0","num_feature":"5","num_nodes":"13","size_leaf_vector":"1"}},{"base_weights":[6.412229E-5,-5.5452174E-4,6.677566E-3,-1.4324517E-3,7.363332E-4,4.6459152E-4,1.0804641E-3,-2.0696688E-3,-6.5676795E-5,6.860399E-5,1.7983442E-4,-3.3690533E-4,-1.6980556E-4,-0E0,2.7090775E-5],"categories":[],"categories_nodes":[],"categories_segments":[],"categories_sizes":[],"default_left":[0,0,0,0,0,0,0,0,0,0,0,0,0,0,0],"id":18,"left_children":[1,3,5,7,9,-1,-1,11,-1,13,-1,-1,-1,-1,-1],"loss_changes":[2.171405E-3,5.428064E-4,1.0150811E-4,1.104541E-4,1.13985036E-4,0E0,0E0,6.732822E-6,0E0,4.005684E-6,0E0,0E0,0E0,0E0,0E0],"parents":[2147483647,0,0,1,1,2,2,3,3,4,4,7,7,9,9],"right_children":[2,4,6,8,10,-1,-1,12,-1,14,-1,-1,-1,-1,-1],"split_conditions":[1.4135313E0,-1.409314E-1,3.466115E0,-5.824547E-1,3.6543468E-1,4.6459152E-4,1.0804641E-3,-1.0731503E0,-6.5676795E-5,4.5093816E-2,1.7983442E-4,-3.3690533E-4,-1.6980556E-4,-0E0,2.7090775E-5],"split_indices":[0,0,0,0,0,0,0,0,0,0,0,0,0,0,0],"split_type":[0,0,0,0,0,0,0,0,0,0,0,0,0,0,0],"sum_hessian":[5.11E2,4.68E2,4.3E1,2.83E2,1.85E2,3.4E1,9E0,1.46E2,1.37E2,1.21E2,6.4E1,2.2E1,1.24E2,6.1E1,6E1],"tree_param":{"num_deleted":"0","num_feature":"5","num_nodes":"15","size_leaf_vector":"1"}},{"base_weights":[6.180566E-5,-4.889542E-4,6.27053E-3,-1.1815901E-3,9.045627E-4,4.2967784E-4,9.959063E-4,-1.8696686E-3,-5.1006407E-4,1.8999998E-4,1.6818855E-4,-3.0665266E-4,-1.5272781E-4,-5.6776593E-5,-0E0,-0E0,2.6484233E-5],"categories":[],"categories_nodes":[],"categories_segments":[],"categories_sizes":[],"default_left":[0,0,0,0,0,0,0,0,0,0,0,0,0,0,0,0,0],"id":19,"left_children":[1,3,5,7,9,-1,-1,11,13,15,-1,-1,-1,-1,-1,-1,-1],"loss_changes":[1.8214025E-3,4.614993E-4,6.7152665E-5,1.2237165E-4,6.574318E-5,0E0,0E0,4.0271552E-6,1.7644124E-6,1.2931746E-6,0E0,0E0,0E0,0E0,0E0,0E0,0E0],"parents":[2147483647,0,0,1,1,2,2,3,3,4,4,7,7,8,8,9,9],"right_children":[2,4,6,8,10,-1,-1,12,14,16,-1,-1,-1,-1,-1,-1,-1],"split_conditions":[1.4448252E0,-3.2256294E-2,3.466115E0,-5.782175E-1,3.861207E-1,4.2967784E-4,9.959063E-4,-1.0731503E0,-1.2012791E-1,4.5093816E-2,1.6818855E-4,-3.0665266E-4,-1.5272781E-4,-5.6776593E-5,-0E0,-0E0,2.6484233E-5],"split_indices":[0,0,0,0,0,0,0,0,0,0,0,0,0,0,0,0,0],"split_type":[0,0,0,0,0,0,0,0,0,0,0,0,0,0,0,0,0],"sum_hessian":[5.11E2,4.7E2,4.1E1,3.19E2,1.51E2,3.2E1,9E0,1.48E2,1.71E2,8.7E1,6.4E1,2.2E1,1.26E2,1.43E2,2.8E1,2.5E1,6.2E1],"tree_param":{"num_deleted":"0","num_feature":"5","num_nodes":"17","size_leaf_vector":"1"}},{"base_weights":[5.983903E-5,-4.4302197E-4,5.748396E-3,-1.0754963E-3,8.237407E-4,3.8982357E-4,9.1796595E-4,-1.6969773E-3,-4.6326793E-4,1.558844E-5,1.5007929E-4,-2.6059366E-4,-1.3336277E-4,-5.392512E-5,-0E0],"categories":[],"categories_nodes":[],"categories_segments":[],"categories_sizes":[],"default_left":[0,0,0,0,0,0,0,0,0,0,0,0,0,0,0],"id":20,"left_children":[1,3,5,7,9,-1,-1,11,13,-1,-1,-1,-1,-1,-1],"loss_changes":[1.5283145E-3,3.8329692E-4,5.591463E-5,9.8759134E-5,5.225699E-5,0E0,0E0,1.6216072E-6,1.0030453E-6,0E0,0E0,0E0,0E0,0E0,0E0],"parents":[2147483647,0,0,1,1,2,2,3,3,4,4,7,7,8,8],"right_children":[2,4,6,8,10,-1,-1,12,14,-1,-1,-1,-1,-1,-1],"split_conditions":[1.4448252E0,-3.2256294E-2,3.466115E0,-5.782175E-1,3.6543468E-1,3.8982357E-4,9.1796595E-4,-1.0239966E0,-1.5252775E-1,1.558844E-5,1.5007929E-4,-2.6059366E-4,-1.3336277E-4,-5.392512E-5,-0E0],"split_indices":[0,0,0,0,0,0,0,0,0,0,0,0,0,0,0],"split_type":[0,0,0,0,0,0,0,0,0,0,0,0,0,0,0],"sum_hessian":[5.11E2,4.7E2,4.1E1,3.19E2,1.51E2,3.2E1,9E0,1.48E2,1.71E2,8.5E1,6.6E1,3E1,1.18E2,1.29E2,4.2E1],"tree_param":{"num_deleted":"0","num_feature":"5","num_nodes":"15","size_leaf_vector":"1"}},{"base_weights":[5.7004923E-5,-5.265203E-4,4.2209076E-3,-1.4240871E-3,4.152634E-5,2.794772E-4,7.7254145E-4,-2.2759463E-4,-1.10548375E-4,-2.176426E-4,7.874316E-5,-3.2834574E-5,-0E0],"categories":[],"categories_nodes":[],"categories_segments":[],"categories_sizes":[],"default_left":[0,0,0,0,0,0,0,0,0,0,0,0,0],"id":21,"left_children":[1,3,5,7,9,-1,-1,-1,-1,11,-1,-1,-1],"loss_changes":[1.2901726E-3,2.4366532E-4,1.681837E-4,9.155658E-6,5.861149E-5,0E0,0E0,0E0,0E0,6.1972905E-6,0E0,0E0,0E0],"parents":[2147483647,0,0,1,1,2,2,3,3,4,4,9,9],"right_children":[2,4,6,8,10,-1,-1,-1,-1,12,-1,-1,-1],"split_conditions":[1.1629224E0,-4.6416432E-1,3.1069047E0,-9.967987E-1,1.3926534E-1,2.794772E-4,7.7254145E-4,-2.2759463E-4,-1.10548375E-4,-3.2256294E-2,7.874316E-5,-3.2834574E-5,-0E0],"split_indices":[0,0,0,0,0,0,0,0,0,0,0,0,0],"split_type":[0,0,0,0,0,0,0,0,0,0,0,0,0],"sum_hessian":[5.11E2,4.48E2,6.3E1,1.79E2,2.69E2,5E1,1.3E1,3.6E1,1.43E2,1.91E2,7.8E1,1.4E2,5.1E1],"tree_param":{"num_deleted":"0","num_feature":"5","num_nodes":"13","size_leaf_vector":"1"}},{"base_weights":[5.3966392E-5,-3.5747816E-4,4.9960273E-3,-8.819212E-4,7.0918794E-4,3.2918036E-4,7.856654E-4,-1.4186675E-4,-3.8143564E-5,1.3223282E-5,1.2574608E-4],"categories":[],"categories_nodes":[],"categories_segments":[],"categories_sizes":[],"default_left":[0,0,0,0,0,0,0,0,0,0,0],"id":22,"left_children":[1,3,5,7,9,-1,-1,-1,-1,-1,-1],"loss_changes":[1.0949932E-3,2.6872894E-4,2.6177731E-5,6.808643E-5,3.3611184E-5,0E0,0E0,0E0,0E0,0E0,0E0],"parents":[2147483647,0,0,1,1,2,2,3,3,4,4],"right_children":[2,4,6,8,10,-1,-1,-1,-1,-1,-1],"split_conditions":[1.4679564E0,-2.561136E-2,3.466115E0,-5.897754E-1,3.861207E-1,3.2918036E-4,7.856654E-4,-1.4186675E-4,-3.8143564E-5,1.3223282E-5,1.2574608E-4],"split_indices":[0,0,0,0,0,0,0,0,0,0,0],"split_type":[0,0,0,0,0,0,0,0,0,0,0],"sum_hessian":[5.11E2,4.72E2,3.9E1,3.23E2,1.49E2,3E1,9E0,1.44E2,1.79E2,8.3E1,6.6E1],"tree_param":{"num_deleted":"0","num_feature":"5","num_nodes":"11","size_leaf_vector":"1"}},{"base_weights":[5.5744775E-5,-3.097583E-4,4.714551E-3,-9.4268087E-4,4.3410744E-4,3.0473515E-4,7.241787E-4,-1.5863629E-4,-6.1082996E-5,-0E0,1.1327992E-4,-3.1346795E-7,1.3236596E-5],"categories":[],"categories_nodes":[],"categories_segments":[],"categories_sizes":[],"default_left":[0,0,0,0,0,0,0,0,0,0,0,0,0],"id":23,"left_children":[1,3,5,7,9,-1,-1,-1,-1,11,-1,-1,-1],"loss_changes":[9.2209066E-4,2.3044944E-4,8.367526E-6,3.231813E-5,5.536702E-5,0E0,0E0,0E0,0E0,1.1308691E-6,0E0,0E0,0E0],"parents":[2147483647,0,0,1,1,2,2,3,3,4,4,9,9],"right_children":[2,4,6,8,10,-1,-1,-1,-1,12,-1,-1,-1],"split_conditions":[1.5052938E0,-1.8365793E-1,3.466115E0,-8.5616434E-1,3.1710225E-1,3.0473515E-4,7.241787E-4,-1.5863629E-4,-6.1082996E-5,3.9812364E-2,1.1327992E-4,-3.1346795E-7,1.3236596E-5],"split_indices":[0,0,0,0,0,0,0,0,0,0,0,0,0],"split_type":[0,0,0,0,0,0,0,0,0,0,0,0,0],"sum_hessian":[5.11E2,4.74E2,3.7E1,2.63E2,2.11E2,2.8E1,9E0,7.6E1,1.87E2,1.39E2,7.2E1,7.7E1,6.2E1],"tree_param":{"num_deleted":"0","num_feature":"5","num_nodes":"13","size_leaf_vector":"1"}},{"base_weights":[5.472439E-5,-2.792729E-4,4.333532E-3,-7.1031146E-4,6.4477883E-4,2.8954176E-4,7.060363E-4,-1.143095E-3,-2.6737887E-5,1.3379741E-5,1.0682982E-4,-2.0829529E-4,-8.7629756E-5],"categories":[],"categories_nodes":[],"categories_segments":[],"categories_sizes":[],"default_left":[0,0,0,0,0,0,0,0,0,0,0,0,0],"id":24,"left_children":[1,3,5,7,9,-1,-1,11,-1,-1,-1,-1,-1],"loss_changes":[7.7741634E-4,1.9159117E-4,4.234491E-6,4.9061084E-5,1.910944E-5,0E0,0E0,5.086913E-6,0E0,0E0,0E0,0E0,0E0],"parents":[2147483647,0,0,1,1,2,2,3,3,4,4,7,7],"right_children":[2,4,6,8,10,-1,-1,12,-1,-1,-1,-1,-1],"split_conditions":[1.5052938E0,1.0714396E-2,3.7296848E0,-5.461973E-1,3.948158E-1,2.8954176E-4,7.060363E-4,-1.0731503E0,-2.6737887E-5,1.3379741E-5,1.0682982E-4,-2.0829529E-4,-8.7629756E-5],"split_indices":[0,0,0,0,0,0,0,0,0,0,0,0,0],"split_type":[0,0,0,0,0,0,0,0,0,0,0,0,0],"sum_hessian":[5.11E2,4.74E2,3.7E1,3.31E2,1.43E2,3E1,7E0,1.54E2,1.77E2,7.7E1,6.6E1,2.2E1,1.32E2],"tree_param":{"num_deleted":"0","num_feature":"5","num_nodes":"13","size_leaf_vector":"1"}},{"base_weights":[5.311349E-5,-2.8730408E-4,3.6184366E-3,-8.6257316E-4,2.2999464E-4,2.354135E-4,6.1949174E-4,-1.8959124E-4,-6.8370326E-5,-0E0,7.471719E-5],"categories":[],"categories_nodes":[],"categories_segments":[],"categories_sizes":[],"default_left":[0,0,0,0,0,0,0,0,0,0,0],"id":25,"left_children":[1,3,5,7,9,-1,-1,-1,-1,-1,-1],"loss_changes":[6.591446E-4,1.4624075E-4,3.277918E-5,1.37521565E-5,3.45045E-5,0E0,0E0,0E0,0E0,0E0,0E0],"parents":[2147483647,0,0,1,1,2,2,3,3,4,4],"right_children":[2,4,6,8,10,-1,-1,-1,-1,-1,-1],"split_conditions":[1.399121E0,-2.8981203E-1,3.466115E0,-1.0731503E0,2.0253456E-1,2.354135E-4,6.1949174E-4,-1.8959124E-4,-6.8370326E-5,-0E0,7.471719E-5],"split_indices":[0,0,0,0,0,0,0,0,0,0,0],"split_type":[0,0,0,0,0,0,0,0,0,0,0],"sum_hessian":[5.11E2,4.66E2,4.5E1,2.29E2,2.37E2,3.6E1,9E0,2.2E1,2.07E2,1.55E2,8.2E1],"tree_param":{"num_deleted":"0","num_feature":"5","num_nodes":"11","size_leaf_vector":"1"}},{"base_weights":[4.9503986E-5,-2.2267015E-4,3.7858123E-4,-5.779341E-4,5.876877E-4,-1.04535015E-4,-2.6211486E-4,1.1451086E-5,8.9818066E-5,-3.39797E-5,-0E0],"categories":[],"categories_nodes":[],"categories_segments":[],"categories_sizes":[],"default_left":[0,0,0,0,0,0,0,0,0,0,0],"id":26,"left_children":[1,3,-1,5,7,-1,9,-1,-1,-1,-1],"loss_changes":[5.5993063E-4,1.3850737E-4,0E0,3.6799836E-5,9.964107E-6,0E0,1.8813698E-6,0E0,0E0,0E0,0E0],"parents":[2147483647,0,0,1,1,3,3,4,4,6,6],"right_children":[2,4,-1,6,8,-1,10,-1,-1,-1,-1],"split_conditions":[1.5320399E0,3.9812364E-2,3.7858123E-4,-6.4965004E-1,3.948158E-1,-1.04535015E-4,-1.7509432E-1,1.1451086E-5,8.9818066E-5,-3.39797E-5,-0E0],"split_indices":[0,0,0,0,0,0,0,0,0,0,0],"split_type":[0,0,0,0,0,0,0,0,0,0,0],"sum_hessian":[5.11E2,4.76E2,3.5E1,3.4E2,1.36E2,1.22E2,2.18E2,6.8E1,6.8E1,1.45E2,7.3E1],"tree_param":{"num_deleted":"0","num_feature":"5","num_nodes":"11","size_leaf_vector":"1"}},{"base_weights":[4.4720804E-5,-2.9736277E-4,2.5484895E-3,-8.1994786E-4,1.1768614E-5,1.739853E-4,5.804702E-4,-1.6317987E-4,-6.1715284E-5,-1.2414639E-5,3.5791574E-5],"categories":[],"categories_nodes":[],"categories_segments":[],"categories_sizes":[],"default_left":[0,0,0,0,0,0,0,0,0,0,0],"id":27,"left_children":[1,3,5,7,9,-1,-1,-1,-1,-1,-1],"loss_changes":[4.6421762E-4,8.088305E-5,7.1773684E-5,4.545567E-6,1.531602E-5,0E0,0E0,0E0,0E0,0E0,0E0],"parents":[2147483647,0,0,1,1,2,2,3,3,4,4],"right_children":[2,4,6,8,10,-1,-1,-1,-1,-1,-1],"split_conditions":[1.1629224E0,-4.689162E-1,3.7296848E0,-1.0731503E0,7.54558E-2,1.739853E-4,5.804702E-4,-1.6317987E-4,-6.1715284E-5,-1.2414639E-5,3.5791574E-5],"split_indices":[0,0,0,0,0,0,0,0,0,0,0],"split_type":[0,0,0,0,0,0,0,0,0,0,0],"sum_hessian":[5.11E2,4.48E2,6.3E1,1.77E2,2.71E2,5.6E1,7E0,2.2E1,1.55E2,1.75E2,9.6E1],"tree_param":{"num_deleted":"0","num_feature":"5","num_nodes":"11","size_leaf_vector":"1"}},{"base_weights":[4.0993193E-5,-1.8543939E-4,3.1942066E-3,-5.1190663E-4,4.1282282E-4,1.9246347E-4,5.376989E-4,-9.797261E-5,-2.822817E-4,-0E0,6.574118E-5,-3.424509E-5,-0E0],"categories":[],"categories_nodes":[],"categories_segments":[],"categories_sizes":[],"default_left":[0,0,0,0,0,0,0,0,0,0,0,0,0],"id":28,"left_children":[1,3,5,7,9,-1,-1,-1,11,-1,-1,-1,-1],"loss_changes":[3.982025E-4,9.497643E-5,5.0319068E-6,2.1225038E-5,1.0202044E-5,0E0,0E0,0E0,1.0371969E-6,0E0,0E0,0E0,0E0],"parents":[2147483647,0,0,1,1,2,2,3,3,4,4,8,8],"right_children":[2,4,6,8,10,-1,-1,-1,12,-1,-1,-1,-1],"split_conditions":[1.5320399E0,-3.2256294E-2,3.7296848E0,-7.962349E-1,2.4092041E-1,1.9246347E-4,5.376989E-4,-9.797261E-5,-2.0494679E-1,-0E0,6.574118E-5,-3.424509E-5,-0E0],"split_indices":[0,0,0,0,0,0,0,0,0,0,0,0,0],"split_type":[0,0,0,0,0,0,0,0,0,0,0,0,0],"sum_hessian":[5.11E2,4.76E2,3.5E1,3.19E2,1.57E2,2.8E1,7E0,8.8E1,2.31E2,7.3E1,8.4E1,1.65E2,6.6E1],"tree_param":{"num_deleted":"0","num_feature":"5","num_nodes":"13","size_leaf_vector":"1"}},{"base_weights":[4.020808E-5,-1.7363057E-4,2.8704258E-3,-4.675149E-4,3.655306E-4,1.7250564E-4,4.980788E-4,-8.7224216E-5,-2.5219677E-5,-0E0,5.324362E-5],"categories":[],"categories_nodes":[],"categories_segments":[],"categories_sizes":[],"default_left":[0,0,0,0,0,0,0,0,0,0,0],"id":29,"left_children":[1,3,5,7,9,-1,-1,-1,-1,-1,-1],"loss_changes":[3.3898925E-4,7.694898E-5,6.9384405E-6,1.6222824E-5,7.446586E-6,0E0,0E0,0E0,0E0,0E0,0E0],"parents":[2147483647,0,0,1,1,2,2,3,3,4,4],"right_children":[2,4,6,8,10,-1,-1,-1,-1,-1,-1],"split_conditions":[1.5052938E0,-3.2256294E-2,3.7296848E0,-8.669423E-1,1.705208E-1,1.7250564E-4,4.980788E-4,-8.7224216E-5,-2.5219677E-5,-0E0,5.324362E-5],"split_indices":[0,0,0,3,0,0,0,0,0,0,0],"split_type":[0,0,0,0,0,0,0,0,0,0,0],"sum_hessian":[5.11E2,4.74E2,3.7E1,3.19E2,1.55E2,3E1,7E0,9.2E1,2.27E2,5.7E1,9.8E1],"tree_param":{"num_deleted":"0","num_feature":"5","num_nodes":"11","size_leaf_vector":"1"}},{"base_weights":[3.995499E-5,-1.442556E-4,2.8121605E-4,-4.0138254E-4,4.08179E-4,-6.3646375E-4,-1.0077053E-5,8.813774E-6,6.8754794E-5,-1.3189712E-4,-4.4834025E-5],"categories":[],"categories_nodes":[],"categories_segments":[],"categories_sizes":[],"default_left":[0,0,0,0,0,0,0,0,0,0,0],"id":30,"left_children":[1,3,-1,5,7,9,-1,-1,-1,-1,-1],"loss_changes":[2.8992209E-4,6.859464E-5,0E0,1.6600516E-5,4.743104E-6,2.9967778E-6,0E0,0E0,0E0,0E0,0E0],"parents":[2147483647,0,0,1,1,3,3,4,4,5,5],"right_children":[2,4,-1,6,8,10,-1,-1,-1,-1,-1],"split_conditions":[1.5738335E0,3.4450863E-2,2.8121605E-4,-4.8887128E-1,8.021265E-1,-1.0731503E0,-1.0077053E-5,8.813774E-6,6.8754794E-5,-1.3189712E-4,-4.4834025E-5],"split_indices":[0,0,0,0,0,0,0,0,0,0,0],"split_type":[0,0,0,0,0,0,0,0,0,0,0],"sum_hessian":[5.11E2,4.78E2,3.3E1,3.39E2,1.39E2,1.7E2,1.69E2,8.3E1,5.6E1,2.2E1,1.48E2],"tree_param":{"num_deleted":"0","num_feature":"5","num_nodes":"11","size_leaf_vector":"1"}},{"base_weights":[3.4849374E-5,-2.1998095E-4,1.757716E-3,-5.203287E-4,2.3485658E-5,1.0449402E-4,3.8857635E-3,-1.2005334E-4,-3.7728096E-5,-1.8372438E-6,1.7717348E-5,4.0532928E-4,-0E0],"categories":[],"categories_nodes":[],"categories_segments":[],"categories_sizes":[],"default_left":[0,0,0,0,0,0,0,0,0,0,0,0,0],"id":31,"left_children":[1,3,5,7,9,-1,11,-1,-1,-1,-1,-1,-1],"loss_changes":[2.4179037E-4,3.750289E-5,4.8994654E-5,4.252641E-6,3.0725398E-6,0E0,1.5261176E-6,0E0,0E0,0E0,0E0,0E0,0E0],"parents":[2147483647,0,0,1,1,2,2,3,3,4,4,6,6],"right_children":[2,4,6,8,10,-1,12,-1,-1,-1,-1,-1,-1],"split_conditions":[1.0662534E0,-3.3645627E-1,3.283324E0,-1.0731503E0,4.5093816E-2,1.0449402E-4,-3.210612E-1,-1.2005334E-4,-3.7728096E-5,-1.8372438E-6,1.7717348E-5,4.0532928E-4,-0E0],"split_indices":[0,0,0,0,0,0,4,0,0,0,0,0,0],"split_type":[0,0,0,0,0,0,0,0,0,0,0,0,0],"sum_hessian":[5.11E2,4.42E2,6.9E1,2.15E2,2.27E2,5.8E1,1.1E1,2.2E1,1.93E2,1.29E2,9.8E1,1E1,1E0],"tree_param":{"num_deleted":"0","num_feature":"5","num_nodes":"13","size_leaf_vector":"1"}},{"base_weights":[3.1556894E-5,-1.6393578E-4,1.9070049E-3,-4.611033E-4,8.493806E-5,1.13977665E-4,4.1079102E-4,-9.2449714E-5,-3.0486202E-5,-0E0,2.9631774E-5],"categories":[],"categories_nodes":[],"categories_segments":[],"categories_sizes":[],"default_left":[0,0,0,0,0,0,0,0,0,0,0],"id":32,"left_children":[1,3,5,7,9,-1,-1,-1,-1,-1,-1],"loss_changes":[2.0648002E-4,3.806478E-5,2.615781E-5,3.6178863E-6,6.247272E-6,0E0,0E0,0E0,0E0,0E0,0E0],"parents":[2147483647,0,0,1,1,2,2,3,3,4,4],"right_children":[2,4,6,8,10,-1,-1,-1,-1,-1,-1],"split_conditions":[1.3035108E0,-2.943232E-1,3.7296848E0,-9.916685E-1,1.4223927E-1,1.13977665E-4,4.1079102E-4,-9.2449714E-5,-3.0486202E-5,-0E0,2.9631774E-5],"split_indices":[0,0,0,0,0,0,0,0,0,0,0],"split_type":[0,0,0,0,0,0,0,0,0,0,0],"sum_hessian":[5.11E2,4.6E2,5.1E1,2.27E2,2.33E2,4.4E1,7E0,3.8E1,1.89E2,1.45E2,8.8E1],"tree_param":{"num_deleted":"0","num_feature":"5","num_nodes":"11","size_leaf_vector":"1"}},{"base_weights":[2.9174827E-5,-1.1109101E-4,2.207338E-3,-3.3010676E-4,2.6470647E-4,2.3641044E-3,-0E0,-5.1125502E-5,-9.622638E-6,-0E0,4.514243E-5,2.4107475E-4,-0E0],"categories":[],"categories_nodes":[],"categories_segments":[],"categories_sizes":[],"default_left":[0,0,0,0,0,0,0,0,0,0,0,0,0],"id":33,"left_children":[1,3,5,7,9,11,-1,-1,-1,-1,-1,-1,-1],"loss_changes":[1.7846099E-4,4.0420284E-5,3.0850351E-6,7.4231903E-6,3.8656726E-6,1.2038217E-6,0E0,0E0,0E0,0E0,0E0,0E0,0E0],"parents":[2147483647,0,0,1,1,2,2,3,3,4,4,5,5],"right_children":[2,4,6,8,10,12,-1,-1,-1,-1,-1,-1,-1],"split_conditions":[1.5738335E0,-3.2256294E-2,-8.0521667E-1,-5.461973E-1,3.861207E-1,4.301456E0,-0E0,-5.1125502E-5,-9.622638E-6,-0E0,4.514243E-5,2.4107475E-4,-0E0],"split_indices":[0,0,1,0,0,4,0,0,0,0,0,0,0],"split_type":[0,0,0,0,0,0,0,0,0,0,0,0,0],"sum_hessian":[5.11E2,4.78E2,3.3E1,3.19E2,1.59E2,2.9E1,4E0,1.54E2,1.65E2,8.7E1,7.2E1,2.8E1,1E0],"tree_param":{"num_deleted":"0","num_feature":"5","num_nodes":"13","size_leaf_vector":"1"}},{"base_weights":[2.8124448E-5,-1.7788372E-4,1.321857E-3,-4.208152E-4,-0E0,8.224373E-5,3.627588E-4,-9.638057E-5,-2.7880174E-5,-3.6395104E-6,9.075723E-6],"categories":[],"categories_nodes":[],"categories_segments":[],"categories_sizes":[],"default_left":[0,0,0,0,0,0,0,0,0,0,0],"id":34,"left_children":[1,3,5,7,9,-1,-1,-1,-1,-1,-1],"loss_changes":[1.488853E-4,2.039074E-5,3.728448E-5,1.8233113E-6,1.0120095E-6,0E0,0E0,0E0,0E0,0E0,0E0],"parents":[2147483647,0,0,1,1,2,2,3,3,4,4],"right_children":[2,4,6,8,10,-1,-1,-1,-1,-1,-1],"split_conditions":[1.0083326E0,-4.3395838E-1,3.7296848E0,-1.0731503E0,3.9812364E-2,8.224373E-5,3.627588E-4,-9.638057E-5,-2.7880174E-5,-3.6395104E-6,9.075723E-6],"split_indices":[0,0,0,0,0,0,0,0,0,0,0],"split_type":[0,0,0,0,0,0,0,0,0,0,0],"sum_hessian":[5.11E2,4.36E2,7.5E1,1.91E2,2.45E2,6.8E1,7E0,2.2E1,1.69E2,1.49E2,9.6E1],"tree_param":{"num_deleted":"0","num_feature":"5","num_nodes":"11","size_leaf_vector":"1"}},{"base_weights":[2.4952727E-5,-6.0269507E-5,2.447279E-4,-2.6151002E-4,3.2209654E-4,-6.524384E-5,-1.51495E-5,2.9342502E-6,5.1426858E-5],"categories":[],"categories_nodes":[],"categories_segments":[],"categories_sizes":[],"default_left":[0,0,0,0,0,0,0,0,0],"id":35,"left_children":[1,3,-1,5,7,-1,-1,-1,-1],"loss_changes":[1.3024376E-4,3.765527E-5,0E0,6.4438045E-6,3.2181997E-6,0E0,0E0,0E0,0E0],"parents":[2147483647,0,0,1,1,3,3,4,4],"right_children":[2,4,-1,6,8,-1,-1,-1,-1],"split_conditions":[2.879326E0,3.9812364E-2,2.447279E-4,-9.524373E-1,8.021265E-1,-6.524384E-5,-1.51495E-5,2.9342502E-6,5.1426858E-5],"split_indices":[0,0,0,0,0,0,0,0,0],"split_type":[0,0,0,0,0,0,0,0,0],"sum_hessian":[5.11E2,4.92E2,1.9E1,3.4E2,1.52E2,5.2E1,2.88E2,8.2E1,7E1],"tree_param":{"num_deleted":"0","num_feature":"5","num_nodes":"9","size_leaf_vector":"1"}},{"base_weights":[2.3521927E-5,-8.217338E-5,1.7341638E-3,-2.7741067E-4,1.6386893E-4,7.492339E-5,3.1799634E-4,-8.4681524E-5,-1.908356E-5,-0E0,2.7932152E-5],"categories":[],"categories_nodes":[],"categories_segments":[],"categories_sizes":[],"default_left":[0,0,0,0,0,0,0,0,0,0,0],"id":36,"left_children":[1,3,5,7,9,-1,-1,-1,-1,-1,-1],"loss_changes":[1.0972045E-4,2.4330664E-5,5.304093E-6,3.589339E-6,3.0107876E-6,0E0,0E0,0E0,0E0,0E0,0E0],"parents":[2147483647,0,0,1,1,2,2,3,3,4,4],"right_children":[2,4,6,8,10,-1,-1,-1,-1,-1,-1],"split_conditions":[1.5738335E0,-1.2360666E-1,3.7296848E0,-1.1453602E0,1.705208E-1,7.492339E-5,3.1799634E-4,-8.4681524E-5,-1.908356E-5,-0E0,2.7932152E-5],"split_indices":[0,0,0,0,0,0,0,0,0,0,0],"split_type":[0,0,0,0,0,0,0,0,0,0,0],"sum_hessian":[5.11E2,4.78E2,3.3E1,2.89E2,1.89E2,2.6E1,7E0,2E1,2.69E2,8.7E1,1.02E2],"tree_param":{"num_deleted":"0","num_feature":"5","num_nodes":"11","size_leaf_vector":"1"}},{"base_weights":[2.3140134E-5,-7.389463E-5,1.6165867E-3,-2.9274344E-4,1.0431127E-4,6.80883E-5,2.9456487E-4,-7.479879E-5,-1.93038E-5,-0E0,2.520575E-5],"categories":[],"categories_nodes":[],"categories_segments":[],"categories_sizes":[],"default_left":[0,0,0,0,0,0,0,0,0,0,0],"id":37,"left_children":[1,3,5,7,9,-1,-1,-1,-1,-1,-1],"loss_changes":[9.512279E-5,2.0700236E-5,2.8686773E-6,1.1905358E-6,4.0114737E-6,0E0,0E0,0E0,0E0,0E0,0E0],"parents":[2147483647,0,0,1,1,2,2,3,3,4,4],"right_children":[2,4,6,8,10,-1,-1,-1,-1,-1,-1],"split_conditions":[1.5738335E0,-2.5263962E-1,3.7296848E0,-1.0731503E0,1.705208E-1,6.80883E-5,2.9456487E-4,-7.479879E-5,-1.93038E-5,-0E0,2.520575E-5],"split_indices":[0,0,0,0,0,0,0,0,0,0,0],"split_type":[0,0,0,0,0,0,0,0,0,0,0],"sum_hessian":[5.11E2,4.78E2,3.3E1,2.39E2,2.39E2,2.6E1,7E0,2.2E1,2.17E2,1.37E2,1.02E2],"tree_param":{"num_deleted":"0","num_feature":"5","num_nodes":"11","size_leaf_vector":"1"}},{"base_weights":[2.2032658E-5,-9.479208E-5,1.2178525E-3,-3.1860553E-5,1.172803E-5,6.286754E-5,2.7286002E-4,-9.634817E-7,1.2876158E-5],"categories":[],"categories_nodes":[],"categories_segments":[],"categories_sizes":[],"default_left":[0,0,0,0,0,0,0,0,0],"id":38,"left_children":[1,3,5,-1,7,-1,-1,-1,-1],"loss_changes":[8.3255836E-5,1.4104407E-5,9.758973E-6,0E0,1.9081674E-6,0E0,0E0,0E0,0E0],"parents":[2147483647,0,0,1,1,2,2,4,4],"right_children":[2,4,6,-1,8,-1,-1,-1,-1],"split_conditions":[1.3035108E0,-4.689162E-1,3.7296848E0,-3.1860553E-5,6.0161036E-2,6.286754E-5,2.7286002E-4,-9.634817E-7,1.2876158E-5],"split_indices":[0,0,0,0,0,0,0,0,0],"split_type":[0,0,0,0,0,0,0,0,0],"sum_hessian":[5.11E2,4.6E2,5.1E1,1.77E2,2.83E2,4.4E1,7E0,1.69E2,1.14E2],"tree_param":{"num_deleted":"0","num_feature":"5","num_nodes":"9","size_leaf_vector":"1"}},{"base_weights":[2.136664E-5,-3.706028E-5,1.8278175E-3,-1.855856E-4,2.2540947E-4,1.8880687E-4,-0E0,-4.348045E-5,-8.308506E-6,-0E0,3.614577E-5],"categories":[],"categories_nodes":[],"categories_segments":[],"categories_sizes":[],"default_left":[0,0,0,0,0,0,0,0,0,0,0],"id":39,"left_children":[1,3,5,7,9,-1,-1,-1,-1,-1,-1],"loss_changes":[7.2274466E-5,1.8983636E-5,1.2487508E-6,3.4544337E-6,1.5713795E-6,0E0,0E0,0E0,0E0,0E0,0E0],"parents":[2147483647,0,0,1,1,2,2,3,3,4,4],"right_children":[2,4,6,8,10,-1,-1,-1,-1,-1,-1],"split_conditions":[2.879326E0,3.4450863E-2,8.407479E-1,-9.0904206E-1,8.021265E-1,1.8880687E-4,-0E0,-4.348045E-5,-8.308506E-6,-0E0,3.614577E-5],"split_indices":[0,0,4,0,0,0,0,0,0,0,0],"split_type":[0,0,0,0,0,0,0,0,0,0,0],"sum_hessian":[5.11E2,4.92E2,1.9E1,3.39E2,1.53E2,1.8E1,1E0,6.8E1,2.71E2,8.3E1,7E1],"tree_param":{"num_deleted":"0","num_feature":"5","num_nodes":"11","size_leaf_vector":"1"}},{"base_weights":[1.9963856E-5,-6.22182E-5,1.1993729E-3,-2.3059254E-5,6.1209146E-5,4.951869E-5,2.3884238E-3,-0E0,1.5312571E-5,2.5778156E-4,-0E0],"categories":[],"categories_nodes":[],"categories_segments":[],"categories_sizes":[],"default_left":[0,0,0,0,0,0,0,0,0,0,0],"id":40,"left_children":[1,3,5,-1,7,-1,9,-1,-1,-1,-1],"loss_changes":[6.132973E-5,1.1590178E-5,2.9555958E-6,0E0,1.779943E-6,0E0,2.2902386E-6,0E0,0E0,0E0,0E0],"parents":[2147483647,0,0,1,1,2,2,4,4,6,6],"right_children":[2,4,6,-1,8,-1,10,-1,-1,-1,-1],"split_conditions":[1.4679564E0,-2.7099583E-1,3.7296848E0,-2.3059254E-5,1.0326448E-1,4.951869E-5,-4.347702E-1,-0E0,1.5312571E-5,2.5778156E-4,-0E0],"split_indices":[0,0,0,0,0,0,4,0,0,0,0],"split_type":[0,0,0,0,0,0,0,0,0,0,0],"sum_hessian":[5.11E2,4.72E2,3.9E1,2.33E2,2.39E2,3.2E1,7E0,1.27E2,1.12E2,6E0,1E0],"tree_param":{"num_deleted":"0","num_feature":"5","num_nodes":"11","size_leaf_vector":"1"}},{"base_weights":[2.0989442E-5,-8.684659E-5,8.569076E-4,-2.5338526E-5,-0E0,4.5458797E-5,2.2256137E-3,2.3958516E-4,-0E0],"categories":[],"categories_nodes":[],"categories_segments":[],"categories_sizes":[],"default_left":[0,0,0,0,0,0,0,0,0],"id":41,"left_children":[1,3,5,-1,-1,-1,7,-1,-1],"loss_changes":[5.4174623E-5,7.32233E-6,8.939329E-6,0E0,0E0,0E0,1.7339953E-6,0E0,0E0],"parents":[2147483647,0,0,1,1,2,2,6,6],"right_children":[2,4,6,-1,-1,-1,8,-1,-1],"split_conditions":[1.1015948E0,-5.1531374E-1,3.7296848E0,-2.5338526E-5,-0E0,4.5458797E-5,-4.347702E-1,2.3958516E-4,-0E0],"split_indices":[0,0,0,0,0,0,4,0,0],"split_type":[0,0,0,0,0,0,0,0,0],"sum_hessian":[5.11E2,4.44E2,6.7E1,1.64E2,2.8E2,6E1,7E0,6E0,1E0],"tree_param":{"num_deleted":"0","num_feature":"5","num_nodes":"9","size_leaf_vector":"1"}},{"base_weights":[2.097086E-5,-3.655562E-5,1.2215788E-3,-1.5314632E-4,1.26680925E-5,1.2547823E-4,-0E0,-5.9506507E-5,-8.527975E-6],"categories":[],"categories_nodes":[],"categories_segments":[],"categories_sizes":[],"default_left":[0,0,0,0,0,0,0,0,0],"id":42,"left_children":[1,3,5,7,-1,-1,-1,-1,-1],"loss_changes":[4.7427646E-5,9.534093E-6,1.01556E-6,2.651971E-6,0E0,0E0,0E0,0E0,0E0],"parents":[2147483647,0,0,1,1,2,2,3,3],"right_children":[2,4,6,8,-1,-1,-1,-1,-1],"split_conditions":[1.6488426E0,-3.9648853E-2,-6.7237025E-1,-1.1453602E0,1.26680925E-5,1.2547823E-4,-0E0,-5.9506507E-5,-8.527975E-6],"split_indices":[0,0,1,0,0,0,0,0,0],"split_type":[0,0,0,0,0,0,0,0,0],"sum_hessian":[5.11E2,4.82E2,2.9E1,3.17E2,1.65E2,2.8E1,1E0,2E1,2.97E2],"tree_param":{"num_deleted":"0","num_feature":"5","num_nodes":"9","size_leaf_vector":"1"}},{"base_weights":[1.7308079E-5,-8.051277E-5,6.992587E-4,-2.4838571E-5,-0E0,3.5978832E-5,1.9818393E-3,2.1381595E-4,-0E0],"categories":[],"categories_nodes":[],"categories_segments":[],"categories_sizes":[],"default_left":[0,0,0,0,0,0,0,0,0],"id":43,"left_children":[1,3,5,-1,-1,-1,7,-1,-1],"loss_changes":[4.0583272E-5,4.961985E-6,8.5444735E-6,0E0,0E0,0E0,1.546643E-6,0E0,0E0],"parents":[2147483647,0,0,1,1,2,2,6,6],"right_children":[2,4,6,-1,-1,-1,8,-1,-1],"split_conditions":[1.0083326E0,-6.4154905E-1,3.7296848E0,-2.4838571E-5,-0E0,3.5978832E-5,-4.347702E-1,2.1381595E-4,-0E0],"split_indices":[0,0,0,0,0,0,4,0,0],"split_type":[0,0,0,0,0,0,0,0,0],"sum_hessian":[5.11E2,4.36E2,7.5E1,1.24E2,3.12E2,6.8E1,7E0,6E0,1E0],"tree_param":{"num_deleted":"0","num_feature":"5","num_nodes":"9","size_leaf_vector":"1"}},{"base_weights":[1.6043221E-5,-1.645352E-5,1.3542239E-3,-1.2293571E-4,1.5294767E-5,1.6208639E-4,-0E0,-5.2009193E-5,-6.3266393E-6],"categories":[],"categories_nodes":[],"categories_segments":[],"categories_sizes":[],"default_left":[0,0,0,0,0,0,0,0,0],"id":44,"left_children":[1,3,5,7,-1,-1,-1,-1,-1],"loss_changes":[3.5763733E-5,8.702858E-6,2.3329085E-6,2.2007348E-6,0E0,0E0,0E0,0E0,0E0],"parents":[2147483647,0,0,1,1,2,2,3,3],"right_children":[2,4,6,8,-1,-1,-1,-1,-1],"split_conditions":[2.9687593E0,3.9812364E-2,-2.4690318E-1,-1.1453602E0,1.5294767E-5,1.6208639E-4,-0E0,-5.2009193E-5,-6.3266393E-6],"split_indices":[0,0,4,0,0,0,0,0,0],"split_type":[0,0,0,0,0,0,0,0,0],"sum_hessian":[5.11E2,4.94E2,1.7E1,3.4E2,1.54E2,1.2E1,5E0,2E1,3.2E2],"tree_param":{"num_deleted":"0","num_feature":"5","num_nodes":"9","size_leaf_vector":"1"}},{"base_weights":[1.3636858E-5,-6.832436E-5,6.238332E-4,-1.715277E-5,-0E0,3.0203575E-5,1.7273644E-3,1.8728155E-4,-0E0],"categories":[],"categories_nodes":[],"categories_segments":[],"categories_sizes":[],"default_left":[0,0,0,0,0,0,0,0,0],"id":45,"left_children":[1,3,5,-1,-1,-1,7,-1,-1],"loss_changes":[3.1343036E-5,3.636759E-6,5.2127543E-6,0E0,0E0,0E0,1.4672405E-6,0E0,0E0],"parents":[2147483647,0,0,1,1,2,2,6,6],"right_children":[2,4,6,-1,-1,-1,8,-1,-1],"split_conditions":[1.0196962E0,-4.3395838E-1,3.7296848E0,-1.715277E-5,-0E0,3.0203575E-5,-4.347702E-1,1.8728155E-4,-0E0],"split_indices":[0,0,0,0,0,0,4,0,0],"split_type":[0,0,0,0,0,0,0,0,0],"sum_hessian":[5.11E2,4.38E2,7.3E1,1.91E2,2.47E2,6.6E1,7E0,6E0,1E0],"tree_param":{"num_deleted":"0","num_feature":"5","num_nodes":"9","size_leaf_vector":"1"}},{"base_weights":[1.3946523E-5,-1.42642375E-5,1.1262886E-3,-1.11785E-4,1.0760805E-5,1.6641075E-4,-0E0,-4.5861474E-5,-5.1807783E-6],"categories":[],"categories_nodes":[],"categories_segments":[],"categories_sizes":[],"default_left":[0,0,0,0,0,0,0,0,0],"id":46,"left_children":[1,3,5,7,-1,-1,-1,-1,-1],"loss_changes":[2.7274045E-5,5.9490126E-6,1.803859E-6,1.5241803E-6,0E0,0E0,0E0,0E0,0E0],"parents":[2147483647,0,0,1,1,2,2,3,3],"right_children":[2,4,6,8,-1,-1,-1,-1,-1],"split_conditions":[2.879326E0,-3.2256294E-2,-4.0510696E-1,-1.1453602E0,1.0760805E-5,1.6641075E-4,-0E0,-4.5861474E-5,-5.1807783E-6],"split_indices":[0,0,4,0,0,0,0,0,0],"split_type":[0,0,0,0,0,0,0,0,0],"sum_hessian":[5.11E2,4.92E2,1.9E1,3.19E2,1.73E2,8E0,1.1E1,2E1,2.99E2],"tree_param":{"num_deleted":"0","num_feature":"5","num_nodes":"9","size_leaf_vector":"1"}},{"base_weights":[1.253113E-5,-4.9759776E-5,6.134021E-4,-3.187511E-5,-0E0,2.8172826E-5,1.6626575E-4],"categories":[],"categories_nodes":[],"categories_segments":[],"categories_sizes":[],"default_left":[0,0,0,0,0,0,0],"id":47,"left_children":[1,3,5,-1,-1,-1,-1],"loss_changes":[2.4932418E-5,3.197691E-6,1.4837678E-6,0E0,0E0,0E0,0E0],"parents":[2147483647,0,0,1,1,2,2],"right_children":[2,4,6,-1,-1,-1,-1],"split_conditions":[1.1842357E0,-9.834236E-1,3.9228692E0,-3.187511E-5,-0E0,2.8172826E-5,1.6626575E-4],"split_indices":[0,0,0,0,0,0,0],"split_type":[0,0,0,0,0,0,0],"sum_hessian":[5.11E2,4.5E2,6.1E1,4E1,4.1E2,5.6E1,5E0],"tree_param":{"num_deleted":"0","num_feature":"5","num_nodes":"7","size_leaf_vector":"1"}},{"base_weights":[1.0322677E-5,-6.1917955E-5,4.907178E-4,-1.9089877E-5,-0E0,1.6672217E-5,1.0531234E-4],"categories":[],"categories_nodes":[],"categories_segments":[],"categories_sizes":[],"default_left":[0,0,0,0,0,0,0],"id":48,"left_children":[1,3,5,-1,-1,-1,-1],"loss_changes":[2.218449E-5,2.157759E-6,2.942148E-6,0E0,0E0,0E0,0E0],"parents":[2147483647,0,0,1,1,2,2],"right_children":[2,4,6,-1,-1,-1,-1],"split_conditions":[8.9229655E-1,-7.2983414E-1,2.9687593E0,-1.9089877E-5,-0E0,1.6672217E-5,1.0531234E-4],"split_indices":[0,0,0,0,0,0,0],"split_type":[0,0,0,0,0,0,0],"sum_hessian":[5.11E2,4.28E2,8.3E1,1.02E2,3.26E2,6.6E1,1.7E1],"tree_param":{"num_deleted":"0","num_feature":"5","num_nodes":"7","size_leaf_vector":"1"}},{"base_weights":[8.485454E-6,-5.2579508E-5,4.8275347E-4,-1.1978322E-5,-0E0,2.2484648E-5,1.4816034E-4],"categories":[],"categories_nodes":[],"categories_segments":[],"categories_sizes":[],"default_left":[0,0,0,0,0,0,0],"id":49,"left_children":[1,3,5,-1,-1,-1,-1],"loss_changes":[1.9236752E-5,2.0805915E-6,2.0674725E-6,0E0,0E0,0E0,0E0],"parents":[2147483647,0,0,1,1,2,2],"right_children":[2,4,6,-1,-1,-1,-1],"split_conditions":[1.0083326E0,-2.943232E-1,3.9228692E0,-1.1978322E-5,-0E0,2.2484648E-5,1.4816034E-4],"split_indices":[0,0,0,0,0,0,0],"split_type":[0,0,0,0,0,0,0],"sum_hessian":[5.11E2,4.36E2,7.5E1,2.27E2,2.09E2,7E1,5E0],"tree_param":{"num_deleted":"0","num_feature":"5","num_nodes":"7","size_leaf_vector":"1"}},{"base_weights":[9.272849E-6,-2.9782092E-5,5.7888796E-5,-3.6189955E-5,-0E0],"categories":[],"categories_nodes":[],"categories_segments":[],"categories_sizes":[],"default_left":[0,0,0,0,0],"id":50,"left_children":[1,3,-1,-1,-1],"loss_changes":[1.6957627E-5,2.533081E-6,0E0,0E0,0E0],"parents":[2147483647,0,0,1,1],"right_children":[2,4,-1,-1,-1],"split_conditions":[1.3561265E0,-1.1453602E0,5.7888796E-5,-3.6189955E-5,-0E0],"split_indices":[0,0,0,0,0],"split_type":[0,0,0,0,0],"sum_hessian":[5.11E2,4.64E2,4.7E1,2E1,4.44E2],"tree_param":{"num_deleted":"0","num_feature":"5","num_nodes":"5","size_leaf_vector":"1"}},{"base_weights":[5.383896E-6,-5.048451E-5,3.9311135E-4,-1.0728783E-5,-0E0,1.7352102E-5,1.3442345E-4],"categories":[],"categories_nodes":[],"categories_segments":[],"categories_sizes":[],"default_left":[0,0,0,0,0,0,0],"id":51,"left_children":[1,3,5,-1,-1,-1,-1],"loss_changes":[1.4599173E-5,1.434482E-6,2.51434E-6,0E0,0E0,0E0,0E0],"parents":[2147483647,0,0,1,1,2,2],"right_children":[2,4,6,-1,-1,-1,-1],"split_conditions":[8.460898E-1,-3.308492E-1,3.9228692E0,-1.0728783E-5,-0E0,1.7352102E-5,1.3442345E-4],"split_indices":[0,0,0,0,0,0,0],"split_type":[0,0,0,0,0,0,0],"sum_hessian":[5.11E2,4.26E2,8.5E1,2.17E2,2.09E2,8E1,5E0],"tree_param":{"num_deleted":"0","num_feature":"5","num_nodes":"7","size_leaf_vector":"1"}},{"base_weights":[5.905509E-6,-7.5459097E-6,7.7971775E-4,-8.240496E-6,5.2700807E-6,1.17980286E-4,-0E0],"categories":[],"categories_nodes":[],"categories_segments":[],"categories_sizes":[],"default_left":[0,0,0,0,0,0,0],"id":52,"left_children":[1,3,5,-1,-1,-1,-1],"loss_changes":[1.3081383E-5,2.5380991E-6,1.5441801E-6,0E0,0E0,0E0,0E0],"parents":[2147483647,0,0,1,1,2,2],"right_children":[2,4,6,-1,-1,-1,-1],"split_conditions":[2.879326E0,-1.1523617E-1,-4.0510696E-1,-8.240496E-6,5.2700807E-6,1.17980286E-4,-0E0],"split_indices":[0,0,4,0,0,0,0],"split_type":[0,0,0,0,0,0,0],"sum_hessian":[5.11E2,4.92E2,1.9E1,2.93E2,1.99E2,8E0,1.1E1],"tree_param":{"num_deleted":"0","num_feature":"5","num_nodes":"7","size_leaf_vector":"1"}},{"base_weights":[6.7269702E-6,-4.105225E-5,3.5480215E-4,-3.28649E-5,-2.0793803E-7,1.4818725E-5,1.17596566E-4],"categories":[],"categories_nodes":[],"categories_segments":[],"categories_sizes":[],"default_left":[0,0,0,0,0,0,0],"id":53,"left_children":[1,3,5,-1,-1,-1,-1],"loss_changes":[1.1713809E-5,1.4938378E-6,1.1684688E-6,0E0,0E0,0E0,0E0],"parents":[2147483647,0,0,1,1,2,2],"right_children":[2,4,6,-1,-1,-1,-1],"split_conditions":[8.460898E-1,-1.162448E0,3.9228692E0,-3.28649E-5,-2.0793803E-7,1.4818725E-5,1.17596566E-4],"split_indices":[0,0,0,0,0,0,0],"split_type":[0,0,0,0,0,0,0],"sum_hessian":[5.11E2,4.26E2,8.5E1,1.8E1,4.08E2,8E1,5E0],"tree_param":{"num_deleted":"0","num_feature":"5","num_nodes":"7","size_leaf_vector":"1"}},{"base_weights":[4.590705E-6,-5.3939257E-6,6.988197E-5,-6.4330147E-6,5.6702993E-6],"categories":[],"categories_nodes":[],"categories_segments":[],"categories_sizes":[],"default_left":[0,0,0,0,0],"id":54,"left_children":[1,3,-1,-1,-1],"loss_changes":[1.0503067E-5,1.895141E-6,0E0,0E0,0E0],"parents":[2147483647,0,0,1,1],"right_children":[2,4,-1,-1,-1],"split_conditions":[2.879326E0,2.5509844E-2,6.988197E-5,-6.4330147E-6,5.6702993E-6],"split_indices":[0,0,0,0,0],"split_type":[0,0,0,0,0],"sum_hessian":[5.11E2,4.92E2,1.9E1,3.35E2,1.57E2],"tree_param":{"num_deleted":"0","num_feature":"5","num_nodes":"5","size_leaf_vector":"1"}},{"base_weights":[4.4684866E-6,-3.4830024E-5,3.1916836E-5,-2.0454492E-5,-0E0],"categories":[],"categories_nodes":[],"categories_segments":[],"categories_sizes":[],"default_left":[0,0,0,0,0],"id":55,"left_children":[1,3,-1,-1,-1],"loss_changes":[9.22175E-6,1.2558887E-6,0E0,0E0,0E0],"parents":[2147483647,0,0,1,1],"right_children":[2,4,-1,-1,-1],"split_conditions":[8.9229655E-1,-9.834236E-1,3.1916836E-5,-2.0454492E-5,-0E0],"split_indices":[0,0,0,0,0],"split_type":[0,0,0,0,0],"sum_hessian":[5.11E2,4.28E2,8.3E1,4E1,3.88E2],"tree_param":{"num_deleted":"0","num_feature":"5","num_nodes":"5","size_leaf_vector":"1"}},{"base_weights":[9.026982E-7,-5.312314E-6,6.088593E-4,-2.7618322E-5,-0E0,9.521195E-5,-0E0],"categories":[],"categories_nodes":[],"categories_segments":[],"categories_sizes":[],"default_left":[0,0,0,0,0,0,0],"id":56,"left_children":[1,3,5,-1,-1,-1,-1],"loss_changes":[7.983795E-6,1.5497268E-6,1.5483229E-6,0E0,0E0,0E0,0E0],"parents":[2147483647,0,0,1,1,2,2],"right_children":[2,4,6,-1,-1,-1,-1],"split_conditions":[2.879326E0,-1.162448E0,-4.0510696E-1,-2.7618322E-5,-0E0,9.521195E-5,-0E0],"split_indices":[0,0,4,0,0,0,0],"split_type":[0,0,0,0,0,0,0],"sum_hessian":[5.11E2,4.92E2,1.9E1,1.8E1,4.74E2,8E0,1.1E1],"tree_param":{"num_deleted":"0","num_feature":"5","num_nodes":"7","size_leaf_vector":"1"}},{"base_weights":[3.8749457E-7,3.4200624E-5,-2.3034907E-5,-1.3737929E-5,-0E0],"categories":[],"categories_nodes":[],"categories_segments":[],"categories_sizes":[],"default_left":[0,0,0,0,0],"id":57,"left_children":[1,-1,3,-1,-1],"loss_changes":[7.3181945E-6,0E0,1.08886E-6,0E0,0E0],"parents":[2147483647,0,0,2,2],"right_children":[2,-1,4,-1,-1],"split_conditions":[-7.9970646E-1,3.4200624E-5,-9.0904206E-1,-1.3737929E-5,-0E0],"split_indices":[1,0,0,0,0],"split_type":[0,0,0,0,0],"sum_hessian":[5.11E2,5.8E1,4.53E2,6.8E1,3.85E2],"tree_param":{"num_deleted":"0","num_feature":"5","num_nodes":"5","size_leaf_vector":"1"}},{"base_weights":[-0E0,-0E0,9.43428E-5,-5.0321737E-6,5.65144E-6],"categories":[],"categories_nodes":[],"categories_segments":[],"categories_sizes":[],"default_left":[0,0,0,0,0],"id":58,"left_children":[1,3,-1,-1,-1],"loss_changes":[6.6754233E-6,1.40415E-6,0E0,0E0,0E0],"parents":[2147483647,0,0,1,1],"right_children":[2,4,-1,-1,-1],"split_conditions":[3.9228692E0,4.0446904E-2,9.43428E-5,-5.0321737E-6,5.65144E-6],"split_indices":[0,0,0,0,0],"split_type":[0,0,0,0,0],"sum_hessian":[5.11E2,5.06E2,5E0,3.42E2,1.64E2],"tree_param":{"num_deleted":"0","num_feature":"5","num_nodes":"5","size_leaf_vector":"1"}},{"base_weights":[-0E0,-1.0945602E-5,3.9225444E-5,-2.3545166E-5,-0E0],"categories":[],"categories_nodes":[],"categories_segments":[],"categories_sizes":[],"default_left":[0,0,0,0,0],"id":59,"left_children":[1,3,-1,-1,-1],"loss_changes":[5.8272103E-6,1.0791412E-6,0E0,0E0,0E0],"parents":[2147483647,0,0,1,1],"right_children":[2,4,-1,-1,-1],"split_conditions":[1.5320399E0,-1.162448E0,3.9225444E-5,-2.3545166E-5,-0E0],"split_indices":[0,0,0,0,0],"split_type":[0,0,0,0,0],"sum_hessian":[5.11E2,4.76E2,3.5E1,1.8E1,4.58E2],"tree_param":{"num_deleted":"0","num_feature":"5","num_nodes":"5","size_leaf_vector":"1"}},{"base_weights":[-0E0,-0E0,8.543836E-5,-5.2255195E-6,3.3473586E-6],"categories":[],"categories_nodes":[],"categories_segments":[],"categories_sizes":[],"default_left":[0,0,0,0,0],"id":60,"left_children":[1,3,-1,-1,-1],"loss_changes":[5.4747857E-6,1.0419169E-6,0E0,0E0,0E0],"parents":[2147483647,0,0,1,1],"right_children":[2,4,-1,-1,-1],"split_conditions":[3.9228692E0,-1.2360666E-1,8.543836E-5,-5.2255195E-6,3.3473586E-6],"split_indices":[0,0,0,0,0],"split_type":[0,0,0,0,0],"sum_hessian":[5.11E2,5.06E2,5E0,2.89E2,2.17E2],"tree_param":{"num_deleted":"0","num_feature":"5","num_nodes":"5","size_leaf_vector":"1"}},{"base_weights":[-0E0,-0E0,7.974265E-5],"categories":[],"categories_nodes":[],"categories_segments":[],"categories_sizes":[],"default_left":[0,0,0],"id":61,"left_children":[1,-1,-1],"loss_changes":[4.769167E-6,0E0,0E0],"parents":[2147483647,0,0],"right_children":[2,-1,-1],"split_conditions":[3.9228692E0,-0E0,7.974265E-5],"split_indices":[0,0,0],"split_type":[0,0,0],"sum_hessian":[5.11E2,5.06E2,5E0],"tree_param":{"num_deleted":"0","num_feature":"5","num_nodes":"3","size_leaf_vector":"1"}},{"base_weights":[-0E0,-2.9360588E-6,1.9462746E-5],"categories":[],"categories_nodes":[],"categories_segments":[],"categories_sizes":[],"default_left":[0,0,0],"id":62,"left_children":[1,-1,-1],"loss_changes":[4.3501927E-6,0E0,0E0],"parents":[2147483647,0,0],"right_children":[2,-1,-1],"split_conditions":[3.948158E-1,-2.9360588E-6,1.9462746E-5],"split_indices":[0,0,0],"split_type":[0,0,0],"sum_hessian":[5.11E2,4.08E2,1.03E2],"tree_param":{"num_deleted":"0","num_feature":"5","num_nodes":"3","size_leaf_vector":"1"}},{"base_weights":[-0E0,-0E0,7.312901E-5],"categories":[],"categories_nodes":[],"categories_segments":[],"categories_sizes":[],"default_left":[0,0,0],"id":63,"left_children":[1,-1,-1],"loss_changes":[4.0108894E-6,0E0,0E0],"parents":[2147483647,0,0],"right_children":[2,-1,-1],"split_conditions":[3.9228692E0,-0E0,7.312901E-5],"split_indices":[0,0,0],"split_type":[0,0,0],"sum_hessian":[5.11E2,5.06E2,5E0],"tree_param":{"num_deleted":"0","num_feature":"5","num_nodes":"3","size_leaf_vector":"1"}},{"base_weights":[-0E0,-2.9652776E-7,4.0812607E-5],"categories":[],"categories_nodes":[],"categories_segments":[],"categories_sizes":[],"default_left":[0,0,0],"id":64,"left_children":[1,-1,-1],"loss_changes":[3.5855364E-6,0E0,0E0],"parents":[2147483647,0,0],"right_children":[2,-1,-1],"split_conditions":[2.879326E0,-2.9652776E-7,4.0812607E-5],"split_indices":[0,0,0],"split_type":[0,0,0],"sum_hessian":[5.11E2,4.92E2,1.9E1],"tree_param":{"num_deleted":"0","num_feature":"5","num_nodes":"3","size_leaf_vector":"1"}},{"base_weights":[-0E0,-0E0,6.55329E-5],"categories":[],"categories_nodes":[],"categories_segments":[],"categories_sizes":[],"default_left":[0,0,0],"id":65,"left_children":[1,-1,-1],"loss_changes":[3.2209205E-6,0E0,0E0],"parents":[2147483647,0,0],"right_children":[2,-1,-1],"split_conditions":[3.9228692E0,-0E0,6.55329E-5],"split_indices":[0,0,0],"split_type":[0,0,0],"sum_hessian":[5.11E2,5.06E2,5E0],"tree_param":{"num_deleted":"0","num_feature":"5","num_nodes":"3","size_leaf_vector":"1"}},{"base_weights":[-0E0,-2.2013642E-6,1.8038794E-5],"categories":[],"categories_nodes":[],"categories_segments":[],"categories_sizes":[],"default_left":[0,0,0],"id":66,"left_children":[1,-1,-1],"loss_changes":[3.0548847E-6,0E0,0E0],"parents":[2147483647,0,0],"right_children":[2,-1,-1],"split_conditions":[8.460898E-1,-2.2013642E-6,1.8038794E-5],"split_indices":[0,0,0],"split_type":[0,0,0],"sum_hessian":[5.11E2,4.26E2,8.5E1],"tree_param":{"num_deleted":"0","num_feature":"5","num_nodes":"3","size_leaf_vector":"1"}},{"base_weights":[-0E0,-0E0,5.9961352E-5],"categories":[],"categories_nodes":[],"categories_segments":[],"categories_sizes":[],"default_left":[0,0,0],"id":67,"left_children":[1,-1,-1],"loss_changes":[2.696523E-6,0E0,0E0],"parents":[2147483647,0,0],"right_children":[2,-1,-1],"split_conditions":[3.9228692E0,-0E0,5.9961352E-5],"split_indices":[0,0,0],"split_type":[0,0,0],"sum_hessian":[5.11E2,5.06E2,5E0],"tree_param":{"num_deleted":"0","num_feature":"5","num_nodes":"3","size_leaf_vector":"1"}},{"base_weights":[-0E0,-2.3960017E-6,1.449436E-5],"categories":[],"categories_nodes":[],"categories_segments":[],"categories_sizes":[],"default_left":[0,0,0],"id":68,"left_children":[1,-1,-1],"loss_changes":[2.452073E-6,0E0,0E0],"parents":[2147483647,0,0],"right_children":[2,-1,-1],"split_conditions":[3.948158E-1,-2.3960017E-6,1.449436E-5],"split_indices":[0,0,0],"split_type":[0,0,0],"sum_hessian":[5.11E2,4.08E2,1.03E2],"tree_param":{"num_deleted":"0","num_feature":"5","num_nodes":"3","size_leaf_vector":"1"}},{"base_weights":[-0E0,-0E0,5.4997778E-5],"categories":[],"categories_nodes":[],"categories_segments":[],"categories_sizes":[],"default_left":[0,0,0],"id":69,"left_children":[1,-1,-1],"loss_changes":[2.2685667E-6,0E0,0E0],"parents":[2147483647,0,0],"right_children":[2,-1,-1],"split_conditions":[3.9228692E0,-0E0,5.4997778E-5],"split_indices":[0,0,0],"split_type":[0,0,0],"sum_hessian":[5.11E2,5.06E2,5E0],"tree_param":{"num_deleted":"0","num_feature":"5","num_nodes":"3","size_leaf_vector":"1"}},{"base_weights":[-0E0,-9.264496E-7,2.1834892E-5],"categories":[],"categories_nodes":[],"categories_segments":[],"categories_sizes":[],"default_left":[0,0,0],"id":70,"left_children":[1,-1,-1],"loss_changes":[2.019291E-6,0E0,0E0],"parents":[2147483647,0,0],"right_children":[2,-1,-1],"split_conditions":[1.4679564E0,-9.264496E-7,2.1834892E-5],"split_indices":[0,0,0],"split_type":[0,0,0],"sum_hessian":[5.11E2,4.72E2,3.9E1],"tree_param":{"num_deleted":"0","num_feature":"5","num_nodes":"3","size_leaf_vector":"1"}},{"base_weights":[-0E0,-0E0,4.9875252E-5],"categories":[],"categories_nodes":[],"categories_segments":[],"categories_sizes":[],"default_left":[0,0,0],"id":71,"left_children":[1,-1,-1],"loss_changes":[1.8656557E-6,0E0,0E0],"parents":[2147483647,0,0],"right_children":[2,-1,-1],"split_conditions":[3.9228692E0,-0E0,4.9875252E-5],"split_indices":[0,0,0],"split_type":[0,0,0],"sum_hessian":[5.11E2,5.06E2,5E0],"tree_param":{"num_deleted":"0","num_feature":"5","num_nodes":"3","size_leaf_vector":"1"}},{"base_weights":[-0E0,-2.9685023E-6,9.6172835E-6],"categories":[],"categories_nodes":[],"categories_segments":[],"categories_sizes":[],"default_left":[0,0,0],"id":72,"left_children":[1,-1,-1],"loss_changes":[1.7391894E-6,0E0,0E0],"parents":[2147483647,0,0],"right_children":[2,-1,-1],"split_conditions":[1.0326448E-1,-2.9685023E-6,9.6172835E-6],"split_indices":[0,0,0],"split_type":[0,0,0],"sum_hessian":[5.11E2,3.6E2,1.51E2],"tree_param":{"num_deleted":"0","num_feature":"5","num_nodes":"3","size_leaf_vector":"1"}},{"base_weights":[-0E0,-0E0,4.5909062E-5],"categories":[],"categories_nodes":[],"categories_segments":[],"categories_sizes":[],"default_left":[0,0,0],"id":73,"left_children":[1,-1,-1],"loss_changes":[1.5807315E-6,0E0,0E0],"parents":[2147483647,0,0],"right_children":[2,-1,-1],"split_conditions":[3.9228692E0,-0E0,4.5909062E-5],"split_indices":[0,0,0],"split_type":[0,0,0],"sum_hessian":[5.11E2,5.06E2,5E0],"tree_param":{"num_deleted":"0","num_feature":"5","num_nodes":"3","size_leaf_vector":"1"}},{"base_weights":[-0E0,1.4778141E-5,-1.2894765E-6],"categories":[],"categories_nodes":[],"categories_segments":[],"categories_sizes":[],"default_left":[0,0,0],"id":74,"left_children":[1,-1,-1],"loss_changes":[1.4403646E-6,0E0,0E0],"parents":[2147483647,0,0],"right_children":[2,-1,-1],"split_conditions":[-7.7782637E-1,1.4778141E-5,-1.2894765E-6],"split_indices":[1,0,0],"split_type":[0,0,0],"sum_hessian":[5.11E2,6E1,4.51E2],"tree_param":{"num_deleted":"0","num_feature":"5","num_nodes":"3","size_leaf_vector":"1"}},{"base_weights":[-0E0,-1.1084754E-8,4.1863397E-5],"categories":[],"categories_nodes":[],"categories_segments":[],"categories_sizes":[],"default_left":[0,0,0],"id":75,"left_children":[1,-1,-1],"loss_changes":[1.3144142E-6,0E0,0E0],"parents":[2147483647,0,0],"right_children":[2,-1,-1],"split_conditions":[3.9228692E0,-1.1084754E-8,4.1863397E-5],"split_indices":[0,0,0],"split_type":[0,0,0],"sum_hessian":[5.11E2,5.06E2,5E0],"tree_param":{"num_deleted":"0","num_feature":"5","num_nodes":"3","size_leaf_vector":"1"}},{"base_weights":[-0E0,-2.5445281E-6,7.88507E-6],"categories":[],"categories_nodes":[],"categories_segments":[],"categories_sizes":[],"default_left":[0,0,0],"id":76,"left_children":[1,-1,-1],"loss_changes":[1.189081E-6,0E0,0E0],"parents":[2147483647,0,0],"right_children":[2,-1,-1],"split_conditions":[1.0326448E-1,-2.5445281E-6,7.88507E-6],"split_indices":[0,0,0],"split_type":[0,0,0],"sum_hessian":[5.11E2,3.6E2,1.51E2],"tree_param":{"num_deleted":"0","num_feature":"5","num_nodes":"3","size_leaf_vector":"1"}},{"base_weights":[-0E0,-5.625491E-8,3.8546896E-5],"categories":[],"categories_nodes":[],"categories_segments":[],"categories_sizes":[],"default_left":[0,0,0],"id":77,"left_children":[1,-1,-1],"loss_changes":[1.1145581E-6,0E0,0E0],"parents":[2147483647,0,0],"right_children":[2,-1,-1],"split_conditions":[3.9228692E0,-5.625491E-8,3.8546896E-5],"split_indices":[0,0,0],"split_type":[0,0,0],"sum_hessian":[5.11E2,5.06E2,5E0],"tree_param":{"num_deleted":"0","num_feature":"5","num_nodes":"3","size_leaf_vector":"1"}},{"base_weights":[-0E0,-3.5088638E-7,2.394126E-5],"categories":[],"categories_nodes":[],"categories_segments":[],"categories_sizes":[],"default_left":[0,0,0],"id":78,"left_children":[1,-1,-1],"loss_changes":[1.0092094E-6,0E0,0E0],"parents":[2147483647,0,0],"right_children":[2,-1,-1],"split_conditions":[3.048005E0,-3.5088638E-7,2.394126E-5],"split_indices":[0,0,0],"split_type":[0,0,0],"sum_hessian":[5.11E2,4.96E2,1.5E1],"tree_param":{"num_deleted":"0","num_feature":"5","num_nodes":"3","size_leaf_vector":"1"}},{"base_weights":[-0E0],"categories":[],"categories_nodes":[],"categories_segments":[],"categories_sizes":[],"default_left":[0],"id":79,"left_children":[-1],"loss_changes":[0E0],"parents":[2147483647],"right_children":[-1],"split_conditions":[-0E0],"split_indices":[0],"split_type":[0],"sum_hessian":[5.11E2],"tree_param":{"num_deleted":"0","num_feature":"5","num_nodes":"1","size_leaf_vector":"1"}},{"base_weights":[-0E0],"categories":[],"categories_nodes":[],"categories_segments":[],"categories_sizes":[],"default_left":[0],"id":80,"left_children":[-1],"loss_changes":[0E0],"parents":[2147483647],"right_children":[-1],"split_conditions":[-0E0],"split_indices":[0],"split_type":[0],"sum_hessian":[5.11E2],"tree_param":{"num_deleted":"0","num_feature":"5","num_nodes":"1","size_leaf_vector":"1"}},{"base_weights":[-0E0],"categories":[],"categories_nodes":[],"categories_segments":[],"categories_sizes":[],"default_left":[0],"id":81,"left_children":[-1],"loss_changes":[0E0],"parents":[2147483647],"right_children":[-1],"split_conditions":[-0E0],"split_indices":[0],"split_type":[0],"sum_hessian":[5.11E2],"tree_param":{"num_deleted":"0","num_feature":"5","num_nodes":"1","size_leaf_vector":"1"}},{"base_weights":[-0E0],"categories":[],"categories_nodes":[],"categories_segments":[],"categories_sizes":[],"default_left":[0],"id":82,"left_children":[-1],"loss_changes":[0E0],"parents":[2147483647],"right_children":[-1],"split_conditions":[-0E0],"split_indices":[0],"split_type":[0],"sum_hessian":[5.11E2],"tree_param":{"num_deleted":"0","num_feature":"5","num_nodes":"1","size_leaf_vector":"1"}},{"base_weights":[-0E0],"categories":[],"categories_nodes":[],"categories_segments":[],"categories_sizes":[],"default_left":[0],"id":83,"left_children":[-1],"loss_changes":[0E0],"parents":[2147483647],"right_children":[-1],"split_conditions":[-0E0],"split_indices":[0],"split_type":[0],"sum_hessian":[5.11E2],"tree_param":{"num_deleted":"0","num_feature":"5","num_nodes":"1","size_leaf_vector":"1"}},{"base_weights":[-0E0],"categories":[],"categories_nodes":[],"categories_segments":[],"categories_sizes":[],"default_left":[0],"id":84,"left_children":[-1],"loss_changes":[0E0],"parents":[2147483647],"right_children":[-1],"split_conditions":[-0E0],"split_indices":[0],"split_type":[0],"sum_hessian":[5.11E2],"tree_param":{"num_deleted":"0","num_feature":"5","num_nodes":"1","size_leaf_vector":"1"}},{"base_weights":[-0E0],"categories":[],"categories_nodes":[],"categories_segments":[],"categories_sizes":[],"default_left":[0],"id":85,"left_children":[-1],"loss_changes":[0E0],"parents":[2147483647],"right_children":[-1],"split_conditions":[-0E0],"split_indices":[0],"split_type":[0],"sum_hessian":[5.11E2],"tree_param":{"num_deleted":"0","num_feature":"5","num_nodes":"1","size_leaf_vector":"1"}},{"base_weights":[-0E0],"categories":[],"categories_nodes":[],"categories_segments":[],"categories_sizes":[],"default_left":[0],"id":86,"left_children":[-1],"loss_changes":[0E0],"parents":[2147483647],"right_children":[-1],"split_conditions":[-0E0],"split_indices":[0],"split_type":[0],"sum_hessian":[5.11E2],"tree_param":{"num_deleted":"0","num_feature":"5","num_nodes":"1","size_leaf_vector":"1"}},{"base_weights":[-0E0],"categories":[],"categories_nodes":[],"categories_segments":[],"categories_sizes":[],"default_left":[0],"id":87,"left_children":[-1],"loss_changes":[0E0],"parents":[2147483647],"right_children":[-1],"split_conditions":[-0E0],"split_indices":[0],"split_type":[0],"sum_hessian":[5.11E2],"tree_param":{"num_deleted":"0","num_feature":"5","num_nodes":"1","size_leaf_vector":"1"}},{"base_weights":[-0E0],"categories":[],"categories_nodes":[],"categories_segments":[],"categories_sizes":[],"default_left":[0],"id":88,"left_children":[-1],"loss_changes":[0E0],"parents":[2147483647],"right_children":[-1],"split_conditions":[-0E0],"split_indices":[0],"split_type":[0],"sum_hessian":[5.11E2],"tree_param":{"num_deleted":"0","num_feature":"5","num_nodes":"1","size_leaf_vector":"1"}}]},"name":"gbtree"},"learner_model_param":{"base_score":"2.3275563E-2","boost_from_average":"1","num_class":"0","num_feature":"5","num_target":"1"},"objective":{"name":"reg:squarederror","reg_loss_param":{"scale_pos_weight":"1"}}},"version":[2,1,3]}