{"learner":{"attributes":{"best_iteration":"78","best_score":"0.00017690400317977"},"feature_names":["f0","f1","f2","f3","f4"],"feature_types":[],"gradient_booster":{"model":{"gbtree_model_param":{"num_parallel_tree":"1","num_trees":"89"},"iteration_indptr":[0,1,2,3,4,5,6,7,8,9,10,11,12,13,14,15,16,17,18,19,20,21,22,23,24,25,26,27,28,29,30,31,32,33,34,35,36,37,38,39,40,41,42,43,44,45,46,47,48,49,50,51,52,53,54,55,56,57,58,59,60,61,62,63,64,65,66,67,68,69,70,71,72,73,74,75,76,77,78,79,80,81,82,83,84,85,86,87,88,89],"tree_info":[0,0,0,0,0,0,0,0,0,0,0,0,0,0,0,0,0,0,0,0,0,0,0,0,0,0,0,0,0,0,0,0,0,0,0,0,0,0,0,0,0,0,0,0,0,0,0,0,0,0,0,0,0,0,0,0,0,0,0,0,0,0,0,0,0,0,0,0,0,0,0,0,0,0,0,0,0,0,0,0,0,0,0,0,0,0,0,0,0],"trees":[{"base_weights":[-0E0,-4.580596E-3,3.182695E-2,-8.375152E-3,5.101502E-3,2.5095379E-2,6.604209E-2,-1.2040831E-3,-5.4599094E-4,1.516126E-4,8.536502E-4,1.9359246E-3,3.194843E-3,5.1181717E-3,8.228986E-3],"categories":[],"categories_nodes":[],"categories_segments":[],"categories_sizes":[],"default_left":[0,0,0,0,0,0,0,0,0,0,0,0,0,0,0],"id":0,"left_children":[1,3,5,7,9,11,13,-1,-1,-1,-1,-1,-1,-1,-1],"loss_changes":[4.6986955E-1,1.03609696E-1,8.999804E-2,2.1371573E-2,9.652622E-3,1.1983559E-2,8.1624985E-3,0E0,0E0,0E0,0E0,0E0,0E0,0E0,0E0],"parents":[2147483647,0,0,1,1,2,2,3,3,4,4,5,5,6,6],"right_children":[2,4,6,8,10,12,14,-1,-1,-1,-1,-1,-1,-1,-1],"split_conditions":[8.965738E-1,-9.76586E-2,2.8759415E0,-5.634572E-1,3.330664E-1,1.6985246E0,4.3710113E0,-1.2040831E-3,-5.4599094E-4,1.516126E-4,8.536502E-4,1.9359246E-3,3.194843E-3,5.1181717E-3,8.228986E-3],"split_indices":[0,0,0,0,0,0,0,0,0,0,0,0,0,0,0],"split_type":[0,0,0,0,0,0,0,0,0,0,0,0,0,0,0],"sum_hessian":[3.22E3,2.816E3,4.04E2,2.024E3,7.92E2,3.4E2,6.4E1,8.93E2,1.131E3,3.9E2,4.02E2,1.89E2,1.51E2,3.7E1,2.7E1],"tree_param":{"num_deleted":"0","num_feature":"5","num_nodes":"15","size_leaf_vector":"1"}},{"base_weights":[6.3944663E-6,-4.2693554E-3,2.7764866E-2,-7.925739E-3,3.5038507E-3,2.1906067E-2,5.9758805E-2,-1.1463937E-3,-5.700777E-4,-3.939238E-6,6.7686394E-4,1.6036032E-3,2.796456E-3,4.6262955E-3,7.449397E-3],"categories":[],"categories_nodes":[],"categories_segments":[],"categories_sizes":[],"default_left":[0,0,0,0,0,0,0,0,0,0,0,0,0,0,0],"id":1,"left_children":[1,3,5,7,9,11,13,-1,-1,-1,-1,-1,-1,-1,-1],"loss_changes":[3.827671E-1,7.94538E-2,7.791525E-2,1.4691725E-2,1.0403644E-2,1.1921376E-2,6.6485554E-3,0E0,0E0,0E0,0E0,0E0,0E0,0E0,0E0],"parents":[2147483647,0,0,1,1,2,2,3,3,4,4,5,5,6,6],"right_children":[2,4,6,8,10,12,14,-1,-1,-1,-1,-1,-1,-1,-1],"split_conditions":[8.282722E-1,-1.7412621E-1,2.8759415E0,-6.3029075E-1,2.3072343E-1,1.566723E0,4.3710113E0,-1.1463937E-3,-5.700777E-4,-3.939238E-6,6.7686394E-4,1.6036032E-3,2.796456E-3,4.6262955E-3,7.449397E-3],"split_indices":[0,0,0,0,0,0,0,0,0,0,0,0,0,0,0],"split_type":[0,0,0,0,0,0,0,0,0,0,0,0,0,0,0],"sum_hessian":[3.22E3,2.791E3,4.29E2,1.899E3,8.92E2,3.65E2,6.4E1,7.29E2,1.17E3,4.27E2,4.65E2,1.89E2,1.76E2,3.7E1,2.7E1],"tree_param":{"num_deleted":"0","num_feature":"5","num_nodes":"15","size_leaf_vector":"1"}},{"base_weights":[1.3250618E-5,-3.5175136E-3,2.7474687E-2,-6.633334E-3,4.943991E-3,2.2165947E-2,5.782413E-2,-9.4202673E-4,-3.8246321E-4,2.4676227E-4,8.4561727E-4,1.837804E-3,2.9782157E-3,4.823708E-3,7.601462E-3],"categories":[],"categories_nodes":[],"categories_segments":[],"categories_sizes":[],"default_left":[0,0,0,0,0,0,0,0,0,0,0,0,0,0,0],"id":2,"left_children":[1,3,5,7,9,11,13,-1,-1,-1,-1,-1,-1,-1,-1],"loss_changes":[3.127407E-1,7.5349994E-2,5.6488156E-2,1.6161583E-2,6.543454E-3,7.799402E-3,2.5874376E-3,0E0,0E0,0E0,0E0,0E0,0E0,0E0,0E0],"parents":[2147483647,0,0,1,1,2,2,3,3,4,4,5,5,6,6],"right_children":[2,4,6,8,10,12,14,-1,-1,-1,-1,-1,-1,-1,-1],"split_conditions":[1.0152032E0,-4.098591E-2,3.239468E0,-4.9774373E-1,4.5887935E-1,1.96432E0,5.410585E0,-9.4202673E-4,-3.8246321E-4,2.4676227E-4,8.4561727E-4,1.837804E-3,2.9782157E-3,4.823708E-3,7.601462E-3],"split_indices":[0,0,0,0,0,0,0,0,0,0,0,0,0,0,0],"split_type":[0,0,0,0,0,0,0,0,0,0,0,0,0,0,0],"sum_hessian":[3.22E3,2.854E3,3.66E2,2.087E3,7.67E2,3.14E2,5.2E1,1.044E3,1.043E3,4.53E2,3.14E2,2.14E2,1E2,3.8E1,1.4E1],"tree_param":{"num_deleted":"0","num_feature":"5","num_nodes":"15","size_leaf_vector":"1"}},{"base_weights":[2.0776784E-5,-3.045048E-3,2.5834141E-2,-5.849944E-3,5.0152587E-3,2.1490563E-2,5.718043E-3,-8.229396E-4,-3.0222617E-4,2.8705137E-4,8.3104864E-4,1.786759E-3,2.9742129E-3],"categories":[],"categories_nodes":[],"categories_segments":[],"categories_sizes":[],"default_left":[0,0,0,0,0,0,0,0,0,0,0,0,0],"id":3,"left_children":[1,3,5,7,9,11,-1,-1,-1,-1,-1,-1,-1],"loss_changes":[2.5529298E-1,6.517564E-2,4.400313E-2,1.4238715E-2,5.107036E-3,7.799953E-3,0E0,0E0,0E0,0E0,0E0,0E0,0E0],"parents":[2147483647,0,0,1,1,2,2,3,3,4,4,5,5],"right_children":[2,4,6,8,10,12,-1,-1,-1,-1,-1,-1,-1],"split_conditions":[1.1160927E0,5.2950936E-3,3.7423353E0,-4.5804527E-1,5.309172E-1,2.1194808E0,5.718043E-3,-8.229396E-4,-3.0222617E-4,2.8705137E-4,8.3104864E-4,1.786759E-3,2.9742129E-3],"split_indices":[0,0,0,0,0,0,0,0,0,0,0,0,0],"split_type":[0,0,0,0,0,0,0,0,0,0,0,0,0],"sum_hessian":[3.22E3,2.879E3,3.41E2,2.137E3,7.42E2,3.02E2,3.9E1,1.157E3,9.8E2,4.53E2,2.89E2,2.14E2,8.8E1],"tree_param":{"num_deleted":"0","num_feature":"5","num_nodes":"13","size_leaf_vector":"1"}},{"base_weights":[2.419527E-5,-3.287136E-3,1.9514112E-2,-6.2505505E-3,1.6622953E-3,1.5360409E-2,4.4566046E-2,-9.592051E-4,-4.9006805E-4,-6.545254E-5,4.4918462E-4,1.0175549E-3,1.9790458E-3,3.7229564E-3,6.3984096E-3],"categories":[],"categories_nodes":[],"categories_segments":[],"categories_sizes":[],"default_left":[0,0,0,0,0,0,0,0,0,0,0,0,0,0,0],"id":4,"left_children":[1,3,5,7,9,11,13,-1,-1,-1,-1,-1,-1,-1,-1],"loss_changes":[2.0816629E-1,4.0462308E-2,4.712522E-2,7.563077E-3,6.8048453E-3,8.689307E-3,4.745856E-3,0E0,0E0,0E0,0E0,0E0,0E0,0E0,0E0],"parents":[2147483647,0,0,1,1,2,2,3,3,4,4,5,5,6,6],"right_children":[2,4,6,8,10,12,14,-1,-1,-1,-1,-1,-1,-1,-1],"split_conditions":[7.4058115E-1,-2.6222095E-1,2.8759415E0,-7.3288864E-1,1.8040968E-1,1.4646943E0,5.410585E0,-9.592051E-4,-4.9006805E-4,-6.545254E-5,4.4918462E-4,1.0175549E-3,1.9790458E-3,3.7229564E-3,6.3984096E-3],"split_indices":[0,0,0,0,0,0,0,0,0,0,0,0,0,0,0],"split_type":[0,0,0,0,0,0,0,0,0,0,0,0,0,0,0],"sum_hessian":[3.22E3,2.753E3,4.67E2,1.723E3,1.03E3,4.03E2,6.4E1,4.91E2,1.232E3,5.65E2,4.65E2,1.89E2,2.14E2,5E1,1.4E1],"tree_param":{"num_deleted":"0","num_feature":"5","num_nodes":"15","size_leaf_vector":"1"}},{"base_weights":[2.769785E-5,-2.4189733E-3,2.1543331E-2,-5.126767E-3,3.2729022E-3,1.7825734E-2,4.716425E-2,-8.163567E-4,-3.720964E-4,9.9127414E-5,6.222748E-4,1.5004614E-3,2.515982E-3,3.7659486E-3,5.8204886E-3],"categories":[],"categories_nodes":[],"categories_segments":[],"categories_sizes":[],"default_left":[0,0,0,0,0,0,0,0,0,0,0,0,0,0,0],"id":5,"left_children":[1,3,5,7,9,11,13,-1,-1,-1,-1,-1,-1,-1,-1],"loss_changes":[1.6985457E-1,4.463956E-2,2.9473305E-2,8.213777E-3,6.1947536E-3,5.0426275E-3,3.427267E-6,0E0,0E0,0E0,0E0,0E0,0E0,0E0,0E0],"parents":[2147483647,0,0,1,1,2,2,3,3,4,4,5,5,6,6],"right_children":[2,4,6,8,10,12,14,-1,-1,-1,-1,-1,-1,-1,-1],"split_conditions":[1.169605E0,-1.3910684E-1,3.7423353E0,-6.783777E-1,4.0954852E-1,2.230306E0,5.410585E0,-8.163567E-4,-3.720964E-4,9.9127414E-5,6.222748E-4,1.5004614E-3,2.515982E-3,3.7659486E-3,5.8204886E-3],"split_indices":[0,0,0,0,0,0,0,0,0,0,0,0,0,0,0],"split_type":[0,0,0,0,0,0,0,0,0,0,0,0,0,0,0],"sum_hessian":[3.22E3,2.892E3,3.28E2,1.961E3,9.31E2,2.89E2,3.9E1,6.16E2,1.345E3,5.28E2,4.03E2,2.13E2,7.6E1,2.5E1,1.4E1],"tree_param":{"num_deleted":"0","num_feature":"5","num_nodes":"15","size_leaf_vector":"1"}},{"base_weights":[3.197568E-5,-2.7594066E-3,1.5491003E-2,-5.3531127E-3,8.9637993E-4,1.178993E-2,3.4704514E-2,-8.3190016E-4,-4.3773788E-4,-9.145772E-5,3.2813146E-4,7.8772707E-4,1.5338091E-3,2.6879536E-3,4.666695E-3],"categories":[],"categories_nodes":[],"categories_segments":[],"categories_sizes":[],"default_left":[0,0,0,0,0,0,0,0,0,0,0,0,0,0,0],"id":6,"left_children":[1,3,5,7,9,11,13,-1,-1,-1,-1,-1,-1,-1,-1],"loss_changes":[1.3920578E-1,2.5932983E-2,3.4014396E-2,4.444342E-3,4.919453E-3,5.368773E-3,4.7310144E-3,0E0,0E0,0E0,0E0,0E0,0E0,0E0,0E0],"parents":[2147483647,0,0,1,1,2,2,3,3,4,4,5,5,6,6],"right_children":[2,4,6,8,10,12,14,-1,-1,-1,-1,-1,-1,-1,-1],"split_conditions":[6.995331E-1,-3.1083867E-1,2.6115782E0,-7.8998786E-1,1.272456E-1,1.3928841E0,4.3710113E0,-8.3190016E-4,-4.3773788E-4,-9.145772E-5,3.2813146E-4,7.8772707E-4,1.5338091E-3,2.6879536E-3,4.666695E-3],"split_indices":[0,0,0,0,0,0,0,0,0,0,0,0,0,0,0],"split_type":[0,0,0,0,0,0,0,0,0,0,0,0,0,0,0],"sum_hessian":[3.22E3,2.728E3,4.92E2,1.597E3,1.131E3,4.15E2,7.7E1,3.9E2,1.207E3,6.41E2,4.9E2,2.01E2,2.14E2,5E1,2.7E1],"tree_param":{"num_deleted":"0","num_feature":"5","num_nodes":"15","size_leaf_vector":"1"}},{"base_weights":[3.311311E-5,-2.1723348E-3,1.5962975E-2,-4.4686073E-3,1.8232109E-3,1.276317E-2,3.5693612E-2,-7.2305853E-4,-3.5239197E-4,-2.0645164E-6,4.081847E-4,9.648391E-4,1.7075699E-3,2.8968432E-3,4.8732595E-3],"categories":[],"categories_nodes":[],"categories_segments":[],"categories_sizes":[],"default_left":[0,0,0,0,0,0,0,0,0,0,0,0,0,0,0],"id":7,"left_children":[1,3,5,7,9,11,13,-1,-1,-1,-1,-1,-1,-1,-1],"loss_changes":[1.133692E-1,2.6008122E-2,2.361226E-2,4.5495033E-3,4.340687E-3,4.059419E-3,1.7968193E-3,0E0,0E0,0E0,0E0,0E0,0E0,0E0,0E0],"parents":[2147483647,0,0,1,1,2,2,3,3,4,4,5,5,6,6],"right_children":[2,4,6,8,10,12,14,-1,-1,-1,-1,-1,-1,-1,-1],"split_conditions":[9.4859684E-1,-2.3125812E-1,3.239468E0,-7.543447E-1,2.7828395E-1,1.8286287E0,5.410585E0,-7.2305853E-4,-3.5239197E-4,-2.0645164E-6,4.081847E-4,9.648391E-4,1.7075699E-3,2.8968432E-3,4.8732595E-3],"split_indices":[0,0,0,0,0,0,0,0,0,0,0,0,0,0,0],"split_type":[0,0,0,0,0,0,0,0,0,0,0,0,0,0,0],"sum_hessian":[3.22E3,2.829E3,3.91E2,1.798E3,1.031E3,3.39E2,5.2E1,4.53E2,1.345E3,5.66E2,4.65E2,2.01E2,1.38E2,3.8E1,1.4E1],"tree_param":{"num_deleted":"0","num_feature":"5","num_nodes":"15","size_leaf_vector":"1"}},{"base_weights":[3.466284E-5,-2.3145557E-3,1.23073915E-2,-4.6089767E-3,3.6669537E-4,9.072242E-3,2.7346456E-2,-7.081768E-4,-3.876769E-4,-9.624902E-5,2.4317592E-4,6.1160204E-4,1.1918911E-3,2.3238233E-3,4.4330936E-3],"categories":[],"categories_nodes":[],"categories_segments":[],"categories_sizes":[],"default_left":[0,0,0,0,0,0,0,0,0,0,0,0,0,0,0],"id":8,"left_children":[1,3,5,7,9,11,13,-1,-1,-1,-1,-1,-1,-1,-1],"loss_changes":[9.302276E-2,1.6682826E-2,2.4490573E-2,2.4917964E-3,3.4396627E-3,3.3247136E-3,4.093781E-3,0E0,0E0,0E0,0E0,0E0,0E0,0E0,0E0],"parents":[2147483647,0,0,1,1,2,2,3,3,4,4,5,5,6,6],"right_children":[2,4,6,8,10,12,14,-1,-1,-1,-1,-1,-1,-1,-1],"split_conditions":[6.6088855E-1,-3.5615435E-1,2.4853303E0,-8.3734256E-1,9.619012E-2,1.3560488E0,5.410585E0,-7.081768E-4,-3.876769E-4,-9.624902E-5,2.4317592E-4,6.1160204E-4,1.1918911E-3,2.3238233E-3,4.4330936E-3],"split_indices":[0,0,0,0,0,0,0,0,0,0,0,0,0,0,0],"split_type":[0,0,0,0,0,0,0,0,0,0,0,0,0,0,0],"sum_hessian":[3.22E3,2.703E3,5.17E2,1.458E3,1.245E3,4.28E2,8.9E1,3.27E2,1.131E3,7.55E2,4.9E2,2.14E2,2.14E2,7.5E1,1.4E1],"tree_param":{"num_deleted":"0","num_feature":"5","num_nodes":"15","size_leaf_vector":"1"}},{"base_weights":[3.505074E-5,-2.1457402E-3,1.0804833E-2,-4.230437E-3,1.5988195E-4,7.7326302E-3,2.365672E-2,-6.495814E-4,-3.5948725E-4,-9.55997E-5,2.0268478E-4,5.265895E-4,1.0236497E-3,1.8727072E-3,3.5292972E-3],"categories":[],"categories_nodes":[],"categories_segments":[],"categories_sizes":[],"default_left":[0,0,0,0,0,0,0,0,0,0,0,0,0,0,0],"id":9,"left_children":[1,3,5,7,9,11,13,-1,-1,-1,-1,-1,-1,-1,-1],"loss_changes":[7.578359E-2,1.2920798E-2,2.0871058E-2,1.8934533E-3,2.6625409E-3,2.490988E-3,4.4054314E-3,0E0,0E0,0E0,0E0,0E0,0E0,0E0,0E0],"parents":[2147483647,0,0,1,1,2,2,3,3,4,4,5,5,6,6],"right_children":[2,4,6,8,10,12,14,-1,-1,-1,-1,-1,-1,-1,-1],"split_conditions":[6.270656E-1,-3.7792322E-1,2.3614087E0,-8.541676E-1,7.910813E-2,1.2499065E0,4.3710113E0,-6.495814E-4,-3.5948725E-4,-9.55997E-5,2.0268478E-4,5.265895E-4,1.0236497E-3,1.8727072E-3,3.5292972E-3],"split_indices":[0,0,0,0,0,0,0,0,0,0,0,0,0,0,0],"split_type":[0,0,0,0,0,0,0,0,0,0,0,0,0,0,0],"sum_hessian":[3.22E3,2.678E3,5.42E2,1.408E3,1.27E3,4.4E2,1.02E2,3.02E2,1.106E3,7.92E2,4.78E2,2.26E2,2.14E2,7.5E1,2.7E1],"tree_param":{"num_deleted":"0","num_feature":"5","num_nodes":"15","size_leaf_vector":"1"}},{"base_weights":[3.4673125E-5,-1.7373501E-3,1.0822867E-2,-3.622832E-3,6.487825E-4,8.62699E-3,2.689393E-2,-5.1215896E-4,-2.7701483E-4,-4.9520164E-5,2.5143716E-4,6.293296E-4,1.2340546E-3,2.1599222E-3,3.71391E-3],"categories":[],"categories_nodes":[],"categories_segments":[],"categories_sizes":[],"default_left":[0,0,0,0,0,0,0,0,0,0,0,0,0,0,0],"id":10,"left_children":[1,3,5,7,9,11,13,-1,-1,-1,-1,-1,-1,-1,-1],"loss_changes":[6.170425E-2,1.2484276E-2,1.5371405E-2,1.878731E-3,2.6268556E-3,3.194021E-3,1.1114702E-3,0E0,0E0,0E0,0E0,0E0,0E0,0E0,0E0],"parents":[2147483647,0,0,1,1,2,2,3,3,4,4,5,5,6,6],"right_children":[2,4,6,8,10,12,14,-1,-1,-1,-1,-1,-1,-1,-1],"split_conditions":[7.697839E-1,-3.2997414E-1,3.239468E0,-7.034014E-1,2.0240235E-1,1.7701555E0,5.410585E0,-5.1215896E-4,-2.7701483E-4,-4.9520164E-5,2.5143716E-4,6.293296E-4,1.2340546E-3,2.1599222E-3,3.71391E-3],"split_indices":[0,0,0,0,0,0,0,0,0,0,0,0,0,0,0],"split_type":[0,0,0,0,0,0,0,0,0,0,0,0,0,0,0],"sum_hessian":[3.22E3,2.766E3,4.54E2,1.547E3,1.219E3,4.02E2,5.2E1,5.54E2,9.93E2,7.53E2,4.66E2,2.51E2,1.51E2,3.8E1,1.4E1],"tree_param":{"num_deleted":"0","num_feature":"5","num_nodes":"15","size_leaf_vector":"1"}},{"base_weights":[3.484535E-5,-1.272018E-3,1.2025519E-2,-2.9217554E-3,1.5548178E-3,9.753695E-3,2.6955515E-2,-4.2238008E-4,-1.89078E-4,3.616742E-5,3.602454E-4,7.693115E-4,1.3081719E-3,2.1058002E-3,3.37846E-3],"categories":[],"categories_nodes":[],"categories_segments":[],"categories_sizes":[],"default_left":[0,0,0,0,0,0,0,0,0,0,0,0,0,0,0],"id":11,"left_children":[1,3,5,7,9,11,13,-1,-1,-1,-1,-1,-1,-1,-1],"loss_changes":[5.061194E-2,1.357039E-2,1.0007601E-2,2.3934916E-3,2.5713255E-3,1.5511513E-3,1.5541911E-5,0E0,0E0,0E0,0E0,0E0,0E0,0E0,0E0],"parents":[2147483647,0,0,1,1,2,2,3,3,4,4,5,5,6,6],"right_children":[2,4,6,8,10,12,14,-1,-1,-1,-1,-1,-1,-1,-1],"split_conditions":[1.2499065E0,-2.0593973E-1,3.7423353E0,-6.0009676E-1,4.318164E-1,2.0189123E0,5.410585E0,-4.2238008E-4,-1.89078E-4,3.616742E-5,3.602454E-4,7.693115E-4,1.3081719E-3,2.1058002E-3,3.37846E-3],"split_indices":[0,0,0,0,0,0,0,0,0,0,0,0,0,0,0],"split_type":[0,0,0,0,0,0,0,0,0,0,0,0,0,0,0],"sum_hessian":[3.22E3,2.904E3,3.16E2,1.836E3,1.068E3,2.77E2,3.9E1,8.05E2,1.031E3,6.79E2,3.89E2,1.76E2,1.01E2,2.5E1,1.4E1],"tree_param":{"num_deleted":"0","num_feature":"5","num_nodes":"15","size_leaf_vector":"1"}},{"base_weights":[3.57128E-5,-1.6000265E-3,7.89132E-3,-3.2142617E-3,9.720161E-6,5.774327E-3,1.8585872E-2,-5.2453316E-4,-2.754843E-4,-7.850545E-5,1.3940087E-4,4.2025154E-4,8.250506E-4,1.5629523E-3,3.0733088E-3],"categories":[],"categories_nodes":[],"categories_segments":[],"categories_sizes":[],"default_left":[0,0,0,0,0,0,0,0,0,0,0,0,0,0,0],"id":12,"left_children":[1,3,5,7,9,11,13,-1,-1,-1,-1,-1,-1,-1,-1],"loss_changes":[4.147724E-2,6.9610183E-3,1.2194734E-2,1.1435617E-3,1.4748445E-3,1.6430123E-3,2.065841E-3,0E0,0E0,0E0,0E0,0E0,0E0,0E0,0E0],"parents":[2147483647,0,0,1,1,2,2,3,3,4,4,5,5,6,6],"right_children":[2,4,6,8,10,12,14,-1,-1,-1,-1,-1,-1,-1,-1],"split_conditions":[6.0712636E-1,-4.0145424E-1,2.4853303E0,-8.8652885E-1,5.24728E-2,1.5006971E0,5.410585E0,-5.2453316E-4,-2.754843E-4,-7.850545E-5,1.3940087E-4,4.2025154E-4,8.250506E-4,1.5629523E-3,3.0733088E-3],"split_indices":[0,0,0,0,0,0,0,0,0,0,0,0,0,0,0],"split_type":[0,0,0,0,0,0,0,0,0,0,0,0,0,0,0],"sum_hessian":[3.22E3,2.665E3,5.55E2,1.333E3,1.332E3,4.66E2,8.9E1,2.39E2,1.094E3,8.42E2,4.9E2,2.9E2,1.76E2,7.5E1,1.4E1],"tree_param":{"num_deleted":"0","num_feature":"5","num_nodes":"15","size_leaf_vector":"1"}},{"base_weights":[3.484622E-5,-1.1020066E-3,9.261955E-3,-2.5438694E-3,9.07697E-4,7.491944E-3,2.246061E-3,-4.2595316E-4,-2.0527684E-4,-0E0,2.613891E-4,5.898289E-4,1.0619761E-3],"categories":[],"categories_nodes":[],"categories_segments":[],"categories_sizes":[],"default_left":[0,0,0,0,0,0,0,0,0,0,0,0,0],"id":13,"left_children":[1,3,5,7,9,11,-1,-1,-1,-1,-1,-1,-1],"loss_changes":[3.389001E-2,8.331926E-3,7.7298097E-3,1.3337918E-3,1.8598923E-3,1.3135225E-3,0E0,0E0,0E0,0E0,0E0,0E0,0E0],"parents":[2147483647,0,0,1,1,2,2,3,3,4,4,5,5],"right_children":[2,4,6,8,10,12,-1,-1,-1,-1,-1,-1,-1],"split_conditions":[1.0547507E0,-2.844427E-1,3.7423353E0,-8.111548E-1,3.7062162E-1,2.0189123E0,2.246061E-3,-4.2595316E-4,-2.0527684E-4,-0E0,2.613891E-4,5.898289E-4,1.0619761E-3],"split_indices":[0,0,0,0,0,0,0,0,0,0,0,0,0],"split_type":[0,0,0,0,0,0,0,0,0,0,0,0,0],"sum_hessian":[3.22E3,2.867E3,3.53E2,1.672E3,1.195E3,3.14E2,3.9E1,3.65E2,1.307E3,7.8E2,4.15E2,2.13E2,1.01E2],"tree_param":{"num_deleted":"0","num_feature":"5","num_nodes":"13","size_leaf_vector":"1"}},{"base_weights":[3.32332E-5,-1.32072E-3,6.372756E-3,-2.6704157E-3,-2.4756917E-5,4.7841556E-3,1.6070055E-2,-4.8590396E-4,-2.3668185E-4,-6.622959E-5,1.08282664E-4,3.58947E-4,7.339003E-4,1.3172211E-3,2.5928493E-3],"categories":[],"categories_nodes":[],"categories_segments":[],"categories_sizes":[],"default_left":[0,0,0,0,0,0,0,0,0,0,0,0,0,0,0],"id":14,"left_children":[1,3,5,7,9,11,13,-1,-1,-1,-1,-1,-1,-1,-1],"loss_changes":[2.7714621E-2,4.6160836E-3,8.433955E-3,7.7196397E-4,9.56851E-4,1.351377E-3,1.339294E-3,0E0,0E0,0E0,0E0,0E0,0E0,0E0,0E0],"parents":[2147483647,0,0,1,1,2,2,3,3,4,4,5,5,6,6],"right_children":[2,4,6,8,10,12,14,-1,-1,-1,-1,-1,-1,-1,-1],"split_conditions":[5.959313E-1,-4.162028E-1,2.6115782E0,-9.251149E-1,3.8179636E-2,1.6195278E0,5.410585E0,-4.8590396E-4,-2.3668185E-4,-6.622959E-5,1.08282664E-4,3.58947E-4,7.339003E-4,1.3172211E-3,2.5928493E-3],"split_indices":[0,0,0,0,0,0,0,0,0,0,0,0,0,0,0],"split_type":[0,0,0,0,0,0,0,0,0,0,0,0,0,0,0],"sum_hessian":[3.22E3,2.653E3,5.67E2,1.295E3,1.358E3,4.9E2,7.7E1,1.51E2,1.144E3,8.68E2,4.9E2,3.39E2,1.51E2,6.3E1,1.4E1],"tree_param":{"num_deleted":"0","num_feature":"5","num_nodes":"15","size_leaf_vector":"1"}},{"base_weights":[3.223292E-5,-8.4307353E-4,8.073665E-3,-1.7648672E-3,1.4016044E-3,6.4652083E-3,1.8588348E-3,-2.7147317E-4,-9.1270755E-5,6.105653E-5,2.5381002E-4,5.209524E-4,8.9178345E-4],"categories":[],"categories_nodes":[],"categories_segments":[],"categories_sizes":[],"default_left":[0,0,0,0,0,0,0,0,0,0,0,0,0],"id":15,"left_children":[1,3,5,7,9,11,-1,-1,-1,-1,-1,-1,-1],"loss_changes":[2.2757744E-2,6.0192E-3,4.9388893E-3,1.6302806E-3,7.2450587E-4,6.46743E-4,0E0,0E0,0E0,0E0,0E0,0E0,0E0],"parents":[2147483647,0,0,1,1,2,2,3,3,4,4,5,5],"right_children":[2,4,6,8,10,12,-1,-1,-1,-1,-1,-1,-1],"split_conditions":[1.2499065E0,-6.773676E-2,3.7423353E0,-5.3522396E-1,4.9634463E-1,2.1194808E0,1.8588348E-3,-2.7147317E-4,-9.1270755E-5,6.105653E-5,2.5381002E-4,5.209524E-4,8.9178345E-4],"split_indices":[0,0,0,0,0,0,0,0,0,0,0,0,0],"split_type":[0,0,0,0,0,0,0,0,0,0,0,0,0],"sum_hessian":[3.22E3,2.904E3,3.16E2,2.062E3,8.42E2,2.77E2,3.9E1,9.68E2,1.094E3,5.03E2,3.39E2,1.89E2,8.8E1],"tree_param":{"num_deleted":"0","num_feature":"5","num_nodes":"13","size_leaf_vector":"1"}},{"base_weights":[3.1131694E-5,-1.0000392E-3,5.5942573E-3,-2.1276711E-3,1.2134054E-4,4.4197487E-3,1.5206376E-2,-3.8147153E-4,-1.8196755E-4,-4.142946E-5,1.1694513E-4,3.3655405E-4,7.025897E-4,1.1746153E-3,2.1907617E-3],"categories":[],"categories_nodes":[],"categories_segments":[],"categories_sizes":[],"default_left":[0,0,0,0,0,0,0,0,0,0,0,0,0,0,0],"id":16,"left_children":[1,3,5,7,9,11,13,-1,-1,-1,-1,-1,-1,-1,-1],"loss_changes":[1.8534575E-2,3.456739E-3,5.409779E-3,6.3964305E-4,7.715083E-4,1.1065723E-3,5.180128E-4,0E0,0E0,0E0,0E0,0E0,0E0,0E0,0E0],"parents":[2147483647,0,0,1,1,2,2,3,3,4,4,5,5,6,6],"right_children":[2,4,6,8,10,12,14,-1,-1,-1,-1,-1,-1,-1,-1],"split_conditions":[6.817078E-1,-3.932317E-1,3.239468E0,-9.0727615E-1,1.418556E-1,1.8617096E0,5.410585E0,-3.8147153E-4,-1.8196755E-4,-4.142946E-5,1.1694513E-4,3.3655405E-4,7.025897E-4,1.1746153E-3,2.1907617E-3],"split_indices":[0,0,0,0,0,0,0,0,0,0,0,0,0,0,0],"split_type":[0,0,0,0,0,0,0,0,0,0,0,0,0,0,0],"sum_hessian":[3.22E3,2.716E3,5.04E2,1.358E3,1.358E3,4.52E2,5.2E1,2.02E2,1.156E3,8.93E2,4.65E2,3.27E2,1.25E2,3.8E1,1.4E1],"tree_param":{"num_deleted":"0","num_feature":"5","num_nodes":"15","size_leaf_vector":"1"}},{"base_weights":[3.0152552E-5,-6.8728614E-4,6.6269175E-3,-1.5952733E-3,8.3479553E-4,5.2917376E-3,1.5315985E-2,-2.506562E-4,-1.058263E-4,1.3261036E-5,1.8311756E-4,4.3457528E-4,7.532052E-4,1.1373585E-3,1.9928867E-3],"categories":[],"categories_nodes":[],"categories_segments":[],"categories_sizes":[],"default_left":[0,0,0,0,0,0,0,0,0,0,0,0,0,0,0],"id":17,"left_children":[1,3,5,7,9,11,13,-1,-1,-1,-1,-1,-1,-1,-1],"loss_changes":[1.5312861E-2,4.025092E-3,3.3558188E-3,8.532307E-4,7.373618E-4,4.223492E-4,8.350611E-5,0E0,0E0,0E0,0E0,0E0,0E0,0E0,0E0],"parents":[2147483647,0,0,1,1,2,2,3,3,4,4,5,5,6,6],"right_children":[2,4,6,8,10,12,14,-1,-1,-1,-1,-1,-1,-1,-1],"split_conditions":[1.2499065E0,-2.1664613E-1,3.7423353E0,-6.55074E-1,3.813728E-1,2.230306E0,5.410585E0,-2.506562E-4,-1.058263E-4,1.3261036E-5,1.8311756E-4,4.3457528E-4,7.532052E-4,1.1373585E-3,1.9928867E-3],"split_indices":[0,0,0,0,0,0,0,0,0,0,0,0,0,0,0],"split_type":[0,0,0,0,0,0,0,0,0,0,0,0,0,0,0],"sum_hessian":[3.22E3,2.904E3,3.16E2,1.823E3,1.081E3,2.77E2,3.9E1,6.67E2,1.156E3,6.41E2,4.4E2,2.01E2,7.6E1,2.5E1,1.4E1],"tree_param":{"num_deleted":"0","num_feature":"5","num_nodes":"15","size_leaf_vector":"1"}},{"base_weights":[3.0004885E-5,-6.8808655E-4,5.420622E-3,-1.6398743E-3,3.8331022E-4,4.358957E-3,1.3925011E-2,-3.8232873E-4,-1.4520672E-4,-1.3987315E-5,1.3775435E-4,3.2355523E-4,6.128018E-4,1.0300603E-3,1.8128837E-3],"categories":[],"categories_nodes":[],"categories_segments":[],"categories_sizes":[],"default_left":[0,0,0,0,0,0,0,0,0,0,0,0,0,0,0],"id":18,"left_children":[1,3,5,7,9,11,13,-1,-1,-1,-1,-1,-1,-1,-1],"loss_changes":[1.2523205E-2,2.912126E-3,3.1615766E-3,5.583158E-4,7.063074E-4,5.553104E-4,5.267188E-5,0E0,0E0,0E0,0E0,0E0,0E0,0E0,0E0],"parents":[2147483647,0,0,1,1,2,2,3,3,4,4,5,5,6,6],"right_children":[2,4,6,8,10,12,14,-1,-1,-1,-1,-1,-1,-1,-1],"split_conditions":[9.846108E-1,-3.4044316E-1,3.7423353E0,-9.5488787E-1,2.9578498E-1,1.9079494E0,5.410585E0,-3.8232873E-4,-1.4520672E-4,-1.3987315E-5,1.3775435E-4,3.2355523E-4,6.128018E-4,1.0300603E-3,1.8128837E-3],"split_indices":[0,0,0,0,0,0,0,0,0,0,0,0,0,0,0],"split_type":[0,0,0,0,0,0,0,0,0,0,0,0,0,0,0],"sum_hessian":[3.22E3,2.841E3,3.79E2,1.509E3,1.332E3,3.4E2,3.9E1,1.13E2,1.396E3,8.67E2,4.65E2,2.14E2,1.26E2,2.5E1,1.4E1],"tree_param":{"num_deleted":"0","num_feature":"5","num_nodes":"15","size_leaf_vector":"1"}},{"base_weights":[2.8886498E-5,-5.585473E-4,5.4359594E-3,-1.1497169E-3,1.0044958E-3,4.319878E-3,1.2662497E-2,-1.8266037E-4,-5.373316E-5,5.149227E-5,1.8106478E-4,3.6058802E-4,6.4499036E-4,9.3288504E-4,1.6491394E-3],"categories":[],"categories_nodes":[],"categories_segments":[],"categories_sizes":[],"default_left":[0,0,0,0,0,0,0,0,0,0,0,0,0,0,0],"id":19,"left_children":[1,3,5,7,9,11,13,-1,-1,-1,-1,-1,-1,-1,-1],"loss_changes":[1.02857705E-2,2.6879348E-3,2.308892E-3,8.5096667E-4,2.8851675E-4,2.8810836E-4,2.7978793E-5,0E0,0E0,0E0,0E0,0E0,0E0,0E0,0E0],"parents":[2147483647,0,0,1,1,2,2,3,3,4,4,5,5,6,6],"right_children":[2,4,6,8,10,12,14,-1,-1,-1,-1,-1,-1,-1,-1],"split_conditions":[1.2499065E0,-1.7486375E-2,3.7423353E0,-5.2550656E-1,5.574644E-1,2.3614087E0,5.410585E0,-1.8266037E-4,-5.373316E-5,5.149227E-5,1.8106478E-4,3.6058802E-4,6.4499036E-4,9.3288504E-4,1.6491394E-3],"split_indices":[0,0,0,0,0,0,0,0,0,0,0,0,0,0,0],"split_type":[0,0,0,0,0,0,0,0,0,0,0,0,0,0,0],"sum_hessian":[3.22E3,2.904E3,3.16E2,2.112E3,7.92E2,2.77E2,3.9E1,9.94E2,1.118E3,5.02E2,2.9E2,2.14E2,6.3E1,2.5E1,1.4E1],"tree_param":{"num_deleted":"0","num_feature":"5","num_nodes":"15","size_leaf_vector":"1"}},{"base_weights":[2.859778E-5,-4.906924E-4,5.038468E-3,-1.2086958E-3,5.9303566E-4,3.984153E-3,1.1516567E-2,-2.5314736E-4,-9.662847E-5,1.584632E-5,1.5536952E-4,3.2358686E-4,5.6076836E-4,8.4487686E-4,1.5001846E-3],"categories":[],"categories_nodes":[],"categories_segments":[],"categories_sizes":[],"default_left":[0,0,0,0,0,0,0,0,0,0,0,0,0,0,0],"id":20,"left_children":[1,3,5,7,9,11,13,-1,-1,-1,-1,-1,-1,-1,-1],"loss_changes":[8.430165E-3,2.2781761E-3,1.8558893E-3,5.2618864E-4,4.6615518E-4,2.0689191E-4,8.405186E-6,0E0,0E0,0E0,0E0,0E0,0E0,0E0,0E0],"parents":[2147483647,0,0,1,1,2,2,3,3,4,4,5,5,6,6],"right_children":[2,4,6,8,10,12,14,-1,-1,-1,-1,-1,-1,-1,-1],"split_conditions":[1.3560488E0,-2.4591146E-1,3.7423353E0,-8.6995304E-1,4.9634463E-1,2.230306E0,5.410585E0,-2.5314736E-4,-9.662847E-5,1.584632E-5,1.5536952E-4,3.2358686E-4,5.6076836E-4,8.4487686E-4,1.5001846E-3],"split_indices":[0,0,0,0,0,0,0,0,0,0,0,0,0,0,0],"split_type":[0,0,0,0,0,0,0,0,0,0,0,0,0,0,0],"sum_hessian":[3.22E3,2.917E3,3.03E2,1.76E3,1.157E3,2.64E2,3.9E1,2.64E2,1.496E3,8.05E2,3.52E2,1.88E2,7.6E1,2.5E1,1.4E1],"tree_param":{"num_deleted":"0","num_feature":"5","num_nodes":"15","size_leaf_vector":"1"}},{"base_weights":[2.8090073E-5,-5.5331853E-4,3.703942E-3,-1.3633505E-3,1.1076374E-4,2.8686118E-3,9.510307E-3,-3.1521008E-4,-1.1963793E-4,-2.39391E-5,8.107919E-5,2.0411161E-4,4.0743974E-4,7.2727934E-4,1.3646844E-3],"categories":[],"categories_nodes":[],"categories_segments":[],"categories_sizes":[],"default_left":[0,0,0,0,0,0,0,0,0,0,0,0,0,0,0],"id":21,"left_children":[1,3,5,7,9,11,13,-1,-1,-1,-1,-1,-1,-1,-1],"loss_changes":[6.91948E-3,1.5084611E-3,1.9815168E-3,3.2703346E-4,3.7919756E-4,3.160045E-4,1.3709953E-4,0E0,0E0,0E0,0E0,0E0,0E0,0E0,0E0],"parents":[2147483647,0,0,1,1,2,2,3,3,4,4,5,5,6,6],"right_children":[2,4,6,8,10,12,14,-1,-1,-1,-1,-1,-1,-1,-1],"split_conditions":[8.056628E-1,-4.2920005E-1,3.239468E0,-9.754634E-1,1.5477665E-1,1.7701555E0,5.410585E0,-3.1521008E-4,-1.1963793E-4,-2.39391E-5,8.107919E-5,2.0411161E-4,4.0743974E-4,7.2727934E-4,1.3646844E-3],"split_indices":[0,0,0,0,0,0,0,0,0,0,0,0,0,0,0],"split_type":[0,0,0,0,0,0,0,0,0,0,0,0,0,0,0],"sum_hessian":[3.22E3,2.779E3,4.41E2,1.258E3,1.521E3,3.89E2,5.2E1,1E2,1.158E3,1.005E3,5.16E2,2.38E2,1.51E2,3.8E1,1.4E1],"tree_param":{"num_deleted":"0","num_feature":"5","num_nodes":"15","size_leaf_vector":"1"}},{"base_weights":[2.667421E-5,-3.9884492E-4,4.137799E-3,-1.0422048E-3,4.141327E-4,3.2502858E-3,9.5557777E-4,-1.8377743E-4,-7.6146964E-5,-1.937837E-6,1.05038656E-4,2.6801057E-4,4.8097596E-4],"categories":[],"categories_nodes":[],"categories_segments":[],"categories_sizes":[],"default_left":[0,0,0,0,0,0,0,0,0,0,0,0,0],"id":22,"left_children":[1,3,5,7,9,11,-1,-1,-1,-1,-1,-1,-1],"loss_changes":[5.675436E-3,1.5334123E-3,1.2895474E-3,3.3741142E-4,3.6435953E-4,1.4184299E-4,0E0,0E0,0E0,0E0,0E0,0E0,0E0],"parents":[2147483647,0,0,1,1,2,2,3,3,4,4,5,5],"right_children":[2,4,6,8,10,12,-1,-1,-1,-1,-1,-1,-1],"split_conditions":[1.3560488E0,-2.9680964E-1,3.7423353E0,-7.7662873E-1,3.0739358E-1,2.3614087E0,9.5557777E-4,-1.8377743E-4,-7.6146964E-5,-1.937837E-6,1.05038656E-4,2.6801057E-4,4.8097596E-4],"split_indices":[0,0,0,0,0,0,0,0,0,0,0,0,0],"split_type":[0,0,0,0,0,0,0,0,0,0,0,0,0],"sum_hessian":[3.22E3,2.917E3,3.03E2,1.635E3,1.282E3,2.64E2,3.9E1,4.15E2,1.22E3,7.54E2,5.28E2,2.01E2,6.3E1],"tree_param":{"num_deleted":"0","num_feature":"5","num_nodes":"13","size_leaf_vector":"1"}},{"base_weights":[2.4727256E-5,-5.0713285E-4,2.7429105E-3,-1.1361163E-3,7.583868E-6,2.0710381E-3,7.3125917E-3,-2.6604877E-4,-9.875863E-5,-2.3082435E-5,4.860057E-5,1.4820152E-4,3.0684573E-4,5.6297536E-4,1.1551125E-3],"categories":[],"categories_nodes":[],"categories_segments":[],"categories_sizes":[],"default_left":[0,0,0,0,0,0,0,0,0,0,0,0,0,0,0],"id":23,"left_children":[1,3,5,7,9,11,13,-1,-1,-1,-1,-1,-1,-1,-1],"loss_changes":[4.681745E-3,8.829907E-4,1.5122104E-3,2.3591728E-4,1.7078704E-4,2.2174395E-4,1.9784248E-4,0E0,0E0,0E0,0E0,0E0,0E0,0E0,0E0],"parents":[2147483647,0,0,1,1,2,2,3,3,4,4,5,5,6,6],"right_children":[2,4,6,8,10,12,14,-1,-1,-1,-1,-1,-1,-1,-1],"split_conditions":[6.4596546E-1,-4.3853796E-1,2.8759415E0,-9.754634E-1,6.861223E-2,1.6195278E0,5.410585E0,-2.6604877E-4,-9.875863E-5,-2.3082435E-5,4.860057E-5,1.4820152E-4,3.0684573E-4,5.6297536E-4,1.1551125E-3],"split_indices":[0,0,0,0,0,0,0,0,0,0,0,0,0,0,0],"split_type":[0,0,0,0,0,0,0,0,0,0,0,0,0,0,0],"sum_hessian":[3.22E3,2.691E3,5.29E2,1.219E3,1.472E3,4.65E2,6.4E1,1E2,1.119E3,9.69E2,5.03E2,3.01E2,1.64E2,5E1,1.4E1],"tree_param":{"num_deleted":"0","num_feature":"5","num_nodes":"15","size_leaf_vector":"1"}},{"base_weights":[2.341868E-5,-4.8533553E-4,2.351603E-3,-1.0831449E-3,-5.5204266E-5,1.6136974E-3,5.6395093E-3,-2.5039696E-4,-9.4538955E-5,-2.500814E-5,3.600492E-5,1.2343298E-4,2.3494463E-4,4.155936E-4,8.974039E-4],"categories":[],"categories_nodes":[],"categories_segments":[],"categories_sizes":[],"default_left":[0,0,0,0,0,0,0,0,0,0,0,0,0,0,0],"id":24,"left_children":[1,3,5,7,9,11,13,-1,-1,-1,-1,-1,-1,-1,-1],"loss_changes":[3.836156E-3,6.6775276E-4,1.324632E-3,1.7637352E-4,1.2426435E-4,9.364996E-5,3.2477337E-4,0E0,0E0,0E0,0E0,0E0,0E0,0E0,0E0],"parents":[2147483647,0,0,1,1,2,2,3,3,4,4,5,5,6,6],"right_children":[2,4,6,8,10,12,14,-1,-1,-1,-1,-1,-1,-1,-1],"split_conditions":[5.80835E-1,-4.777143E-1,2.3614087E0,-9.9810433E-1,3.8179636E-2,1.5333751E0,4.3710113E0,-2.5039696E-4,-9.4538955E-5,-2.500814E-5,3.600492E-5,1.2343298E-4,2.3494463E-4,4.155936E-4,8.974039E-4],"split_indices":[0,0,0,0,0,0,0,0,0,0,0,0,0,0,0],"split_type":[0,0,0,0,0,0,0,0,0,0,0,0,0,0,0],"sum_hessian":[3.22E3,2.64E3,5.8E2,1.094E3,1.546E3,4.78E2,1.02E2,8.8E1,1.006E3,1.069E3,4.77E2,3.27E2,1.51E2,7.5E1,2.7E1],"tree_param":{"num_deleted":"0","num_feature":"5","num_nodes":"15","size_leaf_vector":"1"}},{"base_weights":[2.2009744E-5,-3.8805258E-4,2.383223E-3,-9.161731E-4,4.5259145E-5,1.7769295E-3,6.03126E-3,-2.0309634E-4,-7.7917175E-5,-1.6510961E-5,4.634409E-5,1.3672163E-4,2.752323E-4,4.5580658E-4,9.6972333E-4],"categories":[],"categories_nodes":[],"categories_segments":[],"categories_sizes":[],"default_left":[0,0,0,0,0,0,0,0,0,0,0,0,0,0,0],"id":25,"left_children":[1,3,5,7,9,11,13,-1,-1,-1,-1,-1,-1,-1,-1],"loss_changes":[3.140539E-3,6.3636724E-4,9.686032E-4,1.5990005E-4,1.3483671E-4,1.19606615E-4,1.4489121E-4,0E0,0E0,0E0,0E0,0E0,0E0,0E0,0E0],"parents":[2147483647,0,0,1,1,2,2,3,3,4,4,5,5,6,6],"right_children":[2,4,6,8,10,12,14,-1,-1,-1,-1,-1,-1,-1,-1],"split_conditions":[7.215761E-1,-4.3371788E-1,2.8759415E0,-9.438295E-1,1.1195597E-1,1.8617096E0,5.410585E0,-2.0309634E-4,-7.7917175E-5,-1.6510961E-5,4.634409E-5,1.3672163E-4,2.752323E-4,4.5580658E-4,9.6972333E-4],"split_indices":[0,0,0,0,0,0,0,0,0,0,0,0,0,0,0],"split_type":[0,0,0,0,0,0,0,0,0,0,0,0,0,0,0],"sum_hessian":[3.22E3,2.741E3,4.79E2,1.245E3,1.496E3,4.15E2,6.4E1,1.26E2,1.119E3,9.8E2,5.16E2,3.02E2,1.13E2,5E1,1.4E1],"tree_param":{"num_deleted":"0","num_feature":"5","num_nodes":"15","size_leaf_vector":"1"}},{"base_weights":[2.0857722E-5,-2.9105778E-4,2.5728983E-3,-8.044716E-4,1.3304634E-4,2.1070652E-3,7.4395975E-3,-2.0580766E-4,-7.0336195E-5,-9.772421E-6,6.182078E-5,1.5772578E-4,3.164904E-4,9.882526E-4,3.7891555E-4],"categories":[],"categories_nodes":[],"categories_segments":[],"categories_sizes":[],"default_left":[0,0,0,0,0,0,0,0,0,0,0,0,0,0,0],"id":26,"left_children":[1,3,5,7,9,11,13,-1,-1,-1,-1,-1,-1,-1,-1],"loss_changes":[2.5883236E-3,6.3146465E-4,6.846958E-4,1.3606879E-4,1.8012253E-4,1.2863823E-4,6.126985E-5,0E0,0E0,0E0,0E0,0E0,0E0,0E0,0E0],"parents":[2147483647,0,0,1,1,2,2,3,3,4,4,5,5,6,6],"right_children":[2,4,6,8,10,12,14,-1,-1,-1,-1,-1,-1,-1,-1],"split_conditions":[1.0547507E0,-4.120622E-1,4.3710113E0,-9.9810433E-1,2.6680303E-1,2.1194808E0,-3.7806103E-1,-2.0580766E-4,-7.0336195E-5,-9.772421E-6,6.182078E-5,1.5772578E-4,3.164904E-4,9.882526E-4,3.7891555E-4],"split_indices":[0,0,0,0,0,0,4,0,0,0,0,0,0,0,0],"split_type":[0,0,0,0,0,0,0,0,0,0,0,0,0,0,0],"sum_hessian":[3.22E3,2.867E3,3.53E2,1.307E3,1.56E3,3.26E2,2.7E1,8.8E1,1.219E3,1.044E3,5.16E2,2.26E2,1E2,1.3E1,1.4E1],"tree_param":{"num_deleted":"0","num_feature":"5","num_nodes":"15","size_leaf_vector":"1"}},{"base_weights":[1.9835647E-5,-3.6439544E-4,1.7389694E-3,-9.363356E-4,-9.983482E-5,1.2634221E-3,4.7072712E-3,-1.934311E-4,-8.16971E-5,-2.586955E-5,1.7424485E-5,9.060422E-5,1.8819729E-4,3.5835858E-4,8.282549E-4],"categories":[],"categories_nodes":[],"categories_segments":[],"categories_sizes":[],"default_left":[0,0,0,0,0,0,0,0,0,0,0,0,0,0,0],"id":27,"left_children":[1,3,5,7,9,11,13,-1,-1,-1,-1,-1,-1,-1,-1],"loss_changes":[2.1426408E-3,3.8737518E-4,7.6913775E-4,6.773806E-5,7.978571E-5,8.3738414E-5,1.521894E-4,0E0,0E0,0E0,0E0,0E0,0E0,0E0,0E0],"parents":[2147483647,0,0,1,1,2,2,3,3,4,4,5,5,6,6],"right_children":[2,4,6,8,10,12,14,-1,-1,-1,-1,-1,-1,-1,-1],"split_conditions":[5.699826E-1,-5.9265244E-1,2.6115782E0,-1.0282099E0,-1.2364619E-1,1.5333751E0,5.410585E0,-1.934311E-4,-8.16971E-5,-2.586955E-5,1.7424485E-5,9.060422E-5,1.8819729E-4,3.5835858E-4,8.282549E-4],"split_indices":[0,0,0,0,0,0,0,0,0,0,0,0,0,0,0],"split_type":[0,0,0,0,0,0,0,0,0,0,0,0,0,0,0],"sum_hessian":[3.22E3,2.628E3,5.92E2,8.18E2,1.81E3,5.15E2,7.7E1,7.6E1,7.42E2,1.169E3,6.41E2,3.39E2,1.76E2,6.3E1,1.4E1],"tree_param":{"num_deleted":"0","num_feature":"5","num_nodes":"15","size_leaf_vector":"1"}},{"base_weights":[1.8712872E-5,-1.9972735E-4,2.479465E-3,-5.1972625E-4,3.3545983E-4,1.9755957E-3,6.232361E-3,-9.902454E-5,-3.1841246E-5,1.0941572E-5,7.8117584E-5,1.5202361E-4,2.7853114E-4,8.513187E-4,2.8503913E-4],"categories":[],"categories_nodes":[],"categories_segments":[],"categories_sizes":[],"default_left":[0,0,0,0,0,0,0,0,0,0,0,0,0,0,0],"id":28,"left_children":[1,3,5,7,9,11,13,-1,-1,-1,-1,-1,-1,-1,-1],"loss_changes":[1.7551843E-3,5.0843233E-4,4.0339492E-4,1.628602E-4,1.01339116E-4,3.889948E-5,6.980542E-5,0E0,0E0,0E0,0E0,0E0,0E0,0E0,0E0],"parents":[2147483647,0,0,1,1,2,2,3,3,4,4,5,5,6,6],"right_children":[2,4,6,8,10,12,14,-1,-1,-1,-1,-1,-1,-1,-1],"split_conditions":[1.5006971E0,-1.9130218E-1,4.3710113E0,-7.1039087E-1,5.452761E-1,2.3614087E0,-3.7806103E-1,-9.902454E-5,-3.1841246E-5,1.0941572E-5,7.8117584E-5,1.5202361E-4,2.7853114E-4,8.513187E-4,2.8503913E-4],"split_indices":[0,0,0,0,0,0,4,0,0,0,0,0,0,0,0],"split_type":[0,0,0,0,0,0,0,0,0,0,0,0,0,0,0],"sum_hessian":[3.22E3,2.955E3,2.65E2,1.861E3,1.094E3,2.38E2,2.7E1,5.41E2,1.32E3,7.42E2,3.52E2,1.63E2,7.5E1,1.3E1,1.4E1],"tree_param":{"num_deleted":"0","num_feature":"5","num_nodes":"15","size_leaf_vector":"1"}},{"base_weights":[1.8482846E-5,-2.0459872E-4,2.0077357E-3,-5.670203E-4,1.4522184E-4,1.5392292E-3,5.0469823E-3,-1.1962799E-4,-4.3906308E-5,-1.7299599E-6,5.2665197E-5,1.0593278E-4,2.0618562E-4,2.2918147E-4,6.653885E-4],"categories":[],"categories_nodes":[],"categories_segments":[],"categories_sizes":[],"default_left":[0,0,0,0,0,0,0,0,0,0,0,0,0,0,0],"id":29,"left_children":[1,3,5,7,9,11,13,-1,-1,-1,-1,-1,-1,-1,-1],"loss_changes":[1.4482384E-3,3.7118676E-4,3.9166247E-4,9.8442775E-5,9.558244E-5,3.837206E-5,6.6973735E-5,0E0,0E0,0E0,0E0,0E0,0E0,0E0,0E0],"parents":[2147483647,0,0,1,1,2,2,3,3,4,4,5,5,6,6],"right_children":[2,4,6,8,10,12,14,-1,-1,-1,-1,-1,-1,-1,-1],"split_conditions":[1.169605E0,-3.6577615E-1,3.7423353E0,-8.9625865E-1,3.5873955E-1,1.9079494E0,3.1742594E0,-1.1962799E-4,-4.3906308E-5,-1.7299599E-6,5.2665197E-5,1.0593278E-4,2.0618562E-4,2.2918147E-4,6.653885E-4],"split_indices":[0,0,0,0,0,0,1,0,0,0,0,0,0,0,0],"split_type":[0,0,0,0,0,0,0,0,0,0,0,0,0,0,0],"sum_hessian":[3.22E3,2.892E3,3.28E2,1.434E3,1.458E3,2.89E2,3.9E1,2.27E2,1.207E3,1.005E3,4.53E2,1.63E2,1.26E2,1.8E1,2.1E1],"tree_param":{"num_deleted":"0","num_feature":"5","num_nodes":"15","size_leaf_vector":"1"}},{"base_weights":[1.7454591E-5,-2.2267345E-4,1.5488667E-3,-6.991164E-4,-1.42672425E-5,1.2120672E-3,4.600108E-3,-1.4655221E-4,-5.9199876E-5,-1.6160431E-5,2.7871825E-5,8.726562E-5,1.8580946E-4,6.1928586E-4,1.8956442E-4],"categories":[],"categories_nodes":[],"categories_segments":[],"categories_sizes":[],"default_left":[0,0,0,0,0,0,0,0,0,0,0,0,0,0,0],"id":30,"left_children":[1,3,5,7,9,11,13,-1,-1,-1,-1,-1,-1,-1,-1],"loss_changes":[1.1984375E-3,2.6893726E-4,3.8825278E-4,4.6385918E-5,8.309487E-5,5.8735255E-5,7.596094E-5,0E0,0E0,0E0,0E0,0E0,0E0,0E0,0E0],"parents":[2147483647,0,0,1,1,2,2,3,3,4,4,5,5,6,6],"right_children":[2,4,6,8,10,12,14,-1,-1,-1,-1,-1,-1,-1,-1],"split_conditions":[8.056628E-1,-5.873736E-1,3.7423353E0,-9.9810433E-1,2.117202E-2,1.9079494E0,-3.7806103E-1,-1.4655221E-4,-5.9199876E-5,-1.6160431E-5,2.7871825E-5,8.726562E-5,1.8580946E-4,6.1928586E-4,1.8956442E-4],"split_indices":[0,0,0,0,0,0,4,0,0,0,0,0,0,0,0],"split_type":[0,0,0,0,0,0,0,0,0,0,0,0,0,0,0],"sum_hessian":[3.22E3,2.779E3,4.41E2,8.3E2,1.949E3,4.02E2,3.9E1,8.8E1,7.42E2,1.32E3,6.29E2,2.76E2,1.26E2,2.1E1,1.8E1],"tree_param":{"num_deleted":"0","num_feature":"5","num_nodes":"15","size_leaf_vector":"1"}},{"base_weights":[1.6432732E-5,-2.439577E-4,1.1868995E-3,-6.448411E-4,-6.5200176E-5,9.0836006E-4,3.7859413E-3,-1.3864877E-4,-5.494476E-5,-1.558515E-5,1.4715444E-5,6.569228E-5,1.4776959E-4,2.0099369E-4,5.823953E-4],"categories":[],"categories_nodes":[],"categories_segments":[],"categories_sizes":[],"default_left":[0,0,0,0,0,0,0,0,0,0,0,0,0,0,0],"id":31,"left_children":[1,3,5,7,9,11,13,-1,-1,-1,-1,-1,-1,-1,-1],"loss_changes":[9.917071E-4,1.8126893E-4,3.775542E-4,3.563671E-5,3.549366E-5,5.4714677E-5,9.774667E-5,0E0,0E0,0E0,0E0,0E0,0E0,0E0,0E0],"parents":[2147483647,0,0,1,1,2,2,3,3,4,4,5,5,6,6],"right_children":[2,4,6,8,10,12,14,-1,-1,-1,-1,-1,-1,-1,-1],"split_conditions":[5.699826E-1,-6.087283E-1,3.239468E0,-1.0282099E0,-1.7486375E-2,1.7701555E0,4.2761316E0,-1.3864877E-4,-5.494476E-5,-1.558515E-5,1.4715444E-5,6.569228E-5,1.4776959E-4,2.0099369E-4,5.823953E-4],"split_indices":[0,0,0,0,0,0,1,0,0,0,0,0,0,0,0],"split_type":[0,0,0,0,0,0,0,0,0,0,0,0,0,0,0],"sum_hessian":[3.22E3,2.628E3,5.92E2,7.92E2,1.836E3,5.4E2,5.2E1,7.6E1,7.16E2,1.32E3,5.16E2,3.89E2,1.51E2,3.2E1,2E1],"tree_param":{"num_deleted":"0","num_feature":"5","num_nodes":"15","size_leaf_vector":"1"}},{"base_weights":[1.5473322E-5,-1.327615E-4,1.6973985E-3,-3.8589913E-4,1.7842329E-4,1.4031079E-3,5.6820614E-3,-7.9005746E-5,-2.6754293E-5,3.371841E-6,5.0655228E-5,9.865372E-5,2.0335129E-4,1.2610254E-3,-0E0],"categories":[],"categories_nodes":[],"categories_segments":[],"categories_sizes":[],"default_left":[0,0,0,0,0,0,0,0,0,0,0,0,0,0,0],"id":32,"left_children":[1,3,5,7,9,11,13,-1,-1,-1,-1,-1,-1,-1,-1],"loss_changes":[8.191684E-4,2.3506916E-4,2.2970047E-4,6.796233E-5,5.6749177E-5,3.3098855E-5,5.3319003E-4,0E0,0E0,0E0,0E0,0E0,0E0,0E0,0E0],"parents":[2147483647,0,0,1,1,2,2,3,3,4,4,5,5,6,6],"right_children":[2,4,6,8,10,12,14,-1,-1,-1,-1,-1,-1,-1,-1],"split_conditions":[1.5006971E0,-2.9222593E-1,5.410585E0,-8.194659E-1,5.108033E-1,2.3614087E0,-3.7806103E-1,-7.9005746E-5,-2.6754293E-5,3.371841E-6,5.0655228E-5,9.865372E-5,2.0335129E-4,1.2610254E-3,-0E0],"split_indices":[0,0,0,0,0,0,4,0,0,0,0,0,0,0,0],"split_type":[0,0,0,0,0,0,0,0,0,0,0,0,0,0,0],"sum_hessian":[3.22E3,2.955E3,2.65E2,1.647E3,1.308E3,2.51E2,1.4E1,3.52E2,1.295E3,9.3E2,3.78E2,1.63E2,8.8E1,5E0,9E0],"tree_param":{"num_deleted":"0","num_feature":"5","num_nodes":"15","size_leaf_vector":"1"}},{"base_weights":[1.5440144E-5,-1.15866365E-4,1.5862072E-3,-3.1853694E-4,2.0989269E-4,1.2969767E-3,5.2752793E-3,-5.7865633E-5,-1.671475E-5,6.8717673E-6,4.864427E-5,9.037268E-5,1.8335706E-4,1.1640234E-3,-0E0],"categories":[],"categories_nodes":[],"categories_segments":[],"categories_sizes":[],"default_left":[0,0,0,0,0,0,0,0,0,0,0,0,0,0,0],"id":33,"left_children":[1,3,5,7,9,11,13,-1,-1,-1,-1,-1,-1,-1,-1],"loss_changes":[6.7941967E-4,1.9717235E-4,1.9556412E-4,6.522896E-5,3.8144768E-5,2.0890671E-5,4.4937505E-4,0E0,0E0,0E0,0E0,0E0,0E0,0E0,0E0],"parents":[2147483647,0,0,1,1,2,2,3,3,4,4,5,5,6,6],"right_children":[2,4,6,8,10,12,14,-1,-1,-1,-1,-1,-1,-1,-1],"split_conditions":[1.5333751E0,-1.9857396E-1,5.410585E0,-6.604127E-1,5.574644E-1,2.3614087E0,-3.7806103E-1,-5.7865633E-5,-1.671475E-5,6.8717673E-6,4.864427E-5,9.037268E-5,1.8335706E-4,1.1640234E-3,-0E0],"split_indices":[0,0,0,0,0,0,4,0,0,0,0,0,0,0,0],"split_type":[0,0,0,0,0,0,0,0,0,0,0,0,0,0,0],"sum_hessian":[3.22E3,2.967E3,2.53E2,1.848E3,1.119E3,2.39E2,1.4E1,6.54E2,1.194E3,7.66E2,3.53E2,1.51E2,8.8E1,5E0,9E0],"tree_param":{"num_deleted":"0","num_feature":"5","num_nodes":"15","size_leaf_vector":"1"}},{"base_weights":[1.5367074E-5,-9.744542E-5,1.5303177E-3,-2.4809947E-4,2.9112474E-4,1.2309105E-3,4.899787E-3,-5.2092306E-5,-1.2382491E-5,1.3191035E-5,4.6055367E-5,8.4150764E-5,1.6532849E-4,1.074483E-3,-0E0],"categories":[],"categories_nodes":[],"categories_segments":[],"categories_sizes":[],"default_left":[0,0,0,0,0,0,0,0,0,0,0,0,0,0,0],"id":34,"left_children":[1,3,5,7,9,11,13,-1,-1,-1,-1,-1,-1,-1,-1],"loss_changes":[5.6512404E-4,1.7491657E-4,1.6117579E-4,6.725006E-5,1.60637E-5,8.409319E-6,3.7831115E-4,0E0,0E0,0E0,0E0,0E0,0E0,0E0,0E0],"parents":[2147483647,0,0,1,1,2,2,3,3,4,4,5,5,6,6],"right_children":[2,4,6,8,10,12,14,-1,-1,-1,-1,-1,-1,-1,-1],"split_conditions":[1.6195278E0,5.24728E-2,5.410585E0,-6.604127E-1,5.699826E-1,2.3614087E0,-3.7806103E-1,-5.2092306E-5,-1.2382491E-5,1.3191035E-5,4.6055367E-5,8.4150764E-5,1.6532849E-4,1.074483E-3,-0E0],"split_indices":[0,0,0,0,0,0,4,0,0,0,0,0,0,0,0],"split_type":[0,0,0,0,0,0,0,0,0,0,0,0,0,0,0],"sum_hessian":[3.22E3,2.992E3,2.28E2,2.175E3,8.17E2,2.14E2,1.4E1,6.54E2,1.521E3,4.53E2,3.64E2,1.26E2,8.8E1,5E0,9E0],"tree_param":{"num_deleted":"0","num_feature":"5","num_nodes":"15","size_leaf_vector":"1"}},{"base_weights":[1.5254873E-5,-1.1078294E-4,1.1523338E-3,-3.9488598E-4,3.5654142E-5,9.4808155E-4,4.5531783E-3,-1.0652161E-4,-3.2774384E-5,-4.9927944E-6,2.6640584E-5,6.84394E-5,1.4907273E-4,9.918303E-4,-0E0],"categories":[],"categories_nodes":[],"categories_segments":[],"categories_sizes":[],"default_left":[0,0,0,0,0,0,0,0,0,0,0,0,0,0,0],"id":35,"left_children":[1,3,5,7,9,11,13,-1,-1,-1,-1,-1,-1,-1,-1],"loss_changes":[4.7229606E-4,1.2399234E-4,1.673929E-4,3.0891693E-5,3.9459483E-5,2.1862943E-5,3.1808545E-4,0E0,0E0,0E0,0E0,0E0,0E0,0E0,0E0],"parents":[2147483647,0,0,1,1,2,2,3,3,4,4,5,5,6,6],"right_children":[2,4,6,8,10,12,14,-1,-1,-1,-1,-1,-1,-1,-1],"split_conditions":[1.169605E0,-5.194103E-1,5.410585E0,-1.0282099E0,2.6680303E-1,2.3614087E0,-3.7806103E-1,-1.0652161E-4,-3.2774384E-5,-4.9927944E-6,2.6640584E-5,6.84394E-5,1.4907273E-4,9.918303E-4,-0E0],"split_indices":[0,0,0,0,0,0,4,0,0,0,0,0,0,0,0],"split_type":[0,0,0,0,0,0,0,0,0,0,0,0,0,0,0],"sum_hessian":[3.22E3,2.892E3,3.28E2,1.006E3,1.886E3,3.14E2,1.4E1,7.6E1,9.3E2,1.345E3,5.41E2,2.26E2,8.8E1,5E0,9E0],"tree_param":{"num_deleted":"0","num_feature":"5","num_nodes":"15","size_leaf_vector":"1"}},{"base_weights":[1.4426817E-5,-6.755258E-5,1.4685704E-3,-2.061183E-4,2.5466707E-4,1.1338889E-4,4.2332336E-3,-7.312314E-5,-1.5371805E-5,1.0417354E-5,4.1186257E-5,9.155357E-4,-0E0],"categories":[],"categories_nodes":[],"categories_segments":[],"categories_sizes":[],"default_left":[0,0,0,0,0,0,0,0,0,0,0,0,0],"id":36,"left_children":[1,3,5,7,9,-1,11,-1,-1,-1,-1,-1,-1],"loss_changes":[3.9819346E-4,1.3552592E-4,1.0429163E-4,5.0182723E-5,1.5936384E-5,0E0,2.6706944E-4,0E0,0E0,0E0,0E0,0E0,0E0],"parents":[2147483647,0,0,1,1,2,2,3,3,4,4,6,6],"right_children":[2,4,6,8,10,-1,12,-1,-1,-1,-1,-1,-1],"split_conditions":[1.8617096E0,2.117202E-2,5.410585E0,-9.146129E-1,5.80835E-1,1.1338889E-4,-3.7806103E-1,-7.312314E-5,-1.5371805E-5,1.0417354E-5,4.1186257E-5,9.155357E-4,-0E0],"split_indices":[0,0,0,0,0,0,4,0,0,0,0,0,0],"split_type":[0,0,0,0,0,0,0,0,0,0,0,0,0],"sum_hessian":[3.22E3,3.043E3,1.77E2,2.15E3,8.93E2,1.63E2,1.4E1,1.76E2,1.974E3,4.9E2,4.03E2,5E0,9E0],"tree_param":{"num_deleted":"0","num_feature":"5","num_nodes":"13","size_leaf_vector":"1"}},{"base_weights":[1.3945772E-5,-6.048718E-5,1.3393811E-3,-2.605813E-4,1.2364004E-4,9.310629E-5,3.2513726E-3,-7.231966E-5,-2.0459293E-5,1.4477049E-6,3.4001438E-5,8.4511E-4,9.87406E-5],"categories":[],"categories_nodes":[],"categories_segments":[],"categories_sizes":[],"default_left":[0,0,0,0,0,0,0,0,0,0,0,0,0],"id":37,"left_children":[1,3,5,7,9,-1,11,-1,-1,-1,-1,-1,-1],"loss_changes":[3.3073098E-4,1.1358556E-4,9.298991E-5,2.8976203E-5,3.3306816E-5,0E0,2.0505613E-4,0E0,0E0,0E0,0E0,0E0,0E0],"parents":[2147483647,0,0,1,1,2,2,3,3,4,4,6,6],"right_children":[2,4,6,8,10,-1,12,-1,-1,-1,-1,-1,-1],"split_conditions":[1.8617096E0,-3.478076E-1,4.2761316E0,-9.369497E-1,4.7869107E-1,9.310629E-5,-3.7806103E-1,-7.231966E-5,-2.0459293E-5,1.4477049E-6,3.4001438E-5,8.4511E-4,9.87406E-5],"split_indices":[0,0,1,0,0,0,4,0,0,0,0,0,0],"split_type":[0,0,0,0,0,0,0,0,0,0,0,0,0],"sum_hessian":[3.22E3,3.043E3,1.77E2,1.484E3,1.559E3,1.52E2,2.5E1,1.39E2,1.345E3,1.068E3,4.91E2,5E0,2E1],"tree_param":{"num_deleted":"0","num_feature":"5","num_nodes":"13","size_leaf_vector":"1"}},{"base_weights":[1.362835E-5,-5.172419E-5,1.2732656E-3,-2.6369785E-4,9.358904E-5,8.612525E-5,3.108637E-3,-8.181287E-5,-2.1906051E-5,6.784214E-7,3.346185E-5,7.8010134E-4,9.055442E-5],"categories":[],"categories_nodes":[],"categories_segments":[],"categories_sizes":[],"default_left":[0,0,0,0,0,0,0,0,0,0,0,0,0],"id":38,"left_children":[1,3,5,7,9,-1,11,-1,-1,-1,-1,-1,-1],"loss_changes":[2.7750965E-4,9.588619E-5,8.2191924E-5,2.082676E-5,3.396065E-5,0E0,1.6595057E-4,0E0,0E0,0E0,0E0,0E0,0E0],"parents":[2147483647,0,0,1,1,2,2,3,3,4,4,6,6],"right_children":[2,4,6,8,10,-1,12,-1,-1,-1,-1,-1,-1],"split_conditions":[1.9079494E0,-4.2648524E-1,4.2761316E0,-1.0282099E0,5.574644E-1,8.612525E-5,-3.7806103E-1,-8.181287E-5,-2.1906051E-5,6.784214E-7,3.346185E-5,7.8010134E-4,9.055442E-5],"split_indices":[0,0,1,0,0,0,4,0,0,0,0,0,0],"split_type":[0,0,0,0,0,0,0,0,0,0,0,0,0],"sum_hessian":[3.22E3,3.055E3,1.65E2,1.27E3,1.785E3,1.41E2,2.4E1,7.6E1,1.194E3,1.344E3,4.41E2,5E0,1.9E1],"tree_param":{"num_deleted":"0","num_feature":"5","num_nodes":"13","size_leaf_vector":"1"}},{"base_weights":[1.3299579E-5,-2.972684E-5,1.612861E-3,-1.4493443E-4,2.588668E-4,9.428659E-4,2.9518558E-3,-3.697079E-5,-7.051178E-6,1.28912525E-5,4.197241E-5,9.736381E-5,-0E0,7.200938E-4,7.956088E-5],"categories":[],"categories_nodes":[],"categories_segments":[],"categories_sizes":[],"default_left":[0,0,0,0,0,0,0,0,0,0,0,0,0,0,0],"id":39,"left_children":[1,3,5,7,9,11,13,-1,-1,-1,-1,-1,-1,-1,-1],"loss_changes":[2.3761782E-4,1.0306688E-4,3.8067345E-5,3.3439792E-5,1.260858E-5,1.1368975E-6,1.3591158E-4,0E0,0E0,0E0,0E0,0E0,0E0,0E0,0E0],"parents":[2147483647,0,0,1,1,2,2,3,3,4,4,5,5,6,6],"right_children":[2,4,6,8,10,12,14,-1,-1,-1,-1,-1,-1,-1,-1],"split_conditions":[2.4853303E0,1.5477665E-1,4.2761316E0,-7.145683E-1,8.056628E-1,2.6309514E-1,-3.7806103E-1,-3.697079E-5,-7.051178E-6,1.28912525E-5,4.197241E-5,9.736381E-5,-0E0,7.200938E-4,7.956088E-5],"split_indices":[0,0,1,0,0,4,4,0,0,0,0,0,0,0,0],"split_type":[0,0,0,0,0,0,0,0,0,0,0,0,0,0,0],"sum_hessian":[3.22E3,3.131E3,8.9E1,2.263E3,8.68E2,6.6E1,2.3E1,5.28E2,1.735E3,5.16E2,3.52E2,6.3E1,3E0,5E0,1.8E1],"tree_param":{"num_deleted":"0","num_feature":"5","num_nodes":"15","size_leaf_vector":"1"}},{"base_weights":[1.3039463E-5,-2.6429641E-5,1.4894749E-3,-1.3091158E-4,2.3422473E-4,8.519927E-4,2.746448E-3,-3.9707455E-5,-7.6383485E-6,1.3039993E-5,4.0511713E-5,-0E0,8.889906E-5,6.6470215E-4,7.221711E-5],"categories":[],"categories_nodes":[],"categories_segments":[],"categories_sizes":[],"default_left":[0,0,0,0,0,0,0,0,0,0,0,0,0,0,0],"id":40,"left_children":[1,3,5,7,9,11,13,-1,-1,-1,-1,-1,-1,-1,-1],"loss_changes":[2.0241784E-4,8.432233E-5,3.302314E-5,2.8085426E-5,9.9930185E-6,1.1866432E-6,1.1255575E-4,0E0,0E0,0E0,0E0,0E0,0E0,0E0,0E0],"parents":[2147483647,0,0,1,1,2,2,3,3,4,4,5,5,6,6],"right_children":[2,4,6,8,10,12,14,-1,-1,-1,-1,-1,-1,-1,-1],"split_conditions":[2.4853303E0,1.5477665E-1,4.2761316E0,-8.194659E-1,9.846108E-1,-4.9745694E-1,-3.7806103E-1,-3.9707455E-5,-7.6383485E-6,1.3039993E-5,4.0511713E-5,-0E0,8.889906E-5,6.6470215E-4,7.221711E-5],"split_indices":[0,0,1,0,0,4,4,0,0,0,0,0,0,0,0],"split_type":[0,0,0,0,0,0,0,0,0,0,0,0,0,0,0],"sum_hessian":[3.22E3,3.131E3,8.9E1,2.263E3,8.68E2,6.6E1,2.3E1,3.52E2,1.911E3,5.78E2,2.9E2,4E0,6.2E1,5E0,1.8E1],"tree_param":{"num_deleted":"0","num_feature":"5","num_nodes":"15","size_leaf_vector":"1"}},{"base_weights":[1.2776718E-5,-2.0795735E-5,1.4847438E-3,-1.3397989E-4,1.8575088E-4,6.851273E-4,2.500643E-3,-4.894295E-5,-9.763987E-6,8.618579E-6,3.5335386E-5,8.291596E-5,-0E0,6.0961227E-4,6.909961E-5],"categories":[],"categories_nodes":[],"categories_segments":[],"categories_sizes":[],"default_left":[0,0,0,0,0,0,0,0,0,0,0,0,0,0,0],"id":41,"left_children":[1,3,5,7,9,11,13,-1,-1,-1,-1,-1,-1,-1,-1],"loss_changes":[1.7388441E-4,7.303113E-5,2.9340299E-5,2.0711956E-5,1.362303E-5,2.982404E-6,1.1124686E-4,0E0,0E0,0E0,0E0,0E0,0E0,0E0,0E0],"parents":[2147483647,0,0,1,1,2,2,3,3,4,4,5,5,6,6],"right_children":[2,4,6,8,10,12,14,-1,-1,-1,-1,-1,-1,-1,-1],"split_conditions":[2.6115782E0,-6.773676E-2,3.1742594E0,-9.176605E-1,8.056628E-1,-1.9180337E-1,-3.7806103E-1,-4.894295E-5,-9.763987E-6,8.618579E-6,3.5335386E-5,8.291596E-5,-0E0,6.0961227E-4,6.909961E-5],"split_indices":[0,0,1,0,0,4,4,0,0,0,0,0,0,0,0],"split_type":[0,0,0,0,0,0,0,0,0,0,0,0,0,0,0],"sum_hessian":[3.22E3,3.143E3,7.7E1,2.062E3,1.081E3,5E1,2.7E1,1.64E2,1.898E3,7.17E2,3.64E2,3.8E1,1.2E1,6E0,2.1E1],"tree_param":{"num_deleted":"0","num_feature":"5","num_nodes":"15","size_leaf_vector":"1"}},{"base_weights":[1.2546343E-5,-2.3636143E-5,1.1995265E-3,-2.1005499E-4,7.060694E-5,6.928979E-5,2.3825597E-3,-6.6751294E-5,-1.710338E-5,4.917451E-7,2.5687059E-5,5.666777E-4,5.9172617E-5],"categories":[],"categories_nodes":[],"categories_segments":[],"categories_sizes":[],"default_left":[0,0,0,0,0,0,0,0,0,0,0,0,0],"id":42,"left_children":[1,3,5,7,9,-1,11,-1,-1,-1,-1,-1,-1],"loss_changes":[1.5015807E-4,5.622225E-5,2.8802708E-5,1.0784355E-5,2.2310185E-5,0E0,7.648162E-5,0E0,0E0,0E0,0E0,0E0,0E0],"parents":[2147483647,0,0,1,1,2,2,3,3,4,4,6,6],"right_children":[2,4,6,8,10,-1,12,-1,-1,-1,-1,-1,-1],"split_conditions":[2.3614087E0,-4.8212546E-1,4.2761316E0,-1.043986E0,5.699826E-1,6.928979E-5,-3.7806103E-1,-6.6751294E-5,-1.710338E-5,4.917451E-7,2.5687059E-5,5.666777E-4,5.9172617E-5],"split_indices":[0,0,1,0,0,0,4,0,0,0,0,0,0],"split_type":[0,0,0,0,0,0,0,0,0,0,0,0,0],"sum_hessian":[3.22E3,3.118E3,1.02E2,1.082E3,2.036E3,7.9E1,2.3E1,6.3E1,1.019E3,1.546E3,4.9E2,5E0,1.8E1],"tree_param":{"num_deleted":"0","num_feature":"5","num_nodes":"13","size_leaf_vector":"1"}},{"base_weights":[1.22095435E-5,-1.632043E-5,1.2821992E-3,-1.2463443E-4,1.3308301E-4,5.566732E-4,2.174876E-3,-6.0231414E-5,-1.0185183E-5,6.5607537E-6,3.0809995E-5,6.827318E-5,-0E0,5.221408E-4,5.6992896E-5],"categories":[],"categories_nodes":[],"categories_segments":[],"categories_sizes":[],"default_left":[0,0,0,0,0,0,0,0,0,0,0,0,0,0,0],"id":43,"left_children":[1,3,5,7,9,11,13,-1,-1,-1,-1,-1,-1,-1,-1],"loss_changes":[1.2941404E-4,5.0826216E-5,2.1709799E-5,1.3135514E-5,1.1389908E-5,2.4527635E-6,7.697428E-5,0E0,0E0,0E0,0E0,0E0,0E0,0E0,0E0],"parents":[2147483647,0,0,1,1,2,2,3,3,4,4,5,5,6,6],"right_children":[2,4,6,8,10,12,14,-1,-1,-1,-1,-1,-1,-1,-1],"split_conditions":[2.6115782E0,-1.9130218E-1,3.1742594E0,-1.043986E0,9.4859684E-1,-1.9180337E-1,-3.7806103E-1,-6.0231414E-5,-1.0185183E-5,6.5607537E-6,3.0809995E-5,6.827318E-5,-0E0,5.221408E-4,5.6992896E-5],"split_indices":[0,0,1,0,0,4,4,0,0,0,0,0,0,0,0],"split_type":[0,0,0,0,0,0,0,0,0,0,0,0,0,0,0],"sum_hessian":[3.22E3,3.143E3,7.7E1,1.861E3,1.282E3,5E1,2.7E1,6.3E1,1.798E3,9.68E2,3.14E2,3.8E1,1.2E1,6E0,2.1E1],"tree_param":{"num_deleted":"0","num_feature":"5","num_nodes":"15","size_leaf_vector":"1"}},{"base_weights":[1.1948565E-5,-1.1788533E-5,1.3086197E-3,-8.446E-5,1.8781137E-4,2.1851899E-3,3.9549035E-4,-2.0564998E-5,-1.1621804E-6,1.0875508E-5,3.3160646E-5,6.541855E-5,4.803698E-4,-0E0,7.526084E-5],"categories":[],"categories_nodes":[],"categories_segments":[],"categories_sizes":[],"default_left":[0,0,0,0,0,0,0,0,0,0,0,0,0,0,0],"id":44,"left_children":[1,3,5,7,9,11,13,-1,-1,-1,-1,-1,-1,-1,-1],"loss_changes":[1.1214668E-4,4.4790508E-5,2.5324494E-5,1.8589826E-5,4.710504E-6,5.095346E-5,5.9997174E-6,0E0,0E0,0E0,0E0,0E0,0E0,0E0,0E0],"parents":[2147483647,0,0,1,1,2,2,3,3,4,4,5,5,6,6],"right_children":[2,4,6,8,10,12,14,-1,-1,-1,-1,-1,-1,-1,-1],"split_conditions":[2.8759415E0,2.6680303E-1,-3.7806103E-1,-5.873736E-1,1.3560488E0,3.1742594E0,-1.9896711E-1,-2.0564998E-5,-1.1621804E-6,1.0875508E-5,3.3160646E-5,6.541855E-5,4.803698E-4,-0E0,7.526084E-5],"split_indices":[0,0,4,0,0,1,4,0,0,0,0,0,0,0,0],"split_type":[0,0,0,0,0,0,0,0,0,0,0,0,0,0,0],"sum_hessian":[3.22E3,3.156E3,6.4E1,2.351E3,8.05E2,2.6E1,3.8E1,8.3E2,1.521E3,5.66E2,2.39E2,2E1,6E0,1.8E1,2E1],"tree_param":{"num_deleted":"0","num_feature":"5","num_nodes":"15","size_leaf_vector":"1"}},{"base_weights":[1.1656914E-5,-1.2736277E-5,1.1159487E-3,-1.1713315E-4,9.552239E-5,4.5709353E-4,1.8969002E-3,-4.5952165E-5,-9.097521E-6,3.1943982E-6,2.1972954E-5,5.7363166E-5,-0E0,4.4194033E-4,4.8516154E-5],"categories":[],"categories_nodes":[],"categories_segments":[],"categories_sizes":[],"default_left":[0,0,0,0,0,0,0,0,0,0,0,0,0,0,0],"id":45,"left_children":[1,3,5,7,9,11,13,-1,-1,-1,-1,-1,-1,-1,-1],"loss_changes":[9.783164E-5,3.577161E-5,1.5550388E-5,9.196583E-6,9.29833E-6,2.2374788E-6,4.9229944E-5,0E0,0E0,0E0,0E0,0E0,0E0,0E0,0E0],"parents":[2147483647,0,0,1,1,2,2,3,3,4,4,5,5,6,6],"right_children":[2,4,6,8,10,12,14,-1,-1,-1,-1,-1,-1,-1,-1],"split_conditions":[2.6115782E0,-2.9222593E-1,3.1742594E0,-9.9810433E-1,6.4596546E-1,-1.9180337E-1,-3.7806103E-1,-4.5952165E-5,-9.097521E-6,3.1943982E-6,2.1972954E-5,5.7363166E-5,-0E0,4.4194033E-4,4.8516154E-5],"split_indices":[0,0,1,0,0,4,4,0,0,0,0,0,0,0,0],"split_type":[0,0,0,0,0,0,0,0,0,0,0,0,0,0,0],"sum_hessian":[3.22E3,3.143E3,7.7E1,1.647E3,1.496E3,5E1,2.7E1,8.8E1,1.559E3,1.044E3,4.52E2,3.8E1,1.2E1,6E0,2.1E1],"tree_param":{"num_deleted":"0","num_feature":"5","num_nodes":"15","size_leaf_vector":"1"}},{"base_weights":[1.1380592E-5,-1.6997705E-5,8.5378496E-4,-1.5657576E-4,4.5201952E-5,4.7859148E-4,1.8252098E-3,-4.78513E-5,-1.2375435E-5,-0E0,1.4253578E-5,-0E0,5.020526E-5,4.119762E-4,4.0713803E-5],"categories":[],"categories_nodes":[],"categories_segments":[],"categories_sizes":[],"default_left":[0,0,0,0,0,0,0,0,0,0,0,0,0,0,0],"id":46,"left_children":[1,3,5,7,9,11,13,-1,-1,-1,-1,-1,-1,-1,-1],"loss_changes":[8.540282E-5,2.8094075E-5,1.8112703E-5,4.5341803E-6,9.269454E-6,1.1429274E-6,3.1934098E-5,0E0,0E0,0E0,0E0,0E0,0E0,0E0,0E0],"parents":[2147483647,0,0,1,1,2,2,3,3,4,4,5,5,6,6],"right_children":[2,4,6,8,10,12,14,-1,-1,-1,-1,-1,-1,-1,-1],"split_conditions":[2.230306E0,-5.194103E-1,4.2761316E0,-1.043986E0,3.5873955E-1,-4.9745694E-1,-3.7806103E-1,-4.78513E-5,-1.2375435E-5,-0E0,1.4253578E-5,-0E0,5.020526E-5,4.119762E-4,4.0713803E-5],"split_indices":[0,0,1,0,0,4,4,0,0,0,0,0,0,0,0],"split_type":[0,0,0,0,0,0,0,0,0,0,0,0,0,0,0],"sum_hessian":[3.22E3,3.105E3,1.15E2,1.006E3,2.099E3,9.2E1,2.3E1,6.3E1,9.43E2,1.433E3,6.66E2,4E0,8.8E1,5E0,1.8E1],"tree_param":{"num_deleted":"0","num_feature":"5","num_nodes":"15","size_leaf_vector":"1"}},{"base_weights":[1.0754007E-5,-8.008292E-6,1.0676369E-3,-1.060673E-4,7.436028E-5,1.7814259E-3,2.7698744E-4,-2.6232343E-5,-6.6264847E-6,3.3043111E-6,2.3476057E-5,-0E0,2.650268E-4,-0E0,6.164523E-5],"categories":[],"categories_nodes":[],"categories_segments":[],"categories_sizes":[],"default_left":[0,0,0,0,0,0,0,0,0,0,0,0,0,0,0],"id":47,"left_children":[1,3,5,7,9,11,13,-1,-1,-1,-1,-1,-1,-1,-1],"loss_changes":[7.449001E-5,2.5831969E-5,1.5641097E-5,6.0015627E-6,8.321562E-6,2.862404E-5,5.1397674E-6,0E0,0E0,0E0,0E0,0E0,0E0,0E0,0E0],"parents":[2147483647,0,0,1,1,2,2,3,3,4,4,5,5,6,6],"right_children":[2,4,6,8,10,12,14,-1,-1,-1,-1,-1,-1,-1,-1],"split_conditions":[2.8759415E0,-3.438133E-1,-3.7806103E-1,-8.7497145E-1,1.0547507E0,1.7382538E0,-1.9896711E-1,-2.6232343E-5,-6.6264847E-6,3.3043111E-6,2.3476057E-5,-0E0,2.650268E-4,-0E0,6.164523E-5],"split_indices":[0,0,4,0,0,1,4,0,0,0,0,0,0,0,0],"split_type":[0,0,0,0,0,0,0,0,0,0,0,0,0,0,0],"sum_hessian":[3.22E3,3.156E3,6.4E1,1.496E3,1.66E3,2.6E1,3.8E1,2.51E2,1.245E3,1.371E3,2.89E2,1.1E1,1.5E1,1.8E1,2E1],"tree_param":{"num_deleted":"0","num_feature":"5","num_nodes":"15","size_leaf_vector":"1"}},{"base_weights":[1.0229666E-5,-8.898206E-6,9.036341E-4,-1.3272997E-4,4.2720956E-5,3.049745E-4,1.5869857E-3,-4.0615196E-5,-1.0245829E-5,-0E0,1.4521639E-5,4.0734605E-5,-0E0,3.5724856E-4,3.749088E-5],"categories":[],"categories_nodes":[],"categories_segments":[],"categories_sizes":[],"default_left":[0,0,0,0,0,0,0,0,0,0,0,0,0,0,0],"id":48,"left_children":[1,3,5,7,9,11,13,-1,-1,-1,-1,-1,-1,-1,-1],"loss_changes":[6.4011394E-5,2.1008527E-5,1.2468365E-5,2.9835755E-6,8.54596E-6,1.7642797E-6,2.7104514E-5,0E0,0E0,0E0,0E0,0E0,0E0,0E0,0E0],"parents":[2147483647,0,0,1,1,2,2,3,3,4,4,5,5,6,6],"right_children":[2,4,6,8,10,12,14,-1,-1,-1,-1,-1,-1,-1,-1],"split_conditions":[2.6115782E0,-5.2972454E-1,3.1742594E0,-1.043986E0,4.7869107E-1,-1.9180337E-1,-3.7806103E-1,-4.0615196E-5,-1.0245829E-5,-0E0,1.4521639E-5,4.0734605E-5,-0E0,3.5724856E-4,3.749088E-5],"split_indices":[0,0,1,0,0,4,4,0,0,0,0,0,0,0,0],"split_type":[0,0,0,0,0,0,0,0,0,0,0,0,0,0,0],"sum_hessian":[3.22E3,3.143E3,7.7E1,9.81E2,2.162E3,5E1,2.7E1,6.3E1,9.18E2,1.571E3,5.91E2,3.8E1,1.2E1,6E0,2.1E1],"tree_param":{"num_deleted":"0","num_feature":"5","num_nodes":"15","size_leaf_vector":"1"}},{"base_weights":[9.889294E-6,-1.7903601E-5,5.8006437E-4,-1.2282009E-4,2.5103524E-5,3.362226E-5,1.5164313E-3,-3.98596E-5,-9.558379E-6,-0E0,8.575177E-6,2.7265583E-4,2.4326147E-7],"categories":[],"categories_nodes":[],"categories_segments":[],"categories_sizes":[],"default_left":[0,0,0,0,0,0,0,0,0,0,0,0,0],"id":49,"left_children":[1,3,5,7,9,-1,11,-1,-1,-1,-1,-1,-1],"loss_changes":[5.66877E-5,1.4773195E-5,1.8724848E-5,2.185433E-6,3.8634626E-6,0E0,1.9419469E-5,0E0,0E0,0E0,0E0,0E0,0E0],"parents":[2147483647,0,0,1,1,2,2,3,3,4,4,6,6],"right_children":[2,4,6,8,10,-1,12,-1,-1,-1,-1,-1,-1],"split_conditions":[1.9079494E0,-5.4124576E-1,4.2761316E0,-1.0547673E0,2.6680303E-1,3.362226E-5,-3.2851171E-1,-3.98596E-5,-9.558379E-6,-0E0,8.575177E-6,2.7265583E-4,2.4326147E-7],"split_indices":[0,0,1,0,0,0,4,0,0,0,0,0,0],"split_type":[0,0,0,0,0,0,0,0,0,0,0,0,0],"sum_hessian":[3.22E3,3.055E3,1.65E2,9.55E2,2.1E3,1.41E2,2.4E1,5.1E1,9.04E2,1.396E3,7.04E2,9E0,1.5E1],"tree_param":{"num_deleted":"0","num_feature":"5","num_nodes":"13","size_leaf_vector":"1"}},{"base_weights":[9.093982E-6,-7.278508E-6,7.921469E-4,-9.188993E-5,4.574018E-5,-0E0,9.4752887E-4,-2.028627E-5,-5.4968345E-6,1.129583E-6,1.4537567E-5,-0E0,1.1423304E-4],"categories":[],"categories_nodes":[],"categories_segments":[],"categories_sizes":[],"default_left":[0,0,0,0,0,0,0,0,0,0,0,0,0],"id":50,"left_children":[1,3,5,7,9,-1,11,-1,-1,-1,-1,-1,-1],"loss_changes":[4.9158658E-5,1.4573987E-5,1.044594E-5,2.6679336E-6,4.8192665E-6,0E0,1.1413631E-5,0E0,0E0,0E0,0E0,0E0,0E0],"parents":[2147483647,0,0,1,1,2,2,3,3,4,4,6,6],"right_children":[2,4,6,8,10,-1,12,-1,-1,-1,-1,-1,-1],"split_conditions":[2.6115782E0,-4.2164165E-1,1.0488981E0,-8.7497145E-1,7.215761E-1,-0E0,1.566886E0,-2.028627E-5,-5.4968345E-6,1.129583E-6,1.4537567E-5,-0E0,1.1423304E-4],"split_indices":[0,0,1,0,0,0,3,0,0,0,0,0,0],"split_type":[0,0,0,0,0,0,0,0,0,0,0,0,0],"sum_hessian":[3.22E3,3.143E3,7.7E1,1.283E3,1.86E3,1.2E1,6.5E1,2.51E2,1.032E3,1.458E3,4.02E2,1.2E1,5.3E1],"tree_param":{"num_deleted":"0","num_feature":"5","num_nodes":"13","size_leaf_vector":"1"}},{"base_weights":[8.231204E-6,-0E0,1.2254271E-3,-5.045759E-5,1.0140989E-4,2.4058172E-3,-0E0,-1.313214E-5,-1.5054223E-6,4.8479337E-6,2.3837772E-5,-0E0,2.691097E-4,-1.76281E-5,8.137556E-5],"categories":[],"categories_nodes":[],"categories_segments":[],"categories_sizes":[],"default_left":[0,0,0,0,0,0,0,0,0,0,0,0,0,0,0],"id":51,"left_children":[1,3,5,7,9,11,13,-1,-1,-1,-1,-1,-1,-1,-1],"loss_changes":[4.2579377E-5,1.5925209E-5,1.7975897E-5,4.8014904E-6,4.411001E-6,8.025494E-6,9.172737E-6,0E0,0E0,0E0,0E0,0E0,0E0,0E0,0E0],"parents":[2147483647,0,0,1,1,2,2,3,3,4,4,5,5,6,6],"right_children":[2,4,6,8,10,12,14,-1,-1,-1,-1,-1,-1,-1,-1],"split_conditions":[4.2761316E0,6.861223E-2,-3.2851171E-1,-6.932975E-1,1.5333751E0,3.239468E0,-1.9896711E-1,-1.313214E-5,-1.5054223E-6,4.8479337E-6,2.3837772E-5,-0E0,2.691097E-4,-1.76281E-5,8.137556E-5],"split_indices":[1,0,4,0,0,0,4,0,0,0,0,0,0,0,0],"split_type":[0,0,0,0,0,0,0,0,0,0,0,0,0,0,0],"sum_hessian":[3.22E3,3.193E3,2.7E1,2.188E3,1.005E3,9E0,1.8E1,5.79E2,1.609E3,7.79E2,2.26E2,1E0,8E0,6E0,1.2E1],"tree_param":{"num_deleted":"0","num_feature":"5","num_nodes":"15","size_leaf_vector":"1"}},{"base_weights":[7.560021E-6,-5.9055706E-6,6.7419966E-4,-6.287283E-5,5.0134087E-5,1.9889763E-3,1.5915855E-4,-2.4912926E-5,-4.4145463E-6,2.4000053E-6,1.4970079E-5,-0E0,2.8391622E-4,-0E0,3.6454134E-5],"categories":[],"categories_nodes":[],"categories_segments":[],"categories_sizes":[],"default_left":[0,0,0,0,0,0,0,0,0,0,0,0,0,0,0],"id":52,"left_children":[1,3,5,7,9,11,13,-1,-1,-1,-1,-1,-1,-1,-1],"loss_changes":[3.5607343E-5,1.0170699E-5,3.1201176E-5,2.8008776E-6,2.154217E-6,2.7425252E-5,3.640624E-6,0E0,0E0,0E0,0E0,0E0,0E0,0E0,0E0],"parents":[2147483647,0,0,1,1,2,2,3,3,4,4,5,5,6,6],"right_children":[2,4,6,8,10,12,14,-1,-1,-1,-1,-1,-1,-1,-1],"split_conditions":[1.7382538E0,-2.9222593E-1,-3.7806103E-1,-9.754634E-1,1.3560488E0,1.566886E0,-1.9896711E-1,-2.4912926E-5,-4.4145463E-6,2.4000053E-6,1.4970079E-5,-0E0,2.8391622E-4,-0E0,3.6454134E-5],"split_indices":[1,0,4,0,0,3,4,0,0,0,0,0,0,0,0],"split_type":[0,0,0,0,0,0,0,0,0,0,0,0,0,0,0],"sum_hessian":[3.22E3,3.143E3,7.7E1,1.647E3,1.496E3,1.5E1,6.2E1,1E2,1.547E3,1.266E3,2.3E2,5E0,1E1,2.4E1,3.8E1],"tree_param":{"num_deleted":"0","num_feature":"5","num_nodes":"15","size_leaf_vector":"1"}},{"base_weights":[7.1303193E-6,-0E0,1.0541759E-3,-4.0074206E-5,8.982754E-5,2.0655831E-3,-0E0,-9.761886E-6,-3.0036418E-7,4.439405E-6,2.0367654E-5,-0E0,2.3150489E-4,-1.6217853E-5,7.09017E-5],"categories":[],"categories_nodes":[],"categories_segments":[],"categories_sizes":[],"default_left":[0,0,0,0,0,0,0,0,0,0,0,0,0,0,0],"id":53,"left_children":[1,3,5,7,9,11,13,-1,-1,-1,-1,-1,-1,-1,-1],"loss_changes":[3.150789E-5,1.1152917E-5,1.3127981E-5,3.823995E-6,2.3239677E-6,6.115133E-6,6.9837824E-6,0E0,0E0,0E0,0E0,0E0,0E0,0E0,0E0],"parents":[2147483647,0,0,1,1,2,2,3,3,4,4,5,5,6,6],"right_children":[2,4,6,8,10,12,14,-1,-1,-1,-1,-1,-1,-1,-1],"split_conditions":[4.2761316E0,1.5477665E-1,-3.2851171E-1,-6.1237204E-1,1.6195278E0,3.239468E0,-1.9896711E-1,-9.761886E-6,-3.0036418E-7,4.439405E-6,2.0367654E-5,-0E0,2.3150489E-4,-1.6217853E-5,7.09017E-5],"split_indices":[1,0,4,0,0,0,4,0,0,0,0,0,0,0,0],"split_type":[0,0,0,0,0,0,0,0,0,0,0,0,0,0,0],"sum_hessian":[3.22E3,3.193E3,2.7E1,2.263E3,9.3E2,9E0,1.8E1,7.8E2,1.483E3,7.29E2,2.01E2,1E0,8E0,6E0,1.2E1],"tree_param":{"num_deleted":"0","num_feature":"5","num_nodes":"15","size_leaf_vector":"1"}},{"base_weights":[6.5480344E-6,-0E0,9.627538E-4,-3.8911792E-5,7.684897E-5,2.4230812E-4,7.18492E-5,-1.30632325E-5,-1.6379298E-6,3.8114583E-6,1.8346047E-5,-0E0,6.459939E-5],"categories":[],"categories_nodes":[],"categories_segments":[],"categories_sizes":[],"default_left":[0,0,0,0,0,0,0,0,0,0,0,0,0],"id":54,"left_children":[1,3,5,7,9,-1,11,-1,-1,-1,-1,-1,-1],"loss_changes":[2.6278374E-5,9.316425E-6,1.1868402E-5,3.0248304E-6,1.983818E-6,0E0,5.5123455E-6,0E0,0E0,0E0,0E0,0E0,0E0],"parents":[2147483647,0,0,1,1,2,2,3,3,4,4,6,6],"right_children":[2,4,6,8,10,-1,12,-1,-1,-1,-1,-1,-1],"split_conditions":[4.2761316E0,5.24728E-2,-3.7806103E-1,-8.278273E-1,1.6195278E0,2.4230812E-4,-1.9896711E-1,-1.30632325E-5,-1.6379298E-6,3.8114583E-6,1.8346047E-5,-0E0,6.459939E-5],"split_indices":[1,0,4,0,0,0,4,0,0,0,0,0,0],"split_type":[0,0,0,0,0,0,0,0,0,0,0,0,0],"sum_hessian":[3.22E3,3.193E3,2.7E1,2.175E3,1.018E3,5E0,2.2E1,3.4E2,1.835E3,8.17E2,2.01E2,1E1,1.2E1],"tree_param":{"num_deleted":"0","num_feature":"5","num_nodes":"13","size_leaf_vector":"1"}},{"base_weights":[6.1318065E-6,-6.108457E-6,4.71584E-4,-6.7018664E-5,2.2476948E-5,-0E0,6.303883E-4,-2.8103797E-5,-4.684227E-6,-0E0,5.806255E-6,-0E0,7.840963E-5],"categories":[],"categories_nodes":[],"categories_segments":[],"categories_sizes":[],"default_left":[0,0,0,0,0,0,0,0,0,0,0,0,0],"id":55,"left_children":[1,3,5,7,9,-1,11,-1,-1,-1,-1,-1,-1],"loss_changes":[2.3012792E-5,5.8791725E-6,4.601052E-6,1.488108E-6,1.5740713E-6,0E0,7.11802E-6,0E0,0E0,0E0,0E0,0E0,0E0],"parents":[2147483647,0,0,1,1,2,2,3,3,4,4,6,6],"right_children":[2,4,6,8,10,-1,12,-1,-1,-1,-1,-1,-1],"split_conditions":[2.3614087E0,-4.7466117E-1,1.0488981E0,-1.0547673E0,2.6680303E-1,-0E0,1.566886E0,-2.8103797E-5,-4.684227E-6,-0E0,5.806255E-6,-0E0,7.840963E-5],"split_indices":[0,0,1,0,0,0,3,0,0,0,0,0,0],"split_type":[0,0,0,0,0,0,0,0,0,0,0,0,0],"sum_hessian":[3.22E3,3.118E3,1.02E2,1.107E3,2.011E3,3.4E1,6.8E1,5.1E1,1.056E3,1.244E3,7.67E2,1.3E1,5.5E1],"tree_param":{"num_deleted":"0","num_feature":"5","num_nodes":"13","size_leaf_vector":"1"}},{"base_weights":[5.3910558E-6,-0E0,8.372049E-4,-3.410001E-5,6.0579503E-5,1.7140734E-3,-0E0,-2.5373733E-5,-2.3635955E-6,2.624997E-6,1.3949568E-5,-0E0,1.926538E-4,-1.9102172E-5,5.403877E-5],"categories":[],"categories_nodes":[],"categories_segments":[],"categories_sizes":[],"default_left":[0,0,0,0,0,0,0,0,0,0,0,0,0,0,0],"id":56,"left_children":[1,3,5,7,9,11,13,-1,-1,-1,-1,-1,-1,-1,-1],"loss_changes":[1.9882365E-5,6.4302412E-6,1.0873502E-5,2.0747211E-6,1.2697119E-6,4.410216E-6,4.2159245E-6,0E0,0E0,0E0,0E0,0E0,0E0,0E0,0E0],"parents":[2147483647,0,0,1,1,2,2,3,3,4,4,5,5,6,6],"right_children":[2,4,6,8,10,12,14,-1,-1,-1,-1,-1,-1,-1,-1],"split_conditions":[4.2761316E0,-1.7486375E-2,-3.2851171E-1,-1.0547673E0,1.5006971E0,3.239468E0,-1.9896711E-1,-2.5373733E-5,-2.3635955E-6,2.624997E-6,1.3949568E-5,-0E0,1.926538E-4,-1.9102172E-5,5.403877E-5],"split_indices":[1,0,4,0,0,0,4,0,0,0,0,0,0,0,0],"split_type":[0,0,0,0,0,0,0,0,0,0,0,0,0,0,0],"sum_hessian":[3.22E3,3.193E3,2.7E1,2.112E3,1.081E3,9E0,1.8E1,5.1E1,2.061E3,8.43E2,2.38E2,1E0,8E0,6E0,1.2E1],"tree_param":{"num_deleted":"0","num_feature":"5","num_nodes":"15","size_leaf_vector":"1"}},{"base_weights":[4.9432706E-6,-5.880318E-6,3.7933007E-4,-6.397554E-6,1.530346E-6,5.751735E-4,-0E0,8.0149825E-8,1.535509E-4,-0E0,2.3984083E-5],"categories":[],"categories_nodes":[],"categories_segments":[],"categories_sizes":[],"default_left":[0,0,0,0,0,0,0,0,0,0,0],"id":57,"left_children":[1,3,5,-1,-1,7,9,-1,-1,-1,-1],"loss_changes":[1.6792033E-5,4.3112855E-6,3.5823705E-6,0E0,0E0,1.855782E-5,1.6969468E-6,0E0,0E0,0E0,0E0],"parents":[2147483647,0,0,1,1,2,2,5,5,6,6],"right_children":[2,4,6,-1,-1,8,10,-1,-1,-1,-1],"split_conditions":[2.230306E0,-5.4124576E-1,-3.7806103E-1,-6.397554E-6,1.530346E-6,1.7382538E0,-1.9896711E-1,8.0149825E-8,1.535509E-4,-0E0,2.3984083E-5],"split_indices":[0,0,4,0,0,1,4,0,0,0,0],"split_type":[0,0,0,0,0,0,0,0,0,0,0],"sum_hessian":[3.22E3,3.105E3,1.15E2,9.55E2,2.15E3,6E1,5.5E1,4.5E1,1.5E1,2.7E1,2.8E1],"tree_param":{"num_deleted":"0","num_feature":"5","num_nodes":"11","size_leaf_vector":"1"}},{"base_weights":[4.8935217E-6,-0E0,7.305074E-4,-3.2700274E-5,4.632642E-6,1.0354733E-3,-0E0,-1.46095235E-5,-1.8254322E-6,-0E0,1.17518E-4],"categories":[],"categories_nodes":[],"categories_segments":[],"categories_sizes":[],"default_left":[0,0,0,0,0,0,0,0,0,0,0],"id":58,"left_children":[1,3,5,7,-1,9,-1,-1,-1,-1,-1],"loss_changes":[1.5131626E-5,4.772697E-6,8.915842E-6,1.526319E-6,0E0,1.4247744E-6,0E0,0E0,0E0,0E0,0E0],"parents":[2147483647,0,0,1,1,2,2,3,3,5,5],"right_children":[2,4,6,8,-1,10,-1,-1,-1,-1,-1],"split_conditions":[4.2761316E0,-1.5249763E-1,4.4487542E-1,-9.369497E-1,4.632642E-6,3.239468E0,-0E0,-1.46095235E-5,-1.8254322E-6,-0E0,1.17518E-4],"split_indices":[1,0,4,0,0,0,0,0,0,0,0],"split_type":[0,0,0,0,0,0,0,0,0,0,0],"sum_hessian":[3.22E3,3.193E3,2.7E1,1.936E3,1.257E3,2.1E1,6E0,1.39E2,1.797E3,4E0,1.7E1],"tree_param":{"num_deleted":"0","num_feature":"5","num_nodes":"11","size_leaf_vector":"1"}},{"base_weights":[4.114199E-6,-7.678084E-6,2.8061235E-4,-6.0724647E-6,6.1446275E-7,1.2609534E-4,7.3542626E-4,1.8461591E-5,-0E0,1.8196642E-4,-0E0],"categories":[],"categories_nodes":[],"categories_segments":[],"categories_sizes":[],"default_left":[0,0,0,0,0,0,0,0,0,0,0],"id":59,"left_children":[1,3,5,-1,-1,7,9,-1,-1,-1,-1],"loss_changes":[1.3236419E-5,2.78753E-6,2.9467164E-6,0E0,0E0,1.0232579E-6,7.730933E-6,0E0,0E0,0E0,0E0],"parents":[2147483647,0,0,1,1,2,2,5,5,6,6],"right_children":[2,4,6,-1,-1,8,10,-1,-1,-1,-1],"split_conditions":[1.9079494E0,-6.1237204E-1,4.2761316E0,-6.0724647E-6,6.1446275E-7,1.5599716E0,-3.7806103E-1,1.8461591E-5,-0E0,1.8196642E-4,-0E0],"split_indices":[0,0,1,0,0,1,4,0,0,0,0],"split_type":[0,0,0,0,0,0,0,0,0,0,0],"sum_hessian":[3.22E3,3.055E3,1.65E2,7.8E2,2.275E3,1.41E2,2.4E1,9.5E1,4.6E1,5E0,1.9E1],"tree_param":{"num_deleted":"0","num_feature":"5","num_nodes":"11","size_leaf_vector":"1"}},{"base_weights":[4.3235113E-6,-6.585951E-6,2.646135E-4,-4.5690335E-6,9.812876E-7,1.1378698E-5,6.997453E-4,1.2856183E-4,-0E0],"categories":[],"categories_nodes":[],"categories_segments":[],"categories_sizes":[],"default_left":[0,0,0,0,0,0,0,0,0],"id":60,"left_children":[1,3,5,-1,-1,-1,7,-1,-1],"loss_changes":[1.1730739E-5,2.3194768E-6,2.672543E-6,0E0,0E0,0E0,6.5214545E-6,0E0,0E0],"parents":[2147483647,0,0,1,1,2,2,6,6],"right_children":[2,4,6,-1,-1,-1,8,-1,-1],"split_conditions":[1.9079494E0,-4.8212546E-1,4.2761316E0,-4.5690335E-6,9.812876E-7,1.1378698E-5,8.6757345E0,1.2856183E-4,-0E0],"split_indices":[0,0,1,0,0,0,1,0,0],"split_type":[0,0,0,0,0,0,0,0,0],"sum_hessian":[3.22E3,3.055E3,1.65E2,1.082E3,1.973E3,1.41E2,2.4E1,1E1,1.4E1],"tree_param":{"num_deleted":"0","num_feature":"5","num_nodes":"9","size_leaf_vector":"1"}},{"base_weights":[4.360086E-6,-3.4405646E-6,2.9814706E-4,-7.969025E-6,2.3589762E-7,4.8131528E-4,-0E0,-0E0,1.2720845E-4],"categories":[],"categories_nodes":[],"categories_segments":[],"categories_sizes":[],"default_left":[0,0,0,0,0,0,0,0,0],"id":61,"left_children":[1,3,5,-1,-1,7,-1,-1,-1],"loss_changes":[1.03314105E-5,2.14733E-6,3.8914823E-6,0E0,0E0,1.24529215E-5,0E0,0E0,0E0],"parents":[2147483647,0,0,1,1,2,2,5,5],"right_children":[2,4,6,-1,-1,8,-1,-1,-1],"split_conditions":[2.230306E0,-8.278273E-1,-3.7806103E-1,-7.969025E-6,2.3589762E-7,1.7382538E0,-0E0,-0E0,1.2720845E-4],"split_indices":[0,0,4,0,0,1,0,0,0],"split_type":[0,0,0,0,0,0,0,0,0],"sum_hessian":[3.22E3,3.105E3,1.15E2,3.4E2,2.765E3,6E1,5.5E1,4.5E1,1.5E1],"tree_param":{"num_deleted":"0","num_feature":"5","num_nodes":"9","size_leaf_vector":"1"}},{"base_weights":[4.406338E-6,-1.762605E-7,3.7788643E-4,-2.306566E-5,3.3143522E-6,1.3692064E-3,3.0332189E-5,-1.9060237E-5,-1.3648167E-6,-0E0,1.6709694E-4,1.643365E-5,-0E0],"categories":[],"categories_nodes":[],"categories_segments":[],"categories_sizes":[],"default_left":[0,0,0,0,0,0,0,0,0,0,0,0,0],"id":62,"left_children":[1,3,5,7,-1,9,11,-1,-1,-1,-1,-1,-1],"loss_changes":[9.290829E-6,2.3084979E-6,8.509521E-6,1.1888216E-6,0E0,3.131141E-6,1.2569121E-6,0E0,0E0,0E0,0E0,0E0,0E0],"parents":[2147483647,0,0,1,1,2,2,3,3,5,5,6,6],"right_children":[2,4,6,8,-1,10,12,-1,-1,-1,-1,-1,-1],"split_conditions":[2.1960998E0,-7.791838E-2,-3.7806103E-1,-1.0547673E0,3.3143522E-6,3.1742594E0,5.410585E0,-1.9060237E-5,-1.3648167E-6,-0E0,1.6709694E-4,1.643365E-5,-0E0],"split_indices":[1,0,4,0,0,1,0,0,0,0,0,0,0],"split_type":[0,0,0,0,0,0,0,0,0,0,0,0,0],"sum_hessian":[3.22E3,3.156E3,6.4E1,2.049E3,1.107E3,8E0,5.6E1,5.1E1,1.998E3,2E0,6E0,4.7E1,9E0],"tree_param":{"num_deleted":"0","num_feature":"5","num_nodes":"13","size_leaf_vector":"1"}},{"base_weights":[3.8645776E-6,-6.2213203E-6,2.0160778E-4,-8.616283E-6,-0E0,-0E0,2.466684E-4,3.1345244E-6,5.4232132E-5],"categories":[],"categories_nodes":[],"categories_segments":[],"categories_sizes":[],"default_left":[0,0,0,0,0,0,0,0,0],"id":63,"left_children":[1,3,5,-1,-1,-1,7,-1,-1],"loss_changes":[8.380764E-6,1.4830487E-6,1.8186984E-6,0E0,0E0,0E0,4.8373786E-6,0E0,0E0],"parents":[2147483647,0,0,1,1,2,2,6,6],"right_children":[2,4,6,-1,-1,-1,8,-1,-1],"split_conditions":[1.7701555E0,-9.003296E-1,1.566886E0,-8.616283E-6,-0E0,-0E0,1.7382538E0,3.1345244E-6,5.4232132E-5],"split_indices":[0,0,3,0,0,0,1,0,0],"split_type":[0,0,0,0,0,0,0,0,0],"sum_hessian":[3.22E3,3.017E3,2.03E2,2.14E2,2.803E3,3.8E1,1.65E2,1.16E2,4.9E1],"tree_param":{"num_deleted":"0","num_feature":"5","num_nodes":"9","size_leaf_vector":"1"}},{"base_weights":[3.4992242E-6,-5.61047E-6,1.8683595E-4,-1.4788463E-5,-0E0,2.1596842E-4,-0E0,8.162538E-6,7.227694E-5],"categories":[],"categories_nodes":[],"categories_segments":[],"categories_sizes":[],"default_left":[0,0,0,0,0,0,0,0,0],"id":64,"left_children":[1,3,5,-1,-1,7,-1,-1,-1],"loss_changes":[7.1941886E-6,1.3155916E-6,1.6068229E-6,0E0,0E0,4.633528E-6,0E0,0E0,0E0],"parents":[2147483647,0,0,1,1,2,2,5,5],"right_children":[2,4,6,-1,-1,8,-1,-1,-1],"split_conditions":[1.7701555E0,-1.043986E0,7.179936E-1,-1.4788463E-5,-0E0,4.2761316E0,-0E0,8.162538E-6,7.227694E-5],"split_indices":[0,0,4,0,0,1,0,0,0],"split_type":[0,0,0,0,0,0,0,0,0],"sum_hessian":[3.22E3,3.017E3,2.03E2,6.3E1,2.954E3,1.86E2,1.7E1,1.64E2,2.2E1],"tree_param":{"num_deleted":"0","num_feature":"5","num_nodes":"9","size_leaf_vector":"1"}},{"base_weights":[2.8792813E-6,-5.3018152E-6,1.725141E-4,-3.113854E-6,7.771877E-7,-0E0,2.1457615E-4,2.0610385E-6,4.614893E-5],"categories":[],"categories_nodes":[],"categories_segments":[],"categories_sizes":[],"default_left":[0,0,0,0,0,0,0,0,0],"id":65,"left_children":[1,3,5,-1,-1,-1,7,-1,-1],"loss_changes":[6.144289E-6,1.2536228E-6,1.5799992E-6,0E0,0E0,0E0,3.138869E-6,0E0,0E0],"parents":[2147483647,0,0,1,1,2,2,6,6],"right_children":[2,4,6,-1,-1,-1,8,-1,-1],"split_conditions":[1.7701555E0,-4.2648524E-1,1.566886E0,-3.113854E-6,7.771877E-7,-0E0,1.7382538E0,2.0610385E-6,4.614893E-5],"split_indices":[0,0,3,0,0,0,1,0,0],"split_type":[0,0,0,0,0,0,0,0,0],"sum_hessian":[3.22E3,3.017E3,2.03E2,1.27E3,1.747E3,3.8E1,1.65E2,1.16E2,4.9E1],"tree_param":{"num_deleted":"0","num_feature":"5","num_nodes":"9","size_leaf_vector":"1"}},{"base_weights":[2.9092055E-6,-4.4415497E-6,1.6028764E-4,-1.6883112E-5,-0E0,2.4789947E-4,-0E0,1.5512354E-6,1.00658326E-4,-4.0486498E-6,1.4119015E-5],"categories":[],"categories_nodes":[],"categories_segments":[],"categories_sizes":[],"default_left":[0,0,0,0,0,0,0,0,0,0,0],"id":66,"left_children":[1,3,5,-1,-1,7,9,-1,-1,-1,-1],"loss_changes":[5.286322E-6,1.066359E-6,1.7210054E-6,0E0,0E0,9.766622E-6,1.0048215E-6,0E0,0E0,0E0,0E0],"parents":[2147483647,0,0,1,1,2,2,5,5,6,6],"right_children":[2,4,6,-1,-1,8,10,-1,-1,-1,-1],"split_conditions":[1.7701555E0,-1.060091E0,-3.7806103E-1,-1.6883112E-5,-0E0,1.7382538E0,-1.0942017E-1,1.5512354E-6,1.00658326E-4,-4.0486498E-6,1.4119015E-5],"split_indices":[0,0,4,0,0,1,4,0,0,0,0],"split_type":[0,0,0,0,0,0,0,0,0,0,0],"sum_hessian":[3.22E3,3.017E3,2.03E2,3.8E1,2.979E3,1.12E2,9.1E1,9.7E1,1.5E1,4.6E1,4.5E1],"tree_param":{"num_deleted":"0","num_feature":"5","num_nodes":"11","size_leaf_vector":"1"}},{"base_weights":[2.4535811E-6,-6.3610713E-7,1.249413E-4,2.0572671E-4,-0E0,7.984061E-6,1.3405777E-4],"categories":[],"categories_nodes":[],"categories_segments":[],"categories_sizes":[],"default_left":[0,0,0,0,0,0,0],"id":67,"left_children":[1,-1,3,5,-1,-1,-1],"loss_changes":[4.665205E-6,0E0,2.0152802E-6,7.850305E-6,0E0,0E0,0E0],"parents":[2147483647,0,0,2,2,3,3],"right_children":[2,-1,4,6,-1,-1,-1],"split_conditions":[1.3928841E0,-6.3610713E-7,-3.7806103E-1,3.1742594E0,-0E0,7.984061E-6,1.3405777E-4],"split_indices":[0,0,4,1,0,0,0],"split_type":[0,0,0,0,0,0,0],"sum_hessian":[3.22E3,2.929E3,2.91E2,1.54E2,1.37E2,1.48E2,6E0],"tree_param":{"num_deleted":"0","num_feature":"5","num_nodes":"7","size_leaf_vector":"1"}},{"base_weights":[2.4158624E-6,-5.7248644E-7,1.18151846E-4,1.9295556E-4,-0E0,4.1153176E-6,8.619738E-5],"categories":[],"categories_nodes":[],"categories_segments":[],"categories_sizes":[],"default_left":[0,0,0,0,0,0,0],"id":68,"left_children":[1,-1,3,5,-1,-1,-1],"loss_changes":[4.1605012E-6,0E0,1.7062935E-6,6.707877E-6,0E0,0E0,0E0],"parents":[2147483647,0,0,2,2,3,3],"right_children":[2,-1,4,6,-1,-1,-1],"split_conditions":[1.3928841E0,-5.7248644E-7,-3.7806103E-1,1.7382538E0,-0E0,4.1153176E-6,8.619738E-5],"split_indices":[0,0,4,1,0,0,0],"split_type":[0,0,0,0,0,0,0],"sum_hessian":[3.22E3,2.929E3,2.91E2,1.54E2,1.37E2,1.39E2,1.5E1],"tree_param":{"num_deleted":"0","num_feature":"5","num_nodes":"7","size_leaf_vector":"1"}},{"base_weights":[2.357331E-6,-8.6430435E-7,8.594732E-5,1.4534255E-4,-0E0,6.648713E-6,1.16437455E-4],"categories":[],"categories_nodes":[],"categories_segments":[],"categories_sizes":[],"default_left":[0,0,0,0,0,0,0],"id":69,"left_children":[1,-1,3,5,-1,-1,-1],"loss_changes":[3.7363945E-6,0E0,1.3620108E-6,6.2580743E-6,0E0,0E0,0E0],"parents":[2147483647,0,0,2,2,3,3],"right_children":[2,-1,4,6,-1,-1,-1],"split_conditions":[7.215761E-1,-8.6430435E-7,-3.7806103E-1,3.1742594E0,-0E0,6.648713E-6,1.16437455E-4],"split_indices":[0,0,4,1,0,0,0],"split_type":[0,0,0,0,0,0,0],"sum_hessian":[3.22E3,2.741E3,4.79E2,2.31E2,2.48E2,2.25E2,6E0],"tree_param":{"num_deleted":"0","num_feature":"5","num_nodes":"7","size_leaf_vector":"1"}},{"base_weights":[2.411416E-6,-4.7597086E-7,1.0397237E-4,1.6889241E-4,-0E0,3.2043845E-6,7.3764575E-5],"categories":[],"categories_nodes":[],"categories_segments":[],"categories_sizes":[],"default_left":[0,0,0,0,0,0,0],"id":70,"left_children":[1,-1,3,5,-1,-1,-1],"loss_changes":[3.3391075E-6,0E0,1.2294338E-6,4.604192E-6,0E0,0E0,0E0],"parents":[2147483647,0,0,2,2,3,3],"right_children":[2,-1,4,6,-1,-1,-1],"split_conditions":[1.3560488E0,-4.7597086E-7,-3.7806103E-1,1.7382538E0,-0E0,3.2043845E-6,7.3764575E-5],"split_indices":[0,0,4,1,0,0,0],"split_type":[0,0,0,0,0,0,0],"sum_hessian":[3.22E3,2.917E3,3.03E2,1.57E2,1.46E2,1.42E2,1.5E1],"tree_param":{"num_deleted":"0","num_feature":"5","num_nodes":"7","size_leaf_vector":"1"}},{"base_weights":[2.358048E-6,-8.112229E-7,7.434237E-5,-0E0,1.256139E-4,-0E0,2.082655E-5],"categories":[],"categories_nodes":[],"categories_segments":[],"categories_sizes":[],"default_left":[0,0,0,0,0,0,0],"id":71,"left_children":[1,-1,3,-1,5,-1,-1],"loss_changes":[3.091237E-6,0E0,1.1468717E-6,0E0,2.492407E-6,0E0,0E0],"parents":[2147483647,0,0,2,2,4,4],"right_children":[2,-1,4,-1,6,-1,-1],"split_conditions":[6.4596546E-1,-8.112229E-7,1.5812527E0,-0E0,-6.5218024E-2,-0E0,2.082655E-5],"split_indices":[0,0,3,0,1,0,0],"split_type":[0,0,0,0,0,0,0],"sum_hessian":[3.22E3,2.691E3,5.29E2,2.72E2,2.57E2,1.07E2,1.5E2],"tree_param":{"num_deleted":"0","num_feature":"5","num_nodes":"7","size_leaf_vector":"1"}},{"base_weights":[2.0662244E-6,-7.301103E-7,6.845346E-6],"categories":[],"categories_nodes":[],"categories_segments":[],"categories_sizes":[],"default_left":[0,0,0],"id":72,"left_children":[1,-1,-1],"loss_changes":[2.6156306E-6,0E0,0E0],"parents":[2147483647,0,0],"right_children":[2,-1,-1],"split_conditions":[6.4596546E-1,-7.301103E-7,6.845346E-6],"split_indices":[0,0,0],"split_type":[0,0,0],"sum_hessian":[3.22E3,2.691E3,5.29E2],"tree_param":{"num_deleted":"0","num_feature":"5","num_nodes":"3","size_leaf_vector":"1"}},{"base_weights":[1.5518216E-6,-0E0,2.400228E-4,-2.202969E-6,1.43253E-6,9.9285426E-5,-0E0,-2.3704948E-5,2.9018458E-5],"categories":[],"categories_nodes":[],"categories_segments":[],"categories_sizes":[],"default_left":[0,0,0,0,0,0,0,0,0],"id":73,"left_children":[1,3,5,-1,-1,-1,7,-1,-1],"loss_changes":[2.3254856E-6,1.0411908E-6,5.059952E-6,0E0,0E0,0E0,2.5972283E-6,0E0,0E0],"parents":[2147483647,0,0,1,1,2,2,6,6],"right_children":[2,4,6,-1,-1,-1,8,-1,-1],"split_conditions":[3.1742594E0,-3.8606387E-1,-3.7806103E-1,-2.202969E-6,1.43253E-6,9.9285426E-5,-1.9896711E-1,-2.3704948E-5,2.9018458E-5],"split_indices":[1,0,4,0,0,0,4,0,0],"split_type":[0,0,0,0,0,0,0,0,0],"sum_hessian":[3.22E3,3.181E3,3.9E1,1.383E3,1.798E3,6E0,3.3E1,1.4E1,1.9E1],"tree_param":{"num_deleted":"0","num_feature":"5","num_nodes":"9","size_leaf_vector":"1"}},{"base_weights":[1.4447302E-6,-9.032212E-7,5.071525E-5,1.2046998E-7,1.7456888E-4,2.9830533E-5,-0E0],"categories":[],"categories_nodes":[],"categories_segments":[],"categories_sizes":[],"default_left":[0,0,0,0,0,0,0],"id":74,"left_children":[1,-1,3,-1,5,-1,-1],"loss_changes":[2.0804698E-6,0E0,2.7336837E-6,0E0,1.9236209E-6,0E0,0E0],"parents":[2147483647,0,0,2,2,4,4],"right_children":[2,-1,4,-1,6,-1,-1],"split_conditions":[-6.08285E-2,-9.032212E-7,1.5812527E0,1.2046998E-7,-3.7806103E-1,2.9830533E-5,-0E0],"split_indices":[1,0,3,0,4,0,0],"split_type":[0,0,0,0,0,0,0],"sum_hessian":[3.22E3,2.489E3,7.31E2,5.81E2,1.5E2,7.2E1,7.8E1],"tree_param":{"num_deleted":"0","num_feature":"5","num_nodes":"7","size_leaf_vector":"1"}},{"base_weights":[1.454186E-6,-0E0,2.1617312E-4,8.935211E-5,-0E0,-2.156752E-5,2.632473E-5],"categories":[],"categories_nodes":[],"categories_segments":[],"categories_sizes":[],"default_left":[0,0,0,0,0,0,0],"id":75,"left_children":[1,-1,3,-1,5,-1,-1],"loss_changes":[1.8857859E-6,0E0,4.095251E-6,0E0,2.1416267E-6,0E0,0E0],"parents":[2147483647,0,0,2,2,4,4],"right_children":[2,-1,4,-1,6,-1,-1],"split_conditions":[3.1742594E0,-0E0,-3.7806103E-1,8.935211E-5,-1.9896711E-1,-2.156752E-5,2.632473E-5],"split_indices":[1,0,4,0,4,0,0],"split_type":[0,0,0,0,0,0,0],"sum_hessian":[3.22E3,3.181E3,3.9E1,6E0,3.3E1,1.4E1,1.9E1],"tree_param":{"num_deleted":"0","num_feature":"5","num_nodes":"7","size_leaf_vector":"1"}},{"base_weights":[1.2262593E-6,-8.1294684E-7,4.6685098E-5,8.0009485E-8,1.5663881E-4,2.0061809E-5,-0E0],"categories":[],"categories_nodes":[],"categories_segments":[],"categories_sizes":[],"default_left":[0,0,0,0,0,0,0],"id":76,"left_children":[1,-1,3,-1,5,-1,-1],"loss_changes":[1.7562311E-6,0E0,2.1210512E-6,0E0,1.7363914E-6,0E0,0E0],"parents":[2147483647,0,0,2,2,4,4],"right_children":[2,-1,4,-1,6,-1,-1],"split_conditions":[-6.08285E-2,-8.1294684E-7,1.5812527E0,8.0009485E-8,4.4487542E-1,2.0061809E-5,-0E0],"split_indices":[1,0,3,0,4,0,0],"split_type":[0,0,0,0,0,0,0],"sum_hessian":[3.22E3,2.489E3,7.31E2,5.81E2,1.5E2,1.34E2,1.6E1],"tree_param":{"num_deleted":"0","num_feature":"5","num_nodes":"7","size_leaf_vector":"1"}},{"base_weights":[1.0053423E-6,-8.755657E-7,3.887007E-6],"categories":[],"categories_nodes":[],"categories_segments":[],"categories_sizes":[],"default_left":[0,0,0],"id":77,"left_children":[1,-1,-1],"loss_changes":[1.4923133E-6,0E0,0E0],"parents":[2147483647,0,0],"right_children":[2,-1,-1],"split_conditions":[2.6680303E-1,-8.755657E-7,3.887007E-6],"split_indices":[0,0,0],"split_type":[0,0,0],"sum_hessian":[3.22E3,2.351E3,8.69E2],"tree_param":{"num_deleted":"0","num_feature":"5","num_nodes":"3","size_leaf_vector":"1"}},{"base_weights":[5.9582686E-7,-0E0,2.216023E-4,5.8477616E-4,-0E0,-0E0,1.258381E-4,3.2420136E-5,-4.8369464E-5],"categories":[],"categories_nodes":[],"categories_segments":[],"categories_sizes":[],"default_left":[0,0,0,0,0,0,0,0,0],"id":78,"left_children":[1,-1,3,5,7,-1,-1,-1,-1],"loss_changes":[1.3984222E-6,0E0,3.5589E-6,5.334432E-6,3.0109236E-6,0E0,0E0,0E0,0E0],"parents":[2147483647,0,0,2,2,3,3,4,4],"right_children":[2,-1,4,6,8,-1,-1,-1,-1],"split_conditions":[4.2761316E0,-0E0,8.6757345E0,5.410585E0,5.410585E0,-0E0,1.258381E-4,3.2420136E-5,-4.8369464E-5],"split_indices":[1,0,1,0,0,0,0,0,0],"split_type":[0,0,0,0,0,0,0,0,0],"sum_hessian":[3.22E3,3.193E3,2.7E1,1.3E1,1.4E1,8E0,5E0,6E0,8E0],"tree_param":{"num_deleted":"0","num_feature":"5","num_nodes":"9","size_leaf_vector":"1"}},{"base_weights":[4.6025244E-7,-7.102041E-7,3.9822982E-5,-0E0,1.321948E-4,1.742251E-5,-0E0],"categories":[],"categories_nodes":[],"categories_segments":[],"categories_sizes":[],"default_left":[0,0,0,0,0,0,0],"id":79,"left_children":[1,-1,3,-1,5,-1,-1],"loss_changes":[1.2865855E-6,0E0,1.485883E-6,0E0,1.4654861E-6,0E0,0E0],"parents":[2147483647,0,0,2,2,4,4],"right_children":[2,-1,4,-1,6,-1,-1],"split_conditions":[-6.08285E-2,-7.102041E-7,1.5812527E0,-0E0,4.4487542E-1,1.742251E-5,-0E0],"split_indices":[1,0,3,0,4,0,0],"split_type":[0,0,0,0,0,0,0],"sum_hessian":[3.22E3,2.489E3,7.31E2,5.81E2,1.5E2,1.34E2,1.6E1],"tree_param":{"num_deleted":"0","num_feature":"5","num_nodes":"7","size_leaf_vector":"1"}},{"base_weights":[2.843455E-7,-0E0,1.6497991E-4,7.564979E-5,-0E0,-2.1089216E-5,2.0862344E-5],"categories":[],"categories_nodes":[],"categories_segments":[],"categories_sizes":[],"default_left":[0,0,0,0,0,0,0],"id":80,"left_children":[1,-1,3,-1,5,-1,-1],"loss_changes":[1.1020835E-6,0E0,3.1898244E-6,0E0,1.581607E-6,0E0,0E0],"parents":[2147483647,0,0,2,2,4,4],"right_children":[2,-1,4,-1,6,-1,-1],"split_conditions":[3.1742594E0,-0E0,-3.7806103E-1,7.564979E-5,-1.9896711E-1,-2.1089216E-5,2.0862344E-5],"split_indices":[1,0,4,0,4,0,0],"split_type":[0,0,0,0,0,0,0],"sum_hessian":[3.22E3,3.181E3,3.9E1,6E0,3.3E1,1.4E1,1.9E1],"tree_param":{"num_deleted":"0","num_feature":"5","num_nodes":"7","size_leaf_vector":"1"}},{"base_weights":[1.12063994E-7,-6.3922033E-7,3.587822E-5,9.2813E-5,-0E0,1.886302E-6,4.9344642E-5],"categories":[],"categories_nodes":[],"categories_segments":[],"categories_sizes":[],"default_left":[0,0,0,0,0,0,0],"id":81,"left_children":[1,-1,3,5,-1,-1,-1],"loss_changes":[1.04463E-6,0E0,1.137434E-6,2.0178243E-6,0E0,0E0,0E0],"parents":[2147483647,0,0,2,2,3,3],"right_children":[2,-1,4,6,-1,-1,-1],"split_conditions":[-6.08285E-2,-6.3922033E-7,-3.7806103E-1,1.7382538E0,-0E0,1.886302E-6,4.9344642E-5],"split_indices":[1,0,4,1,0,0,0],"split_type":[0,0,0,0,0,0,0],"sum_hessian":[3.22E3,2.489E3,7.31E2,2.4E2,4.91E2,2.25E2,1.5E1],"tree_param":{"num_deleted":"0","num_feature":"5","num_nodes":"7","size_leaf_vector":"1"}},{"base_weights":[2.443553E-7],"categories":[],"categories_nodes":[],"categories_segments":[],"categories_sizes":[],"default_left":[0],"id":82,"left_children":[-1],"loss_changes":[0E0],"parents":[2147483647],"right_children":[-1],"split_conditions":[2.4435531E-8],"split_indices":[0],"split_type":[0],"sum_hessian":[3.22E3],"tree_param":{"num_deleted":"0","num_feature":"5","num_nodes":"1","size_leaf_vector":"1"}},{"base_weights":[2.1993017E-7],"categories":[],"categories_nodes":[],"categories_segments":[],"categories_sizes":[],"default_left":[0],"id":83,"left_children":[-1],"loss_changes":[0E0],"parents":[2147483647],"right_children":[-1],"split_conditions":[2.1993017E-8],"split_indices":[0],"split_type":[0],"sum_hessian":[3.22E3],"tree_param":{"num_deleted":"0","num_feature":"5","num_nodes":"1","size_leaf_vector":"1"}},{"base_weights":[1.9764767E-7],"categories":[],"categories_nodes":[],"categories_segments":[],"categories_sizes":[],"default_left":[0],"id":84,"left_children":[-1],"loss_changes":[0E0],"parents":[2147483647],"right_children":[-1],"split_conditions":[1.9764768E-8],"split_indices":[0],"split_type":[0],"sum_hessian":[3.22E3],"tree_param":{"num_deleted":"0","num_feature":"5","num_nodes":"1","size_leaf_vector":"1"}},{"base_weights":[1.7783736E-7],"categories":[],"categories_nodes":[],"categories_segments":[],"categories_sizes":[],"default_left":[0],"id":85,"left_children":[-1],"loss_changes":[0E0],"parents":[2147483647],"right_children":[-1],"split_conditions":[1.7783737E-8],"split_indices":[0],"split_type":[0],"sum_hessian":[3.22E3],"tree_param":{"num_deleted":"0","num_feature":"5","num_nodes":"1","size_leaf_vector":"1"}},{"base_weights":[1.5974084E-7],"categories":[],"categories_nodes":[],"categories_segments":[],"categories_sizes":[],"default_left":[0],"id":86,"left_children":[-1],"loss_changes":[0E0],"parents":[2147483647],"right_children":[-1],"split_conditions":[1.5974084E-8],"split_indices":[0],"split_type":[0],"sum_hessian":[3.22E3],"tree_param":{"num_deleted":"0","num_feature":"5","num_nodes":"1","size_leaf_vector":"1"}},{"base_weights":[1.4371653E-7],"categories":[],"categories_nodes":[],"categories_segments":[],"categories_sizes":[],"default_left":[0],"id":87,"left_children":[-1],"loss_changes":[0E0],"parents":[2147483647],"right_children":[-1],"split_conditions":[1.4371653E-8],"split_indices":[0],"split_type":[0],"sum_hessian":[3.22E3],"tree_param":{"num_deleted":"0","num_feature":"5","num_nodes":"1","size_leaf_vector":"1"}},{"base_weights":[1.2922227E-7],"categories":[],"categories_nodes":[],"categories_segments":[],"categories_sizes":[],"default_left":[0],"id":88,"left_children":[-1],"loss_changes":[0E0],"parents":[2147483647],"right_children":[-1],"split_conditions":[1.2922228E-8],"split_indices":[0],"split_type":[0],"sum_hessian":[3.22E3],"tree_param":{"num_deleted":"0","num_feature":"5","num_nodes":"1","size_leaf_vector":"1"}}]},"name":"gbtree"},"learner_model_param":{"base_score":"2.0713994E-2","boost_from_average":"1","num_class":"0","num_feature":"5","num_target":"1"},"objective":{"name":"reg:squarederror","reg_loss_param":{"scale_pos_weight":"1"}}},"version":[2,1,3]}