{"learner":{"attributes":{"best_iteration":"24","best_score":"0.00169059676598385"},"feature_names":["f0","f1","f2","f3","f4","f5"],"feature_types":[],"gradient_booster":{"model":{"gbtree_model_param":{"num_parallel_tree":"1","num_trees":"35"},"iteration_indptr":[0,1,2,3,4,5,6,7,8,9,10,11,12,13,14,15,16,17,18,19,20,21,22,23,24,25,26,27,28,29,30,31,32,33,34,35],"tree_info":[0,0,0,0,0,0,0,0,0,0,0,0,0,0,0,0,0,0,0,0,0,0,0,0,0,0,0,0,0,0,0,0,0,0,0],"trees":[{"base_weights":[-9.551735E-11,-8.9236384E-4,1.0468113E-1,-2.102239E-3,1.7028442E-2,6.2007713E-3,1.3682923E-2,-2.7818354E-3,2.7914261E-3,1.218989E-2,3.0999085E-2,-8.846647E-3,-2.62716E-3,9.982113E-4,4.9780444E-3,9.354726E-3,1.5940696E-3,2.4699797E-3,3.6058412E-3,-1.1672125E-3,-6.622078E-4,-2.9672837E-4,-1.1381148E-4,4.5120698E-5,1.8912157E-4,3.8734745E-4,5.8681093E-4,8.135728E-4,1.0716246E-3],"categories":[],"categories_nodes":[],"categories_segments":[],"categories_sizes":[],"default_left":[0,0,0,0,0,0,0,0,0,0,0,0,0,0,0,0,0,0,0,0,0,0,0,0,0,0,0,0,0],"id":0,"left_children":[1,3,5,7,9,-1,-1,11,13,15,17,19,21,23,25,27,-1,-1,-1,-1,-1,-1,-1,-1,-1,-1,-1,-1,-1],"loss_changes":[2.8734034E-1,6.616571E-2,2.7184099E-2,9.512665E-3,1.26684755E-2,0E0,0E0,2.3313314E-3,1.3634865E-3,1.3928283E-3,6.71003E-4,3.124061E-4,1.2369417E-3,9.3422816E-5,1.3162289E-4,5.3888652E-5,0E0,0E0,0E0,0E0,0E0,0E0,0E0,0E0,0E0,0E0,0E0,0E0,0E0],"parents":[2147483647,0,0,1,1,2,2,3,3,4,4,7,7,8,8,9,9,10,10,11,11,12,12,13,13,14,14,15,15],"right_children":[2,4,6,8,10,-1,-1,12,14,16,18,20,22,24,26,28,-1,-1,-1,-1,-1,-1,-1,-1,-1,-1,-1,-1,-1],"split_conditions":[4.1261744E0,5.894899E-1,8.504492E0,-2.592315E-3,1.7674454E0,6.2007713E-3,1.3682923E-2,-4.5653337E-1,2.3715223E-1,1.0247073E0,2.2365897E0,-6.9925404E-1,-1.6734076E-1,9.233656E-2,3.9025545E-1,7.7366567E-1,1.5940696E-3,2.4699797E-3,3.6058412E-3,-1.1672125E-3,-6.622078E-4,-2.9672837E-4,-1.1381148E-4,4.5120698E-5,1.8912157E-4,3.8734745E-4,5.8681093E-4,8.135728E-4,1.0716246E-3],"split_indices":[2,2,2,2,2,0,0,2,2,2,2,2,2,2,2,2,0,0,0,0,0,0,0,0,0,0,0,0,0],"split_type":[0,0,0,0,0,0,0,0,0,0,0,0,0,0,0,0,0,0,0,0,0,0,0,0,0,0,0,0,0],"sum_hessian":[3.074E3,3.049E3,2.5E1,2.857E3,1.92E2,1.2E1,1.3E1,2.509E3,3.48E2,1.44E2,4.8E1,6.1E1,2.448E3,1.92E2,1.56E2,8.4E1,6E1,2.4E1,2.4E1,2.5E1,3.6E1,1.992E3,4.56E2,1.2E2,7.2E1,7.2E1,8.4E1,4.8E1,3.6E1],"tree_param":{"num_deleted":"0","num_feature":"6","num_nodes":"29","size_leaf_vector":"1"}},{"base_weights":[9.238124E-6,-8.0033275E-4,9.4977774E-2,-1.8181974E-3,1.6562307E-2,5.628392E-3,1.24123655E-2,-2.4158924E-3,3.5528722E-3,1.1784253E-2,2.8023172E-2,-6.8787835E-3,-2.2397693E-3,1.8232939E-3,5.257948E-3,9.436416E-3,1.5041556E-3,2.433255E-3,3.6371623E-3,-1.0549806E-3,-5.477067E-4,-2.594495E-4,-6.506341E-5,9.905758E-5,2.6310355E-4,4.4082003E-4,6.3558266E-4,8.0838316E-4,1.0533963E-3],"categories":[],"categories_nodes":[],"categories_segments":[],"categories_sizes":[],"default_left":[0,0,0,0,0,0,0,0,0,0,0,0,0,0,0,0,0,0,0,0,0,0,0,0,0,0,0,0,0],"id":1,"left_children":[1,3,5,7,9,-1,-1,11,13,15,17,19,21,23,25,27,-1,-1,-1,-1,-1,-1,-1,-1,-1,-1,-1,-1,-1],"loss_changes":[2.3649356E-1,5.393221E-2,2.2335783E-2,9.260557E-3,8.924317E-3,0E0,0E0,2.0235237E-3,8.4269256E-4,7.8342296E-4,6.2472373E-4,4.464998E-4,1.4058882E-3,9.492377E-5,1.072553E-4,2.3215543E-5,0E0,0E0,0E0,0E0,0E0,0E0,0E0,0E0,0E0,0E0,0E0,0E0,0E0],"parents":[2147483647,0,0,1,1,2,2,3,3,4,4,7,7,8,8,9,9,10,10,11,11,12,12,13,13,14,14,15,15],"right_children":[2,4,6,8,10,-1,-1,12,14,16,18,20,22,24,26,28,-1,-1,-1,-1,-1,-1,-1,-1,-1,-1,-1,-1,-1],"split_conditions":[4.1261744E0,6.572195E-1,8.504492E0,4.739405E-2,1.7674454E0,5.628392E-3,1.24123655E-2,-3.973923E-1,3.1504977E-1,1.1249471E0,3.0896878E0,-6.9925404E-1,-1.422591E-1,1.488743E-1,4.9864987E-1,8.455991E-1,1.5041556E-3,2.433255E-3,3.6371623E-3,-1.0549806E-3,-5.477067E-4,-2.594495E-4,-6.506341E-5,9.905758E-5,2.6310355E-4,4.4082003E-4,6.3558266E-4,8.0838316E-4,1.0533963E-3],"split_indices":[2,2,2,2,2,0,0,2,2,2,2,2,2,2,2,2,0,0,0,0,0,0,0,0,0,0,0,0,0],"split_type":[0,0,0,0,0,0,0,0,0,0,0,0,0,0,0,0,0,0,0,0,0,0,0,0,0,0,0,0,0],"sum_hessian":[3.074E3,3.049E3,2.5E1,2.881E3,1.68E2,1.2E1,1.3E1,2.593E3,2.88E2,1.2E2,4.8E1,9.7E1,2.496E3,1.44E2,1.44E2,7.2E1,4.8E1,3.6E1,1.2E1,2.5E1,7.2E1,2.04E3,4.56E2,7.2E1,7.2E1,8.4E1,6E1,3.6E1,3.6E1],"tree_param":{"num_deleted":"0","num_feature":"6","num_nodes":"29","size_leaf_vector":"1"}},{"base_weights":[1.7091E-5,-7.173658E-4,8.617387E-2,-1.6016946E-3,1.5588144E-2,5.108848E-3,1.1259789E-2,-2.1625257E-3,3.4610298E-3,1.105914E-2,2.534474E-2,-5.7958704E-3,-1.983278E-3,1.8645431E-3,5.033647E-3,9.276545E-3,1.4277257E-3,2.196506E-3,3.3014247E-3,-9.5354015E-4,-4.7337706E-4,-2.2841767E-4,-3.9496375E-5,1.071364E-4,2.6321804E-4,4.0970353E-4,5.9013057E-4,7.9322525E-4,1.037012E-3],"categories":[],"categories_nodes":[],"categories_segments":[],"categories_sizes":[],"default_left":[0,0,0,0,0,0,0,0,0,0,0,0,0,0,0,0,0,0,0,0,0,0,0,0,0,0,0,0,0],"id":2,"left_children":[1,3,5,7,9,-1,-1,11,13,15,17,19,21,23,25,27,-1,-1,-1,-1,-1,-1,-1,-1,-1,-1,-1,-1,-1],"loss_changes":[1.94643E-1,4.4004235E-2,1.8352047E-2,8.224515E-3,6.657172E-3,0E0,0E0,1.6857125E-3,7.161959E-4,4.9284566E-4,5.449429E-4,4.3941522E-4,1.1867322E-3,8.54666E-5,9.3657756E-5,2.50577E-5,0E0,0E0,0E0,0E0,0E0,0E0,0E0,0E0,0E0,0E0,0E0,0E0,0E0],"parents":[2147483647,0,0,1,1,2,2,3,3,4,4,7,7,8,8,9,9,10,10,11,11,12,12,13,13,14,14,15,15],"right_children":[2,4,6,8,10,-1,-1,12,14,16,18,20,22,24,26,28,-1,-1,-1,-1,-1,-1,-1,-1,-1,-1,-1,-1,-1],"split_conditions":[4.1261744E0,6.973652E-1,8.504492E0,6.1641824E-2,1.7674454E0,5.108848E-3,1.1259789E-2,-3.6095995E-1,3.4215617E-1,1.2155942E0,3.0896878E0,-6.9925404E-1,-1.2235196E-1,1.8671253E-1,4.9864987E-1,9.148716E-1,1.4277257E-3,2.196506E-3,3.3014247E-3,-9.5354015E-4,-4.7337706E-4,-2.2841767E-4,-3.9496375E-5,1.071364E-4,2.6321804E-4,4.0970353E-4,5.9013057E-4,7.9322525E-4,1.037012E-3],"split_indices":[2,2,2,2,2,0,0,2,2,2,2,2,2,2,2,2,0,0,0,0,0,0,0,0,0,0,0,0,0],"split_type":[0,0,0,0,0,0,0,0,0,0,0,0,0,0,0,0,0,0,0,0,0,0,0,0,0,0,0,0,0],"sum_hessian":[3.074E3,3.049E3,2.5E1,2.893E3,1.56E2,1.2E1,1.3E1,2.605E3,2.88E2,1.08E2,4.8E1,1.21E2,2.484E3,1.44E2,1.44E2,7.2E1,3.6E1,3.6E1,1.2E1,2.5E1,9.6E1,2.088E3,3.96E2,7.2E1,7.2E1,7.2E1,7.2E1,3.6E1,3.6E1],"tree_param":{"num_deleted":"0","num_feature":"6","num_nodes":"29","size_leaf_vector":"1"}},{"base_weights":[2.3446844E-5,-6.4286496E-4,7.818605E-2,-1.5044529E-3,1.302233E-2,4.6372623E-3,1.0214237E-2,-2.0770107E-3,1.9457713E-3,9.276998E-3,2.292247E-2,-7.145782E-3,-1.9711195E-3,7.234851E-4,3.9030493E-3,7.4452506E-3,1.2265192E-3,1.7884047E-3,2.7043994E-3,-1.0000413E-3,-5.872522E-4,-2.3877318E-4,-1.3123068E-4,4.017063E-5,1.7082923E-4,3.2739044E-4,4.8395083E-4,6.128925E-4,8.287267E-4],"categories":[],"categories_nodes":[],"categories_segments":[],"categories_sizes":[],"default_left":[0,0,0,0,0,0,0,0,0,0,0,0,0,0,0,0,0,0,0,0,0,0,0,0,0,0,0,0,0],"id":3,"left_children":[1,3,5,7,9,-1,-1,11,13,15,17,19,21,23,25,27,-1,-1,-1,-1,-1,-1,-1,-1,-1,-1,-1,-1,-1],"loss_changes":[1.6019832E-1,3.5929583E-2,1.5078828E-2,5.6735915E-3,6.4987E-3,0E0,0E0,1.3073655E-3,9.756491E-4,6.3667446E-4,5.338788E-4,1.2300676E-4,6.5916125E-4,7.948694E-5,7.66553E-5,4.341919E-5,0E0,0E0,0E0,0E0,0E0,0E0,0E0,0E0,0E0,0E0,0E0,0E0,0E0],"parents":[2147483647,0,0,1,1,2,2,3,3,4,4,7,7,8,8,9,9,10,10,11,11,12,12,13,13,14,14,15,15],"right_children":[2,4,6,8,10,-1,-1,12,14,16,18,20,22,24,26,28,-1,-1,-1,-1,-1,-1,-1,-1,-1,-1,-1,-1,-1],"split_conditions":[4.1261744E0,6.325555E-1,8.504492E0,-2.5674239E-2,1.7674454E0,4.6372623E-3,1.0214237E-2,-5.014435E-1,2.672516E-1,1.1249471E0,2.2365897E0,-9.8527914E-1,-2.1441945E-1,1.1122494E-1,4.5011383E-1,7.7366567E-1,1.2265192E-3,1.7884047E-3,2.7043994E-3,-1.0000413E-3,-5.872522E-4,-2.3877318E-4,-1.3123068E-4,4.017063E-5,1.7082923E-4,3.2739044E-4,4.8395083E-4,6.128925E-4,8.287267E-4],"split_indices":[2,2,2,2,2,0,0,2,2,2,2,2,2,2,2,2,0,0,0,0,0,0,0,0,0,0,0,0,0],"split_type":[0,0,0,0,0,0,0,0,0,0,0,0,0,0,0,0,0,0,0,0,0,0,0,0,0,0,0,0,0],"sum_hessian":[3.074E3,3.049E3,2.5E1,2.869E3,1.8E2,1.2E1,1.3E1,2.461E3,4.08E2,1.32E2,4.8E1,4.9E1,2.412E3,2.52E2,1.56E2,8.4E1,4.8E1,2.4E1,2.4E1,1.3E1,3.6E1,1.476E3,9.36E2,1.91E2,6.1E1,9.6E1,6E1,3.6E1,4.8E1],"tree_param":{"num_deleted":"0","num_feature":"6","num_nodes":"29","size_leaf_vector":"1"}},{"base_weights":[2.795662E-5,-5.765372E-4,7.0938654E-2,-1.3815744E-3,1.1347676E-2,4.2092074E-3,9.265772E-3,-1.8967123E-3,1.5078157E-3,7.5496025E-3,1.9442694E-2,-4.450591E-3,-1.7180392E-3,4.3248406E-4,3.1850645E-3,5.894079E-4,9.407038E-4,1.5535407E-3,2.4447772E-3,-7.168662E-4,-3.5602003E-4,-1.9863166E-4,-1.09477194E-4,8.206793E-6,8.4883E-5,2.3409106E-4,3.7875204E-4],"categories":[],"categories_nodes":[],"categories_segments":[],"categories_sizes":[],"default_left":[0,0,0,0,0,0,0,0,0,0,0,0,0,0,0,0,0,0,0,0,0,0,0,0,0,0,0],"id":4,"left_children":[1,3,5,7,9,-1,-1,11,13,15,17,19,21,23,25,-1,-1,-1,-1,-1,-1,-1,-1,-1,-1,-1,-1],"loss_changes":[1.3185102E-1,2.9293958E-2,1.2389377E-2,4.256805E-3,5.7870895E-3,0E0,0E0,1.0993611E-3,7.795809E-4,3.535333E-4,8.1312656E-4,3.5686116E-4,3.7722243E-4,3.859233E-5,7.708126E-5,0E0,0E0,0E0,0E0,0E0,0E0,0E0,0E0,0E0,0E0,0E0,0E0],"parents":[2147483647,0,0,1,1,2,2,3,3,4,4,7,7,8,8,9,9,10,10,11,11,12,12,13,13,14,14],"right_children":[2,4,6,8,10,-1,-1,12,14,16,18,20,22,24,26,-1,-1,-1,-1,-1,-1,-1,-1,-1,-1,-1,-1],"split_conditions":[4.1261744E0,5.894899E-1,8.504492E0,-4.536946E-2,1.4781204E0,4.2092074E-3,9.265772E-3,-3.3292407E-1,2.1063653E-1,9.148716E-1,2.2365897E0,-5.737647E-1,-1.9951689E-1,2.9111417E-2,3.696241E-1,5.894079E-4,9.407038E-4,1.5535407E-3,2.4447772E-3,-7.168662E-4,-3.5602003E-4,-1.9863166E-4,-1.09477194E-4,8.206793E-6,8.4883E-5,2.3409106E-4,3.7875204E-4],"split_indices":[2,2,2,2,2,0,0,2,2,2,2,2,2,2,2,0,0,0,0,0,0,0,0,0,0,0,0],"split_type":[0,0,0,0,0,0,0,0,0,0,0,0,0,0,0,0,0,0,0,0,0,0,0,0,0,0,0],"sum_hessian":[3.074E3,3.049E3,2.5E1,2.857E3,1.92E2,1.2E1,1.3E1,2.425E3,4.32E2,1.32E2,6E1,1.57E2,2.268E3,2.64E2,1.68E2,7.2E1,6E1,3.6E1,2.4E1,3.7E1,1.2E2,1.584E3,6.84E2,1.44E2,1.2E2,7.2E1,9.6E1],"tree_param":{"num_deleted":"0","num_feature":"6","num_nodes":"27","size_leaf_vector":"1"}},{"base_weights":[3.112135E-5,-5.1729224E-4,6.4363055E-2,-1.168972E-3,1.1498495E-2,3.8206652E-3,8.4053785E-2,-1.6077606E-3,2.3044297E-3,8.68432E-3,2.0390837E-2,8.921624E-3,3.5386037E-3,-3.5877924E-3,-1.4125383E-3,1.1014116E-3,3.5847202E-3,7.099741E-3,1.2089857E-3,1.7067321E-3,2.521369E-3,-6.470661E-4,-3.0015912E-4,-1.6496501E-4,-4.6259684E-5,6.126382E-5,1.73579E-4,2.9998165E-4,4.456047E-4,5.850659E-4,7.898033E-4],"categories":[],"categories_nodes":[],"categories_segments":[],"categories_sizes":[],"default_left":[0,0,0,0,0,0,0,0,0,0,0,0,0,0,0,0,0,0,0,0,0,0,0,0,0,0,0,0,0,0,0],"id":5,"left_children":[1,3,5,7,9,-1,11,13,15,17,19,-1,-1,21,23,25,27,29,-1,-1,-1,-1,-1,-1,-1,-1,-1,-1,-1,-1,-1],"loss_changes":[1.0852084E-1,2.38963E-2,1.0179587E-2,4.4144187E-3,3.7517827E-3,0E0,3.604293E-4,9.883554E-4,4.9662066E-4,5.671233E-4,1.6273558E-4,0E0,0E0,3.6926405E-4,5.265288E-4,5.1337935E-5,6.664661E-5,3.854744E-5,0E0,0E0,0E0,0E0,0E0,0E0,0E0,0E0,0E0,0E0,0E0,0E0,0E0],"parents":[2147483647,0,0,1,1,2,2,3,3,4,4,6,6,7,7,8,8,9,9,10,10,13,13,14,14,15,15,16,16,17,17],"right_children":[2,4,6,8,10,-1,12,14,16,18,20,-1,-1,22,24,26,28,30,-1,-1,-1,-1,-1,-1,-1,-1,-1,-1,-1,-1,-1],"split_conditions":[4.1261744E0,6.973652E-1,8.504492E0,2.9111417E-2,2.1541255E0,3.8206652E-3,1.1728921E0,-3.0193812E-1,3.1504977E-1,1.3227186E0,3.0896878E0,8.921624E-3,3.5386037E-3,-5.737647E-1,-1.5554187E-1,1.488743E-1,5.1853764E-1,9.148716E-1,1.2089857E-3,1.7067321E-3,2.521369E-3,-6.470661E-4,-3.0015912E-4,-1.6496501E-4,-4.6259684E-5,6.126382E-5,1.73579E-4,2.9998165E-4,4.456047E-4,5.850659E-4,7.898033E-4],"split_indices":[2,2,2,2,2,0,5,2,2,2,2,0,0,2,2,2,2,2,0,0,0,0,0,0,0,0,0,0,0,0,0],"split_type":[0,0,0,0,0,0,0,0,0,0,0,0,0,0,0,0,0,0,0,0,0,0,0,0,0,0,0,0,0,0,0],"sum_hessian":[3.074E3,3.049E3,2.5E1,2.893E3,1.56E2,1.2E1,1.3E1,2.569E3,3.24E2,1.2E2,3.6E1,1.1E1,2E0,2.29E2,2.34E3,1.68E2,1.56E2,8.4E1,3.6E1,2.4E1,1.2E1,3.7E1,1.92E2,1.872E3,4.68E2,9.6E1,7.2E1,9.6E1,6E1,3.6E1,4.8E1],"tree_param":{"num_deleted":"0","num_feature":"6","num_nodes":"31","size_leaf_vector":"1"}},{"base_weights":[3.5461217E-5,-4.6338793E-4,5.855294E-2,-1.0521363E-3,1.03920335E-2,3.4679887E-3,7.653842E-2,-1.5037019E-3,1.6951599E-3,7.837242E-3,1.8466026E-2,8.103808E-3,3.3026969E-3,-3.4812854E-3,-1.3469019E-3,6.663749E-4,3.1522135E-3,6.405942E-3,1.0913548E-3,1.5428859E-3,2.288627E-3,-6.536002E-4,-2.9532352E-4,-1.580961E-4,-7.472367E-5,3.9690014E-5,1.45504E-4,2.4578112E-4,3.8095308E-4,5.2814063E-4,7.124348E-4],"categories":[],"categories_nodes":[],"categories_segments":[],"categories_sizes":[],"default_left":[0,0,0,0,0,0,0,0,0,0,0,0,0,0,0,0,0,0,0,0,0,0,0,0,0,0,0,0,0,0,0],"id":6,"left_children":[1,3,5,7,9,-1,11,13,15,17,19,-1,-1,21,23,25,27,29,-1,-1,-1,-1,-1,-1,-1,-1,-1,-1,-1,-1,-1],"loss_changes":[8.9790665E-2,1.9503824E-2,8.509241E-3,3.5928003E-3,3.0937735E-3,0E0,6.456673E-5,7.661828E-4,6.1098835E-4,4.6286546E-4,1.4361646E-4,0E0,0E0,2.7427147E-4,3.2234145E-4,5.06411E-5,6.77756E-5,3.1042844E-5,0E0,0E0,0E0,0E0,0E0,0E0,0E0,0E0,0E0,0E0,0E0,0E0,0E0],"parents":[2147483647,0,0,1,1,2,2,3,3,4,4,6,6,7,7,8,8,9,9,10,10,13,13,14,14,15,15,16,16,17,17],"right_children":[2,4,6,8,10,-1,12,14,16,18,20,-1,-1,22,24,26,28,30,-1,-1,-1,-1,-1,-1,-1,-1,-1,-1,-1,-1,-1],"split_conditions":[4.1261744E0,6.973652E-1,8.504492E0,-8.682811E-3,2.1541255E0,3.4679887E-3,1.1728921E0,-3.1619194E-1,2.9053435E-1,1.3227186E0,3.0896878E0,8.103808E-3,3.3026969E-3,-6.9925404E-1,-1.9173536E-1,1.488743E-1,4.5011383E-1,9.148716E-1,1.0913548E-3,1.5428859E-3,2.288627E-3,-6.536002E-4,-2.9532352E-4,-1.580961E-4,-7.472367E-5,3.9690014E-5,1.45504E-4,2.4578112E-4,3.8095308E-4,5.2814063E-4,7.124348E-4],"split_indices":[2,2,2,2,2,0,5,2,2,2,2,0,0,2,2,2,2,2,0,0,0,0,0,0,0,0,0,0,0,0,0],"split_type":[0,0,0,0,0,0,0,0,0,0,0,0,0,0,0,0,0,0,0,0,0,0,0,0,0,0,0,0,0,0,0],"sum_hessian":[3.074E3,3.049E3,2.5E1,2.893E3,1.56E2,1.2E1,1.3E1,2.485E3,4.08E2,1.2E2,3.6E1,1.1E1,2E0,1.81E2,2.304E3,2.4E2,1.68E2,8.4E1,3.6E1,2.4E1,1.2E1,2.5E1,1.56E2,1.656E3,6.48E2,1.8E2,6E1,8.4E1,8.4E1,3.6E1,4.8E1],"tree_param":{"num_deleted":"0","num_feature":"6","num_nodes":"31","size_leaf_vector":"1"}},{"base_weights":[3.8636434E-5,-4.1514958E-4,5.326974E-2,-9.6827233E-4,9.019851E-3,2.1736508E-3,6.374322E-2,-1.4090507E-3,1.1705277E-3,6.3492195E-3,1.5430596E-2,3.9221765E-3,6.9699325E-3,-4.2492272E-3,-1.3177333E-3,3.8920165E-4,2.6661514E-3,5.2941684E-3,8.601385E-4,1.3136248E-3,2.0773693E-3,-7.19838E-4,-3.5027132E-4,-1.864302E-4,-1.0876555E-4,1.4969599E-5,9.5062016E-5,2.0667343E-4,3.2342022E-4,4.3614194E-4,5.890445E-4],"categories":[],"categories_nodes":[],"categories_segments":[],"categories_sizes":[],"default_left":[0,0,0,0,0,0,0,0,0,0,0,0,0,0,0,0,0,0,0,0,0,0,0,0,0,0,0,0,0,0,0],"id":7,"left_children":[1,3,5,7,9,-1,11,13,15,17,19,-1,-1,21,23,25,27,29,-1,-1,-1,-1,-1,-1,-1,-1,-1,-1,-1,-1,-1],"loss_changes":[7.430037E-2,1.592581E-2,7.2012767E-3,2.7186163E-3,2.7954327E-3,0E0,4.1261315E-5,6.142645E-4,5.750671E-4,2.4197716E-4,3.2779854E-4,0E0,0E0,1.3770338E-4,2.8934283E-4,4.355815E-5,5.0860108E-5,2.1584332E-5,0E0,0E0,0E0,0E0,0E0,0E0,0E0,0E0,0E0,0E0,0E0,0E0,0E0],"parents":[2147483647,0,0,1,1,2,2,3,3,4,4,6,6,7,7,8,8,9,9,10,10,13,13,14,14,15,15,16,16,17,17],"right_children":[2,4,6,8,10,-1,12,14,16,18,20,-1,-1,22,24,26,28,30,-1,-1,-1,-1,-1,-1,-1,-1,-1,-1,-1,-1,-1],"split_conditions":[4.1261744E0,6.572195E-1,3.1970532E0,-5.8520284E-2,1.7674454E0,2.1736508E-3,8.504492E0,-4.366358E-1,2.672516E-1,1.2155942E0,3.0896878E0,3.9221765E-3,6.9699325E-3,-9.8527914E-1,-2.4549444E-1,7.683204E-2,4.2712763E-1,8.455991E-1,8.601385E-4,1.3136248E-3,2.0773693E-3,-7.19838E-4,-3.5027132E-4,-1.864302E-4,-1.0876555E-4,1.4969599E-5,9.5062016E-5,2.0667343E-4,3.2342022E-4,4.3614194E-4,5.890445E-4],"split_indices":[2,2,1,2,2,0,2,2,2,2,2,0,0,2,2,2,2,2,0,0,0,0,0,0,0,0,0,0,0,0,0],"split_type":[0,0,0,0,0,0,0,0,0,0,0,0,0,0,0,0,0,0,0,0,0,0,0,0,0,0,0,0,0,0,0],"sum_hessian":[3.074E3,3.049E3,2.5E1,2.881E3,1.68E2,7E0,1.8E1,2.389E3,4.92E2,1.2E2,4.8E1,5E0,1.3E1,7.3E1,2.316E3,3.24E2,1.68E2,8.4E1,3.6E1,3.6E1,1.2E1,1.3E1,6E1,6.84E2,1.632E3,2.28E2,9.6E1,8.4E1,8.4E1,3.6E1,4.8E1],"tree_param":{"num_deleted":"0","num_feature":"6","num_nodes":"31","size_leaf_vector":"1"}},{"base_weights":[4.050183E-5,-3.7214244E-4,4.844529E-2,-9.261015E-4,7.320246E-3,1.9834563E-3,5.7942164E-3,-1.2924518E-3,7.747265E-4,4.846261E-3,1.3081027E-2,-3.6571804E-3,-1.2017742E-3,2.1957343E-4,2.0038583E-3,3.845661E-3,6.1610923E-4,1.12819E-2,1.8856119E-3,-6.529959E-4,-3.0561382E-4,-1.7880915E-4,-1.04239305E-4,5.1991083E-6,5.880851E-5,1.5371571E-4,2.3810977E-4,3.4289423E-4,4.293595E-4,9.425917E-4,1.2686608E-3],"categories":[],"categories_nodes":[],"categories_segments":[],"categories_sizes":[],"default_left":[0,0,0,0,0,0,0,0,0,0,0,0,0,0,0,0,0,0,0,0,0,0,0,0,0,0,0,0,0,0,0],"id":8,"left_children":[1,3,5,7,9,-1,-1,11,13,15,17,19,21,23,25,27,-1,29,-1,-1,-1,-1,-1,-1,-1,-1,-1,-1,-1,-1,-1],"loss_changes":[6.143796E-2,1.3003648E-2,5.9152655E-3,1.7743402E-3,2.858284E-3,0E0,0E0,4.9779424E-4,3.4414994E-4,1.6707135E-4,4.2106397E-4,1.2853637E-4,2.0904816E-4,2.1522284E-5,2.3980974E-5,1.1437805E-6,0E0,8.166302E-6,0E0,0E0,0E0,0E0,0E0,0E0,0E0,0E0,0E0,0E0,0E0,0E0,0E0],"parents":[2147483647,0,0,1,1,2,2,3,3,4,4,7,7,8,8,9,9,10,10,11,11,12,12,13,13,14,14,15,15,17,17],"right_children":[2,4,6,8,10,-1,-1,12,14,16,18,20,22,24,26,28,-1,30,-1,-1,-1,-1,-1,-1,-1,-1,-1,-1,-1,-1,-1],"split_conditions":[4.1261744E0,5.5996186E-1,3.1970532E0,-7.803688E-2,1.4781204E0,1.9834563E-3,5.7942164E-3,-4.1817412E-1,2.1063653E-1,9.148716E-1,3.0896878E0,-9.8527914E-1,-2.5548843E-1,4.0694438E-2,3.696241E-1,6.973652E-1,6.1610923E-4,2.1541255E0,1.8856119E-3,-6.529959E-4,-3.0561382E-4,-1.7880915E-4,-1.04239305E-4,5.1991083E-6,5.880851E-5,1.5371571E-4,2.3810977E-4,3.4289423E-4,4.293595E-4,9.425917E-4,1.2686608E-3],"split_indices":[2,2,1,2,2,0,0,2,2,2,2,2,2,2,2,2,0,2,0,0,0,0,0,0,0,0,0,0,0,0,0],"split_type":[0,0,0,0,0,0,0,0,0,0,0,0,0,0,0,0,0,0,0,0,0,0,0,0,0,0,0,0,0,0,0],"sum_hessian":[3.074E3,3.049E3,2.5E1,2.845E3,2.04E2,7E0,1.8E1,2.341E3,5.04E2,1.44E2,6E1,8.5E1,2.256E3,3.48E2,1.56E2,8.4E1,6E1,4.8E1,1.2E1,1.3E1,7.2E1,4.8E2,1.776E3,2.4E2,1.08E2,7.2E1,8.4E1,4.8E1,3.6E1,2.4E1,2.4E1],"tree_param":{"num_deleted":"0","num_feature":"6","num_nodes":"31","size_leaf_vector":"1"}},{"base_weights":[4.0509232E-5,-3.333874E-4,4.3899905E-2,-8.0173777E-4,7.0947837E-3,2.5503149E-3,5.7846896E-2,-1.15889E-3,8.2599546E-4,4.6438887E-3,1.1840086E-2,6.1909114E-3,2.2315735E-3,-2.209856E-3,-9.894598E-4,2.1242662E-4,1.9638226E-3,3.7936892E-4,5.81574E-4,9.323898E-4,1.5090442E-2,-4.4334657E-4,-1.9098316E-4,-1.2135635E-4,-7.617103E-5,9.338407E-6,6.4165746E-5,1.4983023E-4,2.4719597E-4,1.5363243E-3,4.27162E-4],"categories":[],"categories_nodes":[],"categories_segments":[],"categories_sizes":[],"default_left":[0,0,0,0,0,0,0,0,0,0,0,0,0,0,0,0,0,0,0,0,0,0,0,0,0,0,0,0,0,0,0],"id":9,"left_children":[1,3,5,7,9,-1,11,13,15,17,19,-1,-1,21,23,25,27,-1,-1,-1,29,-1,-1,-1,-1,-1,-1,-1,-1,-1,-1],"loss_changes":[5.044119E-2,1.0616598E-2,5.1957853E-3,1.6694275E-3,2.0500887E-3,0E0,6.391406E-4,4.1697943E-4,3.6051875E-4,9.8490156E-5,3.581876E-4,0E0,0E0,2.090194E-4,1.02634775E-4,1.7159673E-5,3.9111474E-5,0E0,0E0,0E0,8.158386E-6,0E0,0E0,0E0,0E0,0E0,0E0,0E0,0E0,0E0,0E0],"parents":[2147483647,0,0,1,1,2,2,3,3,4,4,6,6,7,7,8,8,9,9,10,10,13,13,14,14,15,15,16,16,20,20],"right_children":[2,4,6,8,10,-1,12,14,16,18,20,-1,-1,22,24,26,28,-1,-1,-1,30,-1,-1,-1,-1,-1,-1,-1,-1,-1,-1],"split_conditions":[4.1261744E0,6.325555E-1,8.504492E0,-7.049442E-2,1.4781204E0,2.5503149E-3,1.1728921E0,-2.8441587E-1,2.1063653E-1,1.0247073E0,2.2365897E0,6.1909114E-3,2.2315735E-3,-5.737647E-1,-2.2331648E-1,7.683204E-2,4.1542196E-1,3.7936892E-4,5.81574E-4,9.323898E-4,3.0724885E0,-4.4334657E-4,-1.9098316E-4,-1.2135635E-4,-7.617103E-5,9.338407E-6,6.4165746E-5,1.4983023E-4,2.4719597E-4,1.5363243E-3,4.27162E-4],"split_indices":[2,2,2,2,2,0,5,2,2,2,2,0,0,2,2,2,2,0,0,0,3,0,0,0,0,0,0,0,0,0,0],"split_type":[0,0,0,0,0,0,0,0,0,0,0,0,0,0,0,0,0,0,0,0,0,0,0,0,0,0,0,0,0,0,0],"sum_hessian":[3.074E3,3.049E3,2.5E1,2.869E3,1.8E2,1.2E1,1.3E1,2.353E3,5.16E2,1.2E2,6E1,1.1E1,2E0,3.25E2,2.028E3,3.36E2,1.8E2,7.2E1,4.8E1,3.6E1,2.4E1,3.7E1,2.88E2,1.02E3,1.008E3,2.64E2,7.2E1,9.6E1,8.4E1,2.3E1,1E0],"tree_param":{"num_deleted":"0","num_feature":"6","num_nodes":"31","size_leaf_vector":"1"}},{"base_weights":[4.1163446E-5,-2.989026E-4,3.993194E-2,-6.752739E-4,7.246159E-3,2.3149012E-2,5.2663814E-2,-9.6377404E-4,1.3612818E-3,5.3983927E-3,1.2493736E-2,1.5867513E-3,2.8999508E-3,5.623411E-3,2.082802E-3,-1.8548128E-3,-7.8637066E-4,6.5129914E-4,2.2796588E-3,4.3793276E-4,7.2630786E-4,1.0328077E-3,1.569741E-3,-5.511927E-4,-1.7250955E-4,-9.0215704E-5,-8.173115E-6,3.817083E-5,1.1335496E-4,1.8868064E-4,2.8669872E-4],"categories":[],"categories_nodes":[],"categories_segments":[],"categories_sizes":[],"default_left":[0,0,0,0,0,0,0,0,0,0,0,0,0,0,0,0,0,0,0,0,0,0,0,0,0,0,0,0,0,0,0],"id":10,"left_children":[1,3,5,7,9,11,13,15,17,19,21,-1,-1,-1,-1,23,25,27,29,-1,-1,-1,-1,-1,-1,-1,-1,-1,-1,-1,-1],"loss_changes":[4.1725844E-2,8.666114E-3,4.3365136E-3,1.7087223E-3,1.3385168E-3,9.365566E-5,4.2004138E-4,4.0099607E-4,2.338987E-4,1.7531822E-4,9.4584655E-5,0E0,0E0,0E0,0E0,1.9068446E-4,1.7330004E-4,2.621943E-5,3.081566E-5,0E0,0E0,0E0,0E0,0E0,0E0,0E0,0E0,0E0,0E0,0E0,0E0],"parents":[2147483647,0,0,1,1,2,2,3,3,4,4,5,5,6,6,7,7,8,8,9,9,10,10,15,15,16,16,17,17,18,18],"right_children":[2,4,6,8,10,12,14,16,18,20,22,-1,-1,-1,-1,24,26,28,30,-1,-1,-1,-1,-1,-1,-1,-1,-1,-1,-1,-1],"split_conditions":[4.1261744E0,7.7366567E-1,8.504492E0,1.537059E-2,2.1541255E0,3.1970532E0,1.1728921E0,-2.724286E-1,3.4215617E-1,1.3227186E0,3.0896878E0,1.5867513E-3,2.8999508E-3,5.623411E-3,2.082802E-3,-9.8527914E-1,-1.10729605E-1,1.8671253E-1,5.5996186E-1,4.3793276E-4,7.2630786E-4,1.0328077E-3,1.569741E-3,-5.511927E-4,-1.7250955E-4,-9.0215704E-5,-8.173115E-6,3.817083E-5,1.1335496E-4,1.8868064E-4,2.8669872E-4],"split_indices":[2,2,2,2,2,1,5,2,2,2,2,0,0,0,0,2,2,2,2,0,0,0,0,0,0,0,0,0,0,0,0],"split_type":[0,0,0,0,0,0,0,0,0,0,0,0,0,0,0,0,0,0,0,0,0,0,0,0,0,0,0,0,0,0,0],"sum_hessian":[3.074E3,3.049E3,2.5E1,2.905E3,1.44E2,1.2E1,1.3E1,2.545E3,3.6E2,1.08E2,3.6E1,7E0,5E0,1.1E1,2E0,4.21E2,2.124E3,2.04E2,1.56E2,7.2E1,3.6E1,2.4E1,1.2E1,1.3E1,4.08E2,1.824E3,3E2,1.32E2,7.2E1,9.6E1,6E1],"tree_param":{"num_deleted":"0","num_feature":"6","num_nodes":"31","size_leaf_vector":"1"}},{"base_weights":[4.217378E-5,-2.6784133E-4,3.640771E-2,-6.2240177E-4,6.26952E-3,2.117924E-2,4.794788E-2,-9.1030035E-4,9.148392E-4,4.674964E-3,1.1314702E-2,1.4479107E-3,2.658288E-3,5.1079323E-3,1.9439483E-3,-2.4019883E-3,-8.231869E-4,3.4855737E-4,1.8778014E-3,3.5882893E-3,6.19848E-4,9.336583E-4,1.4248419E-3,-5.000105E-4,-2.0815285E-4,-1.0839552E-4,-5.8753736E-5,1.8740973E-5,8.1422404E-5,1.5017804E-4,2.3517227E-4,2.9201244E-4,3.8559592E-4],"categories":[],"categories_nodes":[],"categories_segments":[],"categories_sizes":[],"default_left":[0,0,0,0,0,0,0,0,0,0,0,0,0,0,0,0,0,0,0,0,0,0,0,0,0,0,0,0,0,0,0,0,0],"id":11,"left_children":[1,3,5,7,9,11,13,15,17,19,21,-1,-1,-1,-1,23,25,27,29,31,-1,-1,-1,-1,-1,-1,-1,-1,-1,-1,-1,-1,-1],"loss_changes":[3.4676887E-2,7.0734657E-3,3.5537183E-3,1.2816291E-3,1.2101415E-3,8.577015E-5,2.5685504E-4,3.1483127E-4,2.4855125E-4,1.7808168E-4,8.1688166E-5,0E0,0E0,0E0,0E0,1.0115944E-4,1.4100515E-4,2.1534277E-5,2.658472E-5,1.7960556E-6,0E0,0E0,0E0,0E0,0E0,0E0,0E0,0E0,0E0,0E0,0E0,0E0,0E0],"parents":[2147483647,0,0,1,1,2,2,3,3,4,4,5,5,6,6,7,7,8,8,9,9,10,10,15,15,16,16,17,17,18,18,19,19],"right_children":[2,4,6,8,10,12,14,16,18,20,22,-1,-1,-1,-1,24,26,28,30,32,-1,-1,-1,-1,-1,-1,-1,-1,-1,-1,-1,-1,-1],"split_conditions":[4.1261744E0,6.973652E-1,8.504492E0,-3.8838457E-2,2.1541255E0,3.1970532E0,1.1728921E0,-3.491767E-1,2.9053435E-1,1.2155942E0,3.0896878E0,1.4479107E-3,2.658288E-3,5.1079323E-3,1.9439483E-3,-9.8527914E-1,-2.2807111E-1,1.1122494E-1,4.9864987E-1,8.455991E-1,6.19848E-4,9.336583E-4,1.4248419E-3,-5.000105E-4,-2.0815285E-4,-1.0839552E-4,-5.8753736E-5,1.8740973E-5,8.1422404E-5,1.5017804E-4,2.3517227E-4,2.9201244E-4,3.8559592E-4],"split_indices":[2,2,2,2,2,1,5,2,2,2,2,0,0,0,0,2,2,2,2,2,0,0,0,0,0,0,0,0,0,0,0,0,0],"split_type":[0,0,0,0,0,0,0,0,0,0,0,0,0,0,0,0,0,0,0,0,0,0,0,0,0,0,0,0,0,0,0,0,0],"sum_hessian":[3.074E3,3.049E3,2.5E1,2.893E3,1.56E2,1.2E1,1.3E1,2.437E3,4.56E2,1.2E2,3.6E1,7E0,5E0,1.1E1,2E0,1.33E2,2.304E3,2.88E2,1.68E2,7.2E1,4.8E1,2.4E1,1.2E1,1.3E1,1.2E2,1.092E3,1.212E3,2.15E2,7.3E1,9.6E1,7.2E1,2.4E1,4.8E1],"tree_param":{"num_deleted":"0","num_feature":"6","num_nodes":"33","size_leaf_vector":"1"}},{"base_weights":[4.2647218E-5,-2.3998632E-4,3.3196095E-2,-5.602963E-4,5.6658546E-3,1.3212183E-3,3.986321E-2,-8.6464564E-4,6.322164E-4,4.2181904E-3,1.0246975E-2,5.5844793E-3,3.3376366E-2,-3.0771252E-3,-8.152488E-4,1.8224532E-4,1.645509E-3,3.4132798E-3,5.953305E-4,8.44027E-3,1.2933178E-3,4.0825545E-3,2.304639E-2,-4.5358096E-4,-2.442025E-4,-1.2570858E-4,-6.989622E-5,8.074322E-6,6.4832704E-5,1.3539323E-4,2.1969069E-4,2.9309528E-4,3.9597863E-4,3.4575228E-4,8.7232253E-4,1.796212E-4,2.8861265E-3],"categories":[],"categories_nodes":[],"categories_segments":[],"categories_sizes":[],"default_left":[0,0,0,0,0,0,0,0,0,0,0,0,0,0,0,0,0,0,0,0,0,0,0,0,0,0,0,0,0,0,0,0,0,0,0,0,0],"id":12,"left_children":[1,3,5,7,9,-1,11,13,15,17,19,-1,21,23,25,27,29,31,-1,33,-1,-1,35,-1,-1,-1,-1,-1,-1,-1,-1,-1,-1,-1,-1,-1,-1],"loss_changes":[2.8821565E-2,5.7728584E-3,2.9374324E-3,1.0508965E-3,9.97988E-4,0E0,1.058355E-4,2.4951284E-4,2.6825606E-4,1.4866958E-4,7.040845E-5,0E0,2.903156E-4,3.524404E-5,1.1508551E-4,1.9296738E-5,2.6125752E-5,1.0799617E-5,0E0,5.0865347E-6,0E0,0E0,1.0602642E-3,0E0,0E0,0E0,0E0,0E0,0E0,0E0,0E0,0E0,0E0,0E0,0E0,0E0,0E0],"parents":[2147483647,0,0,1,1,2,2,3,3,4,4,6,6,7,7,8,8,9,9,10,10,12,12,13,13,14,14,15,15,16,16,17,17,19,19,22,22],"right_children":[2,4,6,8,10,-1,12,14,16,18,20,-1,22,24,26,28,30,32,-1,34,-1,-1,36,-1,-1,-1,-1,-1,-1,-1,-1,-1,-1,-1,-1,-1,-1],"split_conditions":[4.1261744E0,6.973652E-1,3.1970532E0,-8.618474E-2,2.1541255E0,1.3212183E-3,4.4357066E0,-5.014435E-1,2.672516E-1,1.3227186E0,3.0896878E0,5.5844793E-3,-1.9896711E-1,-9.8527914E-1,-2.6075366E-1,1.0107546E-1,5.1853764E-1,1.0247073E0,5.953305E-4,1.8028419E0,1.2933178E-3,4.0825545E-3,-1.002306E-2,-4.5358096E-4,-2.442025E-4,-1.2570858E-4,-6.989622E-5,8.074322E-6,6.4832704E-5,1.3539323E-4,2.1969069E-4,2.9309528E-4,3.9597863E-4,3.4575228E-4,8.7232253E-4,1.796212E-4,2.8861265E-3],"split_indices":[2,2,1,2,2,0,1,2,2,2,2,0,5,2,2,2,2,2,0,1,0,0,5,0,0,0,0,0,0,0,0,0,0,0,0,0,0],"split_type":[0,0,0,0,0,0,0,0,0,0,0,0,0,0,0,0,0,0,0,0,0,0,0,0,0,0,0,0,0,0,0,0,0,0,0,0,0],"sum_hessian":[3.074E3,3.049E3,2.5E1,2.893E3,1.56E2,7E0,1.8E1,2.305E3,5.88E2,1.2E2,3.6E1,3E0,1.5E1,4.9E1,2.256E3,4.08E2,1.8E2,8.4E1,3.6E1,2.4E1,1.2E1,7E0,8E0,1.3E1,3.6E1,4.68E2,1.788E3,3.36E2,7.2E1,1.2E2,6E1,4.8E1,3.6E1,2E0,2.2E1,2E0,6E0],"tree_param":{"num_deleted":"0","num_feature":"6","num_nodes":"37","size_leaf_vector":"1"}},{"base_weights":[4.4035954E-5,-2.1489576E-4,3.0417025E-2,-4.927427E-4,5.3550215E-3,1.7487798E-2,4.025009E-2,-7.0854934E-4,9.746751E-4,3.9701145E-3,9.290153E-3,1.2056116E-3,2.1815405E-3,4.290358E-3,1.6219438E-3,-1.5687394E-3,-6.0228375E-4,4.6213673E-4,1.6768799E-3,3.2041387E-3,5.3740636E-4,7.644966E-3,1.1739348E-3,-3.09234E-4,-1.3219944E-4,-7.42642E-5,-2.14304E-5,2.5467645E-5,7.8131416E-5,1.3859852E-4,2.1119605E-4,2.7471693E-4,3.5745098E-4,3.2270217E-4,7.8888296E-4],"categories":[],"categories_nodes":[],"categories_segments":[],"categories_sizes":[],"default_left":[0,0,0,0,0,0,0,0,0,0,0,0,0,0,0,0,0,0,0,0,0,0,0,0,0,0,0,0,0,0,0,0,0,0,0],"id":13,"left_children":[1,3,5,7,9,11,13,15,17,19,21,-1,-1,-1,-1,23,25,27,29,31,-1,33,-1,-1,-1,-1,-1,-1,-1,-1,-1,-1,-1,-1,-1],"loss_changes":[2.4189968E-2,4.7227712E-3,2.6015956E-3,9.209583E-4,7.533366E-4,4.257122E-5,1.9683689E-4,2.3068464E-4,1.3347034E-4,9.999843E-5,5.9340382E-5,0E0,0E0,0E0,0E0,1.00423524E-4,1.2274843E-4,1.4170037E-5,1.6943173E-5,2.5352929E-6,0E0,1.4769612E-6,0E0,0E0,0E0,0E0,0E0,0E0,0E0,0E0,0E0,0E0,0E0,0E0,0E0],"parents":[2147483647,0,0,1,1,2,2,3,3,4,4,5,5,6,6,7,7,8,8,9,9,10,10,15,15,16,16,17,17,18,18,19,19,21,21],"right_children":[2,4,6,8,10,12,14,16,18,20,22,-1,-1,-1,-1,24,26,28,30,32,-1,34,-1,-1,-1,-1,-1,-1,-1,-1,-1,-1,-1,-1,-1],"split_conditions":[4.1261744E0,7.7366567E-1,8.504492E0,1.1370404E-2,2.1541255E0,3.1970532E0,1.1728921E0,-2.9142195E-1,3.4215617E-1,1.3227186E0,3.0896878E0,1.2056116E-3,2.1815405E-3,4.290358E-3,1.6219438E-3,-5.737647E-1,-1.839195E-1,1.488743E-1,5.5996186E-1,1.0247073E0,5.3740636E-4,1.8028419E0,1.1739348E-3,-3.09234E-4,-1.3219944E-4,-7.42642E-5,-2.14304E-5,2.5467645E-5,7.8131416E-5,1.3859852E-4,2.1119605E-4,2.7471693E-4,3.5745098E-4,3.2270217E-4,7.8888296E-4],"split_indices":[2,2,2,2,2,1,5,2,2,2,2,0,0,0,0,2,2,2,2,2,0,1,0,0,0,0,0,0,0,0,0,0,0,0,0],"split_type":[0,0,0,0,0,0,0,0,0,0,0,0,0,0,0,0,0,0,0,0,0,0,0,0,0,0,0,0,0,0,0,0,0,0,0],"sum_hessian":[3.074E3,3.049E3,2.5E1,2.905E3,1.44E2,1.2E1,1.3E1,2.533E3,3.72E2,1.08E2,3.6E1,7E0,5E0,1.1E1,2E0,2.77E2,2.256E3,2.16E2,1.56E2,7.2E1,3.6E1,2.4E1,1.2E1,3.7E1,2.4E2,1.656E3,6E2,1.32E2,8.4E1,9.6E1,6E1,3.6E1,3.6E1,2E0,2.2E1],"tree_param":{"num_deleted":"0","num_feature":"6","num_nodes":"35","size_leaf_vector":"1"}},{"base_weights":[4.375294E-5,-1.9230082E-4,2.7732993E-2,-4.4349724E-4,4.8433477E-3,1.5999567E-2,3.664739E-2,-7.065069E-4,5.4147444E-4,3.3123586E-3,7.7752373E-3,1.1001206E-3,1.9997454E-3,3.8970753E-3,1.513814E-3,-1.9380599E-3,-6.4477505E-4,1.7015789E-4,1.4267706E-3,2.729257E-4,4.1841652E-4,6.553036E-3,1.0655714E-3,-3.8274814E-4,-1.6423313E-4,-8.48532E-5,-4.9152302E-5,7.4796785E-6,5.5969747E-5,1.1362176E-4,1.8410652E-4,8.5445534E-4,5.803531E-4],"categories":[],"categories_nodes":[],"categories_segments":[],"categories_sizes":[],"default_left":[0,0,0,0,0,0,0,0,0,0,0,0,0,0,0,0,0,0,0,0,0,0,0,0,0,0,0,0,0,0,0,0,0],"id":14,"left_children":[1,3,5,7,9,11,13,15,17,19,21,-1,-1,-1,-1,23,25,27,29,-1,-1,31,-1,-1,-1,-1,-1,-1,-1,-1,-1,-1,-1],"loss_changes":[2.0103993E-2,3.860205E-3,2.1331646E-3,7.532023E-4,6.251058E-4,3.978121E-5,1.0968745E-4,1.7315405E-4,2.0126572E-4,3.7890393E-5,1.02678314E-4,0E0,0E0,0E0,0E0,5.461843E-5,6.7843415E-5,1.6042753E-5,1.969593E-5,0E0,0E0,5.6395074E-6,0E0,0E0,0E0,0E0,0E0,0E0,0E0,0E0,0E0,0E0,0E0],"parents":[2147483647,0,0,1,1,2,2,3,3,4,4,5,5,6,6,7,7,8,8,9,9,10,10,15,15,16,16,17,17,18,18,21,21],"right_children":[2,4,6,8,10,12,14,16,18,20,22,-1,-1,-1,-1,24,26,28,30,-1,-1,32,-1,-1,-1,-1,-1,-1,-1,-1,-1,-1,-1],"split_conditions":[4.1261744E0,7.7366567E-1,8.504492E0,-9.134023E-2,1.7674454E0,3.1970532E0,1.1728921E0,-3.777723E-1,2.9053435E-1,1.2155942E0,3.0896878E0,1.1001206E-3,1.9997454E-3,3.8970753E-3,1.513814E-3,-9.8527914E-1,-2.3513311E-1,1.0107546E-1,5.1853764E-1,2.729257E-4,4.1841652E-4,1.5678802E0,1.0655714E-3,-3.8274814E-4,-1.6423313E-4,-8.48532E-5,-4.9152302E-5,7.4796785E-6,5.5969747E-5,1.1362176E-4,1.8410652E-4,8.5445534E-4,5.803531E-4],"split_indices":[2,2,2,2,2,1,5,2,2,2,2,0,0,0,0,2,2,2,2,0,0,4,0,0,0,0,0,0,0,0,0,0,0],"split_type":[0,0,0,0,0,0,0,0,0,0,0,0,0,0,0,0,0,0,0,0,0,0,0,0,0,0,0,0,0,0,0,0,0],"sum_hessian":[3.074E3,3.049E3,2.5E1,2.905E3,1.44E2,1.2E1,1.3E1,2.293E3,6.12E2,9.6E1,4.8E1,7E0,5E0,1.1E1,2E0,1.08E2,2.185E3,4.32E2,1.8E2,6E1,3.6E1,3.6E1,1.2E1,1.3E1,9.5E1,9.36E2,1.249E3,3.48E2,8.4E1,1.08E2,7.2E1,7E0,2.9E1],"tree_param":{"num_deleted":"0","num_feature":"6","num_nodes":"33","size_leaf_vector":"1"}},{"base_weights":[4.3079304E-5,-1.7212915E-4,2.5287028E-2,-3.892243E-4,4.5922E-3,1.4638062E-2,3.336914E-2,-5.509827E-4,1.018991E-3,3.3732043E-3,7.6638316E-3,1.0038601E-3,1.8330999E-3,4.5515853E-3,2.5918594E-2,-7.520261E-4,-2.1691583E-4,5.99021E-4,1.5449754E-3,2.8572516E-3,4.744858E-4,9.1897894E-4,5.734515E-3,3.661938E-3,1.4572519E-2,-2.5565777E-4,-7.0861664E-5,-3.5766792E-5,4.0608534E-6,3.0998923E-5,7.552771E-5,1.2440057E-4,1.7753067E-4,2.4097823E-4,3.227498E-4,1.548741E-4,5.881017E-4,2.0152475E-3,4.1508923E-5],"categories":[],"categories_nodes":[],"categories_segments":[],"categories_sizes":[],"default_left":[0,0,0,0,0,0,0,0,0,0,0,0,0,0,0,0,0,0,0,0,0,0,0,0,0,0,0,0,0,0,0,0,0,0,0,0,0,0,0],"id":15,"left_children":[1,3,5,7,9,11,13,15,17,19,21,-1,-1,-1,23,25,27,29,31,33,-1,-1,35,-1,37,-1,-1,-1,-1,-1,-1,-1,-1,-1,-1,-1,-1,-1,-1],"loss_changes":[1.6709939E-2,3.1564413E-3,1.7492604E-3,6.6525466E-4,4.721412E-4,3.6793994E-5,8.728821E-5,1.7566688E-4,6.556476E-5,5.509064E-5,5.623093E-5,0E0,0E0,0E0,8.0189435E-4,1.2618722E-4,3.5717912E-5,7.3984156E-6,7.011433E-6,4.316622E-6,0E0,0E0,2.5430927E-6,0E0,5.446195E-4,0E0,0E0,0E0,0E0,0E0,0E0,0E0,0E0,0E0,0E0,0E0,0E0,0E0,0E0],"parents":[2147483647,0,0,1,1,2,2,3,3,4,4,5,5,6,6,7,7,8,8,9,9,10,10,14,14,15,15,16,16,17,17,18,18,19,19,22,22,24,24],"right_children":[2,4,6,8,10,12,14,16,18,20,22,-1,-1,-1,24,26,28,30,32,34,-1,-1,36,-1,38,-1,-1,-1,-1,-1,-1,-1,-1,-1,-1,-1,-1,-1,-1],"split_conditions":[4.1261744E0,8.455991E-1,8.504492E0,7.683204E-2,2.1541255E0,3.1970532E0,4.4357066E0,-2.0815101E-1,4.1542196E-1,1.4781204E0,2.825789E0,1.0038601E-3,1.8330999E-3,4.5515853E-3,-1.9896711E-1,-5.737647E-1,-1.04257405E-1,1.8671253E-1,5.5996186E-1,1.1249471E0,4.744858E-4,9.1897894E-4,-4.6492156E-1,3.661938E-3,4.969512E0,-2.5565777E-4,-7.0861664E-5,-3.5766792E-5,4.0608534E-6,3.0998923E-5,7.552771E-5,1.2440057E-4,1.7753067E-4,2.4097823E-4,3.227498E-4,1.548741E-4,5.881017E-4,2.0152475E-3,4.1508923E-5],"split_indices":[2,2,2,2,2,1,1,2,2,2,1,0,0,0,5,2,2,2,2,2,0,0,5,0,1,0,0,0,0,0,0,0,0,0,0,0,0,0,0],"split_type":[0,0,0,0,0,0,0,0,0,0,0,0,0,0,0,0,0,0,0,0,0,0,0,0,0,0,0,0,0,0,0,0,0,0,0,0,0,0,0],"sum_hessian":[3.074E3,3.049E3,2.5E1,2.917E3,1.32E2,1.2E1,1.3E1,2.617E3,3E2,9.6E1,3.6E1,7E0,5E0,3E0,1E1,1.633E3,9.84E2,1.68E2,1.32E2,7.2E1,2.4E1,1.8E1,1.8E1,4E0,6E0,3.7E1,1.596E3,6.36E2,3.48E2,6E1,1.08E2,6E1,7.2E1,3.6E1,3.6E1,1E0,1.7E1,4E0,2E0],"tree_param":{"num_deleted":"0","num_feature":"6","num_nodes":"39","size_leaf_vector":"1"}},{"base_weights":[4.3928325E-5,-1.5401447E-4,2.326245E-2,-3.59424E-4,3.9637387E-3,1.3392484E-2,3.0765818E-2,-5.38367E-4,6.006849E-4,2.9162802E-3,6.942366E-3,9.160223E-4,1.6803418E-3,4.2102165E-3,2.3846617E-2,-1.1044829E-3,-4.4000783E-4,2.6862073E-4,1.2334915E-3,2.34515E-3,3.9642863E-3,8.051639E-3,4.7786554E-4,3.368983E-3,1.340909E-2,-2.640982E-4,-9.826625E-5,-5.2643398E-5,-1.9173787E-5,1.5161881E-5,5.641595E-5,1.0226655E-4,1.5485179E-4,2.0004401E-4,2.6264778E-4,1.0777507E-4,4.0145303E-4,1.4713044E-4,8.2838675E-4,1.8540275E-3,3.874178E-5],"categories":[],"categories_nodes":[],"categories_segments":[],"categories_sizes":[],"default_left":[0,0,0,0,0,0,0,0,0,0,0,0,0,0,0,0,0,0,0,0,0,0,0,0,0,0,0,0,0,0,0,0,0,0,0,0,0,0,0,0,0],"id":16,"left_children":[1,3,5,7,9,11,13,15,17,19,21,-1,-1,-1,23,25,27,29,31,33,35,37,-1,-1,39,-1,-1,-1,-1,-1,-1,-1,-1,-1,-1,-1,-1,-1,-1,-1,-1],"loss_changes":[1.41360955E-2,2.581193E-3,1.5134774E-3,4.99588E-4,4.321523E-4,3.3744378E-5,9.4144605E-5,1.3593666E-4,9.569913E-5,5.5944838E-5,5.0329487E-5,0E0,0E0,0E0,6.783763E-4,6.5162836E-5,4.472278E-5,1.0322619E-5,8.84365E-6,1.8251594E-6,1.0394724E-6,2.2959197E-5,0E0,0E0,4.6053354E-4,0E0,0E0,0E0,0E0,0E0,0E0,0E0,0E0,0E0,0E0,0E0,0E0,0E0,0E0,0E0,0E0],"parents":[2147483647,0,0,1,1,2,2,3,3,4,4,5,5,6,6,7,7,8,8,9,9,10,10,14,14,15,15,16,16,17,17,18,18,19,19,20,20,21,21,24,24],"right_children":[2,4,6,8,10,12,14,16,18,20,22,-1,-1,-1,24,26,28,30,32,34,36,38,-1,-1,40,-1,-1,-1,-1,-1,-1,-1,-1,-1,-1,-1,-1,-1,-1,-1,-1],"split_conditions":[4.1261744E0,7.7366567E-1,8.504492E0,-3.1624246E-2,2.1541255E0,3.1970532E0,4.4357066E0,-2.799508E-1,3.4215617E-1,1.3227186E0,3.0724862E0,9.160223E-4,1.6803418E-3,4.2102165E-3,-1.9896711E-1,-6.9925404E-1,-1.866744E-1,1.488743E-1,5.5996186E-1,1.0247073E0,-4.723838E-1,-4.6492156E-1,4.7786554E-4,3.368983E-3,4.969512E0,-2.640982E-4,-9.826625E-5,-5.2643398E-5,-1.9173787E-5,1.5161881E-5,5.641595E-5,1.0226655E-4,1.5485179E-4,2.0004401E-4,2.6264778E-4,1.0777507E-4,4.0145303E-4,1.4713044E-4,8.2838675E-4,1.8540275E-3,3.874178E-5],"split_indices":[2,2,2,2,2,1,1,2,2,2,3,0,0,0,5,2,2,2,2,2,5,5,0,0,1,0,0,0,0,0,0,0,0,0,0,0,0,0,0,0,0],"split_type":[0,0,0,0,0,0,0,0,0,0,0,0,0,0,0,0,0,0,0,0,0,0,0,0,0,0,0,0,0,0,0,0,0,0,0,0,0,0,0,0,0],"sum_hessian":[3.074E3,3.049E3,2.5E1,2.905E3,1.44E2,1.2E1,1.3E1,2.449E3,4.56E2,1.08E2,3.6E1,7E0,5E0,3E0,1E1,3.61E2,2.088E3,3E2,1.56E2,7.2E1,3.6E1,2.2E1,1.4E1,4E0,6E0,2.5E1,3.36E2,1.548E3,5.4E2,2.16E2,8.4E1,9.6E1,6E1,3.6E1,3.6E1,1E0,3.5E1,1E0,2.1E1,4E0,2E0],"tree_param":{"num_deleted":"0","num_feature":"6","num_nodes":"41","size_leaf_vector":"1"}},{"base_weights":[4.4214572E-5,-1.3785242E-4,2.1400372E-2,-3.3920154E-4,3.2966211E-3,1.2252955E-2,2.8365806E-2,-5.192833E-4,3.4513412E-4,2.2576817E-3,5.7948874E-3,8.3587033E-4,1.540313E-3,3.8944508E-3,2.1940295E-2,-1.480932E-3,-4.7082928E-4,9.920952E-5,9.1523974E-4,1.7797909E-4,2.9235668E-4,4.8064124E-3,8.1624783E-4,3.0994639E-3,1.2338578E-2,-2.9894421E-4,-1.2455146E-4,-6.492029E-5,-3.6295864E-5,1.8289662E-6,2.5311017E-5,6.546044E-5,1.1341962E-4,6.527176E-4,4.1873284E-4,-3.2526517E-4,1.5479225E-3],"categories":[],"categories_nodes":[],"categories_segments":[],"categories_sizes":[],"default_left":[0,0,0,0,0,0,0,0,0,0,0,0,0,0,0,0,0,0,0,0,0,0,0,0,0,0,0,0,0,0,0,0,0,0,0,0,0],"id":17,"left_children":[1,3,5,7,9,11,13,15,17,19,21,-1,-1,-1,23,25,27,29,31,-1,-1,33,-1,-1,35,-1,-1,-1,-1,-1,-1,-1,-1,-1,-1,-1,-1],"loss_changes":[1.1959323E-2,2.1102794E-3,1.3090437E-3,3.5534642E-4,4.255646E-4,3.0728406E-5,9.717606E-5,1.0563416E-4,8.4171195E-5,3.33013E-5,7.54426E-5,0E0,0E0,0E0,5.7388004E-4,3.498573E-5,4.1594903E-5,5.238344E-6,9.586831E-6,0E0,0E0,1.2084551E-5,0E0,0E0,3.931144E-4,0E0,0E0,0E0,0E0,0E0,0E0,0E0,0E0,0E0,0E0,0E0,0E0],"parents":[2147483647,0,0,1,1,2,2,3,3,4,4,5,5,6,6,7,7,8,8,9,9,10,10,14,14,15,15,16,16,17,17,18,18,21,21,24,24],"right_children":[2,4,6,8,10,12,14,16,18,20,22,-1,-1,-1,24,26,28,30,32,-1,-1,34,-1,-1,36,-1,-1,-1,-1,-1,-1,-1,-1,-1,-1,-1,-1],"split_conditions":[4.1261744E0,6.572195E-1,8.504492E0,-9.7889595E-2,1.7674454E0,3.1970532E0,4.4357066E0,-3.777723E-1,2.3715223E-1,1.1249471E0,3.0896878E0,8.3587033E-4,1.540313E-3,3.8944508E-3,-1.9896711E-1,-9.8527914E-1,-2.3865686E-1,1.9026035E-2,4.1542196E-1,1.7797909E-4,2.9235668E-4,1.5678802E0,8.1624783E-4,3.0994639E-3,-1.002306E-2,-2.9894421E-4,-1.2455146E-4,-6.492029E-5,-3.6295864E-5,1.8289662E-6,2.5311017E-5,6.546044E-5,1.1341962E-4,6.527176E-4,4.1873284E-4,-3.2526517E-4,1.5479225E-3],"split_indices":[2,2,2,2,2,1,1,2,2,2,2,0,0,0,5,2,2,2,2,0,0,4,0,0,5,0,0,0,0,0,0,0,0,0,0,0,0],"split_type":[0,0,0,0,0,0,0,0,0,0,0,0,0,0,0,0,0,0,0,0,0,0,0,0,0,0,0,0,0,0,0,0,0,0,0,0,0],"sum_hessian":[3.074E3,3.049E3,2.5E1,2.881E3,1.68E2,1.2E1,1.3E1,2.281E3,6E2,1.2E2,4.8E1,7E0,5E0,3E0,1E1,1.08E2,2.173E3,4.2E2,1.8E2,7.2E1,4.8E1,3.6E1,1.2E1,4E0,6E0,1.3E1,9.5E1,8.17E2,1.356E3,2.76E2,1.44E2,8.4E1,9.6E1,7E0,2.9E1,1E0,5E0],"tree_param":{"num_deleted":"0","num_feature":"6","num_nodes":"37","size_leaf_vector":"1"}},{"base_weights":[4.3901106E-5,-1.2339854E-4,1.9667748E-2,-2.8415216E-4,3.40444E-3,1.1210443E-2,2.611612E-2,-4.1535078E-4,6.462915E-4,2.486297E-3,5.7194512E-3,8.22611E-3,1.5868668E-3,3.6023674E-3,2.013918E-2,-8.387869E-4,-3.198839E-4,3.4041647E-4,1.0995921E-3,2.0900401E-3,3.5439152E-4,6.9185873E-3,4.2192917E-3,1.2114136E-3,1.9152544E-3,2.8515062E-3,1.1279383E-2,-2.711851E-4,-7.79571E-5,-4.0711366E-5,-9.0597105E-6,1.89094E-5,5.2567015E-5,8.877761E-5,1.296345E-4,1.7872064E-4,2.3363861E-4,1.7980281E-4,7.103173E-4,1.7275401E-4,4.4108188E-4,3.886076E-4,-2.9840154E-4,1.5818715E-3,-4.5965116E-6],"categories":[],"categories_nodes":[],"categories_segments":[],"categories_sizes":[],"default_left":[0,0,0,0,0,0,0,0,0,0,0,0,0,0,0,0,0,0,0,0,0,0,0,0,0,0,0,0,0,0,0,0,0,0,0,0,0,0,0,0,0,0,0,0,0],"id":18,"left_children":[1,3,5,7,9,11,13,15,17,19,21,23,-1,-1,25,27,29,31,33,35,-1,37,39,-1,41,-1,43,-1,-1,-1,-1,-1,-1,-1,-1,-1,-1,-1,-1,-1,-1,-1,-1,-1,-1],"loss_changes":[1.0097845E-2,1.7306615E-3,1.1251578E-3,3.5647716E-4,2.6847294E-4,5.0184666E-5,1.035491E-4,1.0313658E-4,4.9679526E-5,3.3244665E-5,3.7367572E-5,2.2216613E-4,0E0,0E0,4.946622E-4,5.0016068E-5,4.1744424E-5,5.9837694E-6,4.8920774E-6,1.270324E-6,0E0,5.18671E-6,1.4476536E-6,0E0,5.9874033E-5,0E0,3.6059372E-4,0E0,0E0,0E0,0E0,0E0,0E0,0E0,0E0,0E0,0E0,0E0,0E0,0E0,0E0,0E0,0E0,0E0,0E0],"parents":[2147483647,0,0,1,1,2,2,3,3,4,4,5,5,6,6,7,7,8,8,9,9,10,10,11,11,14,14,15,15,16,16,17,17,18,18,19,19,21,21,22,22,24,24,26,26],"right_children":[2,4,6,8,10,12,14,16,18,20,22,24,-1,-1,26,28,30,32,34,36,-1,38,40,-1,42,-1,44,-1,-1,-1,-1,-1,-1,-1,-1,-1,-1,-1,-1,-1,-1,-1,-1,-1,-1],"split_conditions":[4.1261744E0,8.455991E-1,8.504492E0,1.9026035E-2,2.1541255E0,7.179936E-1,4.4357066E0,-2.6640305E-1,3.9025545E-1,1.4781204E0,2.825789E0,-2.3747231E-1,1.5868668E-3,3.6023674E-3,-1.9896711E-1,-9.8527914E-1,-1.7760651E-1,1.8671253E-1,5.5996186E-1,1.1249471E0,3.5439152E-4,2.2365897E0,1.0019581E0,1.2114136E-3,2.227952E0,2.8515062E-3,4.969512E0,-2.711851E-4,-7.79571E-5,-4.0711366E-5,-9.0597105E-6,1.89094E-5,5.2567015E-5,8.877761E-5,1.296345E-4,1.7872064E-4,2.3363861E-4,1.7980281E-4,7.103173E-4,1.7275401E-4,4.4108188E-4,3.886076E-4,-2.9840154E-4,1.5818715E-3,-4.5965116E-6],"split_indices":[2,2,2,2,2,5,1,2,2,2,1,5,0,0,5,2,2,2,2,2,0,2,3,0,1,0,1,0,0,0,0,0,0,0,0,0,0,0,0,0,0,0,0,0,0],"split_type":[0,0,0,0,0,0,0,0,0,0,0,0,0,0,0,0,0,0,0,0,0,0,0,0,0,0,0,0,0,0,0,0,0,0,0,0,0,0,0,0,0,0,0,0,0],"sum_hessian":[3.074E3,3.049E3,2.5E1,2.917E3,1.32E2,1.2E1,1.3E1,2.557E3,3.6E2,9.6E1,3.6E1,9E0,3E0,3E0,1E1,4.69E2,2.088E3,2.16E2,1.44E2,7.2E1,2.4E1,1.8E1,1.8E1,5E0,4E0,4E0,6E0,1.3E1,4.56E2,1.512E3,5.76E2,1.2E2,9.6E1,7.2E1,7.2E1,3.6E1,3.6E1,1E0,1.7E1,2E0,1.6E1,3E0,1E0,4E0,2E0],"tree_param":{"num_deleted":"0","num_feature":"6","num_nodes":"45","size_leaf_vector":"1"}},{"base_weights":[4.3765092E-5,-1.1034994E-4,1.812096E-2,-2.5577433E-4,3.0810689E-3,6.78202E-3,2.1941517E-2,-4.0867625E-4,3.9887617E-4,2.245572E-3,5.188154E-3,8.6144445E-4,3.9596767E-3,3.3321895E-3,1.7725077E-2,-1.4301499E-3,-3.7553287E-4,1.6289188E-4,9.341133E-4,1.8866846E-3,3.2037002E-4,4.134422E-3,6.815472E-3,6.974036E-4,1.462578E-4,2.2751221E-2,1.1287939E-2,-2.460036E-4,-1.1703376E-4,-5.1370356E-5,-2.5716427E-5,9.157404E-6,4.135246E-5,7.4809934E-5,1.1684864E-4,1.613316E-4,2.1090618E-4,7.073743E-5,4.401671E-4,7.071823E-4,1.869632E-4,9.112291E-4,2.5778818E-3,1.7898297E-3,-1.4495822E-4],"categories":[],"categories_nodes":[],"categories_segments":[],"categories_sizes":[],"default_left":[0,0,0,0,0,0,0,0,0,0,0,0,0,0,0,0,0,0,0,0,0,0,0,0,0,0,0,0,0,0,0,0,0,0,0,0,0,0,0,0,0,0,0,0,0],"id":19,"left_children":[1,3,5,7,9,11,13,15,17,19,21,-1,23,-1,25,27,29,31,33,35,-1,37,39,-1,-1,41,43,-1,-1,-1,-1,-1,-1,-1,-1,-1,-1,-1,-1,-1,-1,-1,-1,-1,-1],"loss_changes":[8.568849E-3,1.4163239E-3,9.775395E-4,2.92247E-4,2.2249122E-4,7.263443E-6,3.2107625E-4,7.956402E-5,6.96959E-5,2.7310045E-5,3.526802E-5,0E0,2.7435686E-5,0E0,2.6084948E-4,1.6921636E-5,3.7370075E-5,6.8438476E-6,6.4936903E-6,1.0351359E-6,0E0,1.9783241E-5,3.2605603E-6,0E0,0E0,9.544147E-5,7.8374124E-4,0E0,0E0,0E0,0E0,0E0,0E0,0E0,0E0,0E0,0E0,0E0,0E0,0E0,0E0,0E0,0E0,0E0,0E0],"parents":[2147483647,0,0,1,1,2,2,3,3,4,4,5,5,6,6,7,7,8,8,9,9,10,10,12,12,14,14,15,15,16,16,17,17,18,18,19,19,21,21,22,22,25,25,26,26],"right_children":[2,4,6,8,10,12,14,16,18,20,22,-1,24,-1,26,28,30,32,34,36,-1,38,40,-1,-1,42,44,-1,-1,-1,-1,-1,-1,-1,-1,-1,-1,-1,-1,-1,-1,-1,-1,-1,-1],"split_conditions":[4.1261744E0,8.455991E-1,3.1970532E0,-6.51344E-2,2.1541255E0,1.9067123E0,4.4357066E0,-4.366358E-1,3.4215617E-1,1.4781204E0,3.0896878E0,8.6144445E-4,-3.7388214E-1,3.3321895E-3,-1.9896711E-1,-9.8527914E-1,-2.3248293E-1,1.488743E-1,5.5996186E-1,1.1249471E0,3.2037002E-4,1.8028419E0,3.8108845E0,6.974036E-4,1.462578E-4,-3.9656737E-1,4.969512E0,-2.460036E-4,-1.1703376E-4,-5.1370356E-5,-2.5716427E-5,9.157404E-6,4.135246E-5,7.4809934E-5,1.1684864E-4,1.613316E-4,2.1090618E-4,7.073743E-5,4.401671E-4,7.071823E-4,1.869632E-4,9.112291E-4,2.5778818E-3,1.7898297E-3,-1.4495822E-4],"split_indices":[2,2,1,2,2,1,1,2,2,2,2,0,5,0,5,2,2,2,2,2,0,1,1,0,0,5,1,0,0,0,0,0,0,0,0,0,0,0,0,0,0,0,0,0,0],"split_type":[0,0,0,0,0,0,0,0,0,0,0,0,0,0,0,0,0,0,0,0,0,0,0,0,0,0,0,0,0,0,0,0,0,0,0,0,0,0,0,0,0,0,0,0,0],"sum_hessian":[3.074E3,3.049E3,2.5E1,2.917E3,1.32E2,7E0,1.8E1,2.365E3,5.52E2,9.6E1,3.6E1,3E0,4E0,3E0,1.5E1,7.3E1,2.292E3,3.84E2,1.68E2,7.2E1,2.4E1,2.4E1,1.2E1,1E0,3E0,7E0,8E0,1.3E1,6E1,1.056E3,1.236E3,3E2,8.4E1,9.6E1,7.2E1,3.6E1,3.6E1,2E0,2.2E1,1.1E1,1E0,2E0,5E0,5E0,3E0],"tree_param":{"num_deleted":"0","num_feature":"6","num_nodes":"45","size_leaf_vector":"1"}},{"base_weights":[4.3314114E-5,-9.8692086E-5,1.6700068E-2,-2.3026473E-4,2.7887342E-3,6.316956E-3,2.0192953E-2,-3.8106437E-4,3.1032402E-4,2.1884735E-3,5.294321E-3,7.9683616E-4,3.7324405E-3,3.0822759E-3,1.6273443E-2,-1.0280703E-3,-3.3668257E-4,9.9263496E-5,7.9535827E-4,1.7031157E-4,3.0869239E-3,2.5249706E-4,5.7015796E-3,6.625334E-4,1.3528838E-4,2.0912237E-2,1.034191E-2,-2.2316044E-4,-8.936527E-5,-4.580024E-5,-2.5959258E-5,4.312835E-6,2.7190827E-5,5.5293367E-5,9.7710814E-5,1.4488217E-4,3.18885E-4,6.033619E-4,1.6981344E-4,8.504805E-4,2.363058E-3,1.6406773E-3,-1.3408634E-4],"categories":[],"categories_nodes":[],"categories_segments":[],"categories_sizes":[],"default_left":[0,0,0,0,0,0,0,0,0,0,0,0,0,0,0,0,0,0,0,0,0,0,0,0,0,0,0,0,0,0,0,0,0,0,0,0,0,0,0,0,0,0,0],"id":20,"left_children":[1,3,5,7,9,11,13,15,17,19,21,-1,23,-1,25,27,29,31,33,-1,35,-1,37,-1,-1,39,41,-1,-1,-1,-1,-1,-1,-1,-1,-1,-1,-1,-1,-1,-1,-1,-1],"loss_changes":[7.2751367E-3,1.1593563E-3,8.15385E-4,2.3799534E-4,1.8844625E-4,4.403235E-6,2.900157E-4,6.518216E-5,6.5131746E-5,4.2274245E-5,1.3799698E-5,0E0,2.5455709E-5,0E0,2.2397004E-4,2.1625048E-5,1.9867497E-5,4.300964E-6,7.963434E-6,0E0,1.5576079E-6,0E0,1.766946E-5,0E0,0E0,6.884779E-5,6.59689E-4,0E0,0E0,0E0,0E0,0E0,0E0,0E0,0E0,0E0,0E0,0E0,0E0,0E0,0E0,0E0,0E0],"parents":[2147483647,0,0,1,1,2,2,3,3,4,4,5,5,6,6,7,7,8,8,9,9,10,10,12,12,14,14,15,15,16,16,17,17,18,18,20,20,22,22,25,25,26,26],"right_children":[2,4,6,8,10,12,14,16,18,20,22,-1,24,-1,26,28,30,32,34,-1,36,-1,38,-1,-1,40,42,-1,-1,-1,-1,-1,-1,-1,-1,-1,-1,-1,-1,-1,-1,-1,-1],"split_conditions":[4.1261744E0,8.455991E-1,3.1970532E0,-9.7889595E-2,2.2365897E0,1.9067123E0,4.4357066E0,-3.4201074E-1,2.9053435E-1,1.4781204E0,-4.192526E-1,7.9683616E-4,-3.7388214E-1,3.0822759E-3,-1.9896711E-1,-9.8527914E-1,-2.3706068E-1,7.683204E-2,4.5011383E-1,1.7031157E-4,5.48238E-1,2.5249706E-4,3.0724862E0,6.625334E-4,1.3528838E-4,-3.9656737E-1,4.969512E0,-2.2316044E-4,-8.936527E-5,-4.580024E-5,-2.5959258E-5,4.312835E-6,2.7190827E-5,5.5293367E-5,9.7710814E-5,1.4488217E-4,3.18885E-4,6.033619E-4,1.6981344E-4,8.504805E-4,2.363058E-3,1.6406773E-3,-1.3408634E-4],"split_indices":[2,2,1,2,2,1,1,2,2,2,5,0,5,0,5,2,2,2,2,0,1,0,3,0,0,5,1,0,0,0,0,0,0,0,0,0,0,0,0,0,0,0,0],"split_type":[0,0,0,0,0,0,0,0,0,0,0,0,0,0,0,0,0,0,0,0,0,0,0,0,0,0,0,0,0,0,0,0,0,0,0,0,0,0,0,0,0,0,0],"sum_hessian":[3.074E3,3.049E3,2.5E1,2.917E3,1.32E2,7E0,1.8E1,2.281E3,6.36E2,1.08E2,2.4E1,3E0,4E0,3E0,1.5E1,1.45E2,2.136E3,4.44E2,1.92E2,7.2E1,3.6E1,4E0,2E1,1E0,3E0,7E0,8E0,1.3E1,1.32E2,8.28E2,1.308E3,3.36E2,1.08E2,8.4E1,1.08E2,3E0,3.3E1,1.8E1,2E0,2E0,5E0,5E0,3E0],"tree_param":{"num_deleted":"0","num_feature":"6","num_nodes":"43","size_leaf_vector":"1"}},{"base_weights":[4.251346E-5,-8.834419E-5,1.5391487E-2,-2.1821511E-4,2.306145E-3,5.8845934E-3,1.8584311E-2,-3.4471485E-4,2.4158104E-4,1.6853798E-3,4.273887E-3,7.370735E-4,3.5187616E-3,2.851105E-3,1.4941107E-2,-8.3074876E-4,-2.960622E-4,7.7512064E-5,6.436204E-4,1.348518E-3,2.4137008E-3,3.3581834E-3,5.706094E-4,6.2940683E-4,1.2514181E-4,1.9222707E-2,9.4751185E-3,-1.678668E-4,-7.043584E-5,-3.6566908E-5,-1.9673134E-5,3.6027395E-6,2.2597225E-5,4.6320816E-5,7.950783E-5,1.1618961E-4,1.5592195E-4,4.7154634E-5,2.454551E-4,5.274719E-4,2.615314E-4,7.937816E-4,2.1661366E-3,-3.762326E-4,1.3794721E-3],"categories":[],"categories_nodes":[],"categories_segments":[],"categories_sizes":[],"default_left":[0,0,0,0,0,0,0,0,0,0,0,0,0,0,0,0,0,0,0,0,0,0,0,0,0,0,0,0,0,0,0,0,0,0,0,0,0,0,0,0,0,0,0,0,0],"id":21,"left_children":[1,3,5,7,9,11,13,15,17,19,21,-1,23,-1,25,27,29,31,33,35,37,39,-1,-1,-1,41,43,-1,-1,-1,-1,-1,-1,-1,-1,-1,-1,-1,-1,-1,-1,-1,-1,-1,-1],"loss_changes":[6.177591E-3,9.4897556E-4,6.798385E-4,1.6841017E-4,1.8457323E-4,2.1918095E-6,2.6115123E-4,5.3432334E-5,4.117648E-5,2.6431662E-5,2.9362505E-5,0E0,2.3586355E-5,0E0,1.9231346E-4,2.0894397E-5,1.4205711E-5,2.7325343E-6,4.5775087E-6,1.5306578E-6,1.7780549E-6,2.1798362E-5,0E0,0E0,0E0,4.82162E-5,5.665247E-4,0E0,0E0,0E0,0E0,0E0,0E0,0E0,0E0,0E0,0E0,0E0,0E0,0E0,0E0,0E0,0E0,0E0,0E0],"parents":[2147483647,0,0,1,1,2,2,3,3,4,4,5,5,6,6,7,7,8,8,9,9,10,10,12,12,14,14,15,15,16,16,17,17,18,18,19,19,20,20,21,21,25,25,26,26],"right_children":[2,4,6,8,10,12,14,16,18,20,22,-1,24,-1,26,28,30,32,34,36,38,40,-1,-1,-1,42,44,-1,-1,-1,-1,-1,-1,-1,-1,-1,-1,-1,-1,-1,-1,-1,-1,-1,-1],"split_conditions":[4.1261744E0,6.973652E-1,3.1970532E0,-1.04257405E-1,2.1541255E0,1.9067123E0,4.4357066E0,-3.0948502E-1,2.672516E-1,1.3227186E0,3.0896878E0,7.370735E-4,-3.7388214E-1,2.851105E-3,-1.9896711E-1,-6.9925404E-1,-2.204581E-1,7.683204E-2,4.2712763E-1,1.0247073E0,2.987581E-1,1.5678802E0,5.706094E-4,6.2940683E-4,1.2514181E-4,-3.9656737E-1,-1.002306E-2,-1.678668E-4,-7.043584E-5,-3.6566908E-5,-1.9673134E-5,3.6027395E-6,2.2597225E-5,4.6320816E-5,7.950783E-5,1.1618961E-4,1.5592195E-4,4.7154634E-5,2.454551E-4,5.274719E-4,2.615314E-4,7.937816E-4,2.1661366E-3,-3.762326E-4,1.3794721E-3],"split_indices":[2,2,1,2,2,1,1,2,2,2,2,0,5,0,5,2,2,2,2,2,1,4,0,0,0,5,5,0,0,0,0,0,0,0,0,0,0,0,0,0,0,0,0,0,0],"split_type":[0,0,0,0,0,0,0,0,0,0,0,0,0,0,0,0,0,0,0,0,0,0,0,0,0,0,0,0,0,0,0,0,0,0,0,0,0,0,0,0,0,0,0,0,0],"sum_hessian":[3.074E3,3.049E3,2.5E1,2.893E3,1.56E2,7E0,1.8E1,2.269E3,6.24E2,1.2E2,3.6E1,3E0,4E0,3E0,1.5E1,2.05E2,2.064E3,4.44E2,1.8E2,8.4E1,3.6E1,2.4E1,1.2E1,1E0,3E0,7E0,8E0,2.5E1,1.8E2,1.212E3,8.52E2,3.48E2,9.6E1,8.4E1,9.6E1,4.8E1,3.6E1,1E0,3.5E1,5E0,1.9E1,2E0,5E0,2E0,6E0],"tree_param":{"num_deleted":"0","num_feature":"6","num_nodes":"45","size_leaf_vector":"1"}},{"base_weights":[4.1542644E-5,-7.892559E-5,1.4171795E-2,-1.916708E-4,2.1811884E-3,5.482587E-4,1.7084526E-2,-3.0898413E-4,2.3697033E-4,1.5834155E-3,3.8832438E-3,2.6372727E-3,1.36946915E-2,-1.0779788E-3,-2.8308347E-4,7.3036055E-5,6.035328E-4,1.331892E-3,2.375259E-4,3.053925E-3,5.179377E-3,1.7670423E-2,8.639075E-3,-1.8685071E-4,-8.7887434E-5,-4.3814223E-5,-2.2656732E-5,8.1061563E-7,1.5373591E-5,4.3599735E-5,7.648463E-5,1.1303802E-4,1.5627618E-4,4.835159E-4,2.3668584E-4,5.376669E-4,1.4059377E-4,7.408626E-4,1.9856251E-3,1.388998E-3,-1.3970501E-4],"categories":[],"categories_nodes":[],"categories_segments":[],"categories_sizes":[],"default_left":[0,0,0,0,0,0,0,0,0,0,0,0,0,0,0,0,0,0,0,0,0,0,0,0,0,0,0,0,0,0,0,0,0,0,0,0,0,0,0,0,0],"id":22,"left_children":[1,3,5,7,9,-1,11,13,15,17,19,-1,21,23,25,27,29,31,-1,33,35,37,39,-1,-1,-1,-1,-1,-1,-1,-1,-1,-1,-1,-1,-1,-1,-1,-1,-1,-1],"loss_changes":[5.2355262E-3,7.7761E-4,5.643754E-4,1.4620236E-4,1.4138035E-4,0E0,2.3705699E-4,4.5146517E-5,3.751352E-5,1.854566E-5,2.3954199E-5,0E0,1.6894052E-4,1.0005249E-5,1.9258907E-5,2.2676015E-6,4.882495E-6,2.1879387E-6,0E0,1.9151514E-5,2.118817E-6,3.233645E-5,4.936936E-4,0E0,0E0,0E0,0E0,0E0,0E0,0E0,0E0,0E0,0E0,0E0,0E0,0E0,0E0,0E0,0E0,0E0,0E0],"parents":[2147483647,0,0,1,1,2,2,3,3,4,4,6,6,7,7,8,8,9,9,10,10,12,12,13,13,14,14,15,15,16,16,17,17,19,19,20,20,21,21,22,22],"right_children":[2,4,6,8,10,-1,12,14,16,18,20,-1,22,24,26,28,30,32,-1,34,36,38,40,-1,-1,-1,-1,-1,-1,-1,-1,-1,-1,-1,-1,-1,-1,-1,-1,-1,-1],"split_conditions":[4.1261744E0,7.7366567E-1,3.1970532E0,-9.7889595E-2,2.1541255E0,5.482587E-4,4.4357066E0,-4.366358E-1,2.672516E-1,1.4781204E0,3.0896878E0,2.6372727E-3,-1.9896711E-1,-9.8527914E-1,-2.502308E-1,6.900615E-3,4.5011383E-1,1.1249471E0,2.375259E-4,1.5678802E0,3.8108845E0,-3.9656737E-1,4.969512E0,-1.8685071E-4,-8.7887434E-5,-4.3814223E-5,-2.2656732E-5,8.1061563E-7,1.5373591E-5,4.3599735E-5,7.648463E-5,1.1303802E-4,1.5627618E-4,4.835159E-4,2.3668584E-4,5.376669E-4,1.4059377E-4,7.408626E-4,1.9856251E-3,1.388998E-3,-1.3970501E-4],"split_indices":[2,2,1,2,2,0,1,2,2,2,2,0,5,2,2,2,2,2,0,4,1,5,1,0,0,0,0,0,0,0,0,0,0,0,0,0,0,0,0,0,0],"split_type":[0,0,0,0,0,0,0,0,0,0,0,0,0,0,0,0,0,0,0,0,0,0,0,0,0,0,0,0,0,0,0,0,0,0,0,0,0,0,0,0,0],"sum_hessian":[3.074E3,3.049E3,2.5E1,2.905E3,1.44E2,7E0,1.8E1,2.281E3,6.24E2,1.08E2,3.6E1,3E0,1.5E1,7.3E1,2.208E3,4.32E2,1.92E2,8.4E1,2.4E1,2.4E1,1.2E1,7E0,8E0,1.3E1,6E1,5.88E2,1.62E3,2.4E2,1.92E2,9.6E1,9.6E1,4.8E1,3.6E1,5E0,1.9E1,1.1E1,1E0,2E0,5E0,5E0,3E0],"tree_param":{"num_deleted":"0","num_feature":"6","num_nodes":"41","size_leaf_vector":"1"}},{"base_weights":[4.0270203E-5,-7.0475566E-5,1.3030052E-2,-1.6811602E-4,2.0722714E-3,5.002861E-3,1.572413E-2,-2.5697262E-4,3.2626456E-4,1.4938312E-3,3.5327151E-3,6.406735E-4,2.8791898E-3,2.4394777E-3,1.257371E-2,-6.382874E-4,-2.1324867E-4,1.6484014E-4,6.5910927E-4,1.2495999E-3,2.1472336E-3,6.1911857E-4,3.1160507E-3,5.7052355E-4,7.463694E-5,1.6244192E-2,7.913979E-3,-1.6950032E-4,-5.742529E-5,-2.7886304E-5,-9.474149E-6,9.350043E-6,3.1391024E-5,5.3657404E-5,8.1905E-5,5.134454E-5,1.2848343E-4,9.779236E-5,2.262234E-4,4.201221E-5,3.566379E-4,6.914718E-4,1.8201566E-3,-3.4183674E-4,1.164013E-3],"categories":[],"categories_nodes":[],"categories_segments":[],"categories_sizes":[],"default_left":[0,0,0,0,0,0,0,0,0,0,0,0,0,0,0,0,0,0,0,0,0,0,0,0,0,0,0,0,0,0,0,0,0,0,0,0,0,0,0,0,0,0,0,0,0],"id":23,"left_children":[1,3,5,7,9,11,13,15,17,19,21,-1,23,-1,25,27,29,31,33,35,37,-1,39,-1,-1,41,43,-1,-1,-1,-1,-1,-1,-1,-1,-1,-1,-1,-1,-1,-1,-1,-1,-1,-1],"loss_changes":[4.4245003E-3,6.3846563E-4,4.8360694E-4,1.2826858E-4,1.07078464E-4,5.404727E-6,2.1227496E-4,4.1111867E-5,2.3800872E-5,1.2796212E-5,2.1692511E-5,0E0,2.5879031E-5,0E0,1.4509913E-4,1.621386E-5,1.7243583E-5,3.171669E-6,2.402281E-6,1.2337769E-6,1.1494776E-6,0E0,3.9779494E-5,0E0,0E0,2.023112E-5,4.1982468E-4,0E0,0E0,0E0,0E0,0E0,0E0,0E0,0E0,0E0,0E0,0E0,0E0,0E0,0E0,0E0,0E0,0E0,0E0],"parents":[2147483647,0,0,1,1,2,2,3,3,4,4,5,5,6,6,7,7,8,8,9,9,10,10,12,12,14,14,15,15,16,16,17,17,18,18,19,19,20,20,22,22,25,25,26,26],"right_children":[2,4,6,8,10,12,14,16,18,20,22,-1,24,-1,26,28,30,32,34,36,38,-1,40,-1,-1,42,44,-1,-1,-1,-1,-1,-1,-1,-1,-1,-1,-1,-1,-1,-1,-1,-1,-1,-1],"split_conditions":[4.1261744E0,8.455991E-1,3.1970532E0,-1.719004E-2,2.1541255E0,1.9067123E0,4.4357066E0,-2.9586264E-1,3.9025545E-1,1.4781204E0,1.4565009E0,6.406735E-4,-3.7388214E-1,2.4394777E-3,-1.9896711E-1,-9.8527914E-1,-2.0478807E-1,1.8671253E-1,5.894899E-1,-7.0632964E-2,5.48238E-1,6.1911857E-4,2.0300677E0,5.7052355E-4,7.463694E-5,-3.9656737E-1,-1.002306E-2,-1.6950032E-4,-5.742529E-5,-2.7886304E-5,-9.474149E-6,9.350043E-6,3.1391024E-5,5.3657404E-5,8.1905E-5,5.134454E-5,1.2848343E-4,9.779236E-5,2.262234E-4,4.201221E-5,3.566379E-4,6.914718E-4,1.8201566E-3,-3.4183674E-4,1.164013E-3],"split_indices":[2,2,1,2,2,1,1,2,2,2,1,0,5,0,5,2,2,2,2,3,1,0,1,0,0,5,5,0,0,0,0,0,0,0,0,0,0,0,0,0,0,0,0,0,0],"split_type":[0,0,0,0,0,0,0,0,0,0,0,0,0,0,0,0,0,0,0,0,0,0,0,0,0,0,0,0,0,0,0,0,0,0,0,0,0,0,0,0,0,0,0,0,0],"sum_hessian":[3.074E3,3.049E3,2.5E1,2.917E3,1.32E2,7E0,1.8E1,2.473E3,4.44E2,9.6E1,3.6E1,3E0,4E0,3E0,1.5E1,2.53E2,2.22E3,3E2,1.44E2,7.2E1,2.4E1,3E0,3.3E1,1E0,3E0,7E0,8E0,1.3E1,2.4E2,1.428E3,7.92E2,2.04E2,9.6E1,8.4E1,6E1,4E0,6.8E1,3E0,2.1E1,5E0,2.8E1,2E0,5E0,2E0,6E0],"tree_param":{"num_deleted":"0","num_feature":"6","num_nodes":"45","size_leaf_vector":"1"}},{"base_weights":[3.9005034E-5,-6.2957966E-5,1.1998549E-2,-1.4714297E-4,1.9760916E-3,4.663305E-3,1.4455571E-2,-2.1207519E-4,4.4696804E-4,1.5276034E-3,3.6371818E-3,5.926231E-4,2.7203031E-3,2.2565164E-3,1.15247E-2,-4.6740862E-4,-1.5502624E-4,2.7241724E-5,6.4965605E-4,1.1772645E-4,2.0639028E-3,1.4145226E-4,3.9931876E-3,5.419973E-4,6.9039226E-5,1.4933724E-2,7.2139334E-3,-1.1426944E-4,-4.086934E-5,-2.1492478E-5,-1.1383706E-6,5.2826363E-5,7.842789E-5,9.045792E-5,2.1395907E-4,4.264466E-4,9.440265E-5,6.4537354E-4,1.6684765E-3,1.176247E-3,-1.4123545E-4],"categories":[],"categories_nodes":[],"categories_segments":[],"categories_sizes":[],"default_left":[0,0,0,0,0,0,0,0,0,0,0,0,0,0,0,0,0,0,0,0,0,0,0,0,0,0,0,0,0,0,0,0,0,0,0,0,0,0,0,0,0],"id":24,"left_children":[1,3,5,7,9,11,13,15,17,19,21,-1,23,-1,25,27,29,-1,31,-1,33,-1,35,-1,-1,37,39,-1,-1,-1,-1,-1,-1,-1,-1,-1,-1,-1,-1,-1,-1],"loss_changes":[3.7505059E-3,5.238457E-4,4.011835E-4,1.1312524E-4,8.4586325E-5,3.509791E-6,1.9153906E-4,3.8412247E-5,1.0047657E-5,1.579523E-5,1.4133548E-5,0E0,2.365854E-5,0E0,1.2739701E-4,1.8644067E-5,1.8590752E-5,0E0,1.7592101E-6,0E0,1.3112149E-6,0E0,1.3344863E-5,0E0,0E0,1.1111493E-5,3.6974563E-4,0E0,0E0,0E0,0E0,0E0,0E0,0E0,0E0,0E0,0E0,0E0,0E0,0E0,0E0],"parents":[2147483647,0,0,1,1,2,2,3,3,4,4,5,5,6,6,7,7,8,8,9,9,10,10,12,12,14,14,15,15,16,16,18,18,20,20,22,22,25,25,26,26],"right_children":[2,4,6,8,10,12,14,16,18,20,22,-1,24,-1,26,28,30,-1,32,-1,34,-1,36,-1,-1,38,40,-1,-1,-1,-1,-1,-1,-1,-1,-1,-1,-1,-1,-1,-1],"split_conditions":[4.1261744E0,9.148716E-1,3.1970532E0,1.0107546E-1,2.2365897E0,1.9067123E0,4.4357066E0,-2.6455593E-1,4.2712763E-1,1.4781204E0,-4.192526E-1,5.926231E-4,-3.7388214E-1,2.2565164E-3,-1.9896711E-1,-5.737647E-1,-1.7630853E-1,2.7241724E-5,6.325555E-1,1.1772645E-4,5.48238E-1,1.4145226E-4,3.0724862E0,5.419973E-4,6.9039226E-5,-3.9656737E-1,4.969512E0,-1.1426944E-4,-4.086934E-5,-2.1492478E-5,-1.1383706E-6,5.2826363E-5,7.842789E-5,9.045792E-5,2.1395907E-4,4.264466E-4,9.440265E-5,6.4537354E-4,1.6684765E-3,1.176247E-3,-1.4123545E-4],"split_indices":[2,2,1,2,2,1,1,2,2,2,5,0,5,0,5,2,2,0,2,0,1,0,3,0,0,5,1,0,0,0,0,0,0,0,0,0,0,0,0,0,0],"split_type":[0,0,0,0,0,0,0,0,0,0,0,0,0,0,0,0,0,0,0,0,0,0,0,0,0,0,0,0,0,0,0,0,0,0,0,0,0,0,0,0,0],"sum_hessian":[3.074E3,3.049E3,2.5E1,2.929E3,1.2E2,7E0,1.8E1,2.641E3,2.88E2,9.6E1,2.4E1,3E0,4E0,3E0,1.5E1,4.81E2,2.16E3,1.56E2,1.32E2,6E1,3.6E1,4E0,2E1,1E0,3E0,7E0,8E0,3.7E1,4.44E2,1.524E3,6.36E2,7.2E1,6E1,3E0,3.3E1,1.8E1,2E0,2E0,5E0,5E0,3E0],"tree_param":{"num_deleted":"0","num_feature":"6","num_nodes":"41","size_leaf_vector":"1"}},{"base_weights":[3.766526E-5,-5.6312914E-5,1.106058E-2,-1.2843321E-4,1.8907901E-3,4.3474315E-3,1.3305032E-2,-1.8827691E-4,4.4799913E-4,1.5851269E-3,4.0260633E-3,5.481764E-4,2.5704794E-3,2.087278E-3,1.0581531E-2,-4.607505E-4,-1.4375297E-4,3.302459E-4,7.100976E-5,1.1341991E-3,2.060412E-3,9.7953714E-5,4.1983123E-3,5.148975E-4,6.386116E-5,1.3729579E-2,6.6075404E-3,-1.031432E-4,-3.9503346E-5,-1.9002018E-5,2.5559327E-6,2.3135524E-5,4.2573196E-5,1.1980396E-4,6.8602153E-6,3.8078005E-4,1.7031086E-4,4.3781367E-4,1.1101216E-4,7.2481803E-4,1.6168783E-3,1.0782264E-3,-1.3064286E-4],"categories":[],"categories_nodes":[],"categories_segments":[],"categories_sizes":[],"default_left":[0,0,0,0,0,0,0,0,0,0,0,0,0,0,0,0,0,0,0,0,0,0,0,0,0,0,0,0,0,0,0,0,0,0,0,0,0,0,0,0,0,0,0],"id":25,"left_children":[1,3,5,7,9,11,13,15,17,19,21,-1,23,-1,25,27,29,31,-1,33,35,-1,37,-1,-1,39,41,-1,-1,-1,-1,-1,-1,-1,-1,-1,-1,-1,-1,-1,-1,-1,-1],"loss_changes":[3.1860566E-3,4.2854107E-4,3.33908E-4,1.0157113E-4,6.475969E-5,2.0344742E-6,1.7073867E-4,3.22766E-5,8.314528E-6,1.8452032E-5,2.7094793E-6,0E0,2.1618369E-5,0E0,1.09446235E-4,1.3618854E-5,1.7967308E-5,1.7239418E-6,0E0,3.4552868E-6,2.2234919E-5,0E0,1.8037244E-6,0E0,0E0,9.281328E-6,3.1143386E-4,0E0,0E0,0E0,0E0,0E0,0E0,0E0,0E0,0E0,0E0,0E0,0E0,0E0,0E0,0E0,0E0],"parents":[2147483647,0,0,1,1,2,2,3,3,4,4,5,5,6,6,7,7,8,8,9,9,10,10,12,12,14,14,15,15,16,16,17,17,19,19,20,20,22,22,25,25,26,26],"right_children":[2,4,6,8,10,12,14,16,18,20,22,-1,24,-1,26,28,30,32,-1,34,36,-1,38,-1,-1,40,42,-1,-1,-1,-1,-1,-1,-1,-1,-1,-1,-1,-1,-1,-1,-1,-1],"split_conditions":[4.1261744E0,1.0247073E0,3.1970532E0,1.488743E-1,3.0896878E0,1.9067123E0,4.4357066E0,-2.780223E-1,5.894899E-1,2.0300677E0,-4.192526E-1,5.481764E-4,-3.7388214E-1,2.087278E-3,-1.9896711E-1,-5.737647E-1,-1.3318099E-1,3.696241E-1,7.100976E-5,2.1541255E0,1.5678802E0,9.7953714E-5,3.8108845E0,5.148975E-4,6.386116E-5,8.504492E0,4.969512E0,-1.031432E-4,-3.9503346E-5,-1.9002018E-5,2.5559327E-6,2.3135524E-5,4.2573196E-5,1.1980396E-4,6.8602153E-6,3.8078005E-4,1.7031086E-4,4.3781367E-4,1.1101216E-4,7.2481803E-4,1.6168783E-3,1.0782264E-3,-1.3064286E-4],"split_indices":[2,2,1,2,2,1,1,2,2,1,5,0,5,0,5,2,2,2,0,2,4,0,1,0,0,2,1,0,0,0,0,0,0,0,0,0,0,0,0,0,0,0,0],"split_type":[0,0,0,0,0,0,0,0,0,0,0,0,0,0,0,0,0,0,0,0,0,0,0,0,0,0,0,0,0,0,0,0,0,0,0,0,0,0,0,0,0,0,0],"sum_hessian":[3.074E3,3.049E3,2.5E1,2.941E3,1.08E2,7E0,1.8E1,2.665E3,2.76E2,9.6E1,1.2E1,3E0,4E0,3E0,1.5E1,3.73E2,2.292E3,1.92E2,8.4E1,5.1E1,4.5E1,1E0,1.1E1,1E0,3E0,7E0,8E0,3.7E1,3.36E2,1.8E3,4.92E2,9.6E1,9.6E1,4.8E1,3E0,6E0,3.9E1,1E1,1E0,3E0,4E0,5E0,3E0],"tree_param":{"num_deleted":"0","num_feature":"6","num_nodes":"43","size_leaf_vector":"1"}},{"base_weights":[3.643714E-5,-5.0254697E-5,1.0204655E-2,-1.07866676E-4,1.9606557E-3,4.0535544E-4,1.2257505E-2,-1.6824111E-4,4.5196235E-4,1.6288223E-3,3.6732082E-3,1.9307319E-3,9.728957E-3,-2.7366373E-4,-6.903271E-5,3.0976976E-4,6.839339E-5,1.1493405E-3,1.9016255E-3,5.078653E-4,2.7437094E-3,1.2649333E-2,6.0520726E-3,-8.005239E-5,-2.4703559E-5,-1.2223172E-5,2.7038209E-6,2.3058028E-5,3.9649458E-5,1.2721943E-4,6.3455664E-6,3.77973E-4,1.5723692E-4,-3.238668E-5,3.551087E-4,6.704569E-4,1.4875279E-3,-3.0092226E-4,9.070903E-4],"categories":[],"categories_nodes":[],"categories_segments":[],"categories_sizes":[],"default_left":[0,0,0,0,0,0,0,0,0,0,0,0,0,0,0,0,0,0,0,0,0,0,0,0,0,0,0,0,0,0,0,0,0,0,0,0,0,0,0],"id":26,"left_children":[1,3,5,7,9,-1,11,13,15,17,19,-1,21,23,25,27,-1,29,31,-1,33,35,37,-1,-1,-1,-1,-1,-1,-1,-1,-1,-1,-1,-1,-1,-1,-1,-1],"loss_changes":[2.7111298E-3,3.5356169E-4,2.7862284E-4,1.0032494E-4,4.2321015E-5,0E0,1.5085004E-4,2.7989794E-5,9.3206945E-6,7.36308E-6,3.0483207E-6,0E0,9.525148E-5,1.801228E-5,7.0614274E-6,1.1516277E-6,0E0,3.7880163E-6,2.1883854E-5,0E0,2.5916997E-5,6.1294995E-6,2.73487E-4,0E0,0E0,0E0,0E0,0E0,0E0,0E0,0E0,0E0,0E0,0E0,0E0,0E0,0E0,0E0,0E0],"parents":[2147483647,0,0,1,1,2,2,3,3,4,4,6,6,7,7,8,8,9,9,10,10,12,12,13,13,14,14,15,15,17,17,18,18,20,20,21,21,22,22],"right_children":[2,4,6,8,10,-1,12,14,16,18,20,-1,22,24,26,28,-1,30,32,-1,34,36,38,-1,-1,-1,-1,-1,-1,-1,-1,-1,-1,-1,-1,-1,-1,-1,-1],"split_conditions":[4.1261744E0,1.2155942E0,3.1970532E0,1.8671253E-1,3.0896878E0,4.0535544E-4,4.4357066E0,-2.2539338E-1,5.894899E-1,2.0300677E0,1.4565009E0,1.9307319E-3,-1.9896711E-1,-4.5653337E-1,-1.2908266E-1,3.9025545E-1,6.839339E-5,2.1541255E0,2.566021E0,5.078653E-4,1.7714742E0,8.504492E0,-1.002306E-2,-8.005239E-5,-2.4703559E-5,-1.2223172E-5,2.7038209E-6,2.3058028E-5,3.9649458E-5,1.2721943E-4,6.3455664E-6,3.77973E-4,1.5723692E-4,-3.238668E-5,3.551087E-4,6.704569E-4,1.4875279E-3,-3.0092226E-4,9.070903E-4],"split_indices":[2,2,1,2,2,0,1,2,2,1,1,0,5,2,2,2,0,2,1,0,1,2,5,0,0,0,0,0,0,0,0,0,0,0,0,0,0,0,0],"split_type":[0,0,0,0,0,0,0,0,0,0,0,0,0,0,0,0,0,0,0,0,0,0,0,0,0,0,0,0,0,0,0,0,0,0,0,0,0,0,0],"sum_hessian":[3.074E3,3.049E3,2.5E1,2.965E3,8.4E1,7E0,1.8E1,2.677E3,2.88E2,7.2E1,1.2E1,3E0,1.5E1,1.297E3,1.38E3,1.8E2,1.08E2,2.8E1,4.4E1,3E0,9E0,7E0,8E0,6.1E1,1.236E3,8.88E2,4.92E2,9.6E1,8.4E1,2.5E1,3E0,5E0,3.9E1,2E0,7E0,3E0,4E0,2E0,6E0],"tree_param":{"num_deleted":"0","num_feature":"6","num_nodes":"39","size_leaf_vector":"1"}},{"base_weights":[3.4945115E-5,-4.4732114E-5,9.380353E-3,-9.707434E-5,1.7822299E-3,3.6988677E-3,1.1278855E-2,-1.5145967E-4,4.0721975E-4,1.4751017E-3,3.3697784E-3,4.7666143E-4,2.104897E-3,1.7859273E-3,8.928821E-3,-3.2142198E-4,-9.9561046E-5,2.895833E-4,6.3708176E-5,1.0253837E-3,1.7167756E-3,4.697754E-4,2.5016102E-3,4.688848E-4,2.8669741E-5,1.3937274E-2,6.7009265E-3,-1.2613919E-4,-2.9943014E-5,-1.5031529E-5,-3.13791E-7,2.0775986E-5,3.6842135E-5,1.1498687E-4,-3.9528062E-5,3.2205085E-4,1.410703E-4,-3.0227504E-5,3.240366E-4,5.093304E-4,2.0234592E-3,-8.326523E-4,8.647091E-4],"categories":[],"categories_nodes":[],"categories_segments":[],"categories_sizes":[],"default_left":[0,0,0,0,0,0,0,0,0,0,0,0,0,0,0,0,0,0,0,0,0,0,0,0,0,0,0,0,0,0,0,0,0,0,0,0,0,0,0,0,0,0,0],"id":27,"left_children":[1,3,5,7,9,11,13,15,17,19,21,-1,23,-1,25,27,29,31,-1,33,35,-1,37,-1,-1,39,41,-1,-1,-1,-1,-1,-1,-1,-1,-1,-1,-1,-1,-1,-1,-1,-1],"loss_changes":[2.2901143E-3,2.9183616E-4,2.3872498E-4,8.140779E-5,3.647362E-5,3.5824269E-6,1.3435772E-4,2.3590124E-5,7.6301185E-6,6.17365E-6,3.235822E-6,0E0,2.214641E-5,0E0,8.514023E-5,1.256277E-5,1.0046671E-5,1.1684606E-6,0E0,5.4063566E-6,1.6628386E-5,0E0,2.169334E-5,0E0,0E0,1.19712204E-4,4.521967E-4,0E0,0E0,0E0,0E0,0E0,0E0,0E0,0E0,0E0,0E0,0E0,0E0,0E0,0E0,0E0,0E0],"parents":[2147483647,0,0,1,1,2,2,3,3,4,4,5,5,6,6,7,7,8,8,9,9,10,10,12,12,14,14,15,15,16,16,17,17,19,19,20,20,22,22,25,25,26,26],"right_children":[2,4,6,8,10,12,14,16,18,20,22,-1,24,-1,26,28,30,32,-1,34,36,-1,38,-1,-1,40,42,-1,-1,-1,-1,-1,-1,-1,-1,-1,-1,-1,-1,-1,-1,-1,-1],"split_conditions":[4.1261744E0,1.2155942E0,3.1970532E0,1.8671253E-1,3.0896878E0,1.9067123E0,4.4357066E0,-2.51794E-1,6.325555E-1,1.8028419E0,1.4565009E0,4.7666143E-4,-3.7388214E-1,1.7859273E-3,-3.7388214E-1,-9.8527914E-1,-1.7925538E-1,3.9025545E-1,6.3708176E-5,2.1541255E0,1.5678802E0,4.697754E-4,1.7714742E0,4.688848E-4,2.8669741E-5,8.504492E0,-3.5119694E-1,-1.2613919E-4,-2.9943014E-5,-1.5031529E-5,-3.13791E-7,2.0775986E-5,3.6842135E-5,1.1498687E-4,-3.9528062E-5,3.2205085E-4,1.410703E-4,-3.0227504E-5,3.240366E-4,5.093304E-4,2.0234592E-3,-8.326523E-4,8.647091E-4],"split_indices":[2,2,1,2,2,1,1,2,2,1,1,0,5,0,5,2,2,2,0,2,4,0,1,0,0,2,5,0,0,0,0,0,0,0,0,0,0,0,0,0,0,0,0],"split_type":[0,0,0,0,0,0,0,0,0,0,0,0,0,0,0,0,0,0,0,0,0,0,0,0,0,0,0,0,0,0,0,0,0,0,0,0,0,0,0,0,0,0,0],"sum_hessian":[3.074E3,3.049E3,2.5E1,2.965E3,8.4E1,7E0,1.8E1,2.677E3,2.88E2,7.2E1,1.2E1,3E0,4E0,3E0,1.5E1,6.25E2,2.052E3,1.92E2,9.6E1,2.7E1,4.5E1,3E0,9E0,1E0,3E0,3E0,1.2E1,1.3E1,6.12E2,1.344E3,7.08E2,9.6E1,9.6E1,2.5E1,2E0,6E0,3.9E1,2E0,7E0,2E0,1E0,1E0,1.1E1],"tree_param":{"num_deleted":"0","num_feature":"6","num_nodes":"43","size_leaf_vector":"1"}},{"base_weights":[3.358947E-5,-3.984839E-5,8.647123E-3,-8.738379E-5,1.6193262E-3,3.4507578E-3,1.0379955E-2,-1.4808172E-4,2.7989488E-4,1.334969E-3,3.0915379E-3,4.4091177E-4,1.9939183E-3,1.6519822E-3,8.196241E-3,-4.7381106E-4,-1.2487048E-4,1.591274E-4,5.086721E-4,8.86233E-4,1.5366717E-3,4.3454237E-4,2.28083E-3,4.4544062E-4,2.6519503E-5,1.10537E-2,4.745585E-3,-1.1442625E-4,-4.106051E-5,-1.7195374E-5,-4.581656E-6,9.6432805E-6,2.3915984E-5,3.9904393E-5,6.1133214E-5,9.490275E-5,1.093975E-5,2.1689993E-4,1.2729708E-4,3.4025052E-4,4.7865364E-5,5.730886E-4,1.3101212E-3,8.4072363E-4,-1.9332887E-4],"categories":[],"categories_nodes":[],"categories_segments":[],"categories_sizes":[],"default_left":[0,0,0,0,0,0,0,0,0,0,0,0,0,0,0,0,0,0,0,0,0,0,0,0,0,0,0,0,0,0,0,0,0,0,0,0,0,0,0,0,0,0,0,0,0],"id":28,"left_children":[1,3,5,7,9,11,13,15,17,19,21,-1,23,-1,25,27,29,31,33,35,37,-1,39,-1,-1,41,43,-1,-1,-1,-1,-1,-1,-1,-1,-1,-1,-1,-1,-1,-1,-1,-1,-1,-1],"loss_changes":[1.9454651E-3,2.4069357E-4,1.9829627E-4,6.6162655E-5,3.145676E-5,2.377994E-6,1.1934596E-4,1.919008E-5,1.1550801E-5,5.2454707E-6,3.3037795E-6,0E0,2.0086227E-5,0E0,1.0530546E-4,6.691793E-6,8.843315E-6,1.3668123E-6,1.3879435E-6,1.1157044E-6,5.409449E-6,0E0,1.8585946E-5,0E0,0E0,1.2106611E-5,2.3635497E-4,0E0,0E0,0E0,0E0,0E0,0E0,0E0,0E0,0E0,0E0,0E0,0E0,0E0,0E0,0E0,0E0,0E0,0E0],"parents":[2147483647,0,0,1,1,2,2,3,3,4,4,5,5,6,6,7,7,8,8,9,9,10,10,12,12,14,14,15,15,16,16,17,17,18,18,19,19,20,20,22,22,25,25,26,26],"right_children":[2,4,6,8,10,12,14,16,18,20,22,-1,24,-1,26,28,30,32,34,36,38,-1,40,-1,-1,42,44,-1,-1,-1,-1,-1,-1,-1,-1,-1,-1,-1,-1,-1,-1,-1,-1,-1,-1],"split_conditions":[4.1261744E0,1.2155942E0,3.1970532E0,1.537059E-2,3.0896878E0,1.9067123E0,4.4357066E0,-3.2559317E-1,4.9864987E-1,1.4781204E0,1.4565009E0,4.4091177E-4,-3.7388214E-1,1.6519822E-3,-1.9896711E-1,-9.8527914E-1,-2.0641705E-1,2.3715223E-1,6.973652E-1,1.144237E0,1.5678802E0,4.3454237E-4,-1.9896711E-1,4.4544062E-4,2.6519503E-5,8.504492E0,4.969512E0,-1.1442625E-4,-4.106051E-5,-1.7195374E-5,-4.581656E-6,9.6432805E-6,2.3915984E-5,3.9904393E-5,6.1133214E-5,9.490275E-5,1.093975E-5,2.1689993E-4,1.2729708E-4,3.4025052E-4,4.7865364E-5,5.730886E-4,1.3101212E-3,8.4072363E-4,-1.9332887E-4],"split_indices":[2,2,1,2,2,1,1,2,2,2,1,0,5,0,5,2,2,2,2,5,4,0,5,0,0,2,1,0,0,0,0,0,0,0,0,0,0,0,0,0,0,0,0,0,0],"split_type":[0,0,0,0,0,0,0,0,0,0,0,0,0,0,0,0,0,0,0,0,0,0,0,0,0,0,0,0,0,0,0,0,0,0,0,0,0,0,0,0,0,0,0,0,0],"sum_hessian":[3.074E3,3.049E3,2.5E1,2.965E3,8.4E1,7E0,1.8E1,2.545E3,4.2E2,7.2E1,1.2E1,3E0,4E0,3E0,1.5E1,1.68E2,2.377E3,2.76E2,1.44E2,2.4E1,4.8E1,3E0,9E0,1E0,3E0,7E0,8E0,1.3E1,1.55E2,1.489E3,8.88E2,1.56E2,1.2E2,7.2E1,7.2E1,2.2E1,2E0,1.2E1,3.6E1,5E0,4E0,3E0,4E0,5E0,3E0],"tree_param":{"num_deleted":"0","num_feature":"6","num_nodes":"45","size_leaf_vector":"1"}},{"base_weights":[3.228757E-5,-3.5460274E-5,7.978389E-3,-8.1718856E-5,1.3736461E-3,3.2197912E-3,9.562094E-3,-1.4298437E-4,1.9180546E-4,1.1323532E-3,2.8456652E-3,4.0784347E-4,1.8889181E-3,1.5280832E-3,7.5347787E-3,-5.517295E-4,-1.2782977E-4,9.4738134E-5,4.0490789E-4,7.6960115E-4,1.4231734E-3,4.208628E-5,3.0126602E-3,4.231686E-4,2.4530478E-5,1.2562668E-2,5.408137E-3,-4.4308625E-5,-1.0364353E-4,-2.0202917E-5,-9.033617E-6,6.317839E-6,1.8388568E-5,3.1968375E-5,5.1260427E-5,8.459322E-5,-4.5379253E-5,2.7880867E-4,1.1487342E-4,3.1608826E-4,6.911084E-5,4.3716902E-4,1.85678E-3,-8.565262E-4,7.2863593E-4],"categories":[],"categories_nodes":[],"categories_segments":[],"categories_sizes":[],"default_left":[0,0,0,0,0,0,0,0,0,0,0,0,0,0,0,0,0,0,0,0,0,0,0,0,0,0,0,0,0,0,0,0,0,0,0,0,0,0,0,0,0,0,0,0,0],"id":29,"left_children":[1,3,5,7,9,11,13,15,17,19,21,-1,23,-1,25,27,29,31,33,35,37,-1,39,-1,-1,41,43,-1,-1,-1,-1,-1,-1,-1,-1,-1,-1,-1,-1,-1,-1,-1,-1,-1,-1],"loss_changes":[1.6556515E-3,1.9892119E-4,1.6515376E-4,4.9529393E-5,3.1230928E-5,1.4381367E-6,1.05142244E-4,1.4882677E-5,1.1152379E-5,7.8718585E-6,3.996167E-6,0E0,1.8214967E-5,0E0,1.0313967E-4,4.069532E-6,6.461036E-6,1.037808E-6,1.3872668E-6,4.1191943E-6,1.4028163E-5,0E0,1.9447543E-6,0E0,0E0,1.15578936E-4,4.0359644E-4,0E0,0E0,0E0,0E0,0E0,0E0,0E0,0E0,0E0,0E0,0E0,0E0,0E0,0E0,0E0,0E0,0E0,0E0],"parents":[2147483647,0,0,1,1,2,2,3,3,4,4,5,5,6,6,7,7,8,8,9,9,10,10,12,12,14,14,15,15,16,16,17,17,18,18,19,19,20,20,22,22,25,25,26,26],"right_children":[2,4,6,8,10,12,14,16,18,20,22,-1,24,-1,26,28,30,32,34,36,38,-1,40,-1,-1,42,44,-1,-1,-1,-1,-1,-1,-1,-1,-1,-1,-1,-1,-1,-1,-1,-1,-1,-1],"split_conditions":[4.1261744E0,1.1249471E0,3.1970532E0,-4.8846696E-2,3.0896878E0,1.9067123E0,4.4357066E0,-4.1817412E-1,4.1542196E-1,1.8028419E0,-4.192526E-1,4.0784347E-4,-3.7388214E-1,1.5280832E-3,-3.7388214E-1,1.6277906E0,-2.4104334E-1,2.1063653E-1,6.572195E-1,2.1541255E0,2.566021E0,4.208628E-5,3.8108845E0,4.231686E-4,2.4530478E-5,8.504492E0,-3.5119694E-1,-4.4308625E-5,-1.0364353E-4,-2.0202917E-5,-9.033617E-6,6.317839E-6,1.8388568E-5,3.1968375E-5,5.1260427E-5,8.459322E-5,-4.5379253E-5,2.7880867E-4,1.1487342E-4,3.1608826E-4,6.911084E-5,4.3716902E-4,1.85678E-3,-8.565262E-4,7.2863593E-4],"split_indices":[2,2,1,2,2,1,1,2,2,1,5,0,5,0,5,5,2,2,2,2,1,0,1,0,0,2,5,0,0,0,0,0,0,0,0,0,0,0,0,0,0,0,0,0,0],"split_type":[0,0,0,0,0,0,0,0,0,0,0,0,0,0,0,0,0,0,0,0,0,0,0,0,0,0,0,0,0,0,0,0,0,0,0,0,0,0,0,0,0,0,0,0,0],"sum_hessian":[3.074E3,3.049E3,2.5E1,2.953E3,9.6E1,7E0,1.8E1,2.413E3,5.4E2,8.4E1,1.2E1,3E0,4E0,3E0,1.5E1,8.5E1,2.328E3,3.72E2,1.68E2,3.9E1,4.5E1,1E0,1.1E1,1E0,3E0,3E0,1.2E1,7.1E1,1.4E1,7.8E2,1.548E3,2.76E2,9.6E1,9.6E1,7.2E1,3.7E1,2E0,6E0,3.9E1,1E1,1E0,2E0,1E0,1E0,1.1E1],"tree_param":{"num_deleted":"0","num_feature":"6","num_nodes":"45","size_leaf_vector":"1"}},{"base_weights":[3.07956E-5,-3.1654923E-5,7.3555377E-3,-7.088658E-5,1.3376715E-3,3.0047545E-4,8.800313E-3,-1.21894576E-4,2.1835626E-4,1.0956232E-3,2.5939678E-3,1.4134769E-3,6.9166794E-3,-3.902271E-4,-1.0257848E-4,1.1811824E-5,4.0148004E-4,7.427889E-4,1.2986582E-3,3.7824502E-4,1.8591781E-3,9.676167E-3,3.6952815E-3,-9.799133E-5,-3.3480508E-5,-1.3934485E-5,-3.4776237E-6,3.2762702E-5,5.123368E-5,8.9849695E-5,1.25064125E-5,2.8283833E-4,1.03673294E-4,-5.247593E-5,2.5207573E-4,4.900323E-4,1.1561608E-3,-3.7419537E-4,6.354771E-4],"categories":[],"categories_nodes":[],"categories_segments":[],"categories_sizes":[],"default_left":[0,0,0,0,0,0,0,0,0,0,0,0,0,0,0,0,0,0,0,0,0,0,0,0,0,0,0,0,0,0,0,0,0,0,0,0,0,0,0],"id":30,"left_children":[1,3,5,7,9,-1,11,13,15,17,19,-1,21,23,25,-1,27,29,31,-1,33,35,37,-1,-1,-1,-1,-1,-1,-1,-1,-1,-1,-1,-1,-1,-1,-1,-1],"loss_changes":[1.4068424E-3,1.639437E-4,1.3699057E-4,4.3786087E-5,2.3005152E-5,0E0,9.314949E-5,1.303184E-5,8.120984E-6,4.2649262E-6,4.3204564E-6,0E0,1.0647433E-4,5.1951083E-6,5.863307E-6,0E0,1.1175198E-6,2.6769867E-6,1.5098027E-5,0E0,1.7094422E-5,1.5380967E-5,2.0179244E-4,0E0,0E0,0E0,0E0,0E0,0E0,0E0,0E0,0E0,0E0,0E0,0E0,0E0,0E0,0E0,0E0],"parents":[2147483647,0,0,1,1,2,2,3,3,4,4,6,6,7,7,8,8,9,9,10,10,12,12,13,13,14,14,16,16,17,17,18,18,20,20,21,21,22,22],"right_children":[2,4,6,8,10,-1,12,14,16,18,20,-1,22,24,26,-1,28,30,32,-1,34,36,38,-1,-1,-1,-1,-1,-1,-1,-1,-1,-1,-1,-1,-1,-1,-1,-1],"split_conditions":[4.1261744E0,1.2155942E0,3.1970532E0,6.900615E-3,3.0896878E0,3.0047545E-4,4.4357066E0,-3.2559317E-1,4.5011383E-1,2.0300677E0,1.4565009E0,1.4134769E-3,-1.9896711E-1,-9.8527914E-1,-2.0412989E-1,1.1811824E-5,7.7366567E-1,1.144237E0,2.566021E0,3.7824502E-4,1.7714742E0,8.504492E0,-1.002306E-2,-9.799133E-5,-3.3480508E-5,-1.3934485E-5,-3.4776237E-6,3.2762702E-5,5.123368E-5,8.9849695E-5,1.25064125E-5,2.8283833E-4,1.03673294E-4,-5.247593E-5,2.5207573E-4,4.900323E-4,1.1561608E-3,-3.7419537E-4,6.354771E-4],"split_indices":[2,2,1,2,2,0,1,2,2,1,1,0,5,2,2,0,2,5,1,0,1,2,5,0,0,0,0,0,0,0,0,0,0,0,0,0,0,0,0],"split_type":[0,0,0,0,0,0,0,0,0,0,0,0,0,0,0,0,0,0,0,0,0,0,0,0,0,0,0,0,0,0,0,0,0,0,0,0,0,0,0],"sum_hessian":[3.074E3,3.049E3,2.5E1,2.965E3,8.4E1,7E0,1.8E1,2.521E3,4.44E2,7.2E1,1.2E1,3E0,1.5E1,1.68E2,2.353E3,2.88E2,1.56E2,2.8E1,4.4E1,3E0,9E0,7E0,8E0,1.3E1,1.55E2,1.525E3,8.28E2,9.6E1,6E1,2.2E1,6E0,5E0,3.9E1,2E0,7E0,3E0,4E0,2E0,6E0],"tree_param":{"num_deleted":"0","num_feature":"6","num_nodes":"39","size_leaf_vector":"1"}},{"base_weights":[2.9223354E-5,-2.815711E-5,6.759269E-3,-6.11547E-5,1.3183494E-3,2.7418393E-3,8.095068E-3,-9.905569E-5,2.9183773E-4,1.0706924E-3,2.379021E-3,3.5471955E-4,1.5491865E-3,1.307466E-3,6.344228E-3,-2.873526E-4,-7.52111E-5,2.0001844E-5,4.416309E-5,6.139258E-4,1.2476197E-3,3.4987676E-4,1.6932201E-3,3.869865E-4,1.5506521E-7,1.1345832E-2,4.3172557E-3,-8.889217E-5,-2.5721654E-5,-1.0290659E-5,2.527025E-6,1.3963941E-4,4.397299E-5,6.929234E-5,1.6578825E-4,2.6911622E-4,1.5704558E-5,3.7535554E-4,1.706133E-3,-8.7150786E-4,6.12954E-4],"categories":[],"categories_nodes":[],"categories_segments":[],"categories_sizes":[],"default_left":[0,0,0,0,0,0,0,0,0,0,0,0,0,0,0,0,0,0,0,0,0,0,0,0,0,0,0,0,0,0,0,0,0,0,0,0,0,0,0,0,0],"id":31,"left_children":[1,3,5,7,9,11,13,15,17,19,21,-1,23,-1,25,27,29,-1,-1,31,33,-1,35,-1,-1,37,39,-1,-1,-1,-1,-1,-1,-1,-1,-1,-1,-1,-1,-1,-1],"loss_changes":[1.1876727E-3,1.3559661E-4,1.17333024E-4,3.987086E-5,1.6628634E-5,2.1888154E-6,8.270214E-5,1.2056116E-5,3.8865437E-6,4.1637395E-6,4.058813E-6,0E0,1.7951827E-5,0E0,1.1322694E-4,5.246289E-6,6.6509E-6,0E0,0E0,1.9757158E-6,8.63678E-6,0E0,1.49075E-5,0E0,0E0,1.09533954E-4,3.6045726E-4,0E0,0E0,0E0,0E0,0E0,0E0,0E0,0E0,0E0,0E0,0E0,0E0,0E0,0E0],"parents":[2147483647,0,0,1,1,2,2,3,3,4,4,5,5,6,6,7,7,8,8,9,9,10,10,12,12,14,14,15,15,16,16,19,19,20,20,22,22,25,25,26,26],"right_children":[2,4,6,8,10,12,14,16,18,20,22,-1,24,-1,26,28,30,-1,-1,32,34,-1,36,-1,-1,38,40,-1,-1,-1,-1,-1,-1,-1,-1,-1,-1,-1,-1,-1,-1],"split_conditions":[4.1261744E0,1.3227186E0,3.1970532E0,2.1063653E-1,3.0896878E0,1.9067123E0,4.4357066E0,-2.8849894E-1,6.325555E-1,-3.9656737E-1,1.4565009E0,3.5471955E-4,-3.7388214E-1,1.307466E-3,-3.7388214E-1,-9.8527914E-1,-1.3318099E-1,2.0001844E-5,4.416309E-5,1.5678802E0,2.0300677E0,3.4987676E-4,-1.9896711E-1,3.869865E-4,1.5506521E-7,8.504492E0,-3.5119694E-1,-8.889217E-5,-2.5721654E-5,-1.0290659E-5,2.527025E-6,1.3963941E-4,4.397299E-5,6.929234E-5,1.6578825E-4,2.6911622E-4,1.5704558E-5,3.7535554E-4,1.706133E-3,-8.7150786E-4,6.12954E-4],"split_indices":[2,2,1,2,2,1,1,2,2,5,1,0,5,0,5,2,2,0,0,4,1,0,5,0,0,2,5,0,0,0,0,0,0,0,0,0,0,0,0,0,0],"split_type":[0,0,0,0,0,0,0,0,0,0,0,0,0,0,0,0,0,0,0,0,0,0,0,0,0,0,0,0,0,0,0,0,0,0,0,0,0,0,0,0,0],"sum_hessian":[3.074E3,3.049E3,2.5E1,2.977E3,7.2E1,7E0,1.8E1,2.689E3,2.88E2,6E1,1.2E1,3E0,4E0,3E0,1.5E1,3.01E2,2.388E3,1.8E2,1.08E2,1.8E1,4.2E1,3E0,9E0,1E0,3E0,3E0,1.2E1,1.3E1,2.88E2,1.872E3,5.16E2,2E0,1.6E1,1.9E1,2.3E1,5E0,4E0,2E0,1E0,1E0,1.1E1],"tree_param":{"num_deleted":"0","num_feature":"6","num_nodes":"41","size_leaf_vector":"1"}},{"base_weights":[2.7883905E-5,-2.5015122E-5,6.232274E-3,-5.7516583E-5,1.109389E-3,2.5603878E-3,7.4503175E-3,-1.0563264E-4,1.4714233E-4,9.017646E-4,2.189942E-3,3.5658915E-4,1.6309047E-3,1.2094055E-3,5.823738E-3,-4.204625E-4,-9.390152E-5,6.562195E-6,3.0392967E-4,2.83592E-5,9.84264E-4,1.3922528E-5,2.349233E-3,3.6763717E-4,4.8653706E-4,1.0731621E-2,3.8656406E-3,-3.2505293E-5,-8.503977E-5,-1.3880638E-5,-5.539296E-6,2.4107801E-5,4.03945E-5,6.129348E-5,1.2560496E-4,3.2363608E-4,1.693928E-4,1.21347606E-4,1.4333055E-7,3.50332E-4,1.6208262E-3,-8.279324E-4,5.5676646E-4],"categories":[],"categories_nodes":[],"categories_segments":[],"categories_sizes":[],"default_left":[0,0,0,0,0,0,0,0,0,0,0,0,0,0,0,0,0,0,0,0,0,0,0,0,0,0,0,0,0,0,0,0,0,0,0,0,0,0,0,0,0,0,0],"id":32,"left_children":[1,3,5,7,9,11,13,15,17,19,21,-1,23,-1,25,27,29,-1,31,-1,33,-1,35,-1,37,39,41,-1,-1,-1,-1,-1,-1,-1,-1,-1,-1,-1,-1,-1,-1,-1,-1],"loss_changes":[1.00939E-3,1.1251667E-4,9.7209704E-5,2.922287E-5,1.7094862E-5,1.6611593E-6,7.308205E-5,8.831839E-6,7.2015264E-6,3.4437835E-6,3.9195147E-6,0E0,1.2255907E-5,0E0,1.1227722E-4,3.2512899E-6,3.9989172E-6,0E0,1.1158409E-6,0E0,5.6891295E-6,0E0,1.4939069E-6,0E0,1.7614648E-6,1.0156451E-4,3.1481974E-4,0E0,0E0,0E0,0E0,0E0,0E0,0E0,0E0,0E0,0E0,0E0,0E0,0E0,0E0,0E0,0E0],"parents":[2147483647,0,0,1,1,2,2,3,3,4,4,5,5,6,6,7,7,8,8,9,9,10,10,12,12,14,14,15,15,16,16,18,18,20,20,22,22,24,24,25,25,26,26],"right_children":[2,4,6,8,10,12,14,16,18,20,22,-1,24,-1,26,28,30,-1,32,-1,34,-1,36,-1,38,40,42,-1,-1,-1,-1,-1,-1,-1,-1,-1,-1,-1,-1,-1,-1,-1,-1],"split_conditions":[4.1261744E0,1.2155942E0,3.1970532E0,-5.498791E-2,3.0896878E0,1.8028419E0,4.4357066E0,-4.1817412E-1,3.9025545E-1,-4.4372877E-1,-4.192526E-1,3.5658915E-4,-3.7388214E-1,1.2094055E-3,-3.7388214E-1,1.6277906E0,-2.3094885E-1,6.562195E-6,6.973652E-1,2.83592E-5,2.0300677E0,1.3922528E-5,1.4565009E0,3.6763717E-4,1.9067123E0,8.504492E0,-3.5119694E-1,-3.2505293E-5,-8.503977E-5,-1.3880638E-5,-5.539296E-6,2.4107801E-5,4.03945E-5,6.129348E-5,1.2560496E-4,3.2363608E-4,1.693928E-4,1.21347606E-4,1.4333055E-7,3.50332E-4,1.6208262E-3,-8.279324E-4,5.5676646E-4],"split_indices":[2,2,1,2,2,1,1,2,2,5,5,0,5,0,5,5,2,0,2,0,1,0,1,0,1,2,5,0,0,0,0,0,0,0,0,0,0,0,0,0,0,0,0],"split_type":[0,0,0,0,0,0,0,0,0,0,0,0,0,0,0,0,0,0,0,0,0,0,0,0,0,0,0,0,0,0,0,0,0,0,0,0,0,0,0,0,0,0,0],"sum_hessian":[3.074E3,3.049E3,2.5E1,2.965E3,8.4E1,7E0,1.8E1,2.401E3,5.64E2,7.2E1,1.2E1,2E0,5E0,3E0,1.5E1,8.5E1,2.316E3,3.72E2,1.92E2,9E0,6.3E1,1E0,1.1E1,1E0,4E0,3E0,1.2E1,7.1E1,1.4E1,1.068E3,1.248E3,1.2E2,7.2E1,2.8E1,3.5E1,3E0,8E0,1E0,3E0,2E0,1E0,1E0,1.1E1],"tree_param":{"num_deleted":"0","num_feature":"6","num_nodes":"43","size_leaf_vector":"1"}},{"base_weights":[2.6530111E-5,-2.2298436E-5,5.753474E-3,-5.1787145E-5,1.0069463E-3,2.4100645E-3,6.858411E-3,-8.394843E-5,1.9935814E-4,8.1453647E-4,2.0099445E-3,3.328166E-4,1.5493365E-3,1.1186999E-3,5.3476132E-3,-2.1793466E-4,-6.0873757E-5,1.2878425E-5,3.24277E-5,4.6887062E-4,9.451155E-4,2.9936348E-4,1.415474E-3,3.4925528E-4,4.6218262E-4,8.090814E-3,2.3150342E-3,-6.167985E-5,-1.8860394E-5,-9.11533E-6,-9.04386E-7,1.2195645E-4,3.3282304E-5,5.537545E-5,1.3786303E-4,2.351651E-4,8.9667736E-7,1.1528023E-4,1.3271347E-7,3.8775263E-4,9.843281E-4,5.5951055E-4,-3.1838316E-4],"categories":[],"categories_nodes":[],"categories_segments":[],"categories_sizes":[],"default_left":[0,0,0,0,0,0,0,0,0,0,0,0,0,0,0,0,0,0,0,0,0,0,0,0,0,0,0,0,0,0,0,0,0,0,0,0,0,0,0,0,0,0,0],"id":33,"left_children":[1,3,5,7,9,11,13,15,17,19,21,-1,23,-1,25,27,29,-1,-1,31,33,-1,35,-1,37,39,41,-1,-1,-1,-1,-1,-1,-1,-1,-1,-1,-1,-1,-1,-1,-1,-1],"loss_changes":[8.6001627E-4,9.2623006E-5,7.9521444E-5,2.3973576E-5,1.47667015E-5,1.1654338E-6,6.442901E-5,8.117873E-6,2.9292341E-6,2.851848E-6,3.364661E-6,0E0,1.1061253E-5,0E0,1.1437305E-4,4.3994714E-6,3.5224457E-6,0E0,0E0,1.8409628E-6,8.058931E-6,0E0,1.3146309E-5,0E0,1.5898494E-6,2.0901614E-5,1.8014392E-4,0E0,0E0,0E0,0E0,0E0,0E0,0E0,0E0,0E0,0E0,0E0,0E0,0E0,0E0,0E0,0E0],"parents":[2147483647,0,0,1,1,2,2,3,3,4,4,5,5,6,6,7,7,8,8,9,9,10,10,12,12,14,14,15,15,16,16,19,19,20,20,22,22,24,24,25,25,26,26],"right_children":[2,4,6,8,10,12,14,16,18,20,22,-1,24,-1,26,28,30,-1,-1,32,34,-1,36,-1,38,40,42,-1,-1,-1,-1,-1,-1,-1,-1,-1,-1,-1,-1,-1,-1,-1,-1],"split_conditions":[4.1261744E0,1.2155942E0,3.1970532E0,9.233656E-2,3.0896878E0,1.8028419E0,4.4357066E0,-2.7606836E-1,5.5996186E-1,-3.9656737E-1,1.4565009E0,3.328166E-4,-3.7388214E-1,1.1186999E-3,-1.9896711E-1,-6.9925404E-1,-1.9479017E-1,1.2878425E-5,3.24277E-5,1.5678802E0,2.0300677E0,2.9936348E-4,-1.9896711E-1,3.4925528E-4,1.9067123E0,8.504492E0,4.969512E0,-6.167985E-5,-1.8860394E-5,-9.11533E-6,-9.04386E-7,1.2195645E-4,3.3282304E-5,5.537545E-5,1.3786303E-4,2.351651E-4,8.9667736E-7,1.1528023E-4,1.3271347E-7,3.8775263E-4,9.843281E-4,5.5951055E-4,-3.1838316E-4],"split_indices":[2,2,1,2,2,1,1,2,2,5,1,0,5,0,5,2,2,0,0,4,1,0,5,0,1,2,1,0,0,0,0,0,0,0,0,0,0,0,0,0,0,0,0],"split_type":[0,0,0,0,0,0,0,0,0,0,0,0,0,0,0,0,0,0,0,0,0,0,0,0,0,0,0,0,0,0,0,0,0,0,0,0,0,0,0,0,0,0,0],"sum_hessian":[3.074E3,3.049E3,2.5E1,2.965E3,8.4E1,7E0,1.8E1,2.629E3,3.36E2,7.2E1,1.2E1,2E0,5E0,3E0,1.5E1,3.85E2,2.244E3,2.16E2,1.2E2,2.1E1,5.1E1,3E0,9E0,1E0,4E0,7E0,8E0,2.5E1,3.6E2,1.416E3,8.28E2,2E0,1.9E1,2.8E1,2.3E1,5E0,4E0,1E0,3E0,3E0,4E0,5E0,3E0],"tree_param":{"num_deleted":"0","num_feature":"6","num_nodes":"43","size_leaf_vector":"1"}},{"base_weights":[2.5297619E-5,-1.9793613E-5,5.313873E-3,-5.0352148E-5,8.0518797E-4,9.096202E-3,4.212713E-3,-9.2062204E-5,8.721232E-5,6.5684255E-4,1.8501356E-3,3.917411E-4,1.4905684E-3,-8.3575177E-4,5.2092723E-3,-4.3893023E-4,-8.416928E-5,3.899784E-6,2.2125154E-5,4.4580152E-5,8.544787E-4,1.4681369E-6,2.0018667E-3,1.6448705E-3,6.5253754E-3,-2.8668155E-5,-9.52659E-5,-1.3088285E-5,-5.857973E-6,1.410308E-4,6.3609325E-5,3.159337E-4,1.454439E-4,2.877297E-4,1.2265518E-7,1.034797E-3,4.7073956E-4],"categories":[],"categories_nodes":[],"categories_segments":[],"categories_sizes":[],"default_left":[0,0,0,0,0,0,0,0,0,0,0,0,0,0,0,0,0,0,0,0,0,0,0,0,0,0,0,0,0,0,0,0,0,0,0,0,0],"id":34,"left_children":[1,3,5,7,9,11,13,15,17,19,21,-1,-1,-1,23,25,27,-1,-1,-1,29,-1,31,33,35,-1,-1,-1,-1,-1,-1,-1,-1,-1,-1,-1,-1],"loss_changes":[7.3339546E-4,7.6931734E-5,6.996904E-5,1.68887E-5,1.5681195E-5,9.203877E-5,3.1913014E-4,6.1450137E-6,4.4182743E-6,3.664878E-6,3.5910489E-6,0E0,0E0,0E0,8.778012E-5,3.6376177E-6,2.6329253E-6,0E0,0E0,0E0,5.0507806E-6,0E0,3.0085139E-6,1.4176165E-5,5.5529003E-5,0E0,0E0,0E0,0E0,0E0,0E0,0E0,0E0,0E0,0E0,0E0,0E0],"parents":[2147483647,0,0,1,1,2,2,3,3,4,4,5,5,6,6,7,7,8,8,9,9,10,10,14,14,15,15,16,16,20,20,22,22,23,23,24,24],"right_children":[2,4,6,8,10,12,14,16,18,20,22,-1,-1,-1,24,26,28,-1,-1,-1,30,-1,32,34,36,-1,-1,-1,-1,-1,-1,-1,-1,-1,-1,-1,-1],"split_conditions":[4.1261744E0,1.0247073E0,-3.7388214E-1,-1.0667647E-1,3.0896878E0,8.504492E0,-3.5119694E-1,-5.014435E-1,3.696241E-1,1.4781204E0,-4.192526E-1,3.917411E-4,1.4905684E-3,-8.3575177E-4,3.1970532E0,1.6277906E0,-2.4223413E-1,3.899784E-6,2.2125154E-5,4.4580152E-5,1.5678802E0,1.4681369E-6,-3.5119694E-1,1.9067123E0,4.4357066E0,-2.8668155E-5,-9.52659E-5,-1.3088285E-5,-5.857973E-6,1.410308E-4,6.3609325E-5,3.159337E-4,1.454439E-4,2.877297E-4,1.2265518E-7,1.034797E-3,4.7073956E-4],"split_indices":[2,2,5,2,2,2,5,2,2,2,5,0,0,0,1,5,2,0,0,0,4,0,5,1,1,0,0,0,0,0,0,0,0,0,0,0,0],"split_type":[0,0,0,0,0,0,0,0,0,0,0,0,0,0,0,0,0,0,0,0,0,0,0,0,0,0,0,0,0,0,0,0,0,0,0,0,0],"sum_hessian":[3.074E3,3.049E3,2.5E1,2.941E3,1.08E2,4E0,2.1E1,2.257E3,6.84E2,9.6E1,1.2E1,3E0,1E0,1E0,2E1,4.9E1,2.208E3,5.04E2,1.8E2,4.8E1,4.8E1,1E0,1.1E1,6E0,1.4E1,3.9E1,1E1,7.8E2,1.428E3,1.2E1,3.6E1,2E0,9E0,3E0,3E0,3E0,1.1E1],"tree_param":{"num_deleted":"0","num_feature":"6","num_nodes":"37","size_leaf_vector":"1"}}]},"name":"gbtree"},"learner_model_param":{"base_score":"2.8508992E-3","boost_from_average":"1","num_class":"0","num_feature":"6","num_target":"1"},"objective":{"name":"reg:squarederror","reg_loss_param":{"scale_pos_weight":"1"}}},"version":[2,1,3]}