{"learner":{"attributes":{"best_iteration":"60","best_score":"0.0001413079504178"},"feature_names":["f0","f1","f2"],"feature_types":[],"gradient_booster":{"model":{"gbtree_model_param":{"num_parallel_tree":"1","num_trees":"71"},"iteration_indptr":[0,1,2,3,4,5,6,7,8,9,10,11,12,13,14,15,16,17,18,19,20,21,22,23,24,25,26,27,28,29,30,31,32,33,34,35,36,37,38,39,40,41,42,43,44,45,46,47,48,49,50,51,52,53,54,55,56,57,58,59,60,61,62,63,64,65,66,67,68,69,70,71],"tree_info":[0,0,0,0,0,0,0,0,0,0,0,0,0,0,0,0,0,0,0,0,0,0,0,0,0,0,0,0,0,0,0,0,0,0,0,0,0,0,0,0,0,0,0,0,0,0,0,0,0,0,0,0,0,0,0,0,0,0,0,0,0,0,0,0,0,0,0,0,0,0,0],"trees":[{"base_weights":[-0E0,-1.0772904E-3,2.1095301E-3,-1.9286498E-3,4.2121676E-3,-2.6168447E-4,-8.303479E-5,2.4151232E-4,5.0771475E-4],"categories":[],"categories_nodes":[],"categories_segments":[],"categories_sizes":[],"default_left":[0,0,0,0,0,0,0,0,0],"id":0,"left_children":[1,3,-1,5,7,-1,-1,-1,-1],"loss_changes":[1.2862783E-2,2.41434E-3,0E0,3.1487085E-4,2.0933454E-5,0E0,0E0,0E0,0E0],"parents":[2147483647,0,0,1,1,3,3,4,4],"right_children":[2,4,-1,6,8,-1,-1,-1,-1],"split_conditions":[3.1473842E0,9.319198E-1,2.1095301E-3,-2.93389E-2,-4.8970455E-1,-2.6168447E-4,-8.303479E-5,2.4151232E-4,5.0771475E-4],"split_indices":[0,0,0,0,2,0,0,0,0],"split_type":[0,0,0,0,0,0,0,0,0],"sum_hessian":[5.63E2,5.37E2,2.6E1,4.65E2,7.2E1,2.79E2,1.86E2,2.9E1,4.3E1],"tree_param":{"num_deleted":"0","num_feature":"3","num_nodes":"9","size_leaf_vector":"1"}},{"base_weights":[-0E0,-9.6657756E-4,1.9100838E-3,-1.739037E-3,3.8198463E-3,-2.3565597E-4,-7.479773E-5,1.5824131E-4,4.322552E-4],"categories":[],"categories_nodes":[],"categories_segments":[],"categories_sizes":[],"default_left":[0,0,0,0,0,0,0,0,0],"id":1,"left_children":[1,3,-1,5,7,-1,-1,-1,-1],"loss_changes":[1.0536261E-2,1.9801618E-3,0E0,2.518096E-4,1.33609865E-5,0E0,0E0,0E0,0E0],"parents":[2147483647,0,0,1,1,3,3,4,4],"right_children":[2,4,-1,6,8,-1,-1,-1,-1],"split_conditions":[3.1473842E0,9.319198E-1,1.9100838E-3,-2.93389E-2,-5.3885937E-1,-2.3565597E-4,-7.479773E-5,1.5824131E-4,4.322552E-4],"split_indices":[0,0,0,0,2,0,0,0,0],"split_type":[0,0,0,0,0,0,0,0,0],"sum_hessian":[5.63E2,5.37E2,2.6E1,4.65E2,7.2E1,2.79E2,1.86E2,1.8E1,5.4E1],"tree_param":{"num_deleted":"0","num_feature":"3","num_nodes":"9","size_leaf_vector":"1"}},{"base_weights":[-0E0,-8.672827E-4,1.7294942E-3,-1.568275E-3,3.463518E-3,-2.1928044E-4,-7.659561E-5,1.936205E-4,4.1688612E-4],"categories":[],"categories_nodes":[],"categories_segments":[],"categories_sizes":[],"default_left":[0,0,0,0,0,0,0,0,0],"id":2,"left_children":[1,3,-1,5,7,-1,-1,-1,-1],"loss_changes":[8.630711E-3,1.6240049E-3,0E0,2.0164298E-4,6.021757E-6,0E0,0E0,0E0,0E0],"parents":[2147483647,0,0,1,1,3,3,4,4],"right_children":[2,4,-1,6,8,-1,-1,-1,-1],"split_conditions":[3.1473842E0,9.319198E-1,1.7294942E-3,-6.944198E-2,-4.8970455E-1,-2.1928044E-4,-7.659561E-5,1.936205E-4,4.1688612E-4],"split_indices":[0,0,0,0,2,0,0,0,0],"split_type":[0,0,0,0,0,0,0,0,0],"sum_hessian":[5.63E2,5.37E2,2.6E1,4.65E2,7.2E1,2.53E2,2.12E2,2.9E1,4.3E1],"tree_param":{"num_deleted":"0","num_feature":"3","num_nodes":"9","size_leaf_vector":"1"}},{"base_weights":[3.1663428E-6,-7.77821E-4,1.5659783E-3,-1.4145426E-3,3.143231E-3,-1.9172818E-4,-5.97795E-5,5.4406915E-5,3.3822155E-4],"categories":[],"categories_nodes":[],"categories_segments":[],"categories_sizes":[],"default_left":[0,0,0,0,0,0,0,0,0],"id":3,"left_children":[1,3,-1,5,7,-1,-1,-1,-1],"loss_changes":[7.069581E-3,1.3338113E-3,0E0,1.6468007E-4,3.632158E-6,0E0,0E0,0E0,0E0],"parents":[2147483647,0,0,1,1,3,3,4,4],"right_children":[2,4,-1,6,8,-1,-1,-1,-1],"split_conditions":[3.1473842E0,9.319198E-1,1.5659783E-3,-2.93389E-2,-5.683522E-1,-1.9172818E-4,-5.97795E-5,5.4406915E-5,3.3822155E-4],"split_indices":[0,0,0,0,2,0,0,0,0],"split_type":[0,0,0,0,0,0,0,0,0],"sum_hessian":[5.63E2,5.37E2,2.6E1,4.65E2,7.2E1,2.79E2,1.86E2,1E1,6.2E1],"tree_param":{"num_deleted":"0","num_feature":"3","num_nodes":"9","size_leaf_vector":"1"}},{"base_weights":[7.3858437E-6,-6.9778884E-4,1.4179221E-2,-1.2760407E-3,2.8505264E-4,3.8210917E-4,1.5272876E-3,-1.7842183E-4,-6.1447034E-5],"categories":[],"categories_nodes":[],"categories_segments":[],"categories_sizes":[],"default_left":[0,0,0,0,0,0,0,0,0],"id":4,"left_children":[1,3,5,7,-1,-1,-1,-1,-1],"loss_changes":[5.791053E-3,1.094616E-3,3.304798E-5,1.3120373E-4,0E0,0E0,0E0,0E0,0E0],"parents":[2147483647,0,0,1,1,2,2,3,3],"right_children":[2,4,6,8,-1,-1,-1,-1,-1],"split_conditions":[3.1473842E0,9.319198E-1,-5.683522E-1,-6.944198E-2,2.8505264E-4,3.8210917E-4,1.5272876E-3,-1.7842183E-4,-6.1447034E-5],"split_indices":[0,0,2,0,0,0,0,0,0],"split_type":[0,0,0,0,0,0,0,0,0],"sum_hessian":[5.63E2,5.37E2,2.6E1,4.65E2,7.2E1,4E0,2.2E1,2.53E2,2.12E2],"tree_param":{"num_deleted":"0","num_feature":"3","num_nodes":"9","size_leaf_vector":"1"}},{"base_weights":[1.1841E-5,-6.2788406E-4,1.2901812E-2,-1.1513515E-3,2.571291E-3,5.544785E-4,1.4520446E-3,-1.9044003E-4,-7.538351E-5,1.2525392E-4,3.1637627E-4],"categories":[],"categories_nodes":[],"categories_segments":[],"categories_sizes":[],"default_left":[0,0,0,0,0,0,0,0,0,0,0],"id":5,"left_children":[1,3,5,7,9,-1,-1,-1,-1,-1,-1],"loss_changes":[4.7897785E-3,8.920477E-4,6.0582533E-6,1.1091068E-4,7.3201372E-6,0E0,0E0,0E0,0E0,0E0,0E0],"parents":[2147483647,0,0,1,1,2,2,3,3,4,4],"right_children":[2,4,6,8,10,-1,-1,-1,-1,-1,-1],"split_conditions":[3.1473842E0,9.319198E-1,-5.290284E-1,-6.0902965E-1,-4.8970455E-1,5.544785E-4,1.4520446E-3,-1.9044003E-4,-7.538351E-5,1.2525392E-4,3.1637627E-4],"split_indices":[0,0,2,1,2,0,0,0,0,0,0],"split_type":[0,0,0,0,0,0,0,0,0,0,0],"sum_hessian":[5.63E2,5.37E2,2.6E1,4.65E2,7.2E1,7E0,1.9E1,1.5E2,3.15E2,2.9E1,4.3E1],"tree_param":{"num_deleted":"0","num_feature":"3","num_nodes":"11","size_leaf_vector":"1"}},{"base_weights":[1.8227356E-5,-5.627489E-4,1.1757441E-3,-1.0392147E-3,2.33678E-3,-1.6416748E-4,-6.136182E-5,9.949921E-5,2.8292855E-4],"categories":[],"categories_nodes":[],"categories_segments":[],"categories_sizes":[],"default_left":[0,0,0,0,0,0,0,0,0],"id":6,"left_children":[1,3,-1,5,7,-1,-1,-1,-1],"loss_changes":[3.971877E-3,7.346188E-4,0E0,9.554898E-5,6.1061583E-6,0E0,0E0,0E0,0E0],"parents":[2147483647,0,0,1,1,3,3,4,4],"right_children":[2,4,-1,6,8,-1,-1,-1,-1],"split_conditions":[3.1473842E0,9.319198E-1,1.1757441E-3,-5.020692E-1,1.0291421E0,-1.6416748E-4,-6.136182E-5,9.949921E-5,2.8292855E-4],"split_indices":[0,0,0,0,0,0,0,0,0],"split_type":[0,0,0,0,0,0,0,0,0],"sum_hessian":[5.63E2,5.37E2,2.6E1,4.65E2,7.2E1,1.81E2,2.84E2,2.6E1,4.6E1],"tree_param":{"num_deleted":"0","num_feature":"3","num_nodes":"9","size_leaf_vector":"1"}},{"base_weights":[1.9945743E-5,-5.041799E-4,1.0645828E-2,-9.381619E-4,2.1245123E-3,4.879286E-4,1.2515014E-3,-1.296074E-4,-3.4188684E-5,1.8331744E-5,2.3717944E-4],"categories":[],"categories_nodes":[],"categories_segments":[],"categories_sizes":[],"default_left":[0,0,0,0,0,0,0,0,0,0,0],"id":7,"left_children":[1,3,5,7,9,-1,-1,-1,-1,-1,-1],"loss_changes":[3.253336E-3,6.054498E-4,3.087567E-5,8.2513405E-5,9.078358E-6,0E0,0E0,0E0,0E0,0E0,0E0],"parents":[2147483647,0,0,1,1,2,2,3,3,4,4],"right_children":[2,4,6,8,10,-1,-1,-1,-1,-1,-1],"split_conditions":[3.1473842E0,9.319198E-1,-5.0936645E-1,-2.93389E-2,-5.585213E-1,4.879286E-4,1.2515014E-3,-1.296074E-4,-3.4188684E-5,1.8331744E-5,2.3717944E-4],"split_indices":[0,0,2,0,2,0,0,0,0,0,0],"split_type":[0,0,0,0,0,0,0,0,0,0,0],"sum_hessian":[5.63E2,5.37E2,2.6E1,4.65E2,7.2E1,9E0,1.7E1,2.79E2,1.86E2,1.3E1,5.9E1],"tree_param":{"num_deleted":"0","num_feature":"3","num_nodes":"11","size_leaf_vector":"1"}},{"base_weights":[2.4588444E-5,-4.5164942E-4,9.7124865E-3,-8.47016E-4,1.930881E-3,2.6149E-4,1.0670958E-3,-1.5475352E-4,-5.545235E-5,8.392665E-5,2.4622024E-4],"categories":[],"categories_nodes":[],"categories_segments":[],"categories_sizes":[],"default_left":[0,0,0,0,0,0,0,0,0,0,0],"id":8,"left_children":[1,3,5,7,9,-1,-1,-1,-1,-1,-1],"loss_changes":[2.703647E-3,4.9886695E-4,1.2364006E-5,7.327649E-5,6.5155036E-6,0E0,0E0,0E0,0E0,0E0,0E0],"parents":[2147483647,0,0,1,1,2,2,3,3,4,4],"right_children":[2,4,6,8,10,-1,-1,-1,-1,-1,-1],"split_conditions":[3.1473842E0,9.319198E-1,-5.486903E-1,-5.433875E-1,-4.4546524E-1,2.6149E-4,1.0670958E-3,-1.5475352E-4,-5.545235E-5,8.392665E-5,2.4622024E-4],"split_indices":[0,0,2,0,2,0,0,0,0,0,0],"split_type":[0,0,0,0,0,0,0,0,0,0,0],"sum_hessian":[5.63E2,5.37E2,2.6E1,4.65E2,7.2E1,5E0,2.1E1,1.25E2,3.4E2,3.1E1,4.1E1],"tree_param":{"num_deleted":"0","num_feature":"3","num_nodes":"11","size_leaf_vector":"1"}},{"base_weights":[2.7750088E-5,-4.042934E-4,8.85007E-3,-7.6513394E-4,1.758136E-3,3.9300296E-4,1.0384412E-3,-9.423069E-5,-0E0,5.4063752E-5,2.1969572E-4],"categories":[],"categories_nodes":[],"categories_segments":[],"categories_sizes":[],"default_left":[0,0,0,0,0,0,0,0,0,0,0],"id":9,"left_children":[1,3,5,7,9,-1,-1,-1,-1,-1,-1],"loss_changes":[2.2414876E-3,4.122752E-4,3.2370444E-6,6.653476E-5,1.0110831E-5,0E0,0E0,0E0,0E0,0E0,0E0],"parents":[2147483647,0,0,1,1,2,2,3,3,4,4],"right_children":[2,4,6,8,10,-1,-1,-1,-1,-1,-1],"split_conditions":[3.1473842E0,9.319198E-1,-5.0936645E-1,3.0242297E-1,1.0291421E0,3.9300296E-4,1.0384412E-3,-9.423069E-5,-0E0,5.4063752E-5,2.1969572E-4],"split_indices":[0,0,2,0,0,0,0,0,0,0,0],"split_type":[0,0,0,0,0,0,0,0,0,0,0],"sum_hessian":[5.63E2,5.37E2,2.6E1,4.65E2,7.2E1,9E0,1.7E1,3.81E2,8.4E1,2.6E1,4.6E1],"tree_param":{"num_deleted":"0","num_feature":"3","num_nodes":"11","size_leaf_vector":"1"}},{"base_weights":[3.341831E-5,-3.5900046E-4,8.0795045E-4,-7.6052226E-4,1.2429586E-3,-1.3015035E-4,-5.0506507E-5,4.242914E-5,1.9841993E-4],"categories":[],"categories_nodes":[],"categories_segments":[],"categories_sizes":[],"default_left":[0,0,0,0,0,0,0,0,0],"id":10,"left_children":[1,3,-1,5,7,-1,-1,-1,-1],"loss_changes":[1.8639283E-3,3.4296836E-4,0E0,4.12715E-5,3.7459104E-5,0E0,0E0,0E0,0E0],"parents":[2147483647,0,0,1,1,3,3,4,4],"right_children":[2,4,-1,6,8,-1,-1,-1,-1],"split_conditions":[3.1473842E0,4.190865E-1,8.0795045E-4,-5.433875E-1,1.0291421E0,-1.3015035E-4,-5.0506507E-5,4.242914E-5,1.9841993E-4],"split_indices":[0,0,0,0,0,0,0,0,0],"split_type":[0,0,0,0,0,0,0,0,0],"sum_hessian":[5.63E2,5.37E2,2.6E1,4.35E2,1.02E2,1.25E2,3.1E2,5.6E1,4.6E1],"tree_param":{"num_deleted":"0","num_feature":"3","num_nodes":"9","size_leaf_vector":"1"}},{"base_weights":[3.2383334E-5,-3.2107573E-4,7.3156245E-3,-6.873818E-4,1.131815E-3,2.900641E-4,8.6877274E-4,-1.0221822E-4,-3.52655E-5,3.8296905E-5,1.792045E-4],"categories":[],"categories_nodes":[],"categories_segments":[],"categories_sizes":[],"default_left":[0,0,0,0,0,0,0,0,0,0,0],"id":11,"left_children":[1,3,5,7,9,-1,-1,-1,-1,-1,-1],"loss_changes":[1.5266769E-3,2.833138E-4,1.2906035E-5,3.4628E-5,2.8391907E-5,0E0,0E0,0E0,0E0,0E0,0E0],"parents":[2147483647,0,0,1,1,2,2,3,3,4,4],"right_children":[2,4,6,8,10,-1,-1,-1,-1,-1,-1],"split_conditions":[3.1473842E0,4.190865E-1,-5.0936645E-1,-1.9144018E-1,1.0291421E0,2.900641E-4,8.6877274E-4,-1.0221822E-4,-3.52655E-5,3.8296905E-5,1.792045E-4],"split_indices":[0,0,2,1,0,0,0,0,0,0,0],"split_type":[0,0,0,0,0,0,0,0,0,0,0],"sum_hessian":[5.63E2,5.37E2,2.6E1,4.35E2,1.02E2,9E0,1.7E1,2.01E2,2.34E2,5.6E1,4.6E1],"tree_param":{"num_deleted":"0","num_feature":"3","num_nodes":"11","size_leaf_vector":"1"}},{"base_weights":[3.4208355E-5,-2.8688827E-4,6.6836346E-3,-5.6319626E-4,1.336622E-3,-0E0,7.1039743E-4,-7.017996E-5,-0E0,1.7398785E-5,1.7243513E-4],"categories":[],"categories_nodes":[],"categories_segments":[],"categories_sizes":[],"default_left":[0,0,0,0,0,0,0,0,0,0,0],"id":12,"left_children":[1,3,5,7,9,-1,-1,-1,-1,-1,-1],"loss_changes":[1.2721124E-3,2.3496003E-4,7.976429E-6,4.0420753E-5,1.3699464E-5,0E0,0E0,0E0,0E0,0E0,0E0],"parents":[2147483647,0,0,1,1,2,2,3,3,4,4],"right_children":[2,4,6,8,10,-1,-1,-1,-1,-1,-1],"split_conditions":[3.1473842E0,9.319198E-1,-5.781832E-1,3.0242297E-1,-5.0936645E-1,-0E0,7.1039743E-4,-7.017996E-5,-0E0,1.7398785E-5,1.7243513E-4],"split_indices":[0,0,2,0,2,0,0,0,0,0,0],"split_type":[0,0,0,0,0,0,0,0,0,0,0],"sum_hessian":[5.63E2,5.37E2,2.6E1,4.65E2,7.2E1,3E0,2.3E1,3.81E2,8.4E1,2.5E1,4.7E1],"tree_param":{"num_deleted":"0","num_feature":"3","num_nodes":"11","size_leaf_vector":"1"}},{"base_weights":[3.750329E-5,-2.530923E-4,6.089484E-3,-5.6015025E-4,9.4894087E-4,1.993405E-4,7.103767E-4,-1.01471574E-4,-3.4075132E-5,1.3057863E-5,1.404162E-4],"categories":[],"categories_nodes":[],"categories_segments":[],"categories_sizes":[],"default_left":[0,0,0,0,0,0,0,0,0,0,0],"id":13,"left_children":[1,3,5,7,9,-1,-1,-1,-1,-1,-1],"loss_changes":[1.0534499E-3,1.9566645E-4,2.0381995E-6,2.9459334E-5,2.2935019E-5,0E0,0E0,0E0,0E0,0E0,0E0],"parents":[2147483647,0,0,1,1,2,2,3,3,4,4],"right_children":[2,4,6,8,10,-1,-1,-1,-1,-1,-1],"split_conditions":[3.1473842E0,4.190865E-1,-5.191974E-1,-5.433875E-1,-4.4546524E-1,1.993405E-4,7.103767E-4,-1.01471574E-4,-3.4075132E-5,1.3057863E-5,1.404162E-4],"split_indices":[0,0,2,0,2,0,0,0,0,0,0],"split_type":[0,0,0,0,0,0,0,0,0,0,0],"sum_hessian":[5.63E2,5.37E2,2.6E1,4.35E2,1.02E2,8E0,1.8E1,1.25E2,3.1E2,4.5E1,5.7E1],"tree_param":{"num_deleted":"0","num_feature":"3","num_nodes":"11","size_leaf_vector":"1"}},{"base_weights":[3.7989386E-5,-3.446438E-4,3.969897E-3,-5.7592825E-4,2.5145628E-4,1.7109554E-4,5.5665197E-4,-8.7141816E-5,-3.366568E-5,-3.9347424E-7,6.179832E-5],"categories":[],"categories_nodes":[],"categories_segments":[],"categories_sizes":[],"default_left":[0,0,0,0,0,0,0,0,0,0,0],"id":14,"left_children":[1,3,5,7,9,-1,-1,-1,-1,-1,-1],"loss_changes":[8.8758295E-4,7.425751E-5,1.0228966E-4,1.4522826E-5,1.8547147E-5,0E0,0E0,0E0,0E0,0E0,0E0],"parents":[2147483647,0,0,1,1,2,2,3,3,4,4],"right_children":[2,4,6,8,10,-1,-1,-1,-1,-1,-1],"split_conditions":[1.5468338E0,3.0242297E-1,3.1473842E0,-6.0902965E-1,-4.2088786E-1,1.7109554E-4,5.5665197E-4,-8.7141816E-5,-3.366568E-5,-3.9347424E-7,6.179832E-5],"split_indices":[0,0,0,1,2,0,0,0,0,0,0],"split_type":[0,0,0,0,0,0,0,0,0,0,0],"sum_hessian":[5.63E2,5.12E2,5.1E1,3.81E2,1.31E2,2.5E1,2.6E1,1.5E2,2.31E2,6.2E1,6.9E1],"tree_param":{"num_deleted":"0","num_feature":"3","num_nodes":"11","size_leaf_vector":"1"}},{"base_weights":[3.419493E-5,-3.1230037E-4,3.612748E-3,-6.045312E-4,5.573734E-5,1.5495447E-3,5.0402307E-3,-7.5051634E-5,-2.1776E-5,-1.8097347E-5,3.9541723E-5,-0E0,1.6600637E-4,1.7377044E-4,6.207014E-4],"categories":[],"categories_nodes":[],"categories_segments":[],"categories_sizes":[],"default_left":[0,0,0,0,0,0,0,0,0,0,0,0,0,0,0],"id":15,"left_children":[1,3,5,7,9,11,13,-1,-1,-1,-1,-1,-1,-1,-1],"loss_changes":[7.346497E-4,6.0766422E-5,7.7009434E-5,7.0956303E-6,1.9418436E-5,1.1327211E-6,1.0340533E-5,0E0,0E0,0E0,0E0,0E0,0E0,0E0,0E0],"parents":[2147483647,0,0,1,1,2,2,3,3,4,4,5,5,6,6],"right_children":[2,4,6,8,10,12,14,-1,-1,-1,-1,-1,-1,-1,-1],"split_conditions":[1.5468338E0,1.3451903E-1,3.1473842E0,-6.944198E-2,-3.9631048E-1,-5.781832E-1,-4.4546524E-1,-7.5051634E-5,-2.1776E-5,-1.8097347E-5,3.9541723E-5,-0E0,1.6600637E-4,1.7377044E-4,6.207014E-4],"split_indices":[0,1,0,0,2,2,2,0,0,0,0,0,0,0,0],"split_type":[0,0,0,0,0,0,0,0,0,0,0,0,0,0,0],"sum_hessian":[5.63E2,5.12E2,5.1E1,3E2,2.12E2,2.5E1,2.6E1,1.98E2,1.02E2,1.08E2,1.04E2,3E0,2.2E1,1E1,1.6E1],"tree_param":{"num_deleted":"0","num_feature":"3","num_nodes":"15","size_leaf_vector":"1"}},{"base_weights":[3.3490764E-5,-2.8323793E-4,3.3209182E-3,-4.808788E-4,2.1504512E-4,1.4117282E-4,4.6159057E-3,-7.639001E-5,-3.0020503E-5,-0E0,5.3261097E-5,-0E0,5.011146E-4],"categories":[],"categories_nodes":[],"categories_segments":[],"categories_sizes":[],"default_left":[0,0,0,0,0,0,0,0,0,0,0,0,0],"id":16,"left_children":[1,3,5,7,9,-1,11,-1,-1,-1,-1,-1,-1],"loss_changes":[6.195578E-4,5.3383497E-5,5.9748883E-5,8.573923E-6,1.3871666E-5,0E0,4.191068E-6,0E0,0E0,0E0,0E0,0E0,0E0],"parents":[2147483647,0,0,1,1,2,2,3,3,4,4,6,6],"right_children":[2,4,6,8,10,-1,12,-1,-1,-1,-1,-1,-1],"split_conditions":[1.5468338E0,3.0242297E-1,3.1473842E0,-5.433875E-1,-4.2088786E-1,1.4117282E-4,-5.683522E-1,-7.639001E-5,-3.0020503E-5,-0E0,5.3261097E-5,-0E0,5.011146E-4],"split_indices":[0,0,0,0,2,0,2,0,0,0,0,0,0],"split_type":[0,0,0,0,0,0,0,0,0,0,0,0,0],"sum_hessian":[5.63E2,5.12E2,5.1E1,3.81E2,1.31E2,2.5E1,2.6E1,1.25E2,2.56E2,6.2E1,6.9E1,4E0,2.2E1],"tree_param":{"num_deleted":"0","num_feature":"3","num_nodes":"13","size_leaf_vector":"1"}},{"base_weights":[3.1728367E-5,-2.568329E-4,3.043702E-3,-4.358226E-4,1.8730912E-4,1.2785464E-3,4.2150137E-3,-5.1488E-5,-0E0,-0E0,4.8819737E-5,-0E0,1.4071858E-4,1.325149E-4,5.1813526E-4],"categories":[],"categories_nodes":[],"categories_segments":[],"categories_sizes":[],"default_left":[0,0,0,0,0,0,0,0,0,0,0,0,0,0,0],"id":17,"left_children":[1,3,5,7,9,11,13,-1,-1,-1,-1,-1,-1,-1,-1],"loss_changes":[5.1967026E-4,4.3429227E-5,4.5527006E-5,8.070805E-6,1.1677335E-5,1.2348173E-6,1.4321413E-6,0E0,0E0,0E0,0E0,0E0,0E0,0E0,0E0],"parents":[2147483647,0,0,1,1,2,2,3,3,4,4,5,5,6,6],"right_children":[2,4,6,8,10,12,14,-1,-1,-1,-1,-1,-1,-1,-1],"split_conditions":[1.5468338E0,3.0242297E-1,3.1473842E0,3.2632715E-1,-3.9631048E-1,-5.683522E-1,-4.4546524E-1,-5.1488E-5,-0E0,-0E0,4.8819737E-5,-0E0,1.4071858E-4,1.325149E-4,5.1813526E-4],"split_indices":[0,0,0,1,2,2,2,0,0,0,0,0,0,0,0],"split_type":[0,0,0,0,0,0,0,0,0,0,0,0,0,0,0],"sum_hessian":[5.63E2,5.12E2,5.1E1,3.81E2,1.31E2,2.5E1,2.6E1,3.03E2,7.8E1,6.4E1,6.7E1,4E0,2.1E1,1E1,1.6E1],"tree_param":{"num_deleted":"0","num_feature":"3","num_nodes":"15","size_leaf_vector":"1"}},{"base_weights":[3.130241E-5,-2.3282133E-4,2.804266E-3,-3.5800537E-4,3.4032602E-4,1.1670337E-4,3.8653662E-4,-5.6411063E-5,-1.37847965E-5,-0E0,5.162384E-5],"categories":[],"categories_nodes":[],"categories_segments":[],"categories_sizes":[],"default_left":[0,0,0,0,0,0,0,0,0,0,0],"id":18,"left_children":[1,3,5,7,9,-1,-1,-1,-1,-1,-1],"loss_changes":[4.401367E-4,3.7202604E-5,3.4116034E-5,1.2670229E-5,5.6988556E-6,0E0,0E0,0E0,0E0,0E0,0E0],"parents":[2147483647,0,0,1,1,2,2,3,3,4,4],"right_children":[2,4,6,8,10,-1,-1,-1,-1,-1,-1],"split_conditions":[1.5468338E0,4.190865E-1,3.1473842E0,-4.4546524E-1,-5.191974E-1,1.1670337E-4,3.8653662E-4,-5.6411063E-5,-1.37847965E-5,-0E0,5.162384E-5],"split_indices":[0,0,0,2,2,0,0,0,0,0,0],"split_type":[0,0,0,0,0,0,0,0,0,0,0],"sum_hessian":[5.63E2,5.12E2,5.1E1,4.35E2,7.7E1,2.5E1,2.6E1,2E2,2.35E2,2.3E1,5.4E1],"tree_param":{"num_deleted":"0","num_feature":"3","num_nodes":"11","size_leaf_vector":"1"}},{"base_weights":[2.9117164E-5,-2.099704E-4,2.5572656E-3,-4.262203E-4,5.0049723E-5,6.840592E-5,3.3707437E-4,-4.8388098E-5,-0E0,-1.1486234E-5,3.152895E-5],"categories":[],"categories_nodes":[],"categories_segments":[],"categories_sizes":[],"default_left":[0,0,0,0,0,0,0,0,0,0,0],"id":19,"left_children":[1,3,5,7,9,-1,-1,-1,-1,-1,-1],"loss_changes":[3.6548977E-4,3.266746E-5,3.5993435E-5,3.6465135E-6,1.1397348E-5,0E0,0E0,0E0,0E0,0E0,0E0],"parents":[2147483647,0,0,1,1,2,2,3,3,4,4],"right_children":[2,4,6,8,10,-1,-1,-1,-1,-1,-1],"split_conditions":[1.5468338E0,1.3451903E-1,-4.798736E-1,2.0277289E-1,-3.9631048E-1,6.840592E-5,3.3707437E-4,-4.8388098E-5,-0E0,-1.1486234E-5,3.152895E-5],"split_indices":[0,1,2,0,2,0,0,0,0,0,0],"split_type":[0,0,0,0,0,0,0,0,0,0,0],"sum_hessian":[5.63E2,5.12E2,5.1E1,3E2,2.12E2,2E1,3.1E1,2.48E2,5.2E1,1.08E2,1.04E2],"tree_param":{"num_deleted":"0","num_feature":"3","num_nodes":"11","size_leaf_vector":"1"}},{"base_weights":[2.58299E-5,-1.9057069E-4,2.332172E-3,-2.999995E-4,2.941622E-4,8.504642E-5,3.2691538E-4,-4.772664E-5,-1.0478057E-5,-0E0,4.364335E-5],"categories":[],"categories_nodes":[],"categories_segments":[],"categories_sizes":[],"default_left":[0,0,0,0,0,0,0,0,0,0,0],"id":20,"left_children":[1,3,5,7,9,-1,-1,-1,-1,-1,-1],"loss_changes":[3.0382114E-4,2.7428709E-5,2.7520873E-5,9.209973E-6,4.3500263E-6,0E0,0E0,0E0,0E0,0E0,0E0],"parents":[2147483647,0,0,1,1,2,2,3,3,4,4],"right_children":[2,4,6,8,10,-1,-1,-1,-1,-1,-1],"split_conditions":[1.5468338E0,4.190865E-1,3.1473842E0,-4.4546524E-1,-5.290284E-1,8.504642E-5,3.2691538E-4,-4.772664E-5,-1.0478057E-5,-0E0,4.364335E-5],"split_indices":[0,0,0,2,2,0,0,0,0,0,0],"split_type":[0,0,0,0,0,0,0,0,0,0,0],"sum_hessian":[5.63E2,5.12E2,5.1E1,4.35E2,7.7E1,2.5E1,2.6E1,2E2,2.35E2,2E1,5.7E1],"tree_param":{"num_deleted":"0","num_feature":"3","num_nodes":"11","size_leaf_vector":"1"}},{"base_weights":[2.3870743E-5,-2.1673311E-4,1.7716475E-3,-3.5881987E-4,-0E0,8.1714E-4,2.9600707E-3,-4.583415E-5,-6.5169675E-6,-1.9646106E-5,1.2126246E-5,-0E0,1.0328387E-4,6.404785E-5,3.8421797E-4],"categories":[],"categories_nodes":[],"categories_segments":[],"categories_sizes":[],"default_left":[0,0,0,0,0,0,0,0,0,0,0,0,0,0,0],"id":21,"left_children":[1,3,5,7,9,11,13,-1,-1,-1,-1,-1,-1,-1,-1],"loss_changes":[2.5350967E-4,1.5684314E-5,4.1975087E-5,3.5312805E-6,4.5132083E-6,4.01973E-6,7.75083E-6,0E0,0E0,0E0,0E0,0E0,0E0,0E0,0E0],"parents":[2147483647,0,0,1,1,2,2,3,3,4,4,5,5,6,6],"right_children":[2,4,6,8,10,12,14,-1,-1,-1,-1,-1,-1,-1,-1],"split_conditions":[1.0291421E0,1.3451903E-1,3.1473842E0,-6.944198E-2,-4.9953553E-1,-5.290284E-1,-4.2088786E-1,-4.583415E-5,-6.5169675E-6,-1.9646106E-5,1.2126246E-5,-0E0,1.0328387E-4,6.404785E-5,3.8421797E-4],"split_indices":[0,1,0,0,2,2,2,0,0,0,0,0,0,0,0],"split_type":[0,0,0,0,0,0,0,0,0,0,0,0,0,0,0],"sum_hessian":[5.63E2,4.91E2,7.2E1,3E2,1.91E2,4.6E1,2.6E1,1.98E2,1.02E2,6.8E1,1.23E2,1.4E1,3.2E1,1.1E1,1.5E1],"tree_param":{"num_deleted":"0","num_feature":"3","num_nodes":"15","size_leaf_vector":"1"}},{"base_weights":[2.3536693E-5,-1.5638368E-4,1.973133E-3,-3.2651512E-4,3.8132494E-5,6.203108E-5,2.8055E-4,-4.1285202E-5,-5.8747196E-6,-7.682719E-6,2.516954E-5],"categories":[],"categories_nodes":[],"categories_segments":[],"categories_sizes":[],"default_left":[0,0,0,0,0,0,0,0,0,0,0],"id":22,"left_children":[1,3,5,7,9,-1,-1,-1,-1,-1,-1],"loss_changes":[2.166412E-4,1.9895917E-5,2.2248816E-5,2.217781E-6,7.019353E-6,0E0,0E0,0E0,0E0,0E0,0E0],"parents":[2147483647,0,0,1,1,2,2,3,3,4,4],"right_children":[2,4,6,8,10,-1,-1,-1,-1,-1,-1],"split_conditions":[1.5468338E0,1.3451903E-1,-3.9631048E-1,-6.944198E-2,-3.9631048E-1,6.203108E-5,2.8055E-4,-4.1285202E-5,-5.8747196E-6,-7.682719E-6,2.516954E-5],"split_indices":[0,1,2,0,2,0,0,0,0,0,0],"split_type":[0,0,0,0,0,0,0,0,0,0,0],"sum_hessian":[5.63E2,5.12E2,5.1E1,3E2,2.12E2,2.5E1,2.6E1,1.98E2,1.02E2,1.08E2,1.04E2],"tree_param":{"num_deleted":"0","num_feature":"3","num_nodes":"11","size_leaf_vector":"1"}},{"base_weights":[2.0243024E-5,-1.826154E-4,1.5151738E-3,-3.6222074E-4,-1.5464302E-5,6.5480376E-4,2.5549852E-3,-4.024088E-5,-0E0,-2.986306E-5,1.0076393E-5,-0E0,7.796777E-5,-0E0,2.90903E-4],"categories":[],"categories_nodes":[],"categories_segments":[],"categories_sizes":[],"default_left":[0,0,0,0,0,0,0,0,0,0,0,0,0,0,0],"id":23,"left_children":[1,3,5,7,9,11,13,-1,-1,-1,-1,-1,-1,-1,-1],"loss_changes":[1.849305E-4,1.1000206E-5,3.114737E-5,3.1683321E-6,1.1420156E-5,2.4296733E-6,2.4241454E-6,0E0,0E0,0E0,0E0,0E0,0E0,0E0,0E0],"parents":[2147483647,0,0,1,1,2,2,3,3,4,4,5,5,6,6],"right_children":[2,4,6,8,10,12,14,-1,-1,-1,-1,-1,-1,-1,-1],"split_conditions":[1.0291421E0,-4.798736E-1,3.1473842E0,7.632088E-1,-5.020692E-1,-5.486903E-1,-5.3885937E-1,-4.024088E-5,-0E0,-2.986306E-5,1.0076393E-5,-0E0,7.796777E-5,-0E0,2.90903E-4],"split_indices":[0,2,0,1,0,2,2,0,0,0,0,0,0,0,0],"split_type":[0,0,0,0,0,0,0,0,0,0,0,0,0,0,0],"sum_hessian":[5.63E2,4.91E2,7.2E1,2.07E2,2.84E2,4.6E1,2.6E1,1.87E2,2E1,1.07E2,1.77E2,1E1,3.6E1,6E0,2E1],"tree_param":{"num_deleted":"0","num_feature":"3","num_nodes":"15","size_leaf_vector":"1"}},{"base_weights":[2.0795693E-5,-1.6446949E-4,1.3978285E-3,-2.7415712E-4,-0E0,5.9571245E-4,2.3434199E-4,-3.113641E-5,-0E0,-1.6979224E-5,8.182119E-6,-0E0,7.048288E-5],"categories":[],"categories_nodes":[],"categories_segments":[],"categories_sizes":[],"default_left":[0,0,0,0,0,0,0,0,0,0,0,0,0],"id":24,"left_children":[1,3,5,7,9,11,-1,-1,-1,-1,-1,-1,-1],"loss_changes":[1.5669155E-4,9.339153E-6,2.4262525E-5,1.5270434E-6,2.5493832E-6,1.7729017E-6,0E0,0E0,0E0,0E0,0E0,0E0,0E0],"parents":[2147483647,0,0,1,1,2,2,3,3,4,4,5,5],"right_children":[2,4,6,8,10,12,-1,-1,-1,-1,-1,-1,-1],"split_conditions":[1.0291421E0,1.3451903E-1,3.1473842E0,2.0277289E-1,-5.191974E-1,-5.486903E-1,2.3434199E-4,-3.113641E-5,-0E0,-1.6979224E-5,8.182119E-6,-0E0,7.048288E-5],"split_indices":[0,1,0,0,2,2,0,0,0,0,0,0,0],"split_type":[0,0,0,0,0,0,0,0,0,0,0,0,0],"sum_hessian":[5.63E2,4.91E2,7.2E1,3E2,1.91E2,4.6E1,2.6E1,2.48E2,5.2E1,5.5E1,1.36E2,1E1,3.6E1],"tree_param":{"num_deleted":"0","num_feature":"3","num_nodes":"13","size_leaf_vector":"1"}},{"base_weights":[1.886952E-5,-1.4915392E-4,1.2804101E-3,-2.6078432E-4,-0E0,1.9049183E-5,1.7595538E-3,-2.9427601E-5,-0E0,-1.9102328E-5,1.3216019E-5,7.200888E-5,2.6214976E-4],"categories":[],"categories_nodes":[],"categories_segments":[],"categories_sizes":[],"default_left":[0,0,0,0,0,0,0,0,0,0,0,0,0],"id":25,"left_children":[1,3,5,7,9,-1,11,-1,-1,-1,-1,-1,-1],"loss_changes":[1.3125519E-4,8.8678735E-6,1.8380502E-5,2.9942075E-6,4.9994087E-6,0E0,3.6228012E-6,0E0,0E0,0E0,0E0,0E0,0E0],"parents":[2147483647,0,0,1,1,2,2,3,3,4,4,6,6],"right_children":[2,4,6,8,10,-1,12,-1,-1,-1,-1,-1,-1],"split_conditions":[1.0291421E0,-3.2257828E-1,-4.798736E-1,7.632088E-1,-5.020692E-1,1.9049183E-5,3.1473842E0,-2.9427601E-5,-0E0,-1.9102328E-5,1.3216019E-5,7.200888E-5,2.6214976E-4],"split_indices":[0,2,2,1,0,0,0,0,0,0,0,0,0],"split_type":[0,0,0,0,0,0,0,0,0,0,0,0,0],"sum_hessian":[5.63E2,4.91E2,7.2E1,2.9E2,2.01E2,2.9E1,4.3E1,2.62E2,2.8E1,7.4E1,1.27E2,2.6E1,1.7E1],"tree_param":{"num_deleted":"0","num_feature":"3","num_nodes":"13","size_leaf_vector":"1"}},{"base_weights":[1.9868578E-5,-1.3403677E-4,1.1867881E-3,-3.0748124E-4,-4.534582E-6,2.3562987E-5,1.6707308E-3,-3.335092E-5,-0E0,-3.3085085E-5,4.8039556E-6,6.605002E-5,2.535277E-4],"categories":[],"categories_nodes":[],"categories_segments":[],"categories_sizes":[],"default_left":[0,0,0,0,0,0,0,0,0,0,0,0,0],"id":26,"left_children":[1,3,5,7,9,-1,11,-1,-1,-1,-1,-1,-1],"loss_changes":[1.12147594E-4,7.940009E-6,1.4178375E-5,1.9602994E-6,8.281762E-6,0E0,1.7761195E-6,0E0,0E0,0E0,0E0,0E0,0E0],"parents":[2147483647,0,0,1,1,2,2,3,3,4,4,6,6],"right_children":[2,4,6,8,10,-1,12,-1,-1,-1,-1,-1,-1],"split_conditions":[1.0291421E0,-4.9953553E-1,-4.2088786E-1,9.319198E-1,-8.6200917E-1,2.3562987E-5,3.1473842E0,-3.335092E-5,-0E0,-3.3085085E-5,4.8039556E-6,6.605002E-5,2.535277E-4],"split_indices":[0,2,2,0,1,0,0,0,0,0,0,0,0],"split_type":[0,0,0,0,0,0,0,0,0,0,0,0,0],"sum_hessian":[5.63E2,4.91E2,7.2E1,1.76E2,3.15E2,3.2E1,4E1,1.67E2,9E0,6.9E1,2.46E2,2.5E1,1.5E1],"tree_param":{"num_deleted":"0","num_feature":"3","num_nodes":"13","size_leaf_vector":"1"}},{"base_weights":[2.068788E-5,-1.2049223E-4,1.1023228E-3,-2.7725604E-5,-0E0,2.8697812E-5,1.606908E-4,-2.4902814E-5,6.6245725E-6],"categories":[],"categories_nodes":[],"categories_segments":[],"categories_sizes":[],"default_left":[0,0,0,0,0,0,0,0,0],"id":27,"left_children":[1,3,5,-1,7,-1,-1,-1,-1],"loss_changes":[9.621971E-5,6.878641E-6,1.0608121E-5,0E0,6.7616793E-6,0E0,0E0,0E0,0E0],"parents":[2147483647,0,0,1,1,2,2,4,4],"right_children":[2,4,6,-1,8,-1,-1,-1,-1],"split_conditions":[1.0291421E0,-5.020692E-1,-3.7173307E-1,-2.7725604E-5,-5.191974E-1,2.8697812E-5,1.606908E-4,-2.4902814E-5,6.6245725E-6],"split_indices":[0,0,2,0,2,0,0,0,0],"split_type":[0,0,0,0,0,0,0,0,0],"sum_hessian":[5.63E2,4.91E2,7.2E1,1.81E2,3.1E2,3.6E1,3.6E1,9.2E1,2.18E2],"tree_param":{"num_deleted":"0","num_feature":"3","num_nodes":"9","size_leaf_vector":"1"}},{"base_weights":[1.9000145E-5,-4.9161434E-5,1.7163278E-4,-1.3694499E-4,3.7294425E-4,-2.6746266E-5,-1.5116852E-6,-0E0,4.413335E-5],"categories":[],"categories_nodes":[],"categories_segments":[],"categories_sizes":[],"default_left":[0,0,0,0,0,0,0,0,0],"id":28,"left_children":[1,3,-1,5,7,-1,-1,-1,-1],"loss_changes":[8.2106664E-5,1.767016E-5,0E0,4.585828E-6,1.1714283E-6,0E0,0E0,0E0,0E0],"parents":[2147483647,0,0,1,1,3,3,4,4],"right_children":[2,4,-1,6,8,-1,-1,-1,-1],"split_conditions":[3.1473842E0,9.319198E-1,1.7163278E-4,-4.8970455E-1,-5.486903E-1,-2.6746266E-5,-1.5116852E-6,-0E0,4.413335E-5],"split_indices":[0,0,0,2,2,0,0,0,0],"split_type":[0,0,0,0,0,0,0,0,0],"sum_hessian":[5.63E2,5.37E2,2.6E1,4.65E2,7.2E1,1.84E2,2.81E2,1.5E1,5.7E1],"tree_param":{"num_deleted":"0","num_feature":"3","num_nodes":"9","size_leaf_vector":"1"}},{"base_weights":[1.6109134E-5,-7.751847E-5,1.1218921E-3,-1.6924512E-4,6.7932706E-5,1.521447E-5,1.6315456E-4,-1.9790761E-5,-0E0,-0E0,1.9693585E-5],"categories":[],"categories_nodes":[],"categories_segments":[],"categories_sizes":[],"default_left":[0,0,0,0,0,0,0,0,0,0,0],"id":29,"left_children":[1,3,5,7,9,-1,-1,-1,-1,-1,-1],"loss_changes":[6.901789E-5,7.881358E-6,7.73809E-6,1.7646162E-6,3.3260608E-6,0E0,0E0,0E0,0E0,0E0,0E0],"parents":[2147483647,0,0,1,1,2,2,3,3,4,4],"right_children":[2,4,6,8,10,-1,-1,-1,-1,-1,-1],"split_conditions":[1.5468338E0,2.0277289E-1,-3.9631048E-1,5.523779E-1,-5.0936645E-1,1.521447E-5,1.6315456E-4,-1.9790761E-5,-0E0,-0E0,1.9693585E-5],"split_indices":[0,0,2,1,2,0,0,0,0,0,0],"split_type":[0,0,0,0,0,0,0,0,0,0,0],"sum_hessian":[5.63E2,5.12E2,5.1E1,3.56E2,1.56E2,2.5E1,2.6E1,3.05E2,5.1E1,5.3E1,1.03E2],"tree_param":{"num_deleted":"0","num_feature":"3","num_nodes":"11","size_leaf_vector":"1"}},{"base_weights":[1.5020324E-5,-4.046581E-5,1.4643568E-4,-1.15585164E-4,3.0108358E-5,-1.888408E-5,-0E0],"categories":[],"categories_nodes":[],"categories_segments":[],"categories_sizes":[],"default_left":[0,0,0,0,0,0,0],"id":30,"left_children":[1,3,-1,5,-1,-1,-1],"loss_changes":[5.9723796E-5,1.20134955E-5,0E0,3.6634788E-6,0E0,0E0,0E0],"parents":[2147483647,0,0,1,1,3,3],"right_children":[2,4,-1,6,-1,-1,-1],"split_conditions":[3.1473842E0,9.319198E-1,1.4643568E-4,-3.2257828E-1,3.0108358E-5,-1.888408E-5,-0E0],"split_indices":[0,0,0,2,0,0,0],"split_type":[0,0,0,0,0,0,0],"sum_hessian":[5.63E2,5.37E2,2.6E1,4.65E2,7.2E1,2.76E2,1.89E2],"tree_param":{"num_deleted":"0","num_feature":"3","num_nodes":"7","size_leaf_vector":"1"}},{"base_weights":[1.3668482E-5,-1.0441257E-4,6.675811E-4,-2.8837801E-5,-2.431094E-5,2.7158958E-5,1.3259086E-3,-2.2240709E-5,1.3147168E-6,-0E0,1.6967134E-4],"categories":[],"categories_nodes":[],"categories_segments":[],"categories_sizes":[],"default_left":[0,0,0,0,0,0,0,0,0,0,0],"id":31,"left_children":[1,3,5,-1,7,-1,9,-1,-1,-1,-1],"loss_changes":[4.9323928E-5,3.7369064E-6,9.423729E-6,0E0,4.8016864E-6,0E0,2.0337138E-6,0E0,0E0,0E0,0E0],"parents":[2147483647,0,0,1,1,2,2,4,4,6,6],"right_children":[2,4,6,-1,8,-1,10,-1,-1,-1,-1],"split_conditions":[9.319198E-1,-8.6200917E-1,3.1473842E0,-2.8837801E-5,-5.290284E-1,2.7158958E-5,-4.4546524E-1,-2.2240709E-5,1.3147168E-6,-0E0,1.6967134E-4],"split_indices":[0,1,0,0,2,0,2,0,0,0,0],"split_type":[0,0,0,0,0,0,0,0,0,0,0],"sum_hessian":[5.63E2,4.65E2,9.8E1,1.02E2,3.63E2,7.2E1,2.6E1,9.9E1,2.64E2,1E1,1.6E1],"tree_param":{"num_deleted":"0","num_feature":"3","num_nodes":"11","size_leaf_vector":"1"}},{"base_weights":[1.3891677E-5,-7.3654504E-5,7.3628157E-4,-2.3618544E-5,-0E0,6.962307E-6,1.1068222E-4,-1.8198003E-5,4.344945E-6],"categories":[],"categories_nodes":[],"categories_segments":[],"categories_sizes":[],"default_left":[0,0,0,0,0,0,0,0,0],"id":32,"left_children":[1,3,5,-1,7,-1,-1,-1,-1],"loss_changes":[4.2407995E-5,4.3848154E-6,6.276223E-6,0E0,3.803891E-6,0E0,0E0,0E0,0E0],"parents":[2147483647,0,0,1,1,2,2,4,4],"right_children":[2,4,6,-1,8,-1,-1,-1,-1],"split_conditions":[1.0291421E0,-5.433875E-1,-3.7173307E-1,-2.3618544E-5,-5.290284E-1,6.962307E-6,1.1068222E-4,-1.8198003E-5,4.344945E-6],"split_indices":[0,0,2,0,2,0,0,0,0],"split_type":[0,0,0,0,0,0,0,0,0],"sum_hessian":[5.63E2,4.91E2,7.2E1,1.25E2,3.66E2,3.6E1,3.6E1,9.8E1,2.68E2],"tree_param":{"num_deleted":"0","num_feature":"3","num_nodes":"9","size_leaf_vector":"1"}},{"base_weights":[1.27155745E-5,-2.7930195E-5,1.17157644E-4,-9.803324E-5,1.715082E-4,-1.50254E-5,-0E0,-0E0,2.4174078E-5],"categories":[],"categories_nodes":[],"categories_segments":[],"categories_sizes":[],"default_left":[0,0,0,0,0,0,0,0,0],"id":33,"left_children":[1,3,-1,5,7,-1,-1,-1,-1],"loss_changes":[3.807507E-5,6.8193676E-6,0E0,1.9344657E-6,1.3676554E-6,0E0,0E0,0E0,0E0],"parents":[2147483647,0,0,1,1,3,3,4,4],"right_children":[2,4,-1,6,8,-1,-1,-1,-1],"split_conditions":[3.1473842E0,4.190865E-1,1.17157644E-4,-2.734235E-1,-5.290284E-1,-1.50254E-5,-0E0,-0E0,2.4174078E-5],"split_indices":[0,0,0,2,2,0,0,0,0],"split_type":[0,0,0,0,0,0,0,0,0],"sum_hessian":[5.63E2,5.37E2,2.6E1,4.35E2,1.02E2,2.7E2,1.65E2,2.8E1,7.4E1],"tree_param":{"num_deleted":"0","num_feature":"3","num_nodes":"9","size_leaf_vector":"1"}},{"base_weights":[1.1337109E-5,-4.5799865E-5,7.603434E-4,-2.2782637E-5,-0E0,-0E0,1.1203067E-4,-1.345644E-5,5.9630693E-6],"categories":[],"categories_nodes":[],"categories_segments":[],"categories_sizes":[],"default_left":[0,0,0,0,0,0,0,0,0],"id":34,"left_children":[1,3,5,-1,7,-1,-1,-1,-1],"loss_changes":[3.1355987E-5,4.2950196E-6,4.163481E-6,0E0,3.309351E-6,0E0,0E0,0E0,0E0],"parents":[2147483647,0,0,1,1,2,2,4,4],"right_children":[2,4,6,-1,8,-1,-1,-1,-1],"split_conditions":[1.5468338E0,-8.6200917E-1,-3.9631048E-1,-2.2782637E-5,-5.191974E-1,-0E0,1.1203067E-4,-1.345644E-5,5.9630693E-6],"split_indices":[0,1,2,0,2,0,0,0,0],"split_type":[0,0,0,0,0,0,0,0,0],"sum_hessian":[5.63E2,5.12E2,5.1E1,1.02E2,4.1E2,2.5E1,2.6E1,1.25E2,2.85E2],"tree_param":{"num_deleted":"0","num_feature":"3","num_nodes":"9","size_leaf_vector":"1"}},{"base_weights":[1.0262912E-5,-7.400519E-5,5.056968E-4,-1.5431231E-5,-0E0,1.7296643E-5,1.0037746E-4,-1.5787418E-5,2.1150088E-6],"categories":[],"categories_nodes":[],"categories_segments":[],"categories_sizes":[],"default_left":[0,0,0,0,0,0,0,0,0],"id":35,"left_children":[1,3,5,-1,7,-1,-1,-1,-1],"loss_changes":[2.7940518E-5,1.862267E-6,4.461859E-6,0E0,1.7547565E-6,0E0,0E0,0E0,0E0],"parents":[2147483647,0,0,1,1,2,2,4,4],"right_children":[2,4,6,-1,8,-1,-1,-1,-1],"split_conditions":[9.319198E-1,-4.8970455E-1,3.1473842E0,-1.5431231E-5,-8.6200917E-1,1.7296643E-5,1.0037746E-4,-1.5787418E-5,2.1150088E-6],"split_indices":[0,2,0,0,1,0,0,0,0],"split_type":[0,0,0,0,0,0,0,0,0],"sum_hessian":[5.63E2,4.65E2,9.8E1,1.84E2,2.81E2,7.2E1,2.6E1,6.5E1,2.16E2],"tree_param":{"num_deleted":"0","num_feature":"3","num_nodes":"9","size_leaf_vector":"1"}},{"base_weights":[9.471968E-6,-6.6698245E-5,4.6695131E-4,-1.8994258E-5,-3.993619E-6,4.5398633E-6,7.7818935E-5,-1.51556005E-5,7.052367E-7],"categories":[],"categories_nodes":[],"categories_segments":[],"categories_sizes":[],"default_left":[0,0,0,0,0,0,0,0,0],"id":36,"left_children":[1,3,5,-1,7,-1,-1,-1,-1],"loss_changes":[2.3719984E-5,1.6646079E-6,4.765847E-6,0E0,2.0407642E-6,0E0,0E0,0E0,0E0],"parents":[2147483647,0,0,1,1,2,2,4,4],"right_children":[2,4,6,-1,8,-1,-1,-1,-1],"split_conditions":[9.319198E-1,-8.6200917E-1,-2.2426872E-1,-1.8994258E-5,-5.3885937E-1,4.5398633E-6,7.7818935E-5,-1.51556005E-5,7.052367E-7],"split_indices":[0,1,2,0,2,0,0,0,0],"split_type":[0,0,0,0,0,0,0,0,0],"sum_hessian":[5.63E2,4.65E2,9.8E1,1.02E2,3.63E2,5.6E1,4.2E1,8.7E1,2.76E2],"tree_param":{"num_deleted":"0","num_feature":"3","num_nodes":"9","size_leaf_vector":"1"}},{"base_weights":[8.65477E-6,-1.6919174E-5,8.726033E-4,-8.848618E-6,6.861827E-5,-0E0,1.2442206E-4,-0E0,1.5790914E-5],"categories":[],"categories_nodes":[],"categories_segments":[],"categories_sizes":[],"default_left":[0,0,0,0,0,0,0,0,0],"id":37,"left_children":[1,3,5,-1,7,-1,-1,-1,-1],"loss_changes":[2.1051372E-5,3.5042997E-6,1.5077203E-6,0E0,2.1454082E-6,0E0,0E0,0E0,0E0],"parents":[2147483647,0,0,1,1,2,2,4,4],"right_children":[2,4,6,-1,8,-1,-1,-1,-1],"split_conditions":[3.1473842E0,2.0277289E-1,-3.7173307E-1,-8.848618E-6,-5.0936645E-1,-0E0,1.2442206E-4,-0E0,1.5790914E-5],"split_indices":[0,0,2,0,2,0,0,0,0],"split_type":[0,0,0,0,0,0,0,0,0],"sum_hessian":[5.63E2,5.37E2,2.6E1,3.56E2,1.81E2,1.3E1,1.3E1,6.2E1,1.19E2],"tree_param":{"num_deleted":"0","num_feature":"3","num_nodes":"9","size_leaf_vector":"1"}},{"base_weights":[8.040981E-6,-1.4558887E-5,8.137852E-5,-9.534952E-6,4.573552E-5,-0E0,1.0387988E-5],"categories":[],"categories_nodes":[],"categories_segments":[],"categories_sizes":[],"default_left":[0,0,0,0,0,0,0],"id":38,"left_children":[1,3,-1,-1,5,-1,-1],"loss_changes":[1.828942E-5,3.1258353E-6,0E0,0E0,1.4057372E-6,0E0,0E0],"parents":[2147483647,0,0,1,1,4,4],"right_children":[2,4,-1,-1,6,-1,-1],"split_conditions":[3.1473842E0,1.3451903E-1,8.137852E-5,-9.534952E-6,-5.290284E-1,-0E0,1.0387988E-5],"split_indices":[0,1,0,0,2,0,0],"split_type":[0,0,0,0,0,0,0],"sum_hessian":[5.63E2,5.37E2,2.6E1,3E2,2.37E2,6.2E1,1.75E2],"tree_param":{"num_deleted":"0","num_feature":"3","num_nodes":"7","size_leaf_vector":"1"}},{"base_weights":[6.1397122E-6,-5.2427615E-5,3.811392E-4,-9.944391E-6,-0E0,-0E0,6.1567735E-5],"categories":[],"categories_nodes":[],"categories_segments":[],"categories_sizes":[],"default_left":[0,0,0,0,0,0,0],"id":39,"left_children":[1,3,5,-1,-1,-1,-1],"loss_changes":[1.5715043E-5,1.3235278E-6,2.79309E-6,0E0,0E0,0E0,0E0],"parents":[2147483647,0,0,1,1,2,2],"right_children":[2,4,6,-1,-1,-1,-1],"split_conditions":[9.319198E-1,-3.7173307E-1,-2.734235E-1,-9.944391E-6,-0E0,-0E0,6.1567735E-5],"split_indices":[0,2,2,0,0,0,0],"split_type":[0,0,0,0,0,0,0],"sum_hessian":[5.63E2,4.65E2,9.8E1,2.62E2,2.03E2,5.4E1,4.4E1],"tree_param":{"num_deleted":"0","num_feature":"3","num_nodes":"7","size_leaf_vector":"1"}},{"base_weights":[5.956276E-6,-1.14431E-5,7.0997914E-5,-1.4791811E-5,-0E0,-7.86313E-6,5.86535E-6],"categories":[],"categories_nodes":[],"categories_segments":[],"categories_sizes":[],"default_left":[0,0,0,0,0,0,0],"id":40,"left_children":[1,3,-1,-1,5,-1,-1],"loss_changes":[1.3912423E-5,2.1940423E-6,0E0,0E0,1.8373112E-6,0E0,0E0],"parents":[2147483647,0,0,1,1,4,4],"right_children":[2,4,-1,-1,6,-1,-1],"split_conditions":[3.1473842E0,-8.6200917E-1,7.0997914E-5,-1.4791811E-5,-5.290284E-1,-7.86313E-6,5.86535E-6],"split_indices":[0,1,0,0,2,0,0],"split_type":[0,0,0,0,0,0,0],"sum_hessian":[5.63E2,5.37E2,2.6E1,1.02E2,4.35E2,1.19E2,3.16E2],"tree_param":{"num_deleted":"0","num_feature":"3","num_nodes":"7","size_leaf_vector":"1"}},{"base_weights":[3.7332095E-6,-4.5258876E-5,3.33876E-4,-1.1318249E-5,-0E0,-0E0,5.0807455E-5],"categories":[],"categories_nodes":[],"categories_segments":[],"categories_sizes":[],"default_left":[0,0,0,0,0,0,0],"id":41,"left_children":[1,3,5,-1,-1,-1,-1],"loss_changes":[1.2039278E-5,1.0108146E-6,1.9444724E-6,0E0,0E0,0E0,0E0],"parents":[2147483647,0,0,1,1,2,2],"right_children":[2,4,6,-1,-1,-1,-1],"split_conditions":[9.319198E-1,-5.0936645E-1,-3.7173307E-1,-1.1318249E-5,-0E0,-0E0,5.0807455E-5],"split_indices":[0,2,2,0,0,0,0],"split_type":[0,0,0,0,0,0,0],"sum_hessian":[5.63E2,4.65E2,9.8E1,1.52E2,3.13E2,4.9E1,4.9E1],"tree_param":{"num_deleted":"0","num_feature":"3","num_nodes":"7","size_leaf_vector":"1"}},{"base_weights":[2.3706225E-6,-2.332273E-5,4.4408452E-4,-1.0666585E-5,-0E0,-0E0,6.2063096E-5],"categories":[],"categories_nodes":[],"categories_segments":[],"categories_sizes":[],"default_left":[0,0,0,0,0,0,0],"id":42,"left_children":[1,3,5,-1,-1,-1,-1],"loss_changes":[1.0629727E-5,1.5012766E-6,1.0093117E-6,0E0,0E0,0E0,0E0],"parents":[2147483647,0,0,1,1,2,2],"right_children":[2,4,6,-1,-1,-1,-1],"split_conditions":[1.5468338E0,-5.1423377E-1,-4.2088786E-1,-1.0666585E-5,-0E0,-0E0,6.2063096E-5],"split_indices":[0,0,2,0,0,0,0],"split_type":[0,0,0,0,0,0,0],"sum_hessian":[5.63E2,5.12E2,5.1E1,1.55E2,3.57E2,2.3E1,2.8E1],"tree_param":{"num_deleted":"0","num_feature":"3","num_nodes":"7","size_leaf_vector":"1"}},{"base_weights":[2.2210193E-6,-8.975407E-6,5.8498263E-5,-6.8368363E-6,2.4233984E-6],"categories":[],"categories_nodes":[],"categories_segments":[],"categories_sizes":[],"default_left":[0,0,0,0,0],"id":43,"left_children":[1,3,-1,-1,-1],"loss_changes":[9.451223E-6,1.5059685E-6,0E0,0E0,0E0],"parents":[2147483647,0,0,1,1],"right_children":[2,4,-1,-1,-1],"split_conditions":[3.1473842E0,1.3451903E-1,5.8498263E-5,-6.8368363E-6,2.4233984E-6],"split_indices":[0,1,0,0,0],"split_type":[0,0,0,0,0],"sum_hessian":[5.63E2,5.37E2,2.6E1,3E2,2.37E2],"tree_param":{"num_deleted":"0","num_feature":"3","num_nodes":"5","size_leaf_vector":"1"}},{"base_weights":[2.1426677E-6,-3.4487377E-6,2.7435072E-4,-0E0,4.3565167E-5],"categories":[],"categories_nodes":[],"categories_segments":[],"categories_sizes":[],"default_left":[0,0,0,0,0],"id":44,"left_children":[1,-1,3,-1,-1],"loss_changes":[8.04145E-6,0E0,1.1463558E-6,0E0,0E0],"parents":[2147483647,0,0,2,2],"right_children":[2,-1,4,-1,-1],"split_conditions":[9.319198E-1,-3.4487377E-6,-2.734235E-1,-0E0,4.3565167E-5],"split_indices":[0,0,2,0,0],"split_type":[0,0,0,0,0],"sum_hessian":[5.63E2,4.65E2,9.8E1,5.4E1,4.4E1],"tree_param":{"num_deleted":"0","num_feature":"3","num_nodes":"5","size_leaf_vector":"1"}},{"base_weights":[1.5877848E-6,-5.843971E-6,5.1066483E-4,-1.0952086E-5,-0E0,-0E0,7.8599114E-5,-7.4373493E-6,4.327159E-6],"categories":[],"categories_nodes":[],"categories_segments":[],"categories_sizes":[],"default_left":[0,0,0,0,0,0,0,0,0],"id":45,"left_children":[1,3,5,-1,7,-1,-1,-1,-1],"loss_changes":[7.188378E-6,1.2230728E-6,1.1686479E-6,0E0,1.1549216E-6,0E0,0E0,0E0,0E0],"parents":[2147483647,0,0,1,1,2,2,4,4],"right_children":[2,4,6,-1,8,-1,-1,-1,-1],"split_conditions":[3.1473842E0,-8.6200917E-1,-3.2257828E-1,-1.0952086E-5,-5.486903E-1,-0E0,7.8599114E-5,-7.4373493E-6,4.327159E-6],"split_indices":[0,1,2,0,2,0,0,0,0],"split_type":[0,0,0,0,0,0,0,0,0],"sum_hessian":[5.63E2,5.37E2,2.6E1,1.02E2,4.35E2,1.4E1,1.2E1,9E1,3.45E2],"tree_param":{"num_deleted":"0","num_feature":"3","num_nodes":"9","size_leaf_vector":"1"}},{"base_weights":[4.3704978E-7,-3.0130818E-6,2.4424866E-5],"categories":[],"categories_nodes":[],"categories_segments":[],"categories_sizes":[],"default_left":[0,0,0],"id":46,"left_children":[1,-1,-1],"loss_changes":[6.359323E-6,0E0,0E0],"parents":[2147483647,0,0],"right_children":[2,-1,-1],"split_conditions":[9.319198E-1,-3.0130818E-6,2.4424866E-5],"split_indices":[0,0,0],"split_type":[0,0,0],"sum_hessian":[5.63E2,4.65E2,9.8E1],"tree_param":{"num_deleted":"0","num_feature":"3","num_nodes":"3","size_leaf_vector":"1"}},{"base_weights":[-0E0,-5.962649E-7,4.5327408E-5],"categories":[],"categories_nodes":[],"categories_segments":[],"categories_sizes":[],"default_left":[0,0,0],"id":47,"left_children":[1,-1,-1],"loss_changes":[5.669224E-6,0E0,0E0],"parents":[2147483647,0,0],"right_children":[2,-1,-1],"split_conditions":[3.1473842E0,-5.962649E-7,4.5327408E-5],"split_indices":[0,0,0],"split_type":[0,0,0],"sum_hessian":[5.63E2,5.37E2,2.6E1],"tree_param":{"num_deleted":"0","num_feature":"3","num_nodes":"3","size_leaf_vector":"1"}},{"base_weights":[-0E0,-3.3336298E-6,1.85653E-5],"categories":[],"categories_nodes":[],"categories_segments":[],"categories_sizes":[],"default_left":[0,0,0],"id":48,"left_children":[1,-1,-1],"loss_changes":[4.781789E-6,0E0,0E0],"parents":[2147483647,0,0],"right_children":[2,-1,-1],"split_conditions":[7.632088E-1,-3.3336298E-6,1.85653E-5],"split_indices":[1,0,0],"split_type":[0,0,0],"sum_hessian":[5.63E2,4.4E2,1.23E2],"tree_param":{"num_deleted":"0","num_feature":"3","num_nodes":"3","size_leaf_vector":"1"}},{"base_weights":[-0E0,-5.9883354E-7,3.9286667E-4,-0E0,6.376203E-5],"categories":[],"categories_nodes":[],"categories_segments":[],"categories_sizes":[],"default_left":[0,0,0,0,0],"id":49,"left_children":[1,-1,3,-1,-1],"loss_changes":[4.263777E-6,0E0,1.2440887E-6,0E0,0E0],"parents":[2147483647,0,0,2,2],"right_children":[2,-1,4,-1,-1],"split_conditions":[3.1473842E0,-5.9883354E-7,-3.2257828E-1,-0E0,6.376203E-5],"split_indices":[0,0,2,0,0],"split_type":[0,0,0,0,0],"sum_hessian":[5.63E2,5.37E2,2.6E1,1.4E1,1.2E1],"tree_param":{"num_deleted":"0","num_feature":"3","num_nodes":"5","size_leaf_vector":"1"}},{"base_weights":[-0E0,-1.318504E-6,2.6487744E-5],"categories":[],"categories_nodes":[],"categories_segments":[],"categories_sizes":[],"default_left":[0,0,0],"id":50,"left_children":[1,-1,-1],"loss_changes":[3.7726727E-6,0E0,0E0],"parents":[2147483647,0,0],"right_children":[2,-1,-1],"split_conditions":[1.5468338E0,-1.318504E-6,2.6487744E-5],"split_indices":[0,0,0],"split_type":[0,0,0],"sum_hessian":[5.63E2,5.12E2,5.1E1],"tree_param":{"num_deleted":"0","num_feature":"3","num_nodes":"3","size_leaf_vector":"1"}},{"base_weights":[-0E0,-2.810313E-6,1.51544655E-5],"categories":[],"categories_nodes":[],"categories_segments":[],"categories_sizes":[],"default_left":[0,0,0],"id":51,"left_children":[1,-1,-1],"loss_changes":[3.2079304E-6,0E0,0E0],"parents":[2147483647,0,0],"right_children":[2,-1,-1],"split_conditions":[7.632088E-1,-2.810313E-6,1.51544655E-5],"split_indices":[1,0,0],"split_type":[0,0,0],"sum_hessian":[5.63E2,4.4E2,1.23E2],"tree_param":{"num_deleted":"0","num_feature":"3","num_nodes":"3","size_leaf_vector":"1"}},{"base_weights":[-0E0,-5.8007674E-7,3.256733E-4,-0E0,5.4392844E-5],"categories":[],"categories_nodes":[],"categories_segments":[],"categories_sizes":[],"default_left":[0,0,0,0,0],"id":52,"left_children":[1,-1,3,-1,-1],"loss_changes":[2.9348546E-6,0E0,1.0773495E-6,0E0,0E0],"parents":[2147483647,0,0,2,2],"right_children":[2,-1,4,-1,-1],"split_conditions":[3.1473842E0,-5.8007674E-7,-3.2257828E-1,-0E0,5.4392844E-5],"split_indices":[0,0,2,0,0],"split_type":[0,0,0,0,0],"sum_hessian":[5.63E2,5.37E2,2.6E1,1.4E1,1.2E1],"tree_param":{"num_deleted":"0","num_feature":"3","num_nodes":"5","size_leaf_vector":"1"}},{"base_weights":[-0E0,-2.6337073E-6,1.311754E-4,-0E0,2.4288684E-5],"categories":[],"categories_nodes":[],"categories_segments":[],"categories_sizes":[],"default_left":[0,0,0,0,0],"id":53,"left_children":[1,-1,3,-1,-1],"loss_changes":[2.5310792E-6,0E0,1.3408328E-6,0E0,0E0],"parents":[2147483647,0,0,2,2],"right_children":[2,-1,4,-1,-1],"split_conditions":[4.190865E-1,-2.6337073E-6,-3.2257828E-1,-0E0,2.4288684E-5],"split_indices":[0,0,2,0,0],"split_type":[0,0,0,0,0],"sum_hessian":[5.63E2,4.35E2,1.28E2,6.9E1,5.9E1],"tree_param":{"num_deleted":"0","num_feature":"3","num_nodes":"5","size_leaf_vector":"1"}},{"base_weights":[-0E0,-5.2147084E-7,2.9133938E-5],"categories":[],"categories_nodes":[],"categories_segments":[],"categories_sizes":[],"default_left":[0,0,0],"id":54,"left_children":[1,-1,-1],"loss_changes":[2.348806E-6,0E0,0E0],"parents":[2147483647,0,0],"right_children":[2,-1,-1],"split_conditions":[3.1473842E0,-5.2147084E-7,2.9133938E-5],"split_indices":[0,0,0],"split_type":[0,0,0],"sum_hessian":[5.63E2,5.37E2,2.6E1],"tree_param":{"num_deleted":"0","num_feature":"3","num_nodes":"3","size_leaf_vector":"1"}},{"base_weights":[-0E0,-3.7037485E-6,8.617354E-5,-0E0,2.1175232E-5],"categories":[],"categories_nodes":[],"categories_segments":[],"categories_sizes":[],"default_left":[0,0,0,0,0],"id":55,"left_children":[1,-1,3,-1,-1],"loss_changes":[2.0387056E-6,0E0,2.6441546E-6,0E0,0E0],"parents":[2147483647,0,0,2,2],"right_children":[2,-1,4,-1,-1],"split_conditions":[2.0277289E-1,-3.7037485E-6,-3.2257828E-1,-0E0,2.1175232E-5],"split_indices":[0,0,2,0,0],"split_type":[0,0,0,0,0],"sum_hessian":[5.63E2,3.56E2,2.07E2,1.15E2,9.2E1],"tree_param":{"num_deleted":"0","num_feature":"3","num_nodes":"5","size_leaf_vector":"1"}},{"base_weights":[-0E0,-5.391972E-7,2.5455505E-5],"categories":[],"categories_nodes":[],"categories_segments":[],"categories_sizes":[],"default_left":[0,0,0],"id":56,"left_children":[1,-1,-1],"loss_changes":[1.7976085E-6,0E0,0E0],"parents":[2147483647,0,0],"right_children":[2,-1,-1],"split_conditions":[3.1473842E0,-5.391972E-7,2.5455505E-5],"split_indices":[0,0,0],"split_type":[0,0,0],"sum_hessian":[5.63E2,5.37E2,2.6E1],"tree_param":{"num_deleted":"0","num_feature":"3","num_nodes":"3","size_leaf_vector":"1"}},{"base_weights":[-0E0,-2.1263104E-6,1.0531793E-5],"categories":[],"categories_nodes":[],"categories_segments":[],"categories_sizes":[],"default_left":[0,0,0],"id":57,"left_children":[1,-1,-1],"loss_changes":[1.5805482E-6,0E0,0E0],"parents":[2147483647,0,0],"right_children":[2,-1,-1],"split_conditions":[7.632088E-1,-2.1263104E-6,1.0531793E-5],"split_indices":[1,0,0],"split_type":[0,0,0],"sum_hessian":[5.63E2,4.4E2,1.23E2],"tree_param":{"num_deleted":"0","num_feature":"3","num_nodes":"3","size_leaf_vector":"1"}},{"base_weights":[-0E0,-3.3969027E-6,6.8022244E-5,-0E0,1.7442075E-5],"categories":[],"categories_nodes":[],"categories_segments":[],"categories_sizes":[],"default_left":[0,0,0,0,0],"id":58,"left_children":[1,-1,3,-1,-1],"loss_changes":[1.4224031E-6,0E0,2.8235718E-6,0E0,0E0],"parents":[2147483647,0,0,2,2],"right_children":[2,-1,4,-1,-1],"split_conditions":[-2.734235E-1,-3.3969027E-6,-6.944198E-2,-0E0,1.7442075E-5],"split_indices":[2,0,0,0,0],"split_type":[0,0,0,0,0],"sum_hessian":[5.63E2,3.43E2,2.2E2,9.5E1,1.25E2],"tree_param":{"num_deleted":"0","num_feature":"3","num_nodes":"5","size_leaf_vector":"1"}},{"base_weights":[-0E0,-6.598664E-7,2.1465028E-5],"categories":[],"categories_nodes":[],"categories_segments":[],"categories_sizes":[],"default_left":[0,0,0],"id":59,"left_children":[1,-1,-1],"loss_changes":[1.290503E-6,0E0,0E0],"parents":[2147483647,0,0],"right_children":[2,-1,-1],"split_conditions":[3.1473842E0,-6.598664E-7,2.1465028E-5],"split_indices":[0,0,0],"split_type":[0,0,0],"sum_hessian":[5.63E2,5.37E2,2.6E1],"tree_param":{"num_deleted":"0","num_feature":"3","num_nodes":"3","size_leaf_vector":"1"}},{"base_weights":[-0E0,-3.0716444E-6,6.2958716E-5,-0E0,1.6114784E-5],"categories":[],"categories_nodes":[],"categories_segments":[],"categories_sizes":[],"default_left":[0,0,0,0,0],"id":60,"left_children":[1,-1,3,-1,-1],"loss_changes":[1.1637535E-6,0E0,1.7574262E-6,0E0,0E0],"parents":[2147483647,0,0,2,2],"right_children":[2,-1,4,-1,-1],"split_conditions":[2.0277289E-1,-3.0716444E-6,-3.7173307E-1,-0E0,1.6114784E-5],"split_indices":[0,0,2,0,0],"split_type":[0,0,0,0,0],"sum_hessian":[5.63E2,3.56E2,2.07E2,1.09E2,9.8E1],"tree_param":{"num_deleted":"0","num_feature":"3","num_nodes":"5","size_leaf_vector":"1"}},{"base_weights":[-0E0],"categories":[],"categories_nodes":[],"categories_segments":[],"categories_sizes":[],"default_left":[0],"id":61,"left_children":[-1],"loss_changes":[0E0],"parents":[2147483647],"right_children":[-1],"split_conditions":[-0E0],"split_indices":[0],"split_type":[0],"sum_hessian":[5.63E2],"tree_param":{"num_deleted":"0","num_feature":"3","num_nodes":"1","size_leaf_vector":"1"}},{"base_weights":[-0E0],"categories":[],"categories_nodes":[],"categories_segments":[],"categories_sizes":[],"default_left":[0],"id":62,"left_children":[-1],"loss_changes":[0E0],"parents":[2147483647],"right_children":[-1],"split_conditions":[-0E0],"split_indices":[0],"split_type":[0],"sum_hessian":[5.63E2],"tree_param":{"num_deleted":"0","num_feature":"3","num_nodes":"1","size_leaf_vector":"1"}},{"base_weights":[-0E0],"categories":[],"categories_nodes":[],"categories_segments":[],"categories_sizes":[],"default_left":[0],"id":63,"left_children":[-1],"loss_changes":[0E0],"parents":[2147483647],"right_children":[-1],"split_conditions":[-0E0],"split_indices":[0],"split_type":[0],"sum_hessian":[5.63E2],"tree_param":{"num_deleted":"0","num_feature":"3","num_nodes":"1","size_leaf_vector":"1"}},{"base_weights":[-0E0],"categories":[],"categories_nodes":[],"categories_segments":[],"categories_sizes":[],"default_left":[0],"id":64,"left_children":[-1],"loss_changes":[0E0],"parents":[2147483647],"right_children":[-1],"split_conditions":[-0E0],"split_indices":[0],"split_type":[0],"sum_hessian":[5.63E2],"tree_param":{"num_deleted":"0","num_feature":"3","num_nodes":"1","size_leaf_vector":"1"}},{"base_weights":[-0E0],"categories":[],"categories_nodes":[],"categories_segments":[],"categories_sizes":[],"default_left":[0],"id":65,"left_children":[-1],"loss_changes":[0E0],"parents":[2147483647],"right_children":[-1],"split_conditions":[-0E0],"split_indices":[0],"split_type":[0],"sum_hessian":[5.63E2],"tree_param":{"num_deleted":"0","num_feature":"3","num_nodes":"1","size_leaf_vector":"1"}},{"base_weights":[-0E0],"categories":[],"categories_nodes":[],"categories_segments":[],"categories_sizes":[],"default_left":[0],"id":66,"left_children":[-1],"loss_changes":[0E0],"parents":[2147483647],"right_children":[-1],"split_conditions":[-0E0],"split_indices":[0],"split_type":[0],"sum_hessian":[5.63E2],"tree_param":{"num_deleted":"0","num_feature":"3","num_nodes":"1","size_leaf_vector":"1"}},{"base_weights":[-0E0],"categories":[],"categories_nodes":[],"categories_segments":[],"categories_sizes":[],"default_left":[0],"id":67,"left_children":[-1],"loss_changes":[0E0],"parents":[2147483647],"right_children":[-1],"split_conditions":[-0E0],"split_indices":[0],"split_type":[0],"sum_hessian":[5.63E2],"tree_param":{"num_deleted":"0","num_feature":"3","num_nodes":"1","size_leaf_vector":"1"}},{"base_weights":[-0E0],"categories":[],"categories_nodes":[],"categories_segments":[],"categories_sizes":[],"default_left":[0],"id":68,"left_children":[-1],"loss_changes":[0E0],"parents":[2147483647],"right_children":[-1],"split_conditions":[-0E0],"split_indices":[0],"split_type":[0],"sum_hessian":[5.63E2],"tree_param":{"num_deleted":"0","num_feature":"3","num_nodes":"1","size_leaf_vector":"1"}},{"base_weights":[-0E0],"categories":[],"categories_nodes":[],"categories_segments":[],"categories_sizes":[],"default_left":[0],"id":69,"left_children":[-1],"loss_changes":[0E0],"parents":[2147483647],"right_children":[-1],"split_conditions":[-0E0],"split_indices":[0],"split_type":[0],"sum_hessian":[5.63E2],"tree_param":{"num_deleted":"0","num_feature":"3","num_nodes":"1","size_leaf_vector":"1"}},{"base_weights":[-0E0],"categories":[],"categories_nodes":[],"categories_segments":[],"categories_sizes":[],"default_left":[0],"id":70,"left_children":[-1],"loss_changes":[0E0],"parents":[2147483647],"right_children":[-1],"split_conditions":[-0E0],"split_indices":[0],"split_type":[0],"sum_hessian":[5.63E2],"tree_param":{"num_deleted":"0","num_feature":"3","num_nodes":"1","size_leaf_vector":"1"}}]},"name":"gbtree"},"learner_model_param":{"base_score":"3.757599E-3","boost_from_average":"1","num_class":"0","num_feature":"3","num_target":"1"},"objective":{"name":"reg:squarederror","reg_loss_param":{"scale_pos_weight":"1"}}},"version":[2,1,3]}